tree
version=v3
num_class=1
num_tree_per_iteration=1
label_index=0
max_feature_idx=26
objective=regression
feature_names=age hhweight female east married child in_couple hours motherpid education employment_status migback hh_income hh_youngest_age n_people n_children hh_frac_working birth year retired hours_t1 gross_earnings_t1 retired_t1 hours_t2 gross_earnings_t2 employment_status_t1 employment_status_t2
feature_infos=[-1.8456203114983982:2.6087602069660156] [-0.94622614462414534:10.266734882877399] [-1.0430308856553052:0.95874438020282593] [-0.51450767817045628:1.943605591185561] [-1.0776617471812444:0.92793495047552887] [-0.46228046694157676:2.1631889545667953] [-1.3264665915029648:0.75388253756692181] [-0.85667973377819151:2.9744217459017777] none [-0.78058573437377254:3.1182720670468789] [-1.1578934897233355:1.220826479582684] none [-0.97872531702511212:37.90960028851228] [-1.6491948898924544:2.8288720954269682] [-1.224438011256854:9.3502682593555946] [-0.43826722313040395:10.134020683285245] [-1.459739052871539:3.5098840159611329] [-0.040689192496065438:24.57655064294277] [-2.2839325796408096:1.4419692101931805] [-0.51432896856669608:1.944280919635434] [-0.85398745505184304:2.9713140594860854] [-0.60765109859522692:35.904961600527351] [-0.49732995142048947:2.0107375337917386] [-0.85126909268771711:2.9597556328271257] [-0.60545952254720592:53.769081835786849] [-1.138660367260766:1.22047873855918] [-1.1196778320026197:1.2201565951609112]
tree_sizes=3544 3564 3542 3529 3537 3521 3538 3525 3560 3520 3531 3484 3508 3513 3488 3516 3526 3533 3505 3467 3544 3487 3514 3496 3437 3507 3515 3476 3433 3419 3497 3515 3577 3509 3478 3554 3456 3496 3596 3588 3429 3427 3560 3614

Tree=0
num_leaves=31
num_cat=0
split_feature=10 21 12 21 7 21 21 12 21 24 12 21 21 21 24 12 7 12 12 24 2 21 12 12 21 12 24 12 24 12
split_gain=1.94605e+15 6.25577e+14 2.37694e+14 1.52351e+14 1.50362e+14 8.44622e+13 4.24488e+13 2.74335e+13 2.22668e+13 1.98104e+13 1.9655e+13 1.70323e+13 1.2521e+13 9.93636e+12 9.00289e+12 7.66381e+12 7.12937e+12 7.12867e+12 7.07351e+12 6.48824e+12 6.11917e+12 5.87351e+12 5.72386e+12 5.07945e+12 4.89725e+12 4.78959e+12 4.58454e+12 4.19832e+12 4.26218e+12 4.00082e+12
threshold=0.82437315136501421 1.5833865296036598 4.9380391109563417 0.65652789954900947 -0.22694242348876772 3.0568108851390217 0.31162414266806687 1.6226093573834117 1.0581666392393578 0.36065441219180489 0.644307278711443 5.0099547982905479 4.4499074927363145 2.0872605848515513 2.1625678983508076 0.092989886550149656 -0.84470754165419148 -0.53194555500953578 0.98327749727470704 -0.091986255531336533 1.0000000180025095e-35 6.696837504990012 2.8011525304190079 -0.14553259350064132 2.7630247860368509 0.2261567581285748 0.8934441917792989 -0.32745097334733508 1.1246657303232221 2.0803500289760821
decision_type=2 2 2 2 2 2 2 2 2 2 2 2 2 2 2 2 2 2 2 2 2 2 2 2 2 2 2 2 2 2
left_child=4 3 5 9 16 10 19 18 23 17 25 20 -9 26 -12 -10 -1 -2 -7 -6 -4 -15 -14 -5 -18 -3 -8 -11 -29 -30
right_child=1 2 11 8 6 7 13 12 15 27 14 -13 22 21 -16 -17 24 -19 -20 -21 -22 -23 -24 -25 -26 -27 -28 28 29 -31
leaf_value=905.72290906407102 1060.3878890502228 1331.4898532558373 3614.9632118447707 1239.4158532063771 1014.9578409990813 1490.8559630968698 1205.7018472037485 2120.461901584431 1326.7287441356439 1158.342657472286 1629.3774585177864 4473.9983525883436 2315.7281052222424 1681.0824081444139 1787.6886943807508 1446.3139800697763 974.35333796935163 1149.5219465688108 1915.740264122308 1095.5446460889402 2229.3676070041238 3484.2346455239403 2770.7698407960606 1325.6160062623028 2546.40362720543 1541.0571289680313 1355.7070379372306 1231.9066071875814 1368.3998514187256 2082.7701119585895
leaf_weight=723870224.57489538 23987671.754169464 2959273.4250774384 212920.20934677124 19231948.278373718 65454346.543954372 1345023.3194694519 18172342.196974754 4800175.2749261856 15506491.264705658 17829534.461038589 17355525.369665384 679628.52877616882 1291202.2156219482 772086.677318573 15126999.357858658 54218091.827620506 33514293.761117458 127467731.94359541 2558805.4385089874 34237557.28950882 108134.44895553589 42904.42919921875 1200013.7005805969 76812363.59708786 44645.709991455078 14364739.240026236 6130797.0337104797 70962181.898152351 2906126.4064025879 187793.12966156006
leaf_count=225301 5823 793 81 4755 21891 384 7370 2213 3703 4406 6890 301 529 357 6355 17423 11442 38774 996 12524 89 20 708 22319 20 3991 2663 21414 865 71
internal_value=0 1640.3 4600.31 1191.7 -876.953 4349.54 140.049 6831.46 1931.06 688.026 3791.67 19887.5 7976.88 1301.88 4250.44 2361.21 -1044.54 465.787 4692.09 -152.684 13885 4736.47 9795.89 1618.79 -593.946 2931.48 1186.71 1054.34 1159.23 2308.16
internal_weight=0 4.71112e+08 6.20024e+07 4.0911e+08 8.82239e+08 6.10018e+07 1.2481e+08 1.11952e+07 1.65769e+08 2.43341e+08 4.98065e+07 1.00068e+06 7.29139e+06 2.51181e+07 3.24825e+07 6.97246e+07 7.57429e+08 1.51455e+08 3.90383e+06 9.96919e+07 321055 814991 2.49122e+06 9.60443e+07 3.35589e+07 1.7324e+07 2.43031e+07 9.18856e+07 7.40561e+07 3.09392e+06
internal_count=424471 142883 23330 119553 281588 22859 44825 4830 48200 71353 18029 471 3450 10410 13245 21126 236763 44597 1380 34415 170 377 1237 27074 11462 4784 10033 26756 22350 936
shrinkage=1


Tree=1
num_leaves=31
num_cat=0
split_feature=21 21 7 12 10 21 12 21 12 24 10 12 12 12 21 2 7 12 12 12 24 12 21 12 14 12 24 21 1 21
split_gain=1.40994e+15 3.56436e+14 2.07876e+14 1.69607e+14 7.91946e+13 6.5684e+13 5.51703e+13 2.76261e+13 2.67006e+13 1.37682e+13 1.2618e+13 1.23292e+13 8.92212e+12 7.58357e+12 7.36365e+12 6.56132e+12 6.52646e+12 6.06219e+12 5.72418e+12 5.67967e+12 5.43228e+12 4.99266e+12 4.84271e+12 4.49855e+12 4.42686e+12 3.99735e+12 3.95851e+12 3.5649e+12 3.18936e+12 3.02957e+12
threshold=0.34027250032430151 1.8080795308290294 -0.13355933405562617 4.9380391109563417 1.0000000180025095e-35 0.94301147611135583 1.6226093573834117 3.6640437209505836 0.31384403474532652 6.8910771921898162 0.82437315136501421 0.1335616115519303 -0.264630237860707 4.9380391109563417 1.3586935283782899 1.0000000180025095e-35 -0.84470754165419148 3.0120273430290689 0.81150204867845843 4.9380391109563417 0.69220649364506148 -0.56826379271274263 -0.048446391795588108 -0.17890610922791247 -0.8177185393102212 -0.1622193513642769 0.8934441917792989 2.4821585345051385 0.45425102933406286 2.6186595327495508
decision_type=2 2 2 2 2 2 2 2 2 2 2 2 2 2 2 2 2 2 2 2 2 2 2 2 2 2 2 2 2 2
left_child=2 4 16 6 -2 12 8 24 23 15 22 25 -6 21 -13 28 -1 -9 -10 -16 -14 -12 -4 -3 -8 -7 -23 -20 -5 -26
right_child=1 3 10 9 5 11 7 17 18 -11 13 14 20 -15 19 -17 -18 -19 27 -21 -22 26 -24 -25 29 -27 -28 -29 -30 -31
leaf_value=-135.84064635174849 -131.20853739245507 -89.21662777737032 -38.601136675297269 1799.3915516529369 94.256154855825599 92.441418669818731 1098.2362280289435 1003.9370285637448 450.18512237587629 3047.3168723540934 -19.034569436481675 292.86058118010067 148.62933193711675 1299.417359372577 380.82557338222045 1090.7087558174892 -74.999662991511926 1361.8962679291815 519.7158893555154 1342.0665107787395 206.96966137934717 62.423763849106081 34.166022602912307 242.66906815715893 572.95525824026572 244.01480936503734 245.33770874962619 659.01105496016282 2770.9276669631577 744.50900804666196
leaf_weight=706900943.01366472 16127400.099888802 1581802.9909896851 61367247.091930866 140862.92016601562 41563471.501280785 4512072.8818187714 537823.83975982666 3583914.4489145279 12282485.853095055 561550.03037452698 17544660.877000809 46547172.935358047 86240945.457278252 110435.02926635742 33766779.542145729 142223.49828720093 42029166.884280682 1514268.0179347992 8783974.9397516251 138874.86990356445 61533828.811216354 123141826.34040022 30959143.090382576 2192778.2345542908 4808406.1430778503 29574021.019262314 2720897.6302433014 7808841.0020751953 165177.51879882812 4468576.7931900024
leaf_count=220199 4734 523 20302 115 10503 1128 130 1544 3697 250 4264 15745 27859 35 11321 96 14290 843 3570 30 18221 37326 11540 622 2346 7119 810 3026 20 2263
internal_value=0 1667.82 -625.017 4191.94 1284.69 1399.3 3919.66 5513.25 3191.78 17016.4 193.715 1997.05 1037.69 379.236 2210.61 12883.6 -882.842 7401.72 3518.73 2565.08 1152.82 372.857 -94.671 690.578 4532.31 1493 442.52 3901.8 15491.7 4370.6
internal_weight=0 3.68577e+08 9.84774e+08 4.85727e+07 3.20005e+08 3.03877e+08 4.75629e+07 1.4913e+07 3.26499e+07 1.00981e+06 2.35844e+08 1.14539e+08 1.89338e+08 1.43518e+08 8.04528e+07 448264 7.4893e+08 5.09818e+06 2.88753e+07 3.39057e+07 1.47775e+08 1.43407e+08 9.23264e+07 3.77458e+06 9.81481e+06 3.40861e+07 1.25863e+08 1.65928e+07 306040 9.27698e+06
internal_count=424471 115705 308766 19045 96660 91926 18564 7126 11438 481 74277 35343 56583 42435 27096 231 234489 2387 10293 11351 46080 42400 31842 1145 4739 8247 38136 6596 135 4609
shrinkage=0.15


Tree=2
num_leaves=31
num_cat=0
split_feature=21 21 7 12 7 21 12 21 12 21 12 21 21 7 12 10 2 12 21 12 12 10 12 12 12 12 7 14 13 13
split_gain=1.02088e+15 2.39091e+14 1.86938e+14 1.18254e+14 5.53716e+13 4.86876e+13 3.52415e+13 1.84848e+13 1.35407e+13 1.24983e+13 9.13175e+12 8.71764e+12 7.77889e+12 5.63192e+12 5.60509e+12 5.12943e+12 4.81822e+12 3.94941e+12 3.81522e+12 3.69688e+12 3.39933e+12 3.31842e+12 3.00192e+12 2.93244e+12 2.90871e+12 2.8752e+12 3.47899e+12 2.74022e+12 2.55303e+12 2.56664e+12
threshold=0.42677930579606888 2.0872605848515513 -0.083276140835913157 4.9380391109563417 -0.82555203397035248 1.1160250870548907 1.2790584601909145 3.6640437209505836 0.42836100047615894 0.10265965152847302 0.25920308252518648 0.78572637525359701 5.0099547982905479 -0.84470754165419148 3.8326232003231486 0.82437315136501421 1.0000000180025095e-35 3.8326232003231486 1.6389980474069386 -0.097108276563032184 0.98327749727470704 1.0000000180025095e-35 -0.41088476266551299 -0.068969822126313349 2.2714297660812424 3.8326232003231486 1.2815537613000763 -0.8177185393102212 0.15574027255772102 0.47560220008053694
decision_type=2 2 2 2 2 2 2 2 2 2 2 2 2 2 2 2 2 2 2 2 2 2 2 2 2 2 2 2 2 2
left_child=2 4 13 6 -2 11 8 27 21 15 23 22 16 -1 24 -4 -5 -11 -12 -13 -17 -3 -6 -7 -9 -21 -27 -8 -14 -30
right_child=1 3 9 12 5 10 7 14 -10 17 18 19 28 -15 -16 20 -18 -19 -20 25 -22 -23 -24 -25 -26 26 -28 -29 29 -31
leaf_value=-115.46745728422472 -116.57891134637407 -124.90656032282016 -23.597816440871803 2044.1731911679585 1.4449809680853338 94.485617390908487 803.91790425667125 733.52325568944127 458.44813382656741 68.167072965191636 295.04156713834578 128.75167329640209 2153.3360255552275 -60.972424101787851 1343.2212531703008 24.072481071713028 778.44795798963924 990.87010913192307 373.4444727835546 207.03946856406108 158.46040512536601 213.58683647150042 133.85777471172719 239.84441117544461 964.65824058114629 315.97545496478057 1629.6206277710146 567.14571325014003 3352.3309034831568 2495.5428599869674
leaf_weight=709797370.93782091 13160165.217885017 875937.14894104004 74604845.280810356 172714.14043807983 3997141.861946106 3609387.224822998 1218544.151802063 2152938.4087686539 14609272.137166739 121850011.89432049 35319440.901244164 16114444.284677505 305381.18913650513 45399486.177387238 620002.5197429657 67757024.071394444 111260.92872238159 104463.11974334717 23097302.749379396 67216094.002055168 4517362.6361665726 2544949.7205352783 106317290.80012703 23158475.612920761 2842385.6985282898 128920.5602722168 69984.800155639648 11284137.719611168 108464.00947761536 286373.40029144287
leaf_count=221019 3897 354 25058 77 1099 944 313 935 5148 36869 12485 3916 142 15464 359 20492 83 42 8215 20399 1669 724 31927 5798 1292 59 23 5496 57 116
internal_value=0 1531.05 -493.023 3921.21 1227.3 1321.84 3626.75 4611.74 2636.97 223.089 1951.97 1044.93 14736.4 -747.943 6118.92 26.6156 10321.8 459.716 2173.61 1288.64 216.481 846.091 860.399 1468.29 5766.94 1391.5 5187.87 3934.81 16526.8 18206
internal_weight=0 3.29321e+08 1.02403e+09 3.71324e+07 2.92189e+08 2.79028e+08 3.61482e+07 1.8118e+07 1.80302e+07 2.68834e+08 8.51846e+07 1.93844e+08 984194 7.55197e+08 5.61533e+06 1.46879e+08 283975 1.21954e+08 5.84167e+07 8.35294e+07 7.22744e+07 3.42089e+06 1.10314e+08 2.67679e+07 4.99532e+06 6.7415e+07 198905 1.25027e+07 700219 394837
internal_count=424471 103858 320613 15096 88762 84865 14621 8395 6226 84130 27442 57423 475 236483 2586 47219 160 36911 20700 24397 22161 1078 33026 6742 2227 20481 82 5809 315 173
shrinkage=0.15


Tree=3
num_leaves=31
num_cat=0
split_feature=10 24 12 21 7 21 24 24 21 12 12 12 24 21 12 2 18 24 14 12 12 24 12 24 12 12 7 1 6 7
split_gain=7.40403e+14 2.39553e+14 9.44247e+13 5.99319e+13 5.55004e+13 3.13523e+13 1.79125e+13 1.57144e+13 1.16064e+13 8.31485e+12 7.48705e+12 6.62704e+12 4.50651e+12 4.4963e+12 3.84631e+12 3.48102e+12 4.59167e+12 3.4354e+12 3.2589e+12 8.76448e+12 4.37425e+12 3.78891e+12 3.00069e+12 2.8206e+12 2.77935e+12 2.71395e+12 2.60516e+12 2.58092e+12 3.75514e+12 3.12586e+12
threshold=0.82437315136501421 1.5282943512228386 3.8326232003231486 0.57170629158643238 -0.15271484602105487 2.6186595327495508 6.8910771921898162 0.42696482848245626 1.1340005271529201 1.3788518160420684 0.47743970007508713 -0.4665072888776316 4.0077273081776275 -0.16247808991746321 -0.19395691043825045 1.0000000180025095e-35 -0.59563333112228267 6.8910771921898162 -0.8177185393102212 0.88642886339948879 -0.10855997313611541 0.25974725696690076 0.048819056911114281 1.1246657303232221 4.9380391109563417 3.8326232003231486 -0.6818857299095501 0.40537038680567666 1.0000000180025095e-35 1.1881707175372231
decision_type=2 2 2 2 2 2 2 2 2 2 2 2 2 2 2 2 2 2 2 2 2 2 2 2 2 2 2 2 2 2
left_child=4 3 5 11 26 10 15 13 14 -7 -3 -2 -11 -6 -5 16 -4 23 19 20 -13 -20 -10 -9 -8 -24 -1 28 -26 -30
right_child=1 2 6 8 7 9 24 17 22 12 -12 18 -14 -15 -16 -17 -18 -19 21 -21 -22 -23 25 -25 27 -27 -28 -29 29 -31
leaf_value=-98.14664601472866 1.9945402094937941 230.11297188369167 2095.5196615870855 86.248337911953968 -41.889497908325623 424.0580351715974 1513.4245957591027 99.820004633041663 130.95496064010922 588.21479240452186 364.66270381239917 89.682773698916151 808.14703304857301 21.159075336431822 158.00020196664866 687.0411237031916 1121.9801989701675 1634.4155047865318 34.686745250982597 1368.2161188189687 289.38931647470253 83.796395424147349 240.57789686367406 234.32047122895108 3918.5608632615881 875.61010569289556 -55.199942394642058 1816.5292154362448 3532.3432185992947 2119.4525421588037
leaf_weight=726193508.80679846 41895464.213920593 12941978.474412918 128501.42858886719 19654835.793550491 53342479.016664982 5688662.9983196259 157131.58944702148 16292223.582177162 6110262.0423469543 7521764.5538568497 33114293.837623596 31200606.982717514 2906195.6273460388 48671341.19277668 116125201.44104195 317096.04874038696 718455.54209136963 34153.469940185547 73285017.823369503 124128.12976074219 2679697.9568328857 68283202.65024662 47561050.506201744 4470820.1280174255 36709.050148010254 151906.93906402588 33234672.02029562 210045.51953125 40769.190216064453 259396.75024604797
leaf_count=226070 10107 3507 21 4944 17763 2137 87 6554 1507 3546 12644 6220 1311 17804 34084 206 403 26 25039 20 559 21613 14624 1973 22 63 11398 26 22 171
internal_value=0 1011.77 2809.58 728.934 -540.919 2599.1 9814.67 82.7866 1139.87 3799.54 2179.02 370.658 4330.06 -78.7246 984.092 7406.47 8464.58 875.027 455.932 733.917 703.188 389.16 1532.84 858.543 13796.3 1617.33 -641.781 14861.3 16576.6 15409
internal_weight=0 4.71112e+08 6.4041e+07 4.07071e+08 8.82239e+08 6.21729e+07 1.86811e+06 1.22811e+08 1.89603e+08 1.61166e+07 4.60563e+07 2.17468e+08 1.0428e+07 1.02014e+08 1.3578e+08 1.16405e+06 846957 2.07972e+07 1.75573e+08 3.40044e+07 3.38803e+07 1.41568e+08 5.38232e+07 2.0763e+07 704052 4.7713e+07 7.59428e+08 546921 336875 300166
internal_count=424471 142883 24103 118780 281588 23145 958 44120 55222 6994 16151 63558 4857 35567 39028 630 424 8553 53451 6799 6779 46652 16194 8527 328 14687 237468 241 215 193
shrinkage=0.15


Tree=4
num_leaves=31
num_cat=0
split_feature=21 21 12 7 24 12 7 24 12 12 21 24 12 12 24 24 21 12 12 23 6 12 7 13 12 12 21 14 12 12
split_gain=5.37949e+14 1.49797e+14 6.6421e+13 5.43493e+13 3.53866e+13 2.29071e+13 1.91098e+13 1.39211e+13 1.26007e+13 8.28255e+12 6.2743e+12 5.52413e+12 5.05122e+12 4.56721e+12 4.27323e+12 4.04881e+12 3.31271e+12 3.08499e+12 2.86323e+12 2.74709e+12 2.61238e+12 2.56378e+12 2.55318e+12 2.51741e+12 2.45106e+12 2.28592e+12 2.16402e+12 2.06702e+12 4.91144e+12 2.04414e+12
threshold=0.23129639472999719 1.8080795308290294 4.9380391109563417 -0.13355933405562617 0.92285141987341379 0.98327749727470704 -0.82555203397035248 3.5467257618787076 -0.11379503442666776 0.12538182828544228 0.54081100391794401 5.1618168577927444 -0.69717717699259407 2.8011525304190079 1.3553106565515745 0.66279926555094659 2.3698120338924542 4.9380391109563417 -0.31632646810491138 1.4234362903539548 1.0000000180025095e-35 -0.43509692113431758 1.7412859571297878 0.20143483363240902 1.9988793876418611 3.8326232003231486 5.0099547982905479 -0.8177185393102212 -0.264630237860707 3.0120273430290689
decision_type=2 2 2 2 2 2 2 2 2 2 2 2 2 2 2 2 2 2 2 2 2 2 2 2 2 2 2 2 2 2
left_child=3 4 5 -1 6 9 -2 16 21 -3 17 -4 -5 -9 25 27 -7 -8 -12 -13 -21 -6 23 -22 -17 -10 -15 28 -14 -16
right_child=1 2 11 12 8 7 10 13 14 -11 18 19 15 26 29 24 -18 -19 -20 20 22 -23 -24 -25 -26 -27 -28 -29 -30 -31
leaf_value=-81.541463861541033 -83.872610355571709 -9.3600277796801521 1092.9770400770403 -67.54872390448142 -80.504970164986105 324.32108110862686 61.749454554977063 569.82042771264969 168.92802954558803 279.67321631403252 19.886087372920365 1360.0640841472875 27.915399173135011 700.5872280114512 229.20875171756913 124.12691357792421 445.39613051207272 949.10987041660565 116.98678144267541 3143.339817554117 1642.4779478302114 74.630649272363399 1660.1162696100896 2902.3556218842923 610.93045438483432 749.0541313100108 1030.4249327399102 3.8066114245118281 235.16232018137129 554.10088805929297
leaf_weight=744342012.57091904 15508087.906644821 2549088.0367889404 333115.71807479858 18027522.579227924 3568962.9283676147 8532810.1053705215 112968352.46362782 4238880.0366277695 66392189.273582458 17862706.899344444 7257582.1590862274 192626.35001373291 29406515.755678177 955007.46893692017 38352131.771519661 4865700.811876297 12582108.876773834 88221.551055908203 116720461.70305634 43176.210083007812 57773.920654296875 7298155.0757236481 289790.7690448761 93330.999755859375 244407.36946487427 153178.8487701416 842270.83950042725 136325124.56340837 2819545.7820129395 440733.96129989624
leaf_count=233159 4518 789 183 4920 956 3923 34392 1783 19795 5523 1975 76 6480 526 12881 1542 5540 22 34679 21 27 1777 140 34 93 57 480 47337 630 213
internal_value=0 943.871 2594.64 -421.327 726.427 2424.25 516.291 3025.97 1183.1 1623.85 586.652 10620.1 53.5043 4365.21 1288.87 105.806 2643.12 416.279 742.017 12261.1 13532.1 157.875 12805.1 16137.7 982.732 1135.09 5701.08 79.2195 306.987 1552.67
internal_weight=0 4.17321e+08 4.85727e+07 9.36031e+08 3.68748e+08 4.75629e+07 2.52543e+08 2.71511e+07 1.16205e+08 2.04118e+07 2.37035e+08 1.00981e+06 1.91689e+08 6.03616e+06 1.05338e+08 1.73661e+08 2.11149e+07 1.13057e+08 1.23978e+08 676698 484072 1.08671e+07 440896 151105 5.11011e+06 6.65454e+07 1.79728e+06 1.68551e+08 3.22261e+07 3.87929e+07
internal_count=424471 130310 19045 294161 111265 18564 75586 12252 35679 6312 71068 481 61002 2789 32946 56082 9463 34414 36654 298 222 2733 201 61 1635 19852 1006 54447 7110 13094
shrinkage=0.15


Tree=5
num_leaves=31
num_cat=0
split_feature=10 21 12 7 21 24 24 12 12 21 12 12 12 24 12 16 23 24 21 24 21 12 21 14 12 14 23 24 21 7
split_gain=3.90041e+14 1.25529e+14 5.1309e+13 2.86031e+13 2.71571e+13 2.19324e+13 9.0953e+12 6.98822e+12 5.71612e+12 5.65318e+12 5.45365e+12 5.22176e+12 4.24203e+12 3.37913e+12 3.24441e+12 2.93339e+12 3.02412e+12 2.69844e+12 2.68863e+12 2.61197e+12 2.29894e+12 2.27325e+12 1.98467e+12 1.97812e+12 2.32687e+12 1.97336e+12 2.93293e+12 1.96212e+12 1.84929e+12 1.68181e+12
threshold=0.82437315136501421 1.4710400289909749 4.9380391109563417 -0.34187547244619559 0.71382461486147875 2.8545026770358652 0.20208602540981269 2.2714297660812424 -0.43509692113431758 5.0099547982905479 0.57625148193426268 3.2952114397148846 -0.033305967084425549 0.48866234624854049 4.9380391109563417 0.35949796339756401 1.5187119084918259 4.5866460730107912 2.2012922829734269 6.8910771921898162 0.99356740138706401 0.98327749727470704 -0.19505857509514182 -0.8177185393102212 -0.010075382607599548 1.0000000180025095e-35 1.0328062196439196 1.1638753677820419 0.16782062188383026 1.2815537613000763
decision_type=2 2 2 2 2 2 2 2 2 2 2 2 2 2 2 2 2 2 2 2 2 2 2 2 2 2 2 2 2 2
left_child=3 4 5 -1 8 10 22 21 -2 15 -3 13 -6 23 27 -4 -17 -9 -12 20 -8 -7 -5 24 -10 26 -13 -14 -25 -16
right_child=1 2 9 6 12 7 19 17 11 -11 18 25 14 -15 29 16 -18 -19 -20 -21 -22 -23 -24 28 -26 -27 -28 -29 -30 -31
leaf_value=-70.299354439322073 4.0554801962854095 178.13334597826451 2229.2835557736762 -35.614241323045512 85.0327278280011 197.76907016213519 54.385099865123713 522.60513098201193 73.844415953827621 1629.2929516347967 242.89656609106999 1535.3265810963942 130.42705085121611 86.43533920996191 332.39692167042824 157.75721840551756 1134.133230688944 767.37829999668247 325.73920283909246 1253.7789697013093 160.13235263943969 414.26725361731229 6.7692449604300924 15.366555069636613 277.40081741673566 203.10274638408148 478.37524063476366 173.79127857465537 53.484027682737604 1423.5111598704566
leaf_weight=748671385.72357941 51108520.858346939 20368217.763736725 31805.669971466064 56959587.147236824 34070943.29640007 1308874.2110290527 26813841.050534725 2649621.5616455078 22186635.747315407 651902.10877418518 22998859.255081892 88403.500350952148 69828647.590003014 67753873.197008133 60839.099884033203 125732.29913330078 165096.08992004395 1640974.2376079559 14292459.35616684 42179.839935302734 5589963.2210903168 6562952.0028657913 44109015.5774436 48632160.484422684 1339830.361038208 197167.77930450439 178030.73843383789 35368200.151316643 69654995.910135269 66556.890960693359
leaf_count=233666 12357 5547 21 19225 8103 428 10529 1307 4401 286 9194 22 21300 19895 20 65 89 819 5561 28 2432 2877 15572 16983 277 109 39 11127 22170 22
internal_value=0 734.17 1961.68 -392.622 517.203 1861.1 33.7693 3081.42 326.959 9167.57 1603.69 399.942 873.6 392.526 972.818 5743.97 4746.81 4108.14 1830.98 494.42 484.183 2521.8 -114.113 304.755 569.58 3752.34 5527.16 966.71 252.084 6016.27
internal_weight=0 4.71331e+08 7.07965e+07 8.82186e+08 4.00535e+08 6.9822e+07 1.33515e+08 1.21624e+07 2.6114e+08 974536 5.76595e+07 2.10031e+08 1.39395e+08 2.09567e+08 1.05324e+08 322634 290828 4.2906e+06 3.72913e+07 3.2446e+07 3.24038e+07 7.87183e+06 1.01069e+08 1.41814e+08 2.35265e+07 463602 266434 1.05197e+08 1.18287e+08 127396
internal_count=424471 143019 26194 281452 116825 25733 47786 5431 76253 461 20302 63896 40572 63726 32469 175 154 2126 14755 12989 12961 3305 34797 43831 4678 170 61 32427 39153 42
shrinkage=0.15


Tree=6
num_leaves=31
num_cat=0
split_feature=10 24 12 21 7 12 21 21 24 12 18 12 12 12 12 21 14 24 14 21 21 14 2 7 12 12 13 12 24 12
split_gain=2.81805e+14 9.27401e+13 3.59037e+13 2.52597e+13 2.09055e+13 1.06422e+13 7.88434e+12 7.38513e+12 5.36978e+12 5.06925e+12 4.39305e+12 4.25027e+12 3.88441e+12 3.44082e+12 2.43425e+12 2.44131e+12 2.39284e+12 2.38518e+12 2.3327e+12 2.27564e+12 2.1591e+12 1.98418e+12 2.44202e+12 1.98163e+12 1.94581e+12 1.58177e+12 1.49372e+12 1.37418e+12 1.30484e+12 1.25382e+12
threshold=0.82437315136501421 1.6436168143370149 3.8326232003231486 0.74078777500852311 -0.46878071352762346 1.2790584601909145 6.696837504990012 0.51553304128008992 3.1428088348213055 4.9380391109563417 0.21940768540390257 -0.39452519613253695 -0.010075382607599548 0.32987640994764306 1.4819170851998174 0.33634037280285756 -0.8177185393102212 -0.0054944081957044293 -0.8177185393102212 1.3025202780719476 6.696837504990012 1.0000000180025095e-35 1.0000000180025095e-35 1.9807297996097859 2.6205429158949518 -0.65137039070026104 1.0696314940514811 -0.35951572375196816 5.1618168577927444 2.2714297660812424
decision_type=2 2 2 2 2 2 2 2 2 2 2 2 2 2 2 2 2 2 2 2 2 2 2 2 2 2 2 2 2 2
left_child=4 3 5 11 -1 13 23 17 18 12 -11 25 27 -3 15 16 -13 -6 -7 -14 -9 22 24 28 -16 -2 -8 -5 -4 -10
right_child=1 2 6 9 7 8 26 20 29 10 -12 14 19 -15 21 -17 -18 -19 -20 -21 -22 -23 -24 -25 -26 -27 -28 -29 -30 -31
leaf_value=-60.286121257333718 -53.595498035463947 82.141658862373134 433.73341760137293 -43.141773882782211 -23.22676383532049 531.45898017062552 1254.2106113545058 89.991240559946831 386.71651109620024 1580.4233166862059 107.47043138059813 105.28196484213429 116.75102117295282 221.37503770497588 403.72610108341712 63.704585952399 21.885636032449991 22.919237738311935 266.89903547336741 162.21820502284092 1143.5209586781339 97.084713568334308 169.51814281988683 1013.3581743250747 1100.9164016813741 16.620957904268582 1976.2733253174104 81.484448193419269 950.70772599129953 512.30230197792741
leaf_weight=737517525.40030527 8363132.335811615 4642548.7120742798 552217.92030715942 2121201.9571990967 92197506.829552174 797729.06889724731 664768.86058235168 17744645.023215294 3961070.6215467453 99599.999359130859 83966.190010070801 8608434.5999069214 77506401.713339806 28567112.695819616 325544.88996505737 115950112.9686861 76830027.735628128 34682418.647567749 12502978.689767838 36399947.499361038 43876.6591796875 3472010.0888347626 910682.43087768555 274134.68972396851 124522.24957275391 52742933.71988678 71383.620147705078 32360227.603462219 137128.71894073486 3261480.5811443329
leaf_count=230032 2023 1229 331 499 30929 199 313 7353 1723 25 40 1805 23612 9656 111 33598 26022 13117 6040 11672 21 1423 363 140 28 12785 39 7699 91 1553
internal_value=0 624.045 1839.06 462.103 -333.728 1695.93 6364.17 13.8469 2262.04 792.681 6044.47 278.378 786.185 1346.07 347.016 330.186 201.922 -70.7522 1885.11 875.204 617.266 1048.37 2071.88 4481.54 3977.47 46.7397 8828.19 492.119 3577.15 2956.18
internal_weight=0 4.71331e+08 5.54326e+07 4.15899e+08 8.82186e+08 5.37329e+07 1.69963e+06 1.44668e+08 2.05233e+07 1.48571e+08 183566 2.67327e+08 1.48388e+08 3.32097e+07 2.06221e+08 2.01389e+08 8.54385e+07 1.2688e+08 1.33007e+07 1.13906e+08 1.77885e+07 4.83276e+06 1.36075e+06 963481 450067 6.11061e+07 736152 3.44814e+07 689347 7.22255e+06
internal_count=424471 143019 21314 121705 281452 20400 914 51420 9515 43547 65 78158 43482 10885 63350 61425 27827 44046 6239 35284 7374 1925 502 562 139 14808 352 8198 422 3276
shrinkage=0.15


Tree=7
num_leaves=31
num_cat=0
split_feature=10 24 12 21 10 12 21 12 14 2 12 12 12 16 21 24 21 12 21 14 12 23 2 18 16 12 24 24 24 21
split_gain=2.03604e+14 6.72636e+13 2.56573e+13 1.97497e+13 1.54005e+13 9.51553e+12 5.31584e+12 4.58913e+12 4.13227e+12 3.58636e+12 3.36053e+12 3.1966e+12 2.93807e+12 2.90746e+12 2.77843e+12 2.21521e+12 2.03232e+12 1.99206e+12 2.73232e+12 1.8016e+12 3.42155e+12 1.68712e+12 2.07565e+12 1.80506e+12 1.67456e+12 1.80313e+12 1.57947e+12 1.4829e+12 1.46433e+12 1.25704e+12
threshold=0.82437315136501421 1.7012780458941028 4.9380391109563417 0.78572637525359701 1.0000000180025095e-35 1.9383489914698495 0.057721051283399084 4.9380391109563417 -0.8177185393102212 1.0000000180025095e-35 -0.49333697799171233 0.54287796620699147 -0.00025964268781391209 1.0000000180025095e-35 6.696837504990012 0.5151865127648011 1.1340005271529201 3.2952114397148846 0.16220329685319601 -0.8177185393102212 0.51343074644763453 1.3186330740575325 1.0000000180025095e-35 0.21940768540390257 1.0000000180025095e-35 1.1481819279271057 0.27935207569631076 2.4508740561362488 6.8910771921898162 4.4499074927363145
decision_type=2 2 2 2 2 2 2 2 2 2 2 2 2 2 2 2 2 2 2 2 2 2 2 2 2 2 2 2 2 2
left_child=4 3 5 10 -1 11 -6 12 -7 -9 -2 -3 -5 -10 21 17 -8 -12 -19 20 -14 -4 23 -23 -21 -26 -20 -13 -18 -15
right_child=1 2 14 7 6 8 16 9 13 -11 15 27 19 29 -16 -17 28 18 26 24 -22 22 -24 -25 25 -27 -28 -29 -30 -31
leaf_value=-51.231663448624808 -7.1939911697835814 117.77230467212651 132.41561846893427 63.556693577047938 -17.43852420771821 648.67807771630589 34.536873899156426 1281.5099690552502 566.06839889916898 -117.52234632769462 32.509660117345071 192.99622400426802 132.98716145945133 273.43201057679505 1250.4394161089738 64.466909914093591 136.73232207636528 -26.54710976975058 1178.8710100810217 142.14738490735226 327.96221024839764 1650.6289051267713 185.19612205652916 760.21035766378407 79.882716794529159 140.16919908882079 222.65809917277315 261.71447697521563 1258.6225157830845 442.92535691966913
leaf_weight=740169093.7020402 34654349.451562881 9057998.2075424194 85555.719387054443 31839862.537511826 95872289.394273758 998660.54888916016 41923540.152387142 130597.59940338135 1019673.399518013 60244.949951171875 167416006.18513203 18304643.311887503 24985124.572906494 6976581.6744155884 540962.09067726135 73533069.731975555 4194707.9610519409 169653.02938842773 105859.44047546387 20327679.568423271 2203722.8599395752 87197.208801269531 70011.869876861572 124172.6208152771 51686838.313656807 14237622.638848305 61417.440216064453 11507506.520679474 26341.350067138672 1146288.6689720154
leaf_count=230559 8320 2489 59 7590 32373 278 16639 29 612 44 50632 6828 4885 3506 241 21328 1860 72 21 6590 467 32 43 58 17511 6137 25 4603 21 619
internal_value=0 530.438 1628.04 400.419 -283.669 1530.47 17.967 698.576 2393.11 5599.1 243.235 1305.4 692.138 2182.14 6895.5 285.057 296.837 221.62 2650.72 767.478 991.936 4771.43 5953.8 7516.92 696.724 619.351 5518.58 1463.48 958.223 1982.34
internal_weight=0 4.71331e+08 4.99193e+07 4.21412e+08 8.82186e+08 4.90114e+07 1.42017e+08 1.45472e+08 1.01412e+07 190843 2.7594e+08 3.88701e+07 1.45281e+08 9.14254e+06 907900 2.41286e+08 4.61446e+07 1.67753e+08 336930 1.13441e+08 2.71888e+07 366937 281382 211370 8.62521e+07 6.59245e+07 167277 2.98121e+07 4.22105e+06 8.12287e+06
internal_count=424471 143019 19368 123651 281452 18935 50893 43253 5015 73 80398 13920 43180 4737 433 72078 18520 50750 118 35590 5352 192 133 90 30238 23648 46 11431 1881 4125
shrinkage=0.15


Tree=8
num_leaves=31
num_cat=0
split_feature=21 21 12 10 12 24 12 12 12 14 12 12 16 12 14 21 12 24 21 14 12 12 12 7 16 12 13 14 12 12
split_gain=1.48221e+14 4.1647e+13 1.87022e+13 1.45967e+13 1.29898e+13 8.86225e+12 7.20272e+12 3.76133e+12 3.58045e+12 2.85971e+12 3.8849e+12 2.80793e+12 2.61599e+12 2.38127e+12 2.31308e+12 2.19321e+12 1.86939e+12 1.81637e+12 1.81385e+12 1.72711e+12 2.30706e+12 1.70811e+12 1.42391e+12 1.40103e+12 1.52601e+12 1.40933e+12 1.23334e+12 1.20005e+12 2.57511e+12 1.12038e+12
threshold=0.23129639472999719 2.1451190326670839 4.9380391109563417 1.0000000180025095e-35 -0.23420144410937158 1.0093432672090461 0.74573659121589464 -0.54372444291327859 2.2714297660812424 -0.8177185393102212 0.98327749727470704 -0.76588735643109351 1.0000000180025095e-35 0.25920308252518648 -0.8177185393102212 5.0099547982905479 0.15908253534337294 0.77812172866512264 4.4499074927363145 -0.8177185393102212 0.98327749727470704 3.8326232003231486 -1.0000000180025095e-35 -0.82555203397035248 -1.0000000180025095e-35 0.59195666580591966 0.24712939470709699 -0.8177185393102212 -0.2178418775763955 0.644307278711443
decision_type=2 2 2 2 2 2 2 2 2 2 2 2 2 2 2 2 2 2 2 2 2 2 2 2 2 2 2 2 2 2
left_child=3 4 6 -1 7 9 22 -2 -8 10 16 -5 26 -7 -10 -14 -6 27 -16 20 -15 -19 -3 -11 -25 -26 -4 28 -13 -29
right_child=1 2 12 11 5 13 8 -9 14 23 -12 17 15 19 18 -17 -18 21 -20 -21 -22 -23 -24 24 25 -27 -28 29 -30 -31
leaf_value=-43.514533996573377 -51.075477766038453 -66.888589343084845 1071.6269704312683 -54.4740382737182 81.173792582096425 79.005965718053702 218.60134983833262 25.629432310346225 602.52164375520465 -46.318102293838777 923.89149400851966 18.029981692971962 401.79734611152111 164.68435121191831 265.74612216338221 954.45721951332598 204.965491273335 92.881076570994281 453.65967325660915 115.62289356736326 505.27576514280446 1069.0542152568955 110.32578909336887 80.055382780675174 30.352043392951515 64.25120432262564 1964.3697132279653 -7.4437432072072909 181.72127807147601 26.986881671283417
leaf_weight=718732663.1056056 17955384.59539032 1250081.2616443634 72822.400604248047 18789144.566574097 31716302.25090313 35720787.05345726 19390333.614715576 72314786.871306419 707980.48983764648 3511015.4143486023 126733.92971801758 35635231.709744453 227963.94997024536 11911027.107833862 4351840.2939872742 554689.45754432678 3004763.3194885254 4314358.3596630096 1573706.339176178 56618965.038806677 464948.77030944824 40712.069854736328 5546439.5655326843 29635012.038358688 79605864.554729462 42233877.885352135 66719.310546875 129706643.70393658 2302046.9134120941 25434426.778320789
leaf_count=224179 4548 440 42 5338 6412 8973 8141 18302 203 1350 24 7890 144 2543 2143 234 611 1376 850 21841 108 25 1652 9332 26170 16500 32 43863 505 10700
internal_value=0 494.433 1559.68 -221.564 401.028 502.738 1434.89 69.1485 1674.29 373.91 632.75 6.24207 6001.06 736.285 2308.46 5289.89 612.578 41.397 2104.35 844.79 1183.2 680.044 518.205 315.711 330.186 280.684 9989.84 26.9917 186.419 -11.9937
internal_weight=0 4.18562e+08 3.37426e+07 9.34955e+08 3.84819e+08 2.94549e+08 3.28204e+07 9.02702e+07 2.60239e+07 1.89834e+08 3.48478e+07 2.16223e+08 922195 1.04716e+08 6.63353e+06 782653 3.47211e+07 1.97433e+08 5.92555e+06 6.89949e+07 1.2376e+07 4.35507e+06 6.79652e+06 1.54986e+08 1.51475e+08 1.2184e+08 139542 1.93078e+08 3.79373e+07 1.55141e+08
internal_count=424471 130595 13881 293876 116714 93864 13429 22850 11337 60399 7047 69697 452 33465 3196 378 7023 64359 2993 24492 2651 1401 2092 53352 52002 42670 74 62958 8395 54563
shrinkage=0.15


Tree=9
num_leaves=31
num_cat=0
split_feature=10 21 12 7 21 12 21 21 12 12 18 14 12 7 2 12 14 2 14 16 12 14 16 12 12 1 7 0 6 21
split_gain=1.07742e+14 3.47904e+13 1.52981e+13 7.96266e+12 7.10111e+12 5.1396e+12 3.42337e+12 2.79416e+12 2.50965e+12 2.48392e+12 2.3241e+12 2.25344e+12 2.12888e+12 4.59302e+12 2.76247e+12 1.96295e+12 1.95485e+12 1.72069e+12 1.5785e+12 1.49434e+12 1.39274e+12 1.37794e+12 2.23731e+12 1.1956e+12 1.10852e+12 1.10829e+12 1.57979e+12 2.38823e+12 1.31384e+12 1.04445e+12
threshold=0.82437315136501421 1.4148667786846325 3.8326232003231486 0.017290291273801457 0.51553304128008992 1.9383489914698495 6.696837504990012 0.62844127439583819 1.3117775932568663 0.41200143394318289 -0.59563333112228267 -0.8177185393102212 3.0120273430290689 1.4707144333955056 1.0000000180025095e-35 -0.17890610922791247 1.0000000180025095e-35 1.0000000180025095e-35 -0.8177185393102212 1.0000000180025095e-35 -0.61865125763430895 -0.8177185393102212 1.0000000180025095e-35 0.98458626259734505 -0.79631615018242896 0.85836591845360266 1.135493053923508 0.45116964333481518 1.0000000180025095e-35 0.96548077623389272
decision_type=2 2 2 2 2 2 2 2 2 2 2 2 2 2 2 2 2 2 2 2 2 2 2 2 2 2 2 2 2 2
left_child=3 4 5 -1 8 9 10 24 20 -3 -4 -7 15 -14 -15 -6 17 -10 -12 -13 -2 23 -23 -11 -5 26 27 -8 -28 -17
right_child=1 2 6 7 12 11 25 -9 16 21 18 19 13 14 -16 29 -18 -19 -20 -21 -22 22 -24 -25 -26 -27 28 -29 -30 -31
leaf_value=-36.32110261559292 -32.664043073211168 72.5073675288142 1003.2236949843793 -62.919661929144723 26.464570033981278 456.61340925305166 2379.3789185429728 74.309852152702689 504.05260146886093 159.28599460299662 1120.0890246596587 394.93171299603733 73.237569477296731 1343.1436332387157 44.569899802000073 56.031459276342048 66.035571382363628 154.86033567979663 277.21075599254885 196.32924072398279 20.748556055118577 187.00860946289973 102.68229590577927 270.36675148947853 2.554083607497625 521.93111193221227 1577.3929365549154 681.71361613471822 753.20545274329072 80.325084721851681
leaf_weight=772563144.18843651 11687644.992694855 15448355.839143753 129831.81762695312 6215072.4239444733 33633601.012414932 962003.79762268066 39481.420143127441 12277963.622591972 487214.51784324646 9270546.28191185 53030.889999389648 945285.87038898468 430710.08964157104 129536.0897064209 51518.859855651855 94589056.69589138 3423863.1985912323 911542.61097717285 872247.44062042236 8678578.1517791748 182486234.57755852 9894693.7951049805 24878540.295452833 2850550.5696792603 91129792.324847221 196455.29931640625 48410.46044921875 35327.930084228516 430630.76026344299 68766406.896091461
leaf_count=242218 2817 4102 23 1766 8475 258 20 5152 155 2003 22 560 182 31 32 28453 1422 349 548 4311 53353 4009 10538 741 32316 22 28 22 263 20280
internal_value=0 385.866 1011.73 -206.353 267.928 940.547 3887.28 45.8588 134.589 831.154 2726.07 1584.78 402.21 2264.77 6490.91 396.426 847.175 1843.27 2170.13 1438.91 116.89 945.721 844.515 1236.06 -10.841 5520.21 6244.05 10517.8 5576.64 441.721
internal_weight=0 4.71331e+08 7.4734e+07 8.82186e+08 3.96597e+08 7.29286e+07 1.80542e+06 1.09623e+08 1.98996e+08 6.23427e+07 1.05511e+06 1.05859e+07 1.97601e+08 611765 181055 1.96989e+08 4.82262e+06 1.39876e+06 925278 9.62386e+06 1.94174e+08 4.68943e+07 3.47732e+07 1.21211e+07 9.73449e+07 750306 553851 74809.4 479041 1.63355e+08
internal_count=424471 143019 27470 281452 115549 26522 948 39234 58096 21393 593 5129 57453 245 63 57208 1926 504 570 4871 56170 17291 14547 2744 34082 355 333 42 291 48733
shrinkage=0.15


Tree=10
num_leaves=31
num_cat=0
split_feature=21 24 12 12 7 21 12 13 24 23 13 13 12 12 12 24 14 12 14 12 12 1 12 12 12 14 12 12 1 12
split_gain=7.90991e+13 2.38292e+13 9.86495e+12 7.0462e+12 5.7605e+12 4.81502e+12 4.69272e+12 2.84082e+12 2.2419e+12 2.23781e+12 1.76302e+12 1.95723e+12 1.62289e+12 1.6179e+12 1.57109e+12 1.49123e+12 1.44227e+12 1.48123e+12 1.35547e+12 2.69156e+12 1.35102e+12 2.41599e+12 1.26827e+12 1.20926e+12 1.19168e+12 1.15422e+12 1.64703e+12 1.02861e+12 9.47043e+11 9.0966e+11
threshold=0.13917226422759563 1.9509511785362943 4.9380391109563417 -0.34675526185624683 -0.63878583940490763 0.85313427562120792 0.72283319806972812 0.97824237190210483 3.8197516933015194 1.6854442402331002 0.429907639005849 0.29282395578178505 0.15908253534337294 -0.58593212456835675 -0.71909899614678197 1.4123952757930918 -0.8177185393102212 0.75653390512765883 -0.8177185393102212 0.15908253534337294 3.2952114397148846 0.52271976114993868 2.6205429158949518 0.016754306506481197 3.2952114397148846 -0.8177185393102212 0.035731403684733432 -0.37620248161560377 -0.3687317507252546 0.32987640994764306
decision_type=2 2 2 2 2 2 2 2 2 2 2 2 2 2 2 2 2 2 2 2 2 2 2 2 2 2 2 2 2 2
left_child=4 3 6 13 -1 20 23 9 -8 -4 11 -11 -7 -2 -6 18 17 -14 19 27 25 -22 -10 -3 -17 26 -5 -16 -9 -20
right_child=1 2 7 5 14 12 8 28 22 10 -12 -13 16 -15 15 24 -18 -19 29 -21 21 -23 -24 -25 -26 -27 -28 -29 -30 -31
leaf_value=-31.890984690821206 -40.303164970340646 -40.207122189501064 312.29675783408146 49.751258438458144 -35.961166898046287 47.846254053730185 161.58462670813404 616.50701777628979 212.99422624791015 866.46147499418021 328.16620724774731 2099.9832994071094 110.07949462369498 11.139292545625986 11.167508756059018 139.26411241675808 73.485175582009589 290.57093371802006 -13.143237644774146 322.85902258174679 0.036638677103870441 615.26958670198883 368.1193576628778 88.624349591419502 964.7413617088298 28.36494963744062 184.83698803065985 89.555165579853323 1575.8583267818772 12.666400318132039
leaf_weight=704544851.37441087 18814240.01477623 2032098.1267204285 450498.73679733276 36320777.341551781 28232254.389579773 45506537.429821014 24094247.36692667 31462.650024414062 3142646.1313819885 233557.89023971558 120609.26042175293 33035.980283737183 16232408.98248291 51165103.318135262 24472137.787604809 1193692.6707458496 75830886.062553525 1091852.9188079834 97914466.079811215 690674.66202545166 337573.1400680542 249952.35107421875 1904503.9679431915 8480805.7255315781 40690.249771118164 159869821.84823036 2151067.0009841919 4451671.0023412704 87655.729858398438 44776108.008487225
leaf_count=219546 4778 653 207 7528 7715 11115 10375 26 1349 125 56 24 3396 12845 5508 415 27985 252 33154 135 237 21 1050 2578 22 54346 453 997 24 17556
internal_value=0 343.638 1074.12 270.851 -169.942 330.716 997.557 4247 1204.18 3597.25 5360.21 6795.45 473.761 -17.9415 -20.9669 14.6244 549.375 809.699 6.77839 201.468 231.007 1745.18 1810.2 424.812 1109.83 226.522 382.028 154.881 8816.44 -33.6281
internal_weight=0 4.48181e+08 4.06111e+07 4.0757e+08 9.06317e+08 3.37591e+08 3.96543e+07 956820 2.91414e+07 837702 387203 266594 1.38662e+08 6.99793e+07 2.01772e+08 1.73539e+08 9.31551e+07 1.73243e+07 1.72305e+08 2.96145e+07 1.98929e+08 587525 5.04715e+06 1.05129e+07 1.23438e+06 1.98342e+08 3.84718e+07 2.89238e+07 119118 1.42691e+08
internal_count=424471 139423 16467 122956 285048 105333 16005 462 12774 412 205 149 42748 17623 65502 57787 31633 3648 57350 6640 62585 258 2399 3231 437 62327 7981 6505 50 50710
shrinkage=0.15


Tree=11
num_leaves=31
num_cat=0
split_feature=10 24 12 10 12 21 24 24 24 14 12 9 18 2 12 14 1 18 0 12 0 4 24 1 12 12 9 13 16 24
split_gain=5.71965e+13 1.9758e+13 8.37346e+12 4.07734e+12 3.86282e+12 3.50938e+12 2.36018e+12 2.15528e+12 1.87017e+12 1.77306e+12 1.7725e+12 1.54521e+12 1.46164e+12 1.95924e+12 1.36993e+12 1.14416e+12 1.05876e+12 1.28513e+12 2.20709e+12 1.0428e+12 1.01702e+12 1.44683e+12 1.00709e+12 8.79946e+11 8.75464e+11 8.74996e+11 8.56349e+11 1.23432e+12 8.5245e+11 8.39306e+11
threshold=0.82437315136501421 1.338012287084448 3.8326232003231486 -1.0000000180025095e-35 1.0827436617952018 0.5104774487525191 6.8910771921898162 2.6959342902538728 0.13173932291016521 -0.8177185393102212 3.0120273430290689 -0.45568091758871826 0.10297325447159039 1.0000000180025095e-35 0.15908253534337294 -0.8177185393102212 0.32359726549467444 1.0344487019300881 0.26557045506546456 -0.20998928564056699 -0.15202771854057423 1.0000000180025095e-35 2.4508740561362488 -0.45232073515972598 -0.52703768504964299 -0.67329220985444904 1.0000000180025095e-35 0.93254781082741689 1.0000000180025095e-35 2.3594810041182637
decision_type=2 2 2 2 2 2 2 2 2 2 2 2 2 2 2 2 2 2 2 2 2 2 2 2 2 2 2 2 2 2
left_child=3 5 4 -1 14 25 9 15 -5 -4 19 -11 13 -12 -3 -6 17 26 -19 -7 21 -13 -22 -20 -10 -2 -8 -28 -17 -26
right_child=1 2 6 8 7 10 16 -9 24 11 12 20 -14 -15 -16 28 -18 18 23 -21 22 -23 -24 -25 29 -27 27 -29 -30 -31
leaf_value=-27.030382910686722 -41.785996225367306 13.42411594857005 1008.727001899191 -9.6628115092388569 293.02034240740528 14.667515685125096 1188.2572006665168 192.98014711851712 -42.874884218273415 1171.1615887854555 923.70870081136854 -187.10478131069036 126.01482779925524 31.693295789615618 85.424839651331538 216.81012791889262 417.06246492675774 2009.4943105298094 166.31204565855921 45.804456888130716 -119.22498045273238 1147.9601954886314 249.4605153141321 1098.8387300973329 33.611848616949686 15.34678256790826 336.71612420433877 1350.8421447633636 93.949787630737887 227.01598647775035
leaf_weight=740148774.53082013 6230784.5848884583 6824943.5193462372 72833.23046875 103816694.16118777 746901.54625320435 28399730.240873337 46642.309982299805 11913969.672458649 3439635.2696080208 38874.33952331543 145928.47875976562 27163.579833984375 463759.729347229 89307.820190429688 46156283.995522022 1377711.4994125366 271507.3779296875 46551.580364227295 36088.329933166504 163690271.98694527 218481.84082221985 55745.930244445801 703368.88921928406 61681.269775390625 33911364.82580471 188476826.77052498 189773.24009132385 31483.989868164062 16352313.669891357 512489.98950195312
leaf_count=230499 1519 1774 32 35467 164 7050 33 5505 1016 22 24 27 193 50 14519 636 39 36 43 47924 101 29 411 20 14056 55479 137 21 7392 253
internal_value=0 280.673 716.764 -150.452 670.69 184.819 2850.56 954.895 4.96574 1954.51 280.457 1621.6 1869.98 3900.36 507.666 741.052 4313.73 5323.64 7729.28 274.673 1382.26 4737.03 1080.54 5030.85 195.209 90.1233 4027.7 3206.81 689.978 243.275
internal_weight=0 4.72669e+08 8.51723e+07 8.81829e+08 8.33721e+07 3.87497e+08 1.8002e+06 3.03909e+07 1.4168e+08 1.11647e+06 1.92789e+08 1.04363e+06 698996 235236 5.29812e+07 1.84769e+07 683728 412221 144321 1.9209e+08 1.00476e+06 82909.5 921851 97769.6 3.78635e+07 1.94708e+08 267900 221257 1.773e+07 3.44239e+07
internal_count=424471 143180 30941 281291 29990 112239 951 13697 50792 622 55241 590 267 74 16293 8192 329 290 99 54974 568 56 512 63 15325 56998 191 158 8028 14309
shrinkage=0.15


Tree=12
num_leaves=31
num_cat=0
split_feature=7 24 12 24 12 24 14 18 16 14 12 7 14 12 14 12 12 16 2 23 0 18 13 14 12 12 13 26 13 13
split_gain=4.18116e+13 1.61037e+13 6.17114e+12 2.99154e+12 2.74004e+12 2.38804e+12 1.91166e+12 1.58306e+12 1.56225e+12 2.05111e+12 1.4625e+12 1.27171e+12 1.20505e+12 1.94461e+12 2.08518e+12 1.09627e+12 9.98136e+11 9.04951e+11 1.60929e+12 8.92529e+11 9.46214e+11 1.89052e+12 9.24307e+11 9.17719e+11 7.77756e+11 7.53728e+11 2.91145e+12 6.79198e+11 6.51098e+11 9.45327e+11
threshold=0.34532837373951436 1.2399881934373982 3.2952114397148846 0.60571464630942928 0.98327749727470704 6.8910771921898162 -0.8177185393102212 -0.71206776205459477 1.0000000180025095e-35 -0.8177185393102212 -0.5941119078348448 -0.84470754165419148 -1.0000000180025095e-35 0.85141939101891995 -0.8177185393102212 0.003012270618781301 1.4567233527390344 0.84758594337220139 1.0000000180025095e-35 1.7569009538365037 0.21917065799812693 1.0344487019300881 -0.66676182678666263 -0.8177185393102212 -0.1622193513642769 1.8680028553780526 1.2524097383502328 1.0000000180025095e-35 0.15574027255772102 0.47560220008053694
decision_type=2 2 2 2 2 2 2 2 2 2 2 2 2 2 2 2 2 2 2 2 2 2 2 2 2 2 2 2 2 2
left_child=11 3 4 10 15 6 -4 -8 -6 -10 -2 -1 13 -12 16 -3 -15 18 27 28 21 -21 -22 -24 -5 -13 -27 -16 -7 -30
right_child=1 2 5 24 8 19 7 -9 9 -11 12 25 -14 14 17 -17 -18 -19 -20 20 22 -23 23 -25 -26 26 -28 -29 29 -31
leaf_value=-23.358401925692586 -23.467449040623336 -5.8423361900856721 767.61159059563124 12.098051052154975 197.8790060133876 165.80603311837208 608.77027166271353 149.36001351526349 198.37833351135944 86.917296755372845 18.328692071319278 -7.6511789807344979 -0.65915231439449984 272.11663860115647 1164.9102703214762 67.520527724509876 877.3198195864353 69.158818157720873 57.05156477549361 647.52273628359103 1007.8336369143706 2196.4182522847432 987.00507723772409 216.31360468516812 42.897912833810842 42.942705605990909 937.01727423414775 471.59559193456369 1118.6638192771607 377.25880789994682
leaf_weight=723587118.77423787 24323653.194714546 5015995.9637508392 136197.4909286499 21749211.099262238 4381937.9472894669 180182.94958496094 184399.12866210938 1990352.8565273285 4307329.0664367676 26999923.895762444 180647818.17886829 96532895.504314542 78499601.428035736 150912.28945922852 47974.120407104492 53086004.830275059 103276.62951660156 7023210.1000423431 218336.08056640625 53934.779693603516 77797.519805908203 26413.640193939209 45336.529602050781 149075.22012138367 121501624.59498799 3084735.2476539612 84185.509552001953 94251.949798583984 50690.929775238037 163510.74956512451
leaf_count=225153 6239 1274 46 5447 2251 63 24 1068 1113 12554 51319 32589 28004 31 20 15907 20 2961 76 41 45 20 21 86 36279 1672 20 28 27 73
internal_value=0 218.722 587.451 136.507 541.872 1985.44 1483.03 1255.43 759.956 681.683 78.2905 -141.134 99.6925 143.088 637.325 407.914 3453.4 540.381 2085.46 3539.84 4695.98 7711.36 3805.93 2640.25 254.811 -35.2545 444.631 4703.05 2506.31 3684.75
internal_weight=0 5.31209e+08 9.68491e+07 4.3436e+08 9.37912e+07 3.05789e+06 2.31095e+06 2.17475e+06 3.56892e+07 3.13073e+07 2.91109e+08 8.23289e+08 2.66785e+08 1.88286e+08 7.63796e+06 5.8102e+07 254189 7.38377e+06 360562 746942 352558 80348.4 272209 194412 1.43251e+08 9.97018e+07 3.16892e+06 142226 394385 214202
internal_count=424471 165037 34613 130424 33099 1514 1138 1092 15918 13667 88698 259434 82459 54455 3136 17181 51 3085 124 376 213 61 152 107 41726 34281 1692 48 163 100
shrinkage=0.15


Tree=13
num_leaves=31
num_cat=0
split_feature=21 12 12 12 2 24 9 7 13 7 7 18 7 18 14 12 24 7 13 7 24 12 12 14 16 16 7 20 0 12
split_gain=3.05908e+13 1.04531e+13 3.93574e+12 3.41052e+12 2.93756e+12 2.76135e+12 2.6722e+12 2.47603e+12 2.13961e+12 1.9695e+12 1.81461e+12 2.37698e+12 1.46064e+12 1.61642e+12 1.23621e+12 1.41817e+12 1.20326e+12 1.18399e+12 1.18589e+12 9.82129e+11 8.88971e+11 1.01327e+12 8.85792e+11 1.02475e+12 1.48351e+12 8.12715e+11 9.93879e+11 7.69833e+11 9.23614e+11 1.25567e+12
threshold=0.13917226422759563 1.4567233527390344 4.9380391109563417 -0.37751124693824184 1.0000000180025095e-35 1.1044842992782413 1.0000000180025095e-35 1.4707144333955056 0.97824237190210483 0.10588453125951618 1.2815537613000763 1.0344487019300881 1.9807297996097859 0.80157984006546357 -0.8177185393102212 0.23204620208044621 2.5661965192504246 1.9088966468657866 -0.16412165496509487 -0.82555203397035248 1.7012780458941028 2.8011525304190079 0.31384403474532652 -0.8177185393102212 -0.059567473954397467 -0.059567473954397467 -0.82555203397035248 -0.46667568126499254 -0.8480246745506389 0.25920308252518648
decision_type=2 2 2 2 2 2 2 2 2 2 2 2 2 2 2 2 2 2 2 2 2 2 2 2 2 2 2 2 2 2
left_child=9 3 7 -2 6 14 12 16 10 -1 11 -8 13 -4 15 -5 -3 -12 -19 -7 27 -22 -21 -24 -25 26 -16 28 -11 -30
right_child=1 2 4 5 -6 19 8 -9 -10 20 17 -13 -14 -15 25 -17 -18 18 -20 22 21 -23 23 24 -26 -27 -28 -29 29 -31
leaf_value=-18.857593982491274 -6.9680030427102491 53.363356311560395 1731.2218561168904 37.006537704944257 43.236544992586389 -102.19517850561935 347.9417566654426 158.16937350228667 1125.4410334960769 -20.318719306075248 -111.84168132021077 1684.2139846461548 587.28308605268433 474.31333773513364 -34.11159469102504 154.50019941593834 141.09376814620484 818.28392738145112 159.93985507894891 34.625753492402481 133.31666348439936 951.72244578655341 98.152397029115306 97.180949099284689 37.555499351950793 11.009022048795114 38.832735351752333 -6.4458622322617112 15.927936370323225 96.836463930432501
leaf_weight=765031236.60985267 62016805.3910923 17154001.369390607 75984.069244384766 57500270.577504158 459528.36820602417 914832.4280424118 97208.679702758789 11242586.222933769 75068.119903564453 9224078.8794875145 220703.65928649902 43289.81005859375 117003.20874023438 33028.029891967773 4591630.7190933228 2408241.1195068359 4424925.9078016281 85474.671619415283 220068.73003959656 34493995.953244209 561970.38807678223 36233.279754638672 15406435.216451645 12859856.020160675 34783925.009341717 139334447.96368599 49622030.729672432 108129467.68615055 17617347.257651329 5716212.1238040924
leaf_count=240086 15776 8341 21 11599 232 393 44 5032 34 3216 102 22 34 21 1678 479 2221 34 91 9001 202 20 3471 4836 13604 47354 15003 33832 5503 2189
internal_value=0 213.703 744.633 169.774 2370.19 207.879 3358.71 673.94 2441.52 -105.684 1871.67 5064.46 6369.04 9002.73 152.669 278.197 475.688 1019.25 2294.06 350.002 2.7906 1219.25 359.674 430.159 357.663 113.814 217.698 -2.3818 132.427 238.325
internal_weight=0 4.48181e+08 3.42489e+07 4.13932e+08 1.42736e+06 3.51916e+08 967829 3.28215e+07 741814 9.06317e+08 666746 140498 226015 109012 2.53457e+08 5.99085e+07 2.15789e+07 526247 305543 9.8459e+07 1.41285e+08 598204 9.75442e+07 6.30502e+07 4.76438e+07 1.93548e+08 5.42137e+07 1.40687e+08 3.25576e+07 2.33336e+07
internal_count=424471 139423 16229 123194 635 107418 403 15594 327 285048 293 66 76 42 76113 12078 10562 227 125 31305 44962 222 30912 21911 18440 64035 16681 44740 10908 7692
shrinkage=0.15


Tree=14
num_leaves=31
num_cat=0
split_feature=21 12 24 2 12 16 14 12 20 14 9 7 12 13 14 13 7 16 14 7 24 12 14 16 24 7 12 7 12 24
split_gain=2.21204e+13 7.65596e+12 3.39856e+12 3.02934e+12 3.21808e+12 2.2268e+12 2.17189e+12 2.01562e+12 1.79971e+12 1.43679e+12 1.26931e+12 1.20232e+12 1.18825e+12 1.18009e+12 1.06339e+12 1.4072e+12 1.09062e+12 1.05936e+12 1.16492e+12 1.01459e+12 8.29664e+11 8.22516e+11 1.24908e+12 1.19866e+12 6.70759e+11 6.60773e+11 6.44074e+11 6.28944e+11 5.99383e+11 1.05316e+12
threshold=0.057721051283399084 1.8680028553780526 0.86519018831632566 1.0000000180025095e-35 4.9380391109563417 1.0000000180025095e-35 0.80915934847630944 -0.062753186843782463 1.2810089345091795 -0.8177185393102212 1.0000000180025095e-35 1.2815537613000763 -0.58593212456835675 0.429907639005849 -0.8177185393102212 -0.072732532815718912 2.2321458342137843 1.0000000180025095e-35 -0.8177185393102212 -0.63878583940490763 0.18478765594268626 0.644307278711443 -0.8177185393102212 -0.059567473954397467 6.8910771921898162 1.8514300881343562 3.8326232003231486 -0.82555203397035248 0.38091825753052838 2.5661965192504246
decision_type=2 2 2 2 2 2 2 2 2 2 2 2 2 2 2 2 2 2 2 2 2 2 2 2 2 2 2 2 2 2
left_child=19 2 12 4 17 8 10 -4 -6 26 -7 13 -2 -12 -13 -16 24 -3 -19 -1 -21 -9 -23 -24 -17 -20 -5 -14 -22 -30
right_child=1 3 7 9 5 6 -8 21 -10 -11 11 14 27 -15 15 16 -18 18 25 20 28 22 23 -25 -26 -27 -28 -29 29 -31
leaf_value=-16.751583578921405 -23.563562152531563 270.67093369209721 -4.8810705780481021 236.44957778194254 1831.0739065718792 770.6254806026194 -390.74455961411462 36.063699264941178 623.00939602924018 29.068810372691075 1173.6541466764063 751.56276499491446 -26.405502494924292 252.85947440579963 612.95252702227083 -439.55592224314074 506.06724462532731 289.12828389055477 91.417234758896228 -7.145720509468874 12.280583769518168 115.30417521782815 102.77570316068571 40.487971802965625 59.290932753907683 201.51890715370666 740.4202291731541 16.069482684087806 64.068911417304989 448.20185706676227
leaf_weight=701129308.0905993 19402135.005121708 1239571.8082361221 20370872.400117874 240629.669090271 40623.61003112793 173972.87823486328 83606.339614868164 84324121.451364279 87530.030822753906 7415462.4765988588 63895.800270080566 67128.259765625 8078996.3323440552 61418.849601745605 94298.431369781494 123341.87999343872 63026.000360488892 877711.72663116455 7939749.6225137711 157673302.57178986 11360188.920804977 7747508.8564071655 8307214.1233854294 42592358.355770826 119315.80839538574 1450498.4407806396 74790.799797058105 269473011.94514322 3654328.5545845032 167969.15985107422
leaf_count=218523 5048 690 5127 85 20 44 71 23235 47 4134 23 22 2838 23 29 42 27 226 3735 51168 3353 1858 3577 17055 57 779 31 81107 1426 71
internal_value=0 172.345 145.891 774.644 1079.24 2820.56 2234.71 261.749 6706.37 282.703 2762.67 2065.27 82.1626 4815.71 1327.39 709.274 -332.499 931.228 825.808 -94.7598 -26.14 303.68 394.629 337.692 -1295.14 722.83 2372.99 98.8875 197.123 539.663
internal_weight=0 4.80513e+08 4.60296e+08 2.02166e+07 1.24857e+07 978158 850004 1.63342e+08 128154 7.73088e+06 766398 592425 2.96954e+08 125315 467110 399982 305684 1.15075e+07 1.0268e+07 8.73985e+08 1.72856e+08 1.42971e+08 5.86471e+07 5.08996e+07 242658 9.39025e+06 315420 2.77552e+08 1.51825e+07 3.8223e+06
internal_count=424471 149930 139845 10085 5835 405 338 50852 67 4250 267 223 88993 46 177 155 126 5430 4740 274541 56018 45725 22490 20632 99 4514 116 83945 4850 1497
shrinkage=0.15


Tree=15
num_leaves=31
num_cat=0
split_feature=7 12 7 12 6 24 14 12 12 12 14 20 0 18 1 16 14 12 23 12 7 24 18 14 16 12 12 12 0 13
split_gain=1.58958e+13 6.30567e+12 2.80944e+12 2.71832e+12 2.82361e+12 2.31697e+12 1.20636e+12 9.83591e+11 9.11591e+11 8.84934e+11 8.41554e+11 7.80465e+11 1.17693e+12 8.06403e+11 9.9622e+11 6.93887e+11 6.53853e+11 8.83265e+11 6.4822e+11 5.78229e+11 5.56359e+11 7.95184e+11 5.32905e+11 5.23908e+11 1.08066e+12 7.02863e+11 5.10419e+11 4.89479e+11 4.76971e+11 4.87767e+11
threshold=0.34532837373951436 0.98327749727470704 1.3821201934097909 4.9380391109563417 1.0000000180025095e-35 0.80752895675923753 -0.8177185393102212 2.4801778350420167 -0.7822469229640695 -0.29767656225731864 -1.0000000180025095e-35 1.8834939412893621 0.31197025213280222 0.10297325447159039 -0.020912195898323192 -0.14831074304069511 1.0000000180025095e-35 3.8326232003231486 1.6616253356986326 1.9988793876418611 -0.72498562041419257 5.1618168577927444 -1.1778054857838434 -0.8177185393102212 1.0000000180025095e-35 0.38091825753052838 0.18198592848953946 -0.87222453889543783 1.0000000180025095e-35 -0.71245638786135068
decision_type=2 2 2 2 2 2 2 2 2 2 2 2 2 2 2 2 2 2 2 2 2 2 2 2 2 2 2 2 2 2
left_child=20 5 6 7 -5 8 19 -4 -2 -7 -10 12 18 -14 -15 16 17 -8 -6 -3 -1 27 -9 25 26 -11 -25 -22 -13 -30
right_child=1 2 3 4 11 9 15 22 10 23 -12 28 13 14 -16 -17 -18 -19 -20 -21 21 -23 -24 24 -26 -27 -28 -29 29 -31
leaf_value=-14.506557091780373 -49.683036310848408 117.00554125660766 80.093259423390563 1389.9961656356627 -121.59064754876125 -43.357283969976784 146.23058170789412 419.61145802251241 12.259607307501442 34.747819493533271 -5.8939121372806005 454.43155726493598 1041.2574174100826 -31.109726606710279 735.4195243590342 30.850535443876979 30.315969086883296 772.5488567627043 498.12742273544171 325.4204822421068 -36.865810292596542 417.79068242498045 150.56368140583336 27.862249501315627 10.98819958498026 78.246934570141775 63.985223668205194 0.41686752639491648 378.86507743790958 -77.65556560538802
leaf_weight=724257943.60516191 6323062.0093536377 1542823.0316848755 18822684.385232925 57126.400451660156 96593.127990722656 3620599.1347160339 1702624.7020721436 173217.66961669922 236285217.06366634 38923149.623701096 75917733.425230026 81010.12984085083 78783.069976806641 59780.299823760986 105426.79016113281 42739427.162009358 1513477.3507461548 52215.799392700195 62581.099624633789 371675.108253479 8696026.5641927719 101200.11993408203 3787949.4003543854 18532401.090276718 51837834.675987244 10643171.626091003 16761332.251630783 89157948.848668694 71001.099803924561 203842.59013557434
leaf_count=225631 1691 427 7613 28 46 918 762 35 66493 7667 26359 29 23 55 23 18969 820 26 32 98 2309 33 1826 5553 17572 2324 5576 31396 35 102
internal_value=0 134.902 411.08 693.505 2486.69 91.8526 271.996 629.271 44.6884 198.916 52.3017 1976.4 2929.08 4309.1 3053.67 239.631 683.731 1099.11 813.722 1049.78 -87.1439 -16.4115 1082.19 211.841 165.148 293.921 300.116 -19.309 897.07 268.524
internal_weight=0 5.30367e+08 7.15222e+07 2.36e+07 816145 4.58845e+08 4.79222e+07 2.27839e+07 3.18526e+08 1.40318e+08 3.12203e+08 759018 403164 243990 165207 4.60077e+07 3.26832e+06 1.75484e+06 159174 1.9145e+06 8.22213e+08 9.79552e+07 3.96117e+06 1.36698e+08 8.71316e+07 4.95663e+07 3.52937e+07 9.7854e+07 355854 274844
internal_count=424471 165102 30949 9847 373 134153 21102 9474 94543 39610 92852 345 179 101 78 20577 1608 788 78 525 259369 33738 1861 38692 28701 9991 11129 33705 166 137
shrinkage=0.15


Tree=16
num_leaves=31
num_cat=0
split_feature=21 12 21 12 14 16 14 12 12 7 7 21 13 21 16 2 12 12 12 14 12 23 13 12 0 12 7 21 12 13
split_gain=1.16914e+13 4.19067e+12 1.82144e+12 1.56804e+12 1.73187e+12 1.317e+12 1.27011e+12 9.83029e+11 9.7679e+11 9.35947e+11 8.92126e+11 8.59853e+11 8.65519e+11 8.47736e+11 6.20006e+11 1.1996e+12 1.76219e+12 6.01849e+11 5.6603e+11 6.09295e+11 5.3028e+11 5.37304e+11 5.29004e+11 4.88511e+11 6.10479e+11 4.72117e+11 4.57309e+11 7.7617e+11 9.27598e+11 2.04214e+12
threshold=0.057721051283399084 1.3471142569680949 3.4365420572098961 -0.31632646810491138 -0.8177185393102212 -0.059567473954397467 -0.8177185393102212 0.19932706901449407 0.42836100047615894 -0.82555203397035248 1.8514300881343562 6.696837504990012 0.93254781082741689 1.1160250870548907 -0.14831074304069511 1.0000000180025095e-35 3.2952114397148846 2.3568267033833776 0.2261567581285748 0.80915934847630944 3.0120273430290689 1.7569009538365037 0.429907639005849 4.9380391109563417 0.96156741107552934 -0.5941119078348448 -0.65315246767019308 -0.60708936609216335 0.81150204867845843 1.1153260551261688
decision_type=2 2 2 2 2 2 2 2 2 2 2 2 2 2 2 2 2 2 2 2 2 2 2 2 2 2 2 2 2 2
left_child=26 3 6 25 7 9 17 -5 -7 -6 14 -4 20 -9 15 16 -8 -3 -11 -20 -13 -22 -23 -14 -25 -2 -1 28 -28 -30
right_child=1 2 11 4 5 8 10 13 -10 18 -12 12 23 -15 -16 -17 -18 -19 19 -21 21 22 -24 24 -26 -27 27 -29 29 -31
leaf_value=-12.065228675971241 -21.706512445071187 182.27494872561084 109.85102770779726 28.39299729520264 -30.785052533265478 -3.6550257079033388 176.87584360702473 158.26828789211302 17.985654400237756 25.732010882756533 130.47843769434459 -25.558202523312364 239.91394470143726 55.982541776053594 31.637439455917022 -22.789051305585833 1001.5757272307673 561.7382812387898 67.76989898629094 4.5415246810309302 135.01025686182857 529.01049198441842 170.70930058843962 1018.153514509206 235.16456054630814 3.3417263460360931 5.3274322606555478 -9.5953775039364846 59.098472635218769 783.61155463841885
leaf_weight=700504340.58444142 21921850.188061237 750213.22733306885 6456113.5703554153 62121938.26057148 5217052.9184522629 98694896.415113926 998264.81163406372 2007335.6298446655 89473287.746665955 45803133.269538879 2516292.8025426865 194285.93103027344 63862.318878173828 19864751.670885086 26973377.822874188 750609.39924240112 61912.269348144531 107522.47058105469 17267233.515989304 4278906.0304489136 427973.53942871094 222672.56056785583 158856.80979919434 70105.600036621094 32928.310302734375 74364044.126930237 41104162.543051243 124638881.29374993 5444089.6372480392 88963.980834960938
leaf_count=218608 5767 190 2936 12558 1975 32497 468 408 33211 13783 1136 70 31 4369 13046 431 21 26 5877 1850 173 143 66 27 20 19005 13362 40052 2338 27
internal_value=0 125.126 435.959 97.0852 128.599 88.3692 331.757 253.479 44.2336 202.815 298.859 875.32 1663.83 435.8 248.943 815.384 1500.24 1532.29 234.424 368.088 1313.22 1669.3 2532.17 3772.54 5119.47 -15.7408 -69.1097 -22.7908 87.2594 471.651
internal_weight=0 4.80799e+08 3.9785e+07 4.41014e+08 3.44729e+08 2.60735e+08 3.21582e+07 8.3994e+07 1.88168e+08 7.25663e+07 3.13005e+07 7.6268e+06 1.17069e+06 2.18721e+07 2.87842e+07 1.81079e+06 1.06018e+06 857736 6.73493e+07 2.15461e+07 1.00379e+06 809503 381529 166896 103034 9.62859e+07 8.7178e+08 1.71276e+08 4.66372e+07 5.53305e+06
internal_count=424471 150084 18784 131300 106528 89193 15318 17335 65708 23485 15102 3466 530 4777 13966 920 489 216 21510 7727 452 382 209 78 47 24772 274387 55779 15727 2365
shrinkage=0.15


Tree=17
num_leaves=31
num_cat=0
split_feature=21 12 7 12 18 0 21 13 12 14 16 0 12 7 14 24 13 13 21 16 14 21 14 7 21 21 12 24 12 24
split_gain=8.46319e+12 3.23587e+12 1.848e+12 1.47575e+12 1.43133e+12 1.64513e+12 9.09592e+11 9.71384e+11 8.86605e+11 9.74467e+11 9.93058e+11 7.97588e+11 7.37674e+11 6.73106e+11 5.32868e+11 5.65068e+11 1.73904e+12 5.00571e+11 4.83974e+11 4.61401e+11 5.80745e+11 6.4995e+11 4.52548e+11 4.10419e+11 6.21847e+11 4.03855e+11 3.9067e+11 3.26085e+11 4.19927e+11 7.34977e+11
threshold=-0.0029460590474507452 0.69011406500377603 1.2623982721697917 2.8011525304190079 -1.0613710548515314 0.17277086093078928 6.696837504990012 0.97824237190210483 -0.48777472537050048 -0.8177185393102212 -0.059567473954397467 1.1471665993448801 -0.04606642898014688 -0.82555203397035248 -0.8177185393102212 6.8910771921898162 0.38421307793116094 0.24712939470709699 0.78572637525359701 1.0000000180025095e-35 -0.8177185393102212 1.6395597799100021 -0.8177185393102212 2.1243961050977851 2.3698120338924542 2.3698120338924542 0.10116966981663768 -0.15656683487527517 0.39564186741020685 3.0067283283465773
decision_type=2 2 2 2 2 2 2 2 2 2 2 2 2 2 2 2 2 2 2 2 2 2 2 2 2 2 2 2 2 2
left_child=27 8 11 19 5 -5 22 17 -2 12 13 14 -10 -11 -3 -16 -17 -8 -14 -4 21 -21 -6 -24 -25 26 -12 -1 -29 -30
right_child=1 2 3 4 6 -7 7 -9 9 10 25 -13 18 -15 15 16 -18 -19 -20 20 -22 -23 23 24 -26 -27 -28 28 29 -31
leaf_value=-9.952367685700132 -9.6191638834887137 93.593549274978002 91.986504332172075 991.50489875813105 303.19438559561252 175.73619127618244 341.23024879637859 746.05738977537692 14.101727542517162 -24.340933150053097 -10.803465343802618 281.63060067518228 100.65172309791647 22.955281260614552 17.349681428718636 -28.452527159646895 1131.9651847437135 79.504810017940727 35.449889078729178 262.48303099914426 38.11154461820216 75.706225490944718 61.964882124028065 744.44189086376082 137.54582056853096 -123.06156952830989 5.325817167926906 -4.1928415992813513 24.449874485943354 459.66991340744545
leaf_weight=783009449.23234296 49270237.905490875 2177448.5999755859 5817614.8203077316 94051.899230957031 212045.25000762939 136127.78955078125 333656.75978088379 86827.640106201172 65798407.480654716 7382789.9765968323 53139294.087858796 264714.1091003418 2750705.5312271118 81619340.834789276 59670263.958985209 96435.880661010742 41589.650283813477 324162.76054954529 37228078.399410248 457657.72677612305 29663357.587043762 4987939.4359703064 2908375.1894874573 49299.470153808594 165550.91886138916 607916.63000488281 92783059.407938242 60802172.940310478 10613258.382782936 88028.999542236328
leaf_count=246749 12929 581 2387 22 70 20 178 44 13522 2680 17281 107 570 24946 25559 35 27 160 7587 97 12348 1156 1353 23 99 199 31642 17982 4068 50
internal_value=0 103.555 257.203 411.018 967.588 3393.74 830.71 1829.99 61.2707 79.3728 43.5648 145.428 159.106 126.88 138.031 120.339 2141.35 1415.04 266.24 352.404 309.183 609.355 607.606 511.626 1845.36 -7.04082 -3.6523 -60.4459 4.19777 186.867
internal_weight=0 4.98067e+08 1.07487e+08 4.52367e+07 4.3101e+06 230180 4.07992e+06 744647 3.9058e+08 3.4131e+08 2.35532e+08 6.22505e+07 1.05777e+08 8.90021e+07 6.19857e+07 5.98083e+07 138026 657820 3.99788e+07 4.09266e+07 3.5109e+07 5.4456e+06 3.33527e+06 3.12323e+06 214850 1.4653e+08 1.45922e+08 8.54513e+08 7.15035e+07 1.07013e+07
internal_count=424471 155622 44266 17957 1969 42 1927 382 111356 98427 76748 26309 21679 27626 26202 25621 62 338 8157 15988 13601 1253 1545 1475 122 49122 48923 268849 22100 4118
shrinkage=0.15


Tree=18
num_leaves=31
num_cat=0
split_feature=7 12 16 12 14 14 16 21 21 12 12 20 7 14 2 12 20 1 20 14 12 1 13 12 12 14 14 16 1 1
split_gain=6.16708e+12 2.89925e+12 1.22697e+12 1.19759e+12 1.42523e+12 1.18471e+12 1.17753e+12 9.40226e+11 9.35539e+11 7.44457e+11 6.41143e+11 7.08376e+11 1.05333e+12 6.18555e+11 6.98121e+11 9.76041e+11 1.7271e+12 1.29588e+12 8.40652e+11 5.69782e+11 5.27186e+11 4.79416e+11 7.29374e+11 4.51524e+11 4.25734e+11 4.20423e+11 4.0607e+11 1.55318e+12 4.02126e+11 3.92616e+11
threshold=0.22321200494065754 1.3471142569680949 -0.14831074304069511 -1.0000000180025095e-35 -0.8177185393102212 -0.8177185393102212 -0.059567473954397467 1.3586935283782899 0.76887440016169428 -0.83132562256299769 3.8326232003231486 1.4220669643386838 1.1881707175372231 0.80915934847630944 -1.0000000180025095e-35 3.8326232003231486 1.1566866170462378 -0.51927366774825645 1.5248719243014313 0.80915934847630944 2.4801778350420167 -0.042077631063457736 -0.16412165496509487 4.9380391109563417 0.32987640994764306 0.80915934847630944 -0.8177185393102212 -0.059567473954397467 0.30777242397880572 -0.65981311623189243
decision_type=2 2 2 2 2 2 2 2 2 2 2 2 2 2 2 2 2 2 2 2 2 2 2 2 2 2 2 2 2 2
left_child=-1 3 10 9 8 7 19 -4 24 -2 25 12 -12 14 15 -7 17 -17 -18 -6 -9 29 -23 -15 -5 -3 -11 -28 -24 -20
right_child=1 2 5 4 6 13 -8 20 -10 26 11 -13 -14 23 -16 16 18 -19 21 -21 -22 22 28 -25 -26 -27 27 -29 -30 -31
leaf_value=-8.3648855948484684 -56.167857776877483 148.45990075886965 604.94581097448201 90.390726988810982 44.34802560986558 54.723880529624296 6.3936318426578502 84.865574387138494 35.037746461541133 9.7897096950385016 224.77293332385653 186.03446599936646 1211.2740925049036 1.1101593858296588 16.604331994565467 -0.84350230906084711 -230.08177666312403 927.90442695938668 278.64962943361127 -2.4501891552596335 248.1088797323394 512.0656049821996 449.74886343328058 -263.72625266114937 222.64177027775369 21.601807947927618 11.306731490712261 -21.393146312251037 70.397748298020602 -105.22507596136111
leaf_weight=804671406.27974498 4943471.2339820862 2308781.4923181534 94598.780242919922 2436717.3091888428 30640877.827918053 16273039.542992592 186157292.64192963 1899493.7068862915 38889299.036273956 101685945.24056911 53216.979537963867 204779.70074462891 44900.160095214844 6861560.9020309448 11564543.284876943 48088.340059280396 131280.03959655762 113786.19030761719 87561.769800186157 7236145.2028160095 581348.64948272705 174234.86169433594 78111.06982421875 147970.24996948242 706457.70198059082 788570.10939788818 75775426.524557114 57468583.229881287 322283.296875 190087.90020751953
leaf_count=253059 1320 1087 28 510 10001 7236 65754 480 8136 21184 37 103 20 3139 5926 64 66 28 157 2978 178 28 21 138 158 545 22909 19041 33 107
internal_value=0 81.7832 334.351 60.8325 107.028 283.582 75.3264 938.782 275.999 9.59257 910.208 2298.79 4508.09 236.699 301.169 427.629 1319.86 4346.66 821.71 236.05 820.795 1184.55 1705.89 -29.87 800.769 774.416 17.6738 -18.6456 962.691 105.578
internal_weight=0 5.47908e+08 4.19682e+07 5.0594e+08 2.66067e+08 3.8568e+07 2.24034e+08 2.57544e+06 4.20325e+07 2.39873e+08 3.40025e+06 302897 98117.1 3.59925e+07 2.8983e+07 1.74185e+07 1.14543e+06 161875 983559 3.7877e+07 2.48084e+06 852279 574629 7.00953e+06 3.14318e+06 3.09735e+06 2.3493e+08 1.33244e+08 400394 277650
internal_count=424471 171412 19421 151991 87537 17629 78733 686 8804 64454 1792 160 57 16943 13666 7740 504 92 412 12979 658 346 82 3277 668 1632 63134 41950 54 264
shrinkage=0.15


Tree=19
num_leaves=31
num_cat=0
split_feature=21 12 7 12 6 20 14 12 14 2 12 21 23 14 16 7 12 12 18 18 13 7 12 20 23 1 23 1 21 12
split_gain=4.5063e+12 1.92585e+12 1.17387e+12 8.40295e+11 1.72362e+12 5.52112e+11 5.61279e+11 5.32407e+11 5.31846e+11 5.23604e+11 7.24098e+11 1.4285e+12 1.15188e+12 4.87233e+11 4.87345e+11 3.81302e+11 3.75395e+11 3.71124e+11 3.58994e+11 5.45085e+11 3.59801e+11 3.5395e+11 3.53554e+11 3.69674e+11 3.37656e+11 7.79478e+11 5.33615e+11 3.69202e+11 3.3218e+11 3.12584e+11
threshold=-0.0029460590474507452 0.644307278711443 1.4012756825400754 4.9380391109563417 1.0000000180025095e-35 1.8834939412893621 0.80915934847630944 -0.50118956992754082 1.0000000180025095e-35 1.0000000180025095e-35 3.8326232003231486 2.9315445369558781 1.5187119084918259 -0.8177185393102212 -0.059567473954397467 -0.82555203397035248 -0.12819145297568671 4.9380391109563417 0.3358421163362148 0.91801427099777577 -0.027037971741030942 1.2456371849280765 2.0803500289760821 2.146483420413845 1.7569009538365037 -0.61700191327652198 1.8545584260830574 -0.11919964799035399 1.5833865296036598 1.5735306577844834
decision_type=2 2 2 2 2 2 2 2 2 2 2 2 2 2 2 2 2 2 2 2 2 2 2 2 2 2 2 2 2 2
left_child=-1 7 8 22 -5 6 24 -2 9 10 29 -12 21 16 15 -15 -9 -10 20 -20 -7 -13 -4 -24 25 -6 -26 -27 -25 -3
right_child=1 2 3 4 5 18 -8 13 17 -11 11 12 -14 14 -16 -17 -18 -19 19 -21 -22 -23 23 28 26 27 -28 -29 -30 -31
leaf_value=-6.6160277617721794 -9.2903314612038521 31.507428951444695 40.893223525777067 1014.5369001614699 1144.5313225078362 109.12992593618412 -307.35967626674812 8.3430973956356471 3.8721181414278969 11.841892822202738 783.33754870077473 29.930773001710239 555.48459403253355 -19.367503886306448 -1.1875128203216125 15.924659263569094 26.150482342583924 -209.35134582274873 328.55179871893972 -148.79728607613373 -389.93136580577419 -403.37773333455482 68.959968925172959 485.16124524632124 935.2600162974403 -258.9421926887178 302.71883847131437 236.67919374212639 150.53980011608533 72.952413949218808
leaf_weight=854512909.55497861 44232728.163318634 22948896.5245049 26652277.289916992 55110.090393066406 18209.899967193604 55515.569885253906 34082.059936523438 57678467.053466797 29418983.125455976 25109253.143925667 86836.159460067749 120449.8591003418 80870.469787597656 7518542.7870597839 140600833.81620443 82136074.856006622 49491387.8381567 184821.07011413574 128211.71097755432 92768.380104064941 78416.458801269531 65471.770080566406 5391568.1787014008 76820.700408935547 45234.341278076172 44762.859985351562 89145.149597167969 138308.3876953125 509154.55093383789 4983747.4355792999
leaf_count=268849 11581 8317 9730 27 33 22 32 11942 12720 11003 36 51 36 2704 46893 24994 9999 109 56 62 25 20 2522 27 20 28 30 20 261 2322
internal_value=0 75.5639 188.157 346.434 1372.34 962.332 1817.51 41.2221 124.446 184.05 277.349 1699.33 552.68 54.7449 28.8204 86.4334 110.444 16.9395 71.4145 854.391 -1220.45 -817.717 321.918 541.717 2210.12 1390.61 3437.62 769.963 1296.06 259.347
internal_weight=0 4.98067e+08 1.16409e+08 3.34096e+07 779765 724655 369743 3.81658e+08 8.29993e+07 5.33955e+07 2.82863e+07 353628 266792 3.37425e+08 2.30255e+08 8.96546e+07 1.0717e+08 2.96038e+07 354912 220980 133932 185922 3.26298e+07 5.97754e+06 335661 201281 134379 183071 585975 2.79326e+07
internal_count=424471 155622 47509 12895 355 328 163 108113 34614 21785 10782 143 107 96532 74591 27698 21941 12829 165 118 47 71 12540 2810 131 81 50 48 288 10639
shrinkage=0.15


Tree=20
num_leaves=31
num_cat=0
split_feature=21 12 14 16 12 21 12 14 21 0 0 16 23 12 1 12 10 21 21 14 10 0 0 12 14 16 12 21 21 10
split_gain=3.37963e+12 1.63925e+12 9.86658e+11 8.32221e+11 8.58853e+11 8.12431e+11 7.40756e+11 6.52435e+11 6.37648e+11 6.34909e+11 7.69279e+11 4.65968e+11 3.73739e+11 4.01548e+11 1.81435e+12 3.57571e+11 3.12383e+11 2.91542e+11 2.83023e+11 2.80221e+11 2.93666e+11 2.52199e+11 2.64873e+11 2.43229e+11 2.41172e+11 3.31466e+11 2.47008e+11 2.91514e+11 2.44139e+11 2.32872e+11
threshold=-0.0029460590474507452 1.7044071900482918 -0.8177185393102212 -0.14831074304069511 4.9380391109563417 1.8777343612088939 0.32987640994764306 -0.8177185393102212 1.4081259886478714 0.26557045506546456 0.72956842573884118 1.0000000180025095e-35 1.5901686220952291 4.9380391109563417 0.11111943977066494 -0.62781261489277551 1.0000000180025095e-35 3.8864897921636996 0.39813094813983424 0.80915934847630944 -0.76144016150566551 0.17277086093078928 -0.05922812440589896 0.49347207527740372 -0.8177185393102212 -1.0000000180025095e-35 -0.25056101064234759 0.51609477378315338 1.4710400289909749 -0.76144016150566551
decision_type=2 2 2 2 2 2 2 2 2 2 2 2 2 2 2 2 2 2 2 2 2 2 2 2 2 2 2 2 2 2
left_child=-1 6 5 4 29 -3 15 8 23 -6 -11 19 -5 -14 21 16 -2 -13 -18 20 -9 22 -15 -8 26 -26 -17 -28 -27 -4
right_child=1 2 3 12 9 -7 7 11 -10 10 -12 17 13 14 -16 24 18 -19 -20 -21 -22 -23 -24 -25 25 28 27 -29 -30 -31
leaf_value=-5.6870720776115471 -5.4060428322717113 571.87675652205519 -120.72188566498906 20.840428111799032 874.44202067347908 134.00978231365303 73.763155350143194 -34.973140989832679 31.838682965958014 -83.967970034715293 610.41475229257014 9.6751657620528171 56.358089604381405 -363.34917957479905 497.97692364537761 3.1149168661199846 -24.602390424900069 -134.53778331695682 -103.89000048822147 -1.0836534188521862 48.704871550988102 -301.71570991917326 382.67085129609893 169.21106714197515 8.188455670544986 -3.5955828938349148 54.721541429325541 14.339963522575227 -64.240466188840443 108.57763253446176
leaf_weight=857271140.32500386 17201611.754354477 102062.22015380859 104869.14990615845 17654309.376162648 52064.289901733398 1447996.9845199585 1424485.2210235596 1008848.6124486923 15455401.525045395 71843.030883789062 71748.400360107422 121603531.80706573 3667593.319311142 16657.42989730835 218212.85083007812 51806099.998289108 3327261.8674793243 316229.70133209229 1456336.5556564331 4026559.140171051 14603193.711862564 107035.27943229675 29982.749778747559 1038756.8597183228 89716291.250818253 91725946.745579123 4356754.6101036072 52397825.083997726 1518311.7366580963 2003856.0193214417
leaf_count=269015 4537 20 54 8890 29 397 283 444 3508 37 32 45501 1668 20 32 10845 902 135 395 1847 5295 95 31 223 27260 29952 947 10478 489 1110
internal_value=0 65.6307 312.359 262.414 833.788 1085.6 52.3037 107.79 287.568 2838.01 1753.3 85.034 201.721 476.118 1466.24 24.0783 -98.8998 62.0074 -324.94 227.987 288.651 -1165.8 774.877 760.092 33.3528 11.197 70.6924 116.266 -30.5538 647.829
internal_weight=0 4.98532e+08 2.55482e+07 2.39982e+07 2.30438e+06 1.55006e+06 4.72983e+08 1.59477e+08 1.79186e+07 195656 143591 1.41558e+08 2.16938e+07 4.03948e+06 371888 3.13506e+08 2.19852e+07 1.2192e+08 4.7836e+06 1.96386e+07 1.5612e+07 153675 46640.2 2.46324e+06 2.91521e+08 1.82961e+08 1.08561e+08 5.67546e+07 9.32443e+07 2.10873e+06
internal_count=424471 155456 12415 11998 1262 417 143041 57236 4014 98 69 53222 10736 1846 178 85805 5834 45636 1297 7586 5739 146 51 506 79971 57701 22270 11425 30441 1164
shrinkage=0.15


Tree=21
num_leaves=31
num_cat=0
split_feature=7 12 7 12 1 21 18 12 9 21 18 0 22 1 20 2 12 24 4 12 16 6 12 21 12 21 21 1 1 7
split_gain=2.5271e+12 1.49524e+12 9.9629e+11 8.43414e+11 7.33208e+11 7.79862e+11 7.09834e+11 5.361e+11 4.67908e+11 4.05413e+11 3.85227e+11 3.70056e+11 3.61636e+11 3.13505e+11 3.94548e+11 3.00154e+11 3.99235e+11 6.3521e+11 7.68449e+11 3.15758e+11 2.96974e+11 4.05074e+11 2.98162e+11 2.776e+11 3.07631e+11 2.67065e+11 2.26121e+11 2.68076e+11 7.56583e+11 2.85268e+11
threshold=0.13701221251380052 0.49347207527740372 1.4707144333955056 4.9380391109563417 -0.52489285930387153 2.6186595327495508 0.68514540913315147 -0.73316822336514142 -1.0000000180025095e-35 6.696837504990012 0.21940768540390257 -0.94082426868531399 1.0000000180025095e-35 -0.33220578349681679 1.8834939412893621 1.0000000180025095e-35 2.0803500289760821 1.2278793348104098 1.0000000180025095e-35 3.0120273430290689 -0.059567473954397467 1.0000000180025095e-35 -0.16876317797746732 -0.60708936609216335 -0.32745097334733508 0.48407602110853815 3.8864897921636996 0.063375031786323269 0.47119159039848496 1.4300089619057903
decision_type=2 2 2 2 2 2 2 2 2 2 2 2 2 2 2 2 2 2 2 2 2 2 2 2 2 2 2 2 2 2
left_child=-1 7 8 15 9 -6 -7 25 -3 -5 -11 -9 26 -8 -15 16 -4 18 -18 -20 23 -22 -23 24 -13 -2 -10 29 -29 -28
right_child=1 2 3 4 5 6 13 11 12 10 -12 20 -14 14 -16 -17 17 -19 19 -21 21 22 -24 -25 -26 -27 27 28 -30 -31
leaf_value=-5.3798073231022991 -25.180744686318242 5.3629247162154652 36.860652578449681 -313.96657614764223 604.49068987771864 16.555355398198721 -12.743131931570149 -23.871228092544531 22.084025200305035 701.2307887357897 -55.289770009472782 18.302492128307232 354.14344873142824 716.62607455483828 257.4399838183221 7.913628350768743 41.366909755628285 65.602966685722151 316.76270268773021 681.33357473062881 8.9305162408571608 -14.25247483798616 0.84161167719613184 9.9719045330499423 101.29745341702566 -144.18707673745709 -16.037418244977886 485.71073686472653 79.271759020791464 403.69807280361022
leaf_weight=799715515.25158942 10383470.425504684 69178790.797678947 26601974.29407692 83642.979736328125 127807.57092285156 251528.50787353516 35401.210083007812 10576830.958518505 49280138.660158992 21616.529968261719 50583.739839553833 2728497.3893375397 74686.440002441406 81103.599731445312 87552.001098632812 6205866.271853447 221565.5185546875 4275201.6157932281 187161.50949859619 74822.16926574707 114460565.86867952 38457408.278784752 125657518.68942642 93450296.355534554 1590702.0429267883 442362.0796661377 613416.64994621277 120042.02990722656 728015.68090820312 38732.490200042725
leaf_count=250654 2764 24809 9137 107 20 55 20 3592 21454 22 76 917 32 21 23 2542 103 2001 62 23 25008 10978 40336 28330 588 128 526 30 71 42
internal_value=0 51.9095 134.095 274.511 1332.3 1847.03 1234.65 19.1923 89.2843 -594.601 1141.4 25.3333 162.104 2620.49 3188.36 253.696 293.459 560.225 1646.58 2805.89 30.5178 13.8762 -17.9695 77.935 325.789 -200.29 158.87 541.327 912.02 59.277
internal_weight=0 5.56087e+08 1.5834e+08 3.83058e+07 739236 583393 455585 3.97748e+08 1.20034e+08 155843 72200.3 3.86922e+08 5.0855e+07 204057 168656 3.75666e+07 3.13607e+07 4.75875e+06 483549 261984 3.76345e+08 2.78575e+08 1.64115e+08 9.77695e+07 4.3192e+06 1.08258e+07 5.07803e+07 1.50021e+06 848058 652149
internal_count=424471 173817 61176 14212 344 139 119 112641 46964 205 98 109749 22155 64 44 13868 11326 2189 188 85 106157 76322 51314 29835 1505 2892 22123 669 101 568
shrinkage=0.15


Tree=22
num_leaves=31
num_cat=0
split_feature=7 12 12 18 24 7 12 16 12 21 0 2 13 13 21 12 24 23 0 12 16 21 12 6 21 0 16 0 24 24
split_gain=1.87377e+12 1.11145e+12 6.66372e+11 1.15572e+12 1.29657e+12 5.71743e+11 4.65818e+11 4.63201e+11 1.96128e+12 4.09272e+11 3.50955e+11 3.50121e+11 3.45786e+11 3.38649e+11 3.16938e+11 3.02297e+11 3.02164e+11 2.99171e+11 3.83988e+11 4.51941e+11 3.06555e+11 2.93836e+11 3.84812e+11 2.8927e+11 2.78087e+11 1.3946e+12 2.59951e+11 2.51661e+11 2.40367e+11 2.86613e+11
threshold=1.0852097921983623 0.26476533514639833 3.0120273430290689 -1.0613710548515314 3.3774900472586538 -0.84470754165419148 -0.87222453889543783 -1.2822525146989434 0.19245605107064412 -0.60708936609216335 -0.8480246745506389 1.0000000180025095e-35 1.0696314940514811 -0.48398358248791079 -0.38323896362138893 -0.5604112007769142 6.8910771921898162 1.3186330740575325 -0.94082426868531399 4.9380391109563417 -0.30607655474966883 -0.60708936609216335 0.32987640994764306 1.0000000180025095e-35 6.696837504990012 0.26557045506546456 1.0000000180025095e-35 0.77596822280617872 0.66279926555094659 1.9509511785362943
decision_type=2 2 2 2 2 2 2 2 2 2 2 2 2 2 2 2 2 2 2 2 2 2 2 2 2 2 2 2 2 2
left_child=5 -2 9 4 -4 -1 -7 8 15 10 -3 26 17 -9 -10 -8 -14 18 -5 -20 -19 22 -15 -22 -23 -26 -11 -27 -25 -30
right_child=1 2 3 12 -6 6 7 13 14 11 -12 -13 16 21 -16 -17 -18 20 19 -21 23 24 -24 28 25 27 -28 -29 29 -31
leaf_value=-5.117546766484284 2.7388509555031511 -8.0753219702189387 737.79797566275238 395.32524451185196 61.707645186952576 -27.88482070596233 6.8186609473088069 -4.6710687943013598 676.3411110614926 42.900882151827354 108.63539849079561 3.4777359075208341 136.39311146312437 12.265317065987201 316.24566256688462 120.75648148654308 575.88073549399076 521.28692699132023 22.370341047806956 -204.90798734838236 316.08696298241148 3.8072413928364548 64.340379103218027 372.48176692064277 623.65966390716176 -311.73834130862991 20.016012361569356 154.31746249323501 -91.618075206821203 77.250374385777633
leaf_weight=724351195.5396955 139383936.95031548 802570.59606170654 124475.97857666016 51397.029724121094 130977.53979492188 11332278.639522552 2779562.612197876 106208166.63960278 106323.541015625 13393502.023054123 2087688.8856868744 24928110.568491936 111038.82991027832 15125211.979165077 113917.54885864258 645640.97253417969 51535.839874267578 35453.860504150391 982698.24890708923 246169.05818939209 108526.88047027588 238986816.11957753 4047110.0846939087 55906.801055908203 89670.869735717773 80092.099830627441 67213325.143182278 38648.470123291016 256071.88045501709 1934796.3762588501
leaf_count=225141 36836 319 26 22 20 3014 816 38326 25 4799 767 9539 68 4768 29 156 32 27 442 100 50 73207 1679 23 23 32 23119 26 89 951
internal_value=0 77.9393 151.872 548.158 2607.66 -17.6431 13.7962 19.942 374.632 136.927 508.18 126.759 410.922 16.3954 3267.24 188.637 1838.07 347.719 -42.388 -154.39 556.624 35.9361 155.053 512.69 26.3885 1181.01 158.79 -1066.96 435.668 383.419
internal_weight=0 2.51898e+08 1.12514e+08 4.08905e+06 255454 1.1039e+09 3.79553e+08 3.68221e+08 3.64544e+06 1.08425e+08 2.89026e+06 1.05535e+08 3.83359e+06 3.64576e+08 220241 3.4252e+06 162575 3.67102e+06 1.28026e+06 1.22887e+06 2.39076e+06 2.58368e+08 1.91723e+07 2.3553e+06 2.39195e+08 208411 8.06068e+07 118741 2.24678e+06 2.19087e+06
internal_count=424471 77229 40393 1850 46 347242 122101 119087 1026 38543 1086 37457 1804 118061 54 972 100 1704 564 542 1140 79735 6447 1113 73288 81 27918 58 1063 1040
shrinkage=0.15


Tree=23
num_leaves=31
num_cat=0
split_feature=21 14 24 25 10 7 2 18 16 14 24 7 0 26 2 24 23 13 0 24 18 21 1 23 20 0 1 7 1 1
split_gain=1.37221e+12 4.64431e+11 4.84117e+11 2.92451e+11 5.48128e+11 2.83583e+11 2.69348e+11 1.99757e+11 1.93484e+11 2.25134e+11 2.84637e+11 1.82888e+11 1.78493e+11 1.71403e+11 1.65653e+11 1.63494e+11 2.0306e+11 2.7316e+11 3.4792e+11 2.53217e+11 2.19341e+11 7.08817e+11 1.04811e+12 8.42051e+11 2.48693e+11 2.81218e+11 2.08413e+11 1.94117e+11 2.18894e+11 2.7584e+11
threshold=-0.075971284445695883 0.80915934847630944 2.3594810041182637 0.82728888758918906 0.82437315136501421 1.1618318400600771 1.0000000180025095e-35 0.21940768540390257 -0.059567473954397467 -0.8177185393102212 1.8166005090082791 -0.82555203397035248 -0.75522508041596359 0.83018419063365612 1.0000000180025095e-35 5.1618168577927444 1.2757590640678727 1.2067151772755449 0.26557045506546456 6.8910771921898162 0.68514540913315147 6.696837504990012 -0.35382888094991011 1.7569009538365037 1.9791264791528103 0.26557045506546456 -0.76212484557462057 1.9088966468657866 -0.26174090828806762 0.64285845101375638
decision_type=2 2 2 2 2 2 2 2 2 2 2 2 2 2 2 2 2 2 2 2 2 2 2 2 2 2 2 2 2 2
left_child=3 2 5 4 -1 11 12 -8 -5 -10 -11 -2 -6 -13 -15 -4 17 18 -17 -20 27 -22 24 -24 26 -26 -23 -18 -29 -30
right_child=1 -3 15 8 6 -7 7 -9 9 10 -12 13 -14 14 -16 16 20 -19 19 -21 21 22 23 -25 25 -27 -28 28 29 -31
leaf_value=-4.0126509299134527 -7.8906226938205464 -10.687483667153105 24.412892184560345 0.32844953959400291 7.6297790511295069 11.441852771624944 -13.438124697308403 29.134448417736586 0.47614922797372911 -43.114831378355788 210.41815661908444 11.670701336640567 41.792055149678554 5.8494285982746801 -2.7749475680471702 116.31996322553628 97.143906382078683 343.16890041350331 62.043509410757601 -288.96645051456977 30.124851729784403 334.80628123054464 172.88195628197124 773.55638446683224 693.69399630415796 -102.45330650970686 -469.85708623455105 142.11545246007555 -273.43675273950123 19.249850029465808
leaf_weight=785809895.66367722 28429882.857589483 34783167.545976639 20750876.907124519 6789310.7766475677 5129577.426803112 154713570.19916344 7740857.5132522583 3648750.8057479858 4009692.6265640259 11252523.136436462 100523.46078491211 62343615.858953834 10454930.68573761 139436108.84516406 78221177.680133939 139082.51930236816 621657.65067672729 40005.859832763672 65444.399883270264 157598.22037506104 446823.85000801086 8833.4199676513672 93561.619873046875 119676.91064453125 14998.990081787109 29846.839872360229 40208.629791259766 112875.87973022461 124553.64904785156 173187.17822265625
leaf_count=246837 8247 14254 8519 2047 1481 45132 2466 1571 737 3728 32 23415 3089 38772 23188 46 236 21 41 66 211 25 24 36 28 34 32 102 33 21
internal_value=0 40.3768 48.3646 -25.0294 -21.9396 41.3411 118.225 1.33556 -138.395 -200.524 -272.466 23.8157 203.651 31.575 18.3335 190.169 450.137 -191.867 -465.808 -1239.83 594.671 1004.7 2174.22 3400.01 -609.807 1092.16 -2166.14 295.192 -238.378 -687.93
internal_weight=0 5.20867e+08 4.86084e+08 8.34936e+08 8.12784e+08 4.63144e+08 2.69741e+07 1.13896e+07 2.21521e+07 1.53627e+07 1.1353e+07 3.08431e+08 1.55845e+07 2.80001e+08 2.17657e+08 2.29392e+07 2.18836e+06 402131 362125 223043 1.78622e+06 753950 307126 213239 93887.9 44845.8 49042 1.03227e+06 410617 297741
internal_count=424471 162483 148229 261988 255444 138754 8607 4037 6544 4497 3760 93622 4570 85375 61960 9475 956 174 153 107 782 390 179 60 119 62 57 392 156 54
shrinkage=0.15


Tree=24
num_leaves=31
num_cat=0
split_feature=12 14 2 12 18 16 12 14 21 23 0 18 13 20 21 7 0 0 7 12 21 7 21 21 14 7 13 16 20 12
split_gain=1.04085e+12 1.41027e+12 8.31589e+11 1.21388e+12 1.50185e+12 9.01757e+11 5.27414e+11 5.23817e+11 6.54672e+11 4.48237e+11 9.12122e+11 8.32295e+11 4.93895e+11 4.93462e+11 4.14063e+11 4.02498e+11 3.79495e+11 3.99298e+11 4.66389e+11 4.35951e+11 3.77834e+11 3.4744e+11 3.20477e+11 3.05916e+11 4.52736e+11 2.77629e+11 2.73623e+11 2.47667e+11 2.08827e+11 1.95882e+11
threshold=0.15908253534337294 -1.0000000180025095e-35 1.0000000180025095e-35 3.8326232003231486 -0.71206776205459477 -0.30607655474966883 1.1154627948611535 -0.8177185393102212 0.45992152347681087 1.8950505819640346 0.21917065799812693 1.0344487019300881 1.1610206162008569 1.7878614034259139 0.85257254311814445 -0.77287438891019211 0.86876781694085403 0.45116964333481518 1.4300089619057903 4.9380391109563417 6.696837504990012 1.9807297996097859 -0.16247808991746321 0.31162414266806687 -0.8177185393102212 1.5257864988977896 1.1153260551261688 0.84758594337220139 1.9791264791528103 0.51343074644763453
decision_type=2 2 2 2 2 2 2 2 2 2 2 2 2 2 2 2 2 2 2 2 2 2 2 2 2 2 2 2 2 2
left_child=-1 2 3 5 -5 15 23 8 29 12 11 21 16 -12 25 -2 17 28 19 -19 -20 -11 -17 24 -7 26 -8 -16 -6 -4
right_child=1 -3 7 4 9 6 14 -9 -10 10 13 -13 -14 -15 27 22 -18 18 20 -21 -22 -23 -24 -25 -26 -27 -28 -29 -30 -31
leaf_value=-2.5873268367239803 -13.038963811775194 -2.8630586629523105 157.85112243723071 623.82076803801954 6.3571586241417917 175.02057400119551 61.255454733525127 0.79349194432473125 30.552164388734692 -23.351497828705931 549.51117373475813 1193.4719551786266 457.39118871666182 -36.366040583530882 83.858336242212644 649.06908497315499 -378.36379747270797 334.57153263584638 235.11437175291252 -279.68724202036651 853.42100716482514 571.43971558902376 237.36128375961871 13.712238642708376 34.896743738751596 219.23906717175305 362.40366123133958 30.83586572958891 -291.73093415491934 390.68579326741684
leaf_weight=974481392.21697843 60751.090103149414 182535692.29636872 244594.23072814941 145207.67913818359 405535.87468910217 559925.15004730225 1174086.2837200165 80237661.801460505 8707553.3219280243 36591.969924926758 39376.049911499023 35145.760437011719 61157.910217285156 181179.87902641296 2225257.299041748 82458.810760498047 51646.969024658203 47908.360046386719 61548.200286865234 56839.769798278809 34815.690216064453 55783.030261993408 87874.778991699219 78309263.163629293 7064293.6620159149 423573.25946044922 72051.050117492676 18141071.178619385 60807.230239868164 121773.63987731934
leaf_count=271389 31 82393 67 20 153 95 456 32218 2308 22 31 21 28 84 1082 21 29 23 26 21 21 32 23 23588 2654 149 47 7384 26 29
internal_value=0 44.3766 102.652 161.072 1131.67 149.648 145.424 31.0439 258.778 742.105 1685.77 3814.68 321.134 454.874 283.444 2122.96 89.1119 291.19 1468.99 8.36387 3056.7 2238.86 2911.13 110.032 301.25 762.186 524.451 244.195 -216.74 1568.27
internal_weight=0 3.81321e+08 1.98786e+08 1.09474e+08 1.27354e+06 1.08201e+08 1.0797e+08 8.93116e+07 9.07392e+06 1.12834e+06 348077 127521 780260 220556 2.2036e+07 231085 719102 667455 201112 104748 96363.9 92375 170334 8.59335e+07 7.62422e+06 1.66971e+06 1.24614e+06 2.03663e+07 466343 366368
internal_count=424471 153082 70689 36067 537 35530 35455 34622 2404 517 190 75 327 115 9118 75 299 270 91 44 47 54 44 26337 2749 652 503 8466 179 96
shrinkage=0.15


Tree=25
num_leaves=31
num_cat=0
split_feature=7 12 14 18 12 24 1 20 20 12 21 16 12 18 14 12 0 16 21 18 25 16 1 21 20 10 20 7 24 0
split_gain=8.3226e+11 6.25012e+11 4.17537e+11 4.23567e+11 8.10674e+11 1.06387e+12 5.02685e+11 5.39287e+11 3.4664e+11 2.99003e+11 2.88196e+11 2.41088e+11 3.20688e+11 2.76981e+11 2.38477e+11 5.12389e+11 3.90122e+11 2.68488e+11 2.65219e+11 2.32308e+11 2.31613e+11 2.00629e+11 3.2856e+11 1.90799e+11 1.89343e+11 1.81734e+11 1.76644e+11 1.76285e+11 1.66276e+11 8.25596e+11
threshold=1.135493053923508 0.75653390512765883 0.80915934847630944 -1.0613710548515314 1.8680028553780526 3.8197516933015194 0.98799724606213923 1.2810089345091795 0.94151340685347917 -0.24270841870651913 -0.23381811780651809 -0.69063072079029231 4.9380391109563417 0.56871097820083927 -0.8177185393102212 3.2952114397148846 0.68316862867150341 0.14503506310567779 1.6389980474069386 0.56871097820083927 0.82728888758918906 -1.0000000180025095e-35 -0.61700191327652198 0.78572637525359701 0.2888213541759041 0.82437315136501421 -0.11522610917693511 2.2321458342137843 6.8910771921898162 0.31197025213280222
decision_type=2 2 2 2 2 2 2 2 2 2 2 2 2 2 2 2 2 2 2 2 2 2 2 2 2 2 2 2 2 2
left_child=10 9 3 4 -3 6 7 -6 21 23 26 13 -13 -4 15 18 19 -16 -10 -17 -12 22 -5 -2 -11 -22 -1 -19 -27 -30
right_child=1 2 11 8 5 -7 -8 -9 14 24 20 12 -14 -15 17 16 -18 27 -20 -21 25 -23 -24 -25 -26 28 -28 -29 29 -31
leaf_value=-2.7576692819870154 -3.8699152134045129 45.611995911851835 87.603532017466506 888.09258737261746 521.42368785704764 -117.9529485707621 514.57331377169066 67.572843561961363 172.74065687345788 33.50613531396867 8.8488171192186122 -10.464228558317805 -259.61808040851912 644.29366588582775 52.327487103317452 305.55533345865405 649.47013246439747 7.5177645018914516 30.861391319954731 -67.726782192669759 -9.9293991007001541 72.614991674497517 167.72252970549485 -46.013761697370576 6.3825126518989741 1.2709880385401644 -13.870468198040129 59.196807122620811 442.81160861920074 -100.33166951491896
leaf_weight=747482859.41318178 47029671.501954079 4593341.5768432617 116576.46998596191 17121.690032958984 84433.210021972656 153370.31201171875 203872.91918945312 194860.84954833984 314915.73934936523 6071639.1501226425 83746082.511565924 7247607.7042560577 118127.57965087891 24301.849967956543 3808267.3416395187 99843.439819335938 48893.729858398438 29444020.624812126 5055277.1143264771 60087.910247802734 37228106.282850266 1867510.4518260956 84811.369750976562 2548029.8436164856 125182067.03319693 216522233.86283374 33631616.06403923 1564030.5792179108 106317.06986999512 154435.1205368042
leaf_count=234812 11849 859 56 27 22 21 23 48 69 1876 31009 3264 113 25 1931 25 21 13102 1228 20 11353 771 23 658 35930 64216 10376 654 27 63
internal_value=0 54.335 147.576 182.147 450.643 1508.26 2236.64 1365.17 149.001 25.9235 -11.0207 -71.6156 -96.4001 1224.23 129.028 320.97 1857.8 98.2711 261.209 1102.06 13.386 558.668 1924.82 -40.2392 50.9148 -1.65011 -21.5743 67.4962 9.43435 807.502
internal_weight=0 2.35933e+08 5.51013e+07 4.75947e+07 5.22988e+06 636537 483167 279294 4.23648e+07 1.80831e+08 1.11887e+09 7.50661e+06 7.36574e+06 140878 4.03953e+07 5.57902e+06 208825 3.48163e+07 5.37019e+06 159931 3.37757e+08 1.96944e+06 101933 4.95777e+07 1.31254e+08 2.54011e+08 7.81114e+08 3.10081e+07 2.16783e+08 260752
internal_count=424471 72615 22302 18844 973 114 93 70 17871 50313 351856 3458 3377 81 17050 1363 66 15687 1297 45 106668 821 50 12507 37806 75659 245188 13756 64306 90
shrinkage=0.15


Tree=26
num_leaves=31
num_cat=0
split_feature=12 14 13 7 21 12 13 12 21 13 21 18 7 12 20 13 0 24 13 0 24 7 12 14 16 25 24 10 12 16
split_gain=6.50447e+11 7.27765e+11 4.01571e+11 3.13896e+11 3.13531e+11 2.89061e+11 5.11263e+11 5.8129e+11 2.20645e+11 2.05005e+11 1.98468e+11 4.68574e+11 4.14087e+11 3.48942e+11 2.92787e+11 3.40226e+11 5.92279e+11 2.45324e+11 4.4288e+11 2.33597e+11 2.21044e+11 1.94477e+11 1.9138e+11 3.05718e+11 3.14334e+11 1.88658e+11 1.74927e+11 1.69986e+11 1.74643e+11 2.5252e+11
threshold=0.88642886339948879 1.0000000180025095e-35 1.4808825437236728 -0.63878583940490763 -0.019236301636290042 2.4801778350420167 -0.16412165496509487 4.9380391109563417 2.4821585345051385 0.064351150408345034 3.8864897921636996 -1.0613710548515314 2.2321458342137843 4.9380391109563417 1.1375601277140073 0.47560220008053694 0.17277086093078928 1.8166005090082791 0.24712939470709699 0.82236801987351638 2.5661965192504246 1.5688863722760737 -0.36802269834911572 -0.8177185393102212 -0.059567473954397467 0.82728888758918906 0.3174084885239889 0.82437315136501421 -0.39452519613253695 -0.059567473954397467
decision_type=2 2 2 2 2 2 2 2 2 2 2 2 2 2 2 2 2 2 2 2 2 2 2 2 2 2 2 2 2 2
left_child=4 2 5 -4 25 9 7 -7 22 21 11 -8 13 -13 15 16 -12 -15 -19 -17 -14 -2 -6 26 -25 27 -24 -1 -29 -30
right_child=1 -3 3 -5 8 6 10 -9 -10 -11 14 12 20 17 -16 19 -18 18 -20 -21 -22 -23 23 24 -26 -27 -28 28 29 -31
leaf_value=-2.6985450856359705 24.234417454678709 -0.61202216124818876 -4.7101558518213409 365.5262491328678 -3.5303386575841444 111.46399160849099 239.16470354311167 502.2421470835194 -33.748962316335245 10.979353960823776 236.82208951505709 20.644250924593639 604.96490879788507 -30.094647840077094 54.002557417247949 -34.07091281987379 1057.6212318581231 -591.18339779658231 -93.774931026309503 331.09716296935858 90.553471639475191 69.131967962517407 31.441525917113005 9.5860177308338379 -2.1172962567632871 -14.439208579181299 9.5582461419615967 -7.4366864874029632 63.455807415173226 11.176263518170456
leaf_weight=750613246.73292732 14238441.266195178 65911056.605079293 83038.540405273438 135762.73040771484 89444640.099813938 424652.20896148682 213764.78039550781 107285.95768737793 3786449.4493160248 35634819.125175476 92453.399341583252 4319093.1024646759 39652.050445556641 316007.18839263916 1896515.9265842438 121548.07985687256 25164.320297241211 58015.719444274902 131714.06987762451 58330.608581542969 35731.479606628418 2561196.1904220581 9165026.7240056992 74929728.060985565 166103666.78656244 29888610.156572342 79619034.875644684 8559389.1450424194 2446113.9913387299 13844180.944293022
leaf_count=225495 5559 34604 33 44 22782 179 34 24 1208 15613 37 2146 20 161 833 56 21 20 39 29 24 827 1949 23671 56360 8777 16183 2319 859 4565
internal_value=0 68.6122 147.815 1500.1 -6.72218 142.906 322 1268.53 15.3207 116.128 253.103 145.162 81.9401 45.6042 504.701 1427.05 2749.55 -740.3 -1639.15 562.299 2407.57 207.195 17.491 28.6172 10.1393 -18.3012 78.7815 -15.2964 66.0754 126.843
internal_weight=0 1.26404e+08 6.04932e+07 218801 1.2284e+09 6.02744e+07 7.83993e+06 531938 4.23049e+08 5.24345e+07 7.30799e+06 5.11398e+06 4.90021e+06 4.82483e+06 2.19401e+06 297496 117618 505737 189730 179879 75383.5 1.67996e+07 4.19262e+08 3.29817e+08 2.41033e+08 8.05352e+08 8.87841e+07 7.75463e+08 2.48497e+07 1.62903e+07
internal_count=424471 60303 25699 77 364168 25622 3623 203 122153 21999 3420 2444 2410 2366 976 143 58 220 59 85 44 6386 120945 98163 80031 242015 18132 233238 7743 5424
shrinkage=0.15


Tree=27
num_leaves=31
num_cat=0
split_feature=12 14 2 12 20 13 13 7 0 1 21 7 13 1 14 21 13 0 7 12 21 20 12 18 24 0 14 12 21 10
split_gain=5.17205e+11 6.88503e+11 5.61468e+11 7.67003e+11 7.33271e+11 1.55966e+12 6.93093e+11 9.28335e+11 5.87954e+11 5.55569e+11 5.41543e+11 4.71074e+11 6.37341e+11 4.08759e+11 3.70695e+11 5.93419e+11 3.65702e+11 3.399e+11 2.84548e+11 2.52827e+11 3.92972e+11 3.21582e+11 2.23816e+11 1.81486e+11 1.80325e+11 1.67996e+11 1.61683e+11 5.6445e+11 8.94292e+11 6.62035e+11
threshold=0.46108013354211108 -1.0000000180025095e-35 1.0000000180025095e-35 4.9380391109563417 1.2810089345091795 0.52129676115522505 0.15574027255772102 1.7412859571297878 0.17277086093078928 -0.24495665455490209 0.23522852225144117 -0.72498562041419257 1.1153260551261688 -0.56494324931145223 -0.8177185393102212 0.31162414266806687 1.0000000180025095e-35 0.91516761400819158 0.079545699452658672 2.3568267033833776 1.4148667786846325 1.0562725252514533 3.8326232003231486 -0.12989560739303396 2.6959342902538728 -0.29122710974258714 -0.8177185393102212 -0.52703768504964299 0.052665458755828266 0.82437315136501421
decision_type=2 2 2 2 2 2 2 2 2 2 2 2 2 2 2 2 2 2 2 2 2 2 2 2 2 2 2 2 2 2
left_child=26 2 3 10 5 -5 16 17 -9 13 11 -2 24 -10 15 -4 -6 -8 -14 23 21 -21 -16 -12 -13 -22 27 -1 29 -29
right_child=1 -3 14 4 6 -7 7 8 9 -11 19 12 18 -15 22 -17 -18 -19 -20 20 25 -23 -24 -25 -26 -27 -28 28 -30 -31
leaf_value=-2.8345029119236478 -11.696541215701496 -1.6221025042336754 444.4981270593251 883.37428351533765 22.433120895383741 12.143342933059468 668.73031125374359 411.72247197220992 -336.16568841445076 -324.1676876765618 27.706683308608575 105.93491359213321 679.40755037305541 465.09705830783889 1.2185375623661998 40.478559960746303 -424.40490951268526 171.91044407462283 252.47638445114106 28.982240571686706 151.95401110971167 397.05648210951131 -70.147045915766313 10.146250959502884 -118.89491205820859 34.707353858173576 -2.564128271948876 130.6464622825404 6.1329931422328983 33.304366950949436
leaf_weight=238853901.31404018 869841.58313751221 122092773.48656154 83785.770034790039 89651.139785766602 99187.398208618164 95460.369834899902 95098.69938659668 64340.109775543213 20587.819913864136 110716.72033691406 20412882.704986572 2073955.1021194458 57710.290702819824 47092.529907226562 49800566.341190815 3446771.9111328125 70503.859378814697 45957.050079345703 89755.360870361328 89352.62975692749 298056.060546875 132762.07961273193 1008801.7566871643 37695583.095898867 83497.398971557617 3549420.2128067017 758665666.49161053 2042232.724363327 105890547.45766163 6827870.8468236923
leaf_count=43974 410 58578 23 25 21 32 33 22 31 25 5413 756 22 27 20889 984 28 20 40 25 74 58 496 14684 30 1621 252621 533 21528 1448
internal_value=0 42.1036 95.7512 157.664 1171 2893.92 594.777 1338.87 153.284 -781.37 146.212 549.065 785.702 1475.73 20.4493 333.777 -1088.14 3379.08 2797.03 125.642 366.598 1659.91 -1.32267 108.767 648.224 291.935 -8.86296 8.79682 66.4359 371.441
internal_weight=0 2.42524e+08 1.20431e+08 6.60914e+07 738596 185112 553484 383793 242737 178397 6.53528e+07 3.17476e+06 2.30492e+06 67680.3 5.43399e+07 3.53056e+06 169691 141056 147466 6.21781e+07 4.06959e+06 222115 5.08094e+07 5.81085e+07 2.15745e+06 3.84748e+06 1.11228e+09 3.53615e+08 1.14761e+08 8.8701e+06
