tree
version=v3
num_class=1
num_tree_per_iteration=1
label_index=0
max_feature_idx=15
objective=regression
feature_names=Column_0 Column_1 Column_2 Column_3 Column_4 Column_5 Column_6 Column_7 Column_8 Column_9 Column_10 Column_11 Column_12 Column_13 Column_14 Column_15
feature_infos=[-0.26674774778087551:3.7488601434095972] [-1.4559670895521408:0.686828711428912] [-0.2205202408542872:13.645753125448856] [-1.5207477342363245:2.1018660847142709] [-1.1491325863239308:38.525283382807991] [-1.9028021382301792:3.7456482123300718] [-1.0466113716320653:0.95546448959427899] [-1.9065111355103614:1.7655795799287406] [-0.19035369263761687:5.2533785194476685] [-0.67671557092245271:1.4777257136803692] [-0.1587649289765867:18.656161527969299] [-0.90479558498164114:2.2215968268326844] [-0.6261378552413942:43.237037107569506] [-0.81301618315208002:3.9288817665886171] [-0.96010531559629453:1.8582422759303063] [-1.5110145111064259:2.0881270635012661]
tree_sizes=2883 2937 2949 2880 2923 2902 2944 2905 2898 2882 2879 2884 2885 2880 2933 2898 2906 2962 2913 2980 2942 2911 2944 2943 2889 2895 2922 2943 2904 2946 2926 2908 2925 2882 2892 2896 2897 2961 2860 2902 2915 2968 2906 2922 2952 2957 2855 2932 2895 2935 2886 2914 2990 2956 2899 2928 2955 2952 2946 2933 2909 2911 2863 2902 2907 2897 2937 2964 2950 2966 2956 2921 2917 2897 2928 2896 2890 2952 2926 2900 2954 2899 2975 2907 2936 2926 2914 2952 2932 2945 2902 2871 2882 2923 2933 2923 2922 2968 2935 2906 2903 2897 2934 2948 2907 2967 2922 2902 2936 2927 2896 2878 2941 2860 2872 2896 2958 2854 2946 2916 2922 2972 2926 2870 2911 2929 2957 2945 2938 2898 2958 2842 2929 2973 2904 2961 2967 2873 2916 2949 2948 2909 2935 2926 2870 3004 2923 2987 2860 2893 2905 2939 2900 2971 2913 2925 2882 2929 2921 2915 2856 2940 2879 2902 2895 2877 2848 2928 2888 2921 2919 2918 2877 2947 2908 2917 2940 2927 2863 2933 2863 2922 2945 2901 2943 2874 2872 2893 2987 2946 2897 2847 2848 2976 2900 2875 2939 2896 2948 2941 2936 2987 2934 2990 2904 2928 2919 2847 2890 2895 2908 2872 2867 2857 2871 2914 2923 2874 2901 2961 2904 2927 2910 2941 2936 2935 2962 2874 2941 2867 2866 2878 2971 2887 2920 2855 2894 2862 2865 2882 2896 2881 2964 2920 2858 2898 2891 2985 3017 2853

Tree=0
num_leaves=31
num_cat=0
split_feature=0 7 5 5 14 9 5 5 7 7 7 4 4 3 7 7 6 9 5 9 6 9 12 3 3 7 5 4 14 4
split_gain=15814 421.394 271.875 231.774 42.7214 46.9763 33.6801 30.9343 40.1448 23.5093 20.5642 18.1629 11.9676 21.044 10.2942 6.25194 6.04352 8.67608 5.75154 5.36111 5.48093 4.54802 5.06978 4.28829 4.13454 3.68431 6.23249 3.57959 3.47439 3.37842
threshold=1.0000000180025095e-35 1.4139964263228695 -0.80841488280913043 0.71969266738708026 1.7064850979250279 1.0000000180025095e-35 0.71969266738708026 -1.7010717685673129 0.78895970880131994 1.6483851953934503 1.726514785083644 -0.49036804200453449 0.052733003654273601 1.7822236889245129 -0.61737290562216596 1.6483851953934503 1.0000000180025095e-35 1.0000000180025095e-35 -1.385027522762156 1.0000000180025095e-35 1.0000000180025095e-35 1.0000000180025095e-35 -0.33440557802880727 -0.56182054686704908 1.8532553324333481 1.0233484778719011 -0.41223885127677956 -1.0621763340841521 1.8365626790724094 -0.60286039135119596
decision_type=2 2 2 2 2 2 2 2 2 2 2 2 2 2 2 2 2 2 2 2 2 2 2 2 2 2 2 2 2 2
left_child=1 7 4 14 9 10 12 8 -1 11 -6 19 13 15 -2 29 -10 -18 27 20 24 22 -15 -7 -3 -9 -27 -11 -14 -4
right_child=3 2 6 -5 5 23 -8 25 16 18 -12 -13 28 21 -16 -17 17 -19 -20 -21 -22 -23 -24 -25 -26 26 -28 -29 -30 -31
leaf_value=0.019958093882477629 0.061227026720282629 0.044238131438806991 0.034631382019827461 0.019006333626799571 0.027330902195797327 0.030997849600778095 0.019006333626799571 0.01910715032127433 0.027861072738858995 0.050460642128856509 0.038421169013241011 0.026286896896715102 0.021461582079833716 0.024085510367466999 0.06909051828994428 0.039391910782563072 0.022925279010051636 0.030002306295246098 0.037751691930949904 0.04856542050265663 0.036194467532064074 0.020833466022322555 0.033894676493368421 0.049873670170642488 0.037196036715945457 0.020978570692570996 0.019154242078405985 0.063819455822658966 0.034995021592104263 0.028415061544844251
leaf_weight=15368 443 713 349 245 1855 34 3787 207765 1554 512 567 259 1453 592 18074 265 2887 533 87 200 679 781 178 388 311 7623 13438 58 51 650
leaf_count=15368 443 713 349 245 1855 34 3787 207765 1554 512 567 259 1453 592 18074 265 2887 533 87 200 679 781 178 388 311 7623 13438 58 51 650
internal_value=0 -0.0631192 0.10718 0.887154 0.275298 0.188825 -0.0102699 -0.0725299 -0.0351593 0.362538 0.135178 0.312197 0.0500888 0.0885654 0.899938 0.184342 0.0429268 0.0194302 0.528198 0.34601 0.327821 0.0105118 0.065048 0.496722 0.374017 -0.0758521 -0.0632491 0.564752 -0.021927 0.148119
internal_weight=0 262937 13769 18762 5663 2844 8106 249168 20342 2819 2422 2162 4319 2815 18517 1264 4974 3420 657 1903 1703 1551 770 422 1024 228826 21061 570 1504 999
internal_count=281699 262937 13769 18762 5663 2844 8106 249168 20342 2819 2422 2162 4319 2815 18517 1264 4974 3420 657 1903 1703 1551 770 422 1024 228826 21061 570 1504 999
shrinkage=0.291223


Tree=1
num_leaves=31
num_cat=0
split_feature=8 7 1 6 4 4 7 6 13 1 1 7 6 7 7 7 7 7 6 4 13 12 7 1 7 6 7 4 7 6
split_gain=5431.63 1937.01 913.53 732.446 152.761 125.126 162.078 190.606 94.839 42.0779 36.9188 143.174 226.238 17.1935 15.699 15.136 12.8776 11.854 11.8409 11.607 25.949 12.9213 8.6502 6.47117 6.34263 21.1901 4.49915 4.03019 4.0212 3.95783
threshold=1.0000000180025095e-35 1.4139964263228695 1.0000000180025095e-35 1.0000000180025095e-35 -1.1489656837284608 -0.99875334780561908 0.63270052942093269 1.0000000180025095e-35 1.3885792935132437 1.0000000180025095e-35 1.0000000180025095e-35 0.63270052942093269 1.0000000180025095e-35 1.0233484778719011 1.6483851953934503 1.1014780675620948 1.726514785083644 0.24205258096996426 1.0000000180025095e-35 -0.78878988270458017 -0.2795526638062516 -0.57908426214258968 1.4921260160130632 1.0000000180025095e-35 0.24205258096996426 1.0000000180025095e-35 1.726514785083644 -0.44931000351895772 1.6483851953934503 1.0000000180025095e-35
decision_type=2 2 2 2 2 2 2 2 2 2 2 2 2 2 2 2 2 2 2 2 2 2 2 2 2 2 2 2 2 2
left_child=1 5 3 14 26 6 17 9 -2 13 11 24 15 -8 -3 -13 22 29 23 20 21 28 27 -19 -7 -26 -4 -5 -6 -1
right_child=8 2 4 16 19 10 7 -9 -10 -11 -12 12 -14 -15 -16 -17 -18 18 -20 -21 -22 -23 -24 -25 25 -27 -28 -29 -30 -31
leaf_value=-0.0012420035057781698 0.0345576916539461 0.028750557983826211 0.017481364091176135 0.0097458444149366632 0.0057912691452611546 -0.0027854391497706549 0.012131828594337176 1.3217809031181468e-05 -0.0030423974156634425 0.004426064258769841 -0.002983092719324198 0.011361333092161925 -0.0018798488055207421 0.019947980907197474 0.033157902140986566 0.018142663418237531 0.011752753007473839 0.0072298819682684685 -0.001481120763991383 -0.0015707443135951293 -0.0020594278518441794 0.035341013173912354 0.0029446406674688052 -0.0012152322429583421 0.005438903127066106 -0.0026698158958523093 0.026738550961689787 0.0025925918539290841 0.017955143694152395 -0.0027625333013692349
leaf_weight=6154 9713 3709 841 771 151 38753 932 4491 148 698 176244 1457 4783 1779 3336 1405 639 779 1388 6546 515 56 2290 264 905 3097 132 220 97 9406
leaf_count=6154 9713 3709 841 771 151 38753 932 4491 148 698 176244 1457 4783 1779 3336 1405 639 779 1388 6546 515 56 2290 264 905 3097 132 220 97 9406
internal_value=0 -0.0263053 0.279017 0.468721 0.0295449 -0.0496433 0.0162151 0.135614 0.729208 0.313899 -0.0571667 -0.0332999 0.0927439 0.370272 0.661512 0.315131 0.122239 -0.0362142 0.0287267 -0.0196529 0.0925799 0.324258 0.0969445 0.109237 -0.0558378 -0.0179363 0.401941 0.174998 0.22629 -0.0463601
internal_weight=0 271838 19303 10965 8338 252535 25891 7900 9861 3409 226644 50400 7645 2711 7045 2862 3920 17991 2431 7365 819 304 3281 1043 42755 4002 973 991 248 15560
internal_count=281699 271838 19303 10965 8338 252535 25891 7900 9861 3409 226644 50400 7645 2711 7045 2862 3920 17991 2431 7365 819 304 3281 1043 42755 4002 973 991 248 15560
shrinkage=0.0466168


Tree=2
num_leaves=31
num_cat=0
split_feature=8 7 1 6 5 5 7 6 5 5 1 7 6 5 1 7 6 5 7 7 3 7 7 1 4 1 7 3 4 4
split_gain=3696.91 1318.38 621.771 498.521 146.832 107.508 112.028 121.275 64.5498 43.3415 25.0475 102.141 153.521 66.1619 19.294 14.3387 12.8168 9.54204 8.76479 8.67248 7.09147 6.45825 6.4169 5.94647 5.9336 5.92135 5.88754 5.3964 4.95864 7.42184
threshold=1.0000000180025095e-35 1.4139964263228695 1.0000000180025095e-35 1.0000000180025095e-35 -1.385027522762156 -1.7010717685673129 0.78895970880131994 1.0000000180025095e-35 0.71969266738708026 0.71969266738708026 1.0000000180025095e-35 0.63270052942093269 1.0000000180025095e-35 0.71969266738708026 1.0000000180025095e-35 0.24205258096996426 1.0000000180025095e-35 -0.078823379195098187 1.726514785083644 1.6483851953934503 1.4980971148891722 1.1014780675620948 1.1796076572522884 1.0000000180025095e-35 -1.1055710089063064 1.0000000180025095e-35 1.4921260160130632 -0.49078890335821396 -1.1489656837284608 -0.86523127142975964
decision_type=2 2 2 2 2 2 2 2 2 2 2 2 2 2 2 2 2 2 2 2 2 2 2 2 2 2 2 2 2 2
left_child=1 5 3 9 24 6 15 14 -2 19 11 -7 13 21 22 28 23 20 26 -3 27 -13 -8 -17 -4 -9 -5 -6 -1 -30
right_child=8 2 4 18 17 10 7 25 -10 -11 -12 12 -14 -15 -16 16 -18 -19 -20 -21 -22 -23 -24 -25 -26 -27 -28 -29 29 -31
leaf_value=-0.0025942112016779737 0.041111242461560511 0.034995005523010346 0.02268124169098943 0.0097048959373879015 0.0012629731532983813 -0.0031488800742773579 0.018891852324089915 -0.00010247658057922257 -0.0036193599653390283 -0.011899952011683866 -0.0035600020832856649 0.017452888495889819 -0.0022912586730727954 -0.0079115568340745682 0.0082409822966776885 0.010405140843148966 -0.0009595054696654897 -0.0038929519842444962 0.01398155530736981 0.039745001949810475 -0.00083027229419060716 0.024080166002630413 0.026225391183641929 -0.00062920460347604351 0.037589197575917249 0.0076090575566314751 0.0035030654001452608 0.012633095109904026 0.008990779662595854 -0.0022229197628312351
leaf_weight=11862 9713 3646 959 991 395 44102 979 2887 148 82 178473 1316 4878 420 496 1015 1621 4229 639 3317 2256 1342 1200 282 138 533 2290 361 432 697
leaf_count=11862 9713 3646 959 991 395 44102 979 2887 148 82 178473 1316 4878 420 496 1015 1621 4229 639 3317 2256 1342 1200 282 138 533 2290 361 432 697
internal_value=0 -0.0217019 0.230189 0.386695 0.0243746 -0.0409557 0.0258283 0.141106 0.601597 0.545747 -0.0473302 -0.02803 0.0762589 0.251132 0.300602 -0.0183366 0.0450084 -0.027277 0.100847 0.554259 0.0157373 0.309412 0.341122 0.1191 0.365312 0.0163543 0.0799793 0.0995576 -0.0325649 0.0307625
internal_weight=0 271838 19303 10965 8338 252535 22004 6095 9861 7045 230531 52058 7956 3078 2675 15909 2918 7241 3920 6963 3012 2658 2179 1297 1097 3420 3281 756 12991 1129
internal_count=281699 271838 19303 10965 8338 252535 22004 6095 9861 7045 230531 52058 7956 3078 2675 15909 2918 7241 3920 6963 3012 2658 2179 1297 1097 3420 3281 756 12991 1129
shrinkage=0.0672209


Tree=3
num_leaves=31
num_cat=0
split_feature=0 7 5 5 14 7 9 5 14 7 3 4 7 7 5 7 4 4 3 3 7 9 3 7 7 7 7 5 3 3
split_gain=5651.1 110.276 87.2608 78.687 23.1076 16.4343 14.5963 14.3229 9.59086 7.83848 7.02437 5.99661 4.84539 4.06064 8.57629 3.307 3.07188 2.92274 2.90187 2.80098 2.60338 2.33595 2.27636 2.28738 2.22783 1.86319 2.49402 3.67905 1.708 1.62277
threshold=1.0000000180025095e-35 1.4139964263228695 0.71969266738708026 -1.385027522762156 -0.11460103813831431 1.3358668366326758 1.0000000180025095e-35 -0.078823379195098187 1.7064850979250279 1.6483851953934503 1.7822236889245129 0.045723094644540982 1.726514785083644 1.1014780675620948 -0.90255572198513467 1.726514785083644 -1.1055710089063064 -1.0621763340841521 1.9953186194510184 1.8532553324333481 -0.85176167469274688 1.0000000180025095e-35 -1.2011053384465658 1.4921260160130632 1.6483851953934503 0.63270052942093269 -0.69550249531235953 -1.2673514737921507 -0.2066623293228731 1.9242869759421832
decision_type=2 2 2 2 2 2 2 2 2 2 2 2 2 2 2 2 2 2 2 2 2 2 2 2 2 2 2 2 2 2
left_child=1 13 4 6 5 25 8 10 9 19 11 15 -10 -1 21 22 -8 18 -11 -3 -6 -15 -5 -24 -12 26 27 -2 -23 -26
right_child=2 3 -4 7 20 -7 16 -9 12 17 24 -13 -14 14 -16 -17 -18 -19 -20 -21 -22 28 23 -25 29 -27 -28 -29 -30 -31
leaf_value=-0.0024687474039725302 0.040512262762521678 0.0093011984320694359 -0.0035328642037417198 -0.0068728247148605592 0.02112925928004801 0.030808246255593422 0.01560233533782344 -0.0026053552335738028 0.0033220004279284911 0.019428147758571955 -0.0015808493629071848 -0.00083441604213692388 0.0095714731402431162 0.00015144635149274128 -0.002249178369878463 0.013279445154440161 0.028254361093521061 0.027845981660608692 0.010825716153265594 0.0033350819195397726 0.028601948948117562 -0.0001736055907961429 0.0081431240037695141 0.0035874764199339149 0.0074454586356886964 0.035097001445650498 0.040226768015512809 0.026380785200337944 0.0068508549151027678 0.00081799988764003182
leaf_weight=229899 116 1233 245 50 151 6000 486 4484 1643 217 1507 582 521 3771 15018 170 70 58 295 315 9545 172 579 894 153 1991 595 119 308 512
leaf_count=229899 116 1233 245 50 151 6000 486 4484 1643 217 1507 582 521 3771 15018 170 70 58 295 315 9545 172 579 894 153 1991 595 119 308 512
internal_value=0 -0.037738 0.530321 0.0493803 0.538166 0.575202 0.152091 -0.00625913 0.132299 0.180137 0.0339537 0.0727874 0.085478 -0.0425521 -0.028608 0.102889 0.304523 0.28039 0.256289 0.143221 0.504472 0.0110454 0.0881234 0.0952463 -0.00672162 0.638152 0.677955 0.590732 0.0767497 0.0414906
internal_weight=0 262937 18762 13769 18517 8821 4838 8931 4282 2118 4447 2275 2164 249168 19269 1693 556 570 512 1548 9696 4251 1523 1473 2172 2821 830 235 480 665
internal_count=281699 262937 18762 13769 18517 8821 4838 8931 4282 2118 4447 2275 2164 249168 19269 1693 556 570 512 1548 9696 4251 1523 1473 2172 2821 830 235 480 665
shrinkage=0.0564661


Tree=4
num_leaves=31
num_cat=0
split_feature=0 7 5 5 1 14 7 5 4 3 7 1 5 14 1 4 3 7 3 1 7 3 7 14 5 4 7 7 11 12
split_gain=3846.28 75.0566 59.3919 53.5563 24.3279 15.7276 11.6337 9.95043 4.87898 5.40556 4.03372 3.24637 3.00782 6.78055 3.3008 4.03173 3.00655 3.4766 2.85441 2.79316 7.60162 2.34133 2.1209 2.07649 2.06816 3.86378 1.94532 1.92652 1.65513 2.00827
threshold=1.0000000180025095e-35 1.4139964263228695 0.71969266738708026 -1.385027522762156 1.0000000180025095e-35 -0.11460103813831431 1.4139964263228695 0.71969266738708026 0.052733003654273601 1.4980971148891722 1.6483851953934503 1.0000000180025095e-35 -1.7010717685673129 1.0127379984723262 1.0000000180025095e-35 -1.1489656837284608 1.8532553324333481 1.726514785083644 -0.70388383388471942 1.0000000180025095e-35 0.86708929849151362 1.4270654713803368 1.4921260160130632 1.8365626790724094 -0.67000543473488627 -0.8485410118827772 1.0233484778719011 0.24205258096996426 1.3798757928826737 1.0000000180025095e-35
decision_type=2 2 2 2 2 2 2 2 2 2 2 2 2 2 2 2 2 2 2 2 2 2 2 2 2 2 2 2 2 2
left_child=1 12 5 4 16 6 26 8 9 18 22 -11 13 19 -15 -16 21 -18 -5 27 -21 -3 -6 -10 -7 -26 -2 -1 29 -20
right_child=2 3 -4 7 10 24 -8 -9 23 11 -12 -13 -14 14 15 -17 17 -19 28 20 -22 -23 -24 -25 25 -27 -28 -29 -30 -31
leaf_value=-0.0018093681197174131 0.027460471525033225 0.0021655492763030266 -0.0025908279106271253 0.0017987261834699012 0.013570004561089999 0.021251806482044548 0.022407507880883946 -0.0022118149666289933 -0.0013897603247890631 0.0041379068429522343 0.016406052106085645 -0.00045196113121112526 -0.0018140568264640388 -0.00015821734786393839 0.002053407552014966 0.0130774251952449 0.0022006983562787553 0.0066189548370177691 0.0075495024207303495 -0.0013671130503480858 0.0054840415655116222 0.007336746949890934 0.0076954447422882145 0.0085287351922652029 0.012320856298199262 0.020128206143522426 0.025021576458958576 -0.0035982889663300657 0.016615162329006332 0.0018888219052142347
leaf_weight=9810 1561 278 245 524 274 7796 5515 3787 1605 512 467 1606 228826 4193 754 94 1797 598 587 3230 467 1068 356 55 176 1724 1745 1794 39 216
leaf_count=9810 1561 278 245 524 274 7796 5515 3787 1605 512 467 1606 228826 4193 754 94 1797 598 587 3230 467 1068 356 55 176 1724 1745 1794 39 216
internal_value=0 -0.0311338 0.437515 0.0407388 0.125475 0.443987 0.474542 -0.00516378 0.0234759 0.0447342 0.256427 0.013101 -0.0351055 -0.0234526 0.00835549 0.0652559 0.0870756 0.0658231 0.0937819 -0.0339319 -0.00999505 0.124891 0.204219 -0.021141 0.416189 0.386605 0.521447 -0.0415581 0.129843 0.120072
internal_weight=0 262937 18762 13769 4838 18517 8821 8931 5144 3484 1097 2118 249168 20342 5041 848 3741 2395 1366 15301 3697 1346 630 1660 9696 1900 3306 11604 842 803
internal_count=281699 262937 18762 13769 4838 18517 8821 8931 5144 3484 1097 2118 249168 20342 5041 848 3741 2395 1366 15301 3697 1346 630 1660 9696 1900 3306 11604 842 803
shrinkage=0.0501933


Tree=5
num_leaves=31
num_cat=0
split_feature=0 7 5 5 1 6 7 1 7 5 12 4 7 3 4 3 7 7 5 1 12 4 4 4 11 4 3 11 4 5
split_gain=2614.75 48.7053 41.1856 30.6261 13.093 9.80318 7.7102 7.46702 5.68467 3.66772 3.39154 3.29492 2.90249 2.52145 4.73166 2.52651 3.2555 2.46621 5.30834 7.79632 2.29006 3.12353 2.21348 2.09683 2.05572 2.01752 1.84376 2.29654 2.05666 1.70798
threshold=1.0000000180025095e-35 1.4139964263228695 0.71969266738708026 -0.80841488280913043 1.0000000180025095e-35 1.0000000180025095e-35 1.4139964263228695 1.0000000180025095e-35 1.6483851953934503 0.71969266738708026 -0.26760792821795559 -0.40324488716928619 1.726514785083644 -0.77491547739355471 -0.91530205007070686 1.8532553324333481 1.726514785083644 1.0233484778719011 -1.4657196706273026 1.0000000180025095e-35 0.37047569898073229 -0.8485410118827772 -1.1489656837284608 -1.1489656837284608 0.12931882815694348 -0.15055435762797231 1.4980971148891722 0.85079400011409556 -0.097145527077628566 -0.67000543473488627
decision_type=2 2 2 2 2 2 2 2 2 2 2 2 2 2 2 2 2 2 2 2 2 2 2 2 2 2 2 2 2 2
left_child=1 17 5 4 10 6 -2 9 11 12 13 -6 20 -3 15 -15 23 -1 19 24 21 -5 -21 -17 -19 -10 27 28 -23 -7
right_child=2 3 -4 7 8 29 -8 -9 25 -11 -12 -13 -14 14 -16 16 -18 18 -20 22 -22 26 -24 -25 -26 -27 -28 -29 -30 -31
leaf_value=-0.0020142435120594805 0.028845867123648259 -0.0032824859732422866 -0.002956477217907501 -0.0018983827909018907 0.0099314067025999646 0.02359849124888598 0.024723554775573087 -0.0013395259469040546 0.018221536314362793 -0.0074640520498214548 -0.0018072887915876223 -0.0017283481861193155 0.015439774241711612 0.0071493676734083909 0.019648130759340347 0.001611211798161389 0.0076828228171561827 -0.0032667509409517038 -0.0017177506029759362 0.005958743819572997 -9.9240304766820957e-05 0.0084685231331661399 0.019199388392178048 0.019256445876242881 0.00063390932731635359 0.0025176725436976835 0.0056470552769421912 0.033502996081829363 0.027626916768180035 0.021352081283756437
leaf_weight=224550 3269 171 248 148 762 7817 5509 6911 492 108 400 128 119 1223 98 1723 594 881 20953 721 345 163 62 31 1993 40 283 24 30 1903
leaf_count=224550 3269 171 248 148 762 7817 5509 6911 492 108 400 128 119 1223 98 1723 594 881 20953 721 345 163 62 31 1993 40 283 24 30 1903
internal_value=0 -0.0257105 0.360847 0.0321335 0.0886017 0.366274 0.390499 -0.00718792 0.171638 0.0649381 0.0607532 0.122754 0.0820256 0.0698813 0.0754133 0.0694642 0.0502673 -0.0289127 -0.0194093 0.0157455 0.0643395 0.0993801 0.104205 0.0285984 -0.00835471 0.253417 0.137153 0.206501 0.170223 0.344397
internal_weight=0 262953 18746 13793 5662 18498 8778 8131 1422 1220 4240 890 1112 3840 3669 3571 2348 249160 24610 3657 993 648 783 1754 2874 532 500 217 193 9720
internal_count=281699 262953 18746 13793 5662 18498 8778 8131 1422 1220 4240 890 1112 3840 3669 3571 2348 249160 24610 3657 993 648 783 1754 2874 532 500 217 193 9720
shrinkage=0.0672441


Tree=6
num_leaves=31
num_cat=0
split_feature=7 1 5 7 5 1 7 5 6 6 5 7 3 3 6 4 4 4 5 3 1 4 7 7 7 5 3 3 7 4
split_gain=609.351 236.488 76.0343 64.7911 31.8223 15.659 44.6517 15.1636 16.0561 14.6665 19.1478 10.414 7.98674 4.61837 4.21414 4.02801 2.97604 2.84648 2.64975 3.22761 2.51297 2.60448 2.51016 2.48342 2.41341 2.24411 2.80782 4.17547 2.58225 1.94128
threshold=1.4139964263228695 1.0000000180025095e-35 -1.7010717685673129 0.32018217066015797 -1.385027522762156 1.0000000180025095e-35 0.39831176035035165 0.71969266738708026 1.0000000180025095e-35 1.0000000180025095e-35 0.71969266738708026 1.6483851953934503 1.3560338278715016 0.21952753173013814 1.0000000180025095e-35 -0.56881226187535183 -1.1055710089063064 -1.082204645540531 0.71969266738708026 -0.91697876441122506 1.0000000180025095e-35 -1.1489656837284608 1.0233484778719011 1.0000000180025095e-35 1.726514785083644 -0.078823379195098187 1.4270654713803368 -0.49078890335821396 1.6483851953934503 -0.95535867298346477
decision_type=2 2 2 2 2 2 2 2 2 2 2 2 2 2 2 2 2 2 2 2 2 2 2 2 2 2 2 2 2 2
left_child=2 7 3 13 16 6 23 8 -2 10 22 15 20 -1 17 -10 24 -14 19 -11 -5 -22 -8 -4 -3 26 27 -6 -29 -24
right_child=1 4 5 12 25 -7 9 -9 11 18 -12 -13 14 -15 -16 -17 -18 -19 -20 -21 21 -23 29 -25 -26 -27 -28 28 -30 -31
leaf_value=-0.00083148751228714457 0.014656571379648766 0.0073901825448980689 -0.0013150664129789661 0.0045619736555373748 -0.00021747928435626916 -0.0014112988964244582 0.0058914666443060327 -0.0044200593385826199 0.010093227711745829 0.00010696672762905172 -0.0041590704266620138 0.013092149264798486 0.0090197134255796032 0.0019595037564811867 0.0060531202080154065 0.006030952375328867 0.017273864370110376 0.020647748122820293 -0.0018188000478999713 0.0026656120346053428 0.00016848858836637342 0.010711200006818593 0.0038064899633578351 9.2839956352302807e-05 0.016001733110342958 -0.001624425145176775 -0.0005327113372982778 0.005434401987316451 0.017379899360196269 0.0098837805355741354
leaf_weight=11553 6964 841 37595 4344 389 178289 1508 174 4291 2438 534 4464 1612 2333 3626 982 145 72 729 4776 787 85 196 4604 122 4255 2291 207 83 1410
leaf_count=11553 6964 841 37595 4344 389 178289 1508 174 4291 2438 534 4464 1612 2333 3626 982 145 72 729 4776 787 85 196 4604 122 4255 2291 207 83 1410
internal_value=0 0.148368 -0.0145695 0.0385171 0.010534 -0.0201536 -0.00519896 0.216431 0.219491 0.0497752 0.102264 0.193269 0.0976887 -0.00633668 0.124989 0.163179 0.168337 0.166327 0.0256685 0.0314747 0.0698959 0.0209054 0.132266 -0.020299 0.148226 -0.0136661 0.00742872 0.0639074 0.15473 0.159777
internal_weight=0 25208 256491 24412 8333 232079 53790 16875 16701 11591 3648 9737 10526 13886 5310 5273 1108 1684 7943 7214 5216 872 3114 42199 963 7225 2970 679 290 1606
internal_count=281699 25208 256491 24412 8333 232079 53790 16875 16701 11591 3648 9737 10526 13886 5310 5273 1108 1684 7943 7214 5216 872 3114 42199 963 7225 2970 679 290 1606
shrinkage=0.0572177


Tree=7
num_leaves=31
num_cat=0
split_feature=0 7 5 5 1 1 14 6 7 7 7 7 5 1 3 12 7 5 5 5 7 3 11 11 7 12 7 3 5 3
split_gain=3914.36 72.4325 54.5467 39.5895 25.0906 12.5148 7.89535 6.49957 4.89263 4.03388 3.96953 3.50763 5.90906 6.2145 2.1134 1.94704 1.93813 2.17634 1.91361 1.90974 2.58304 2.37404 2.27965 1.6036 1.42193 1.49167 1.41527 1.73709 1.41429 1.29937
threshold=1.0000000180025095e-35 1.4139964263228695 0.71969266738708026 -1.4657196706273026 1.0000000180025095e-35 1.0000000180025095e-35 1.7064850979250279 1.0000000180025095e-35 1.726514785083644 1.6483851953934503 1.726514785083644 1.0233484778719011 -1.4657196706273026 1.0000000180025095e-35 -0.3487256163405435 -0.33071510013870492 -0.85176167469274688 -1.2673514737921507 0.71969266738708026 -0.078823379195098187 1.6483851953934503 1.9953186194510184 0.4660072417369478 1.8608592408541085 1.4921260160130632 -0.57908426214258968 -1.711187161284877 -0.98801040792006034 1.0000000180025095e-35 1.8532553324333481
decision_type=2 2 2 2 2 2 2 2 2 2 2 2 2 2 2 2 2 2 2 2 2 2 2 2 2 2 2 2 2 2
left_child=1 11 16 4 6 7 14 18 -8 24 -9 -1 13 -13 -3 -12 17 -2 -5 20 -7 22 -22 29 -6 -26 -19 -28 -14 -16
right_child=2 3 -4 5 9 19 8 10 -10 -11 15 12 28 -15 23 -17 -18 26 -20 -21 21 -23 -24 -25 25 -27 27 -29 -30 -31
leaf_value=-0.00096864845295956841 0.012154841161504264 -0.0007090593026181487 -0.00064442626975497164 0.0048693576218354368 0.006528393217467625 -0.00044382937121623377 0.00018252040989557298 0.00031470276957656267 0.0031030833755060815 0.0083676828221443938 -0.0022777612294545375 -0.00022305675713413521 -0.00057373759868345735 0.0024387175277284473 0.0052437425934290993 0.0067324352073306198 0.011898345522075401 0.01135488929647549 -0.00013188705656895058 -0.00085286307687604962 0.0020696388265490418 -0.00026352718869486876 0.0089512596497777729 0.0025004733398516282 0.0035564056433474598 0.01002452520167553 0.0018443751357498442 0.0084781689694945536 -0.0010100083899043356 0.0032394223622928429
leaf_weight=224550 164 85 248 509 284 2190 1652 1004 532 457 20 2874 9749 783 472 106 18144 60 60 4255 387 356 37 583 340 27 40 90 11204 437
leaf_count=224550 164 85 248 509 284 2190 1652 1004 532 457 20 2874 9749 783 472 106 18144 60 60 4255 387 356 37 583 340 27 40 90 11204 437
internal_value=0 -0.0314239 0.441542 0.0391165 0.111647 -0.000456716 0.0726839 0.0767678 0.0337504 0.243904 0.0328781 -0.0353288 -0.0239952 0.0130954 0.126603 0.200184 0.447788 0.374506 0.16393 -0.0186165 0.000843375 0.0502587 0.100811 0.135341 0.193349 0.152237 0.30166 0.243027 -0.0304688 0.161596
internal_weight=0 262953 18746 13793 4869 8924 3761 1699 2184 1108 1130 249160 24610 3657 1577 126 18498 354 569 7225 2970 780 424 1492 651 367 190 130 20953 909
internal_count=281699 262953 18746 13793 4869 8924 3761 1699 2184 1108 1130 249160 24610 3657 1577 126 18498 354 569 7225 2970 780 424 1492 651 367 190 130 20953 909
shrinkage=0.0264868


Tree=8
num_leaves=31
num_cat=0
split_feature=0 5 7 5 7 5 7 7 11 1 4 11 1 3 4 7 4 1 12 3 1 5 7 4 5 1 4 12 4 5
split_gain=1809.94 26.6704 23.9566 7.11247 7.07516 6.8787 5.48196 3.5448 4.58058 3.03377 2.70246 5.22867 1.71514 1.38875 1.5078 1.32949 1.34857 1.30613 1.24874 1.23023 1.19632 2.83893 2.1492 1.2155 1.15823 1.14128 1.26901 2.01582 1.10949 1.0203
threshold=1.0000000180025095e-35 0.71969266738708026 1.6483851953934503 0.71969266738708026 1.4139964263228695 -1.146313251994431 1.5702556057032566 1.4139964263228695 -0.11117289582877389 1.0000000180025095e-35 0.052733003654273601 -0.11117289582877389 1.0000000180025095e-35 1.9953186194510184 -0.72570070161698663 1.0233484778719011 0.47032329751977392 1.0000000180025095e-35 1.1768451179680852 -0.77491547739355471 1.0000000180025095e-35 -1.2673514737921507 1.726514785083644 -0.87891728425828519 -0.67000543473488627 1.0000000180025095e-35 -0.99875334780561908 0.12874939717903153 -1.0454860745371697 -0.41223885127677956
decision_type=2 2 2 2 2 2 2 2 2 2 2 2 2 2 2 2 2 2 2 2 2 2 2 2 2 2 2 2 2 2
left_child=2 7 4 10 29 6 9 8 15 19 11 13 -8 14 17 16 -2 -4 -12 -6 22 -22 -13 -24 -25 26 -7 -28 -19 -1
right_child=1 -3 3 -5 5 25 12 -9 -10 -11 18 20 -14 -15 -16 -17 -18 28 -20 -21 21 -23 23 24 -26 -27 27 -29 -30 -31
leaf_value=-0.0012364807881643282 0.022119564171427818 -0.0015063742376898938 0.0093835265459785641 -0.0017161771473320697 -0.0040165011249477002 -0.0047327469161113755 -0.0026177952321131057 0.017324342584878062 0.017630451239635192 0.008240657665980743 -0.0013572788667661909 -6.0495064995176317e-05 0.0035246531867994487 0.0059076170951079185 0.0072288483838840777 0.019524425823429146 0.0070622364537211053 0.013269585542756458 0.0064864265342560882 0.003305528259997016 0.010955503461494653 0.0016029880783054937 0.0038134106502553983 0.005625263574968121 0.019859340244041103 -0.0012001268695222551 0.0037284591528886032 -0.0013989636519753949 0.023314864918572799 -0.0014837419382241199
leaf_weight=92276 1492 248 163 778 84 129 731 11349 3879 483 343 630 202 378 274 1757 21 109 89 1633 209 246 536 48 34 5553 603 479 59 156884
leaf_count=92276 1492 248 163 778 84 129 731 11349 3879 483 343 630 202 378 274 1757 21 109 89 1633 209 246 536 48 34 5553 603 479 59 156884
internal_value=0 0.30023 -0.0213822 0.0564506 -0.0225527 0.00366883 0.0424056 0.304597 0.322039 0.0696462 0.0777934 0.0896002 -0.0218274 0.147673 0.177383 0.349608 0.371337 0.222804 0.00438389 0.0499506 0.0560795 0.0999749 0.040076 0.0819753 0.195361 -0.0142735 0.0135419 0.0247194 0.284679 -0.0235942
internal_weight=0 18746 262953 3896 259057 9897 3133 18498 7149 2200 3118 2686 933 983 605 3270 1513 331 432 1717 1703 455 1248 618 82 6764 1211 1082 168 249160
internal_count=281699 18746 262953 3896 259057 9897 3133 18498 7149 2200 3118 2686 933 983 605 3270 1513 331 432 1717 1703 455 1248 618 82 6764 1211 1082 168 249160
shrinkage=0.0590046


Tree=9
num_leaves=31
num_cat=0
split_feature=0 5 7 5 7 4 3 7 11 4 6 13 3 1 4 4 3 12 12 4 1 3 3 5 7 7 5 3 4 7
split_gain=1231.89 18.1525 16.3055 4.84093 4.81553 4.91914 4.01635 2.41268 3.11766 1.86021 3.52673 1.51108 1.17526 1.98348 1.69584 1.55108 1.17175 1.11493 1.0752 0.99881 2.32146 1.28741 1.0261 1.17697 0.993798 1.50373 1.81088 0.878971 0.850446 0.839223
threshold=1.0000000180025095e-35 0.71969266738708026 1.6483851953934503 0.71969266738708026 1.4139964263228695 -0.56881226187535183 1.8532553324333481 1.4139964263228695 -0.11117289582877389 0.26870496219222623 1.0000000180025095e-35 -0.2795526638062516 -0.3487256163405435 1.0000000180025095e-35 -0.6515959492283846 -0.71501893550691786 -0.63285219037588425 1.1768451179680852 -0.10559594884246461 -0.55145439194649004 1.0000000180025095e-35 1.4980971148891722 -0.77491547739355471 -0.24861310699467717 0.63270052942093269 -0.69550249531235953 -1.2673514737921507 1.9953186194510184 -0.65827205304717762 1.0233484778719011
decision_type=2 2 2 2 2 2 2 2 2 2 2 2 2 2 2 2 2 2 2 2 2 2 2 2 2 2 2 2 2 2
left_child=2 7 4 9 29 6 11 8 24 10 19 12 13 15 -15 16 -6 -11 -13 20 27 22 23 -21 25 26 -2 -4 -28 -1
right_child=1 -3 3 -5 5 -7 -8 -9 -10 17 -12 18 -14 14 -16 -17 -18 -19 -20 21 -22 -23 -24 -25 -26 -27 28 -29 -30 -31
leaf_value=-0.001296212504554555 0.021823447208526692 -0.0013600929995749543 0.0085641916578387805 -0.0015495223068400104 -0.0027840316781662759 -0.0011247697560097707 -0.00045868675465280073 0.015642007885796325 0.015918390252703359 -0.0025510669330874821 0.0029164730867595845 -0.0014355940440280944 0.004849905693839739 0.013803523261865026 -0.0073445288950777622 0.011124410344756695 -0.016063491860222094 0.005856541646635233 0.0049340312343478061 -0.0072396311105015392 0.012762211414421683 0.0013529093735912944 0.014515741157676286 0.013239813193651534 0.017977713531850056 0.022252823017067908 -0.00016388200125735627 0.002303022919726198 0.013259243002629796 -0.0008989906309654766
leaf_weight=224550 109 248 188 778 133 5376 1936 11349 3879 252 1737 385 1765 64 21 27 35 89 155 25 351 193 75 22 2457 597 26 186 81 24610
leaf_count=224550 109 248 188 778 133 5376 1936 11349 3879 252 1737 385 1765 64 21 27 35 89 155 25 351 193 75 22 2457 597 26 186 81 24610
internal_value=0 0.247689 -0.0176403 0.0465717 -0.018606 0.00302678 0.0273379 0.251293 0.265682 0.0641796 0.0727387 0.053132 0.0655561 0.00536753 0.132848 -0.0502008 -0.085955 -0.00552386 0.00608163 0.118794 0.139222 0.071779 0.152188 0.0363372 0.288427 0.318733 0.247234 0.0844028 0.15482 -0.0194653
internal_weight=0 18746 262953 3896 259057 9897 4521 18498 7149 3118 2777 2585 2045 280 85 195 168 341 540 1040 725 315 122 47 3270 813 216 374 107 249160
internal_count=281699 18746 262953 3896 259057 9897 4521 18498 7149 3118 2777 2585 2045 280 85 195 168 341 540 1040 725 315 122 47 3270 813 216 374 107 249160
shrinkage=0.0645755


Tree=10
num_leaves=31
num_cat=0
split_feature=0 5 7 5 1 7 14 4 5 7 14 3 5 3 7 3 4 4 13 4 4 12 7 3 7 7 4 12 12 5
split_gain=834.819 11.7993 11.7491 6.9149 8.73154 2.28592 2.17086 2.01029 1.80862 1.69853 2.14905 1.6738 1.54453 1.53202 1.52261 1.55766 1.26012 1.82927 1.2413 2.05944 1.19371 1.15373 1.14637 1.59601 1.43056 1.0625 1.05405 0.964303 1.72685 1.04324
threshold=1.0000000180025095e-35 0.71969266738708026 1.4139964263228695 -0.80841488280913043 1.0000000180025095e-35 1.726514785083644 1.7498442916408219 -0.54811634003709353 0.71969266738708026 1.4139964263228695 -0.11460103813831431 -0.41975725984937867 -1.0286372030244257 1.7822236889245129 1.726514785083644 -0.3487256163405435 -0.61821543013441971 -0.8485410118827772 -0.2795526638062516 -1.1489656837284608 1.0040777978322721 -0.011488762644855932 1.726514785083644 1.9242869759421832 1.6483851953934503 -0.85176167469274688 -0.50138361330554282 -0.27498888399816018 -0.57908426214258968 -1.0286372030244257
decision_type=2 2 2 2 2 2 2 2 2 2 2 2 2 2 2 2 2 2 2 2 2 2 2 2 2 2 2 2 2 2
left_child=2 9 -1 4 5 6 27 18 13 10 20 -9 -7 14 16 -16 17 -5 19 22 -2 -15 23 -6 -25 -12 -14 28 -4 -30
right_child=1 -3 3 8 7 12 -8 11 -10 -11 25 -13 26 21 15 -17 -18 -19 -20 -21 -22 -23 -24 24 -26 -27 -28 -29 29 -31
leaf_value=-0.00093606209212358869 0.013879374929565489 -0.00097939281141116085 0.0015215898679064054 -0.00076860774388195726 0.007637235908469325 0.0032472861088889398 -0.0015539899512454656 -0.0022990802388833114 -0.001218495069455101 0.011549330112349585 0.0068863469342199651 0.0077197138292323742 0.0059691425206897016 -0.001567232856381443 -0.00015784108881111984 0.011438812048271331 0.00049136821071250533 0.0077280064245285962 -0.0025219952712347221 0.013059926310676935 0.0011838151501508863 0.0012396161946438158 0.011668154060532492 -0.0026496765831518446 0.0055531917640342602 0.011953571735222213 0.022498374960972709 -0.0023881616499561529 0.017407429530566055 0.0035683679051124141
leaf_weight=249388 3243 238 2020 142 527 677 1215 150 3733 11300 144 89 28 1377 63 101 1608 211 42 193 25 762 125 117 182 3704 24 198 37 36
leaf_count=249388 3243 238 2020 142 527 677 1215 150 3733 11300 144 89 28 1377 63 101 1608 211 42 193 25 762 125 117 182 3704 24 198 37 36
internal_value=0 0.204312 -0.0146094 0.0139499 0.0406967 0.0179133 0.00731924 0.108407 -0.00498047 0.207171 0.219273 0.0247381 0.0688635 0.00909071 0.028108 0.12067 0.020367 0.0744702 0.125268 0.131467 0.23813 -0.00980214 0.112353 0.0988466 0.0404889 0.203258 0.234947 0.0254404 0.0317506 0.182848
internal_weight=0 18654 263045 13657 5660 4235 3506 1425 7997 18416 7116 239 729 4264 2125 164 1961 353 1186 1144 3268 2139 951 826 299 3848 52 2291 2093 73
internal_count=281699 18654 263045 13657 5660 4235 3506 1425 7997 18416 7116 239 729 4264 2125 164 1961 353 1186 1144 3268 2139 951 826 299 3848 52 2291 2093 73
shrinkage=0.0578769


Tree=11
num_leaves=31
num_cat=0
split_feature=0 7 5 5 1 5 5 7 14 7 14 1 4 12 4 7 4 5 7 12 4 4 11 12 12 7 4 5 12 4
split_gain=1577.47 24.4823 22.696 15.338 13.3817 3.69842 3.30838 2.95126 2.83771 2.71382 5.1497 2.23637 1.75519 1.71769 2.28646 1.50017 1.44973 1.41303 1.33701 1.27344 1.2359 1.19699 1.24033 1.11369 1.71776 1.08314 1.04854 1.03048 1.02644 1.37549
threshold=1.0000000180025095e-35 1.4139964263228695 0.71969266738708026 -0.80841488280913043 1.0000000180025095e-35 -1.385027522762156 0.71969266738708026 1.726514785083644 1.7498442916408219 1.4139964263228695 -0.11460103813831431 1.0000000180025095e-35 -1.1489656837284608 0.70261870908993951 -0.97839123115830051 1.726514785083644 -0.03973103423600903 -1.0286372030244257 0.9452188881817073 -0.0070601891767331721 -1.0154436073526014 -0.31111465446994319 0.081220483359799991 -0.27498888399816018 -0.57908426214258968 -0.85176167469274688 -0.50138361330554282 -1.0286372030244257 -0.4787032635318072 -0.68664549427704769
decision_type=2 2 2 2 2 2 2 2 2 2 2 2 2 2 2 2 2 2 2 2 2 2 2 2 2 2 2 2 2 2
left_child=1 -1 9 4 7 12 11 8 23 10 18 13 15 14 -5 -6 -16 -9 -2 -13 -14 28 -23 24 -3 -12 -19 -26 29 -7
right_child=2 3 -4 6 5 21 -8 17 -10 -11 25 19 20 -15 16 -17 -18 26 -20 -21 -22 22 -24 -25 27 -27 -28 -29 -30 -31
leaf_value=-0.00076558294072893301 0.012131186057580675 0.0014687135573374097 -0.00089039965729571758 -0.0017586750677641894 0.0048458326754919666 0.010767102670455882 -0.0009867907910767271 0.0026925412415125267 -0.00062803752628629007 0.0094411409079944303 0.0065268585158592485 -0.00040796239198032097 0.012483760581248338 -0.00077084845451071951 0.0027138634892063737 0.0088783780107895525 0.0075939554857557684 0.0040507269266342356 0.010720060387254191 0.0012401849331351456 0.0062348834619306405 -0.0018723221466080435 0.007143321302793328 -0.0010362529460556063 0.010845799011712497 0.0095594052683804758 0.013822503081626364 0.0026932524898330926 -0.00079986150936641983 0.0029928347288939211
leaf_weight=249388 1338 2020 238 125 826 37 3733 677 1215 11300 144 2487 75 242 620 125 81 28 1930 709 74 124 21 198 37 3704 24 36 46 97
leaf_count=249388 1338 2020 238 125 826 37 3733 677 1215 11300 144 2487 75 242 620 125 81 28 1930 709 74 124 21 198 37 3704 24 36 46 97
internal_value=0 -0.020059 0.280875 0.0211671 0.0610017 0.144825 -0.00702655 0.0327966 0.0207591 0.284841 0.300138 0.0120046 0.172517 0.0516215 0.0733287 0.156706 0.0955459 0.0906887 0.329329 -0.00123414 0.273434 0.0511006 -0.0165165 0.0414774 0.0482588 0.275347 0.249545 0.198958 0.10557 0.149814
internal_weight=0 263045 18654 13657 5660 1425 7997 4235 3506 18416 7116 4264 1100 1068 826 951 701 729 3268 3196 149 325 145 2291 2093 3848 52 73 180 134
internal_count=281699 263045 18654 13657 5660 1425 7997 4235 3506 18416 7116 4264 1100 1068 826 951 701 729 3268 3196 149 325 145 2291 2093 3848 52 73 180 134
shrinkage=0.0343056


Tree=12
num_leaves=31
num_cat=0
split_feature=0 7 5 5 1 3 4 7 12 1 4 7 14 3 3 3 4 12 5 4 3 3 11 3 4 4 4 3 7 7
split_gain=718.966 10.536 10.2359 6.367 6.92313 1.81328 1.89797 1.70039 1.74393 1.60357 1.53707 1.44268 2.16416 1.36943 1.29231 1.4175 1.23869 1.4559 1.28383 1.43762 1.13291 0.960391 2.38442 1.44855 0.897616 0.8629 0.812167 0.806163 1.21788 0.750051
threshold=1.0000000180025095e-35 1.4139964263228695 0.71969266738708026 -0.80841488280913043 1.0000000180025095e-35 1.6401604019068425 -1.1489656837284608 1.726514785083644 -0.26760792821795559 1.0000000180025095e-35 -1.1489656837284608 1.2577372469424821 -0.11460103813831431 -0.56182054686704908 1.8532553324333481 -0.98801040792006034 -0.97839123115830051 0.70261870908993951 0.71969266738708026 -0.03973103423600903 1.7822236889245129 1.4980971148891722 0.36981055214266084 1.3560338278715016 -0.63690852082704008 0.32211379274256996 1.0040777978322721 1.8532553324333481 1.726514785083644 -0.85176167469274688
decision_type=2 2 2 2 2 2 2 2 2 2 2 2 2 2 2 2 2 2 2 2 2 2 2 2 2 2 2 2 2 2
left_child=1 -1 11 4 7 25 27 8 10 16 14 12 26 -12 15 -3 -5 18 19 21 -9 22 23 -18 -23 -6 -2 -7 -29 -14
right_child=2 3 -4 9 5 6 -8 20 -10 -11 13 -13 29 -15 -16 -17 17 -19 -20 -21 -22 24 -24 -25 -26 -27 -28 28 -30 -31
leaf_value=-0.00060264112656464831 0.0092409389344276539 -0.0056318995788159866 -0.00065926051786742554 -0.0022117344159698227 0.0025390447571102624 0.0058898961566222555 0.0094162121687865752 0.0063708739886438048 -0.002298900795822682 -0.00042323262695355114 9.2741420459440768e-05 0.0074820338700746017 0.0047209809406423111 0.0058448209413263993 -0.00029686729420729668 0.0017011168272503335 0.00051430774450092508 -0.0009493026220676428 -0.0025924121643131474 0.0080876516566588102 0.001869908588242718 0.0042350265438821661 0.011468344893454663 0.0098987788127501836 -8.9397485679982585e-05 -0.002708929312165815 0.0013216766868035725 0.0023764219773744623 0.0071141930403699986 0.007687319192189985
leaf_weight=249388 2339 44 238 151 382 308 132 105 349 6819 111 13095 144 166 1695 1141 152 255 71 81 624 108 58 32 270 58 21 436 109 2817
leaf_count=249388 2339 44 238 151 382 308 132 105 349 6819 111 13095 144 166 1695 1141 152 255 71 81 624 108 58 32 270 58 21 436 109 2817
internal_value=0 -0.0135514 0.189612 0.0134934 0.0391586 0.099451 0.123292 0.0188714 0.00973434 -0.00467156 0.0171497 0.192275 0.20616 0.0882983 0.0103066 0.0356411 0.0293981 0.0418322 0.0634714 0.0764496 0.0628143 0.0600811 0.10927 0.0535399 0.0285898 0.0460785 0.22875 0.106025 0.0829139 0.188155
internal_weight=0 263045 18654 13657 5660 1425 985 4235 3506 7997 3157 18416 5321 277 2880 1185 1178 1027 772 701 729 620 242 184 378 440 2360 853 545 2961
internal_count=281699 263045 18654 13657 5660 1425 985 4235 3506 7997 3157 18416 5321 277 2880 1185 1178 1027 772 701 729 620 242 184 378 440 2360 853 545 2961
shrinkage=0.0400895


Tree=13
num_leaves=31
num_cat=0
split_feature=0 7 5 5 7 5 1 3 4 7 12 7 14 4 4 4 7 7 12 4 11 4 5 4 5 1 12 11 6 3
split_gain=489.346 7.75087 6.96684 2.32537 2.06463 2.45018 2.09752 1.94518 2.05275 1.38119 1.06049 1.05742 1.46579 1.03872 1.07066 1.05926 0.836702 0.811322 0.819139 0.8849 1.73387 1.13305 0.990098 0.790971 0.636134 2.79403 1.39251 0.810446 0.633504 0.60867
threshold=1.0000000180025095e-35 1.6483851953934503 0.71969266738708026 0.71969266738708026 1.4139964263228695 -1.146313251994431 1.0000000180025095e-35 1.9953186194510184 -0.72236264970759012 1.5702556057032566 -0.38127464723310645 1.1014780675620948 -0.11460103813831431 -0.6482578973189882 -0.67095665030288421 0.89892916268628265 1.5702556057032566 1.726514785083644 0.29666614117868628 -0.48135530184916392 0.27361386254837389 -0.12785560464407622 -0.80841488280913043 0.28639663731202764 -0.67000543473488627 1.0000000180025095e-35 1.5145238449124458 2.1975476544341128 1.0000000180025095e-35 -0.98801040792006034
decision_type=2 2 2 2 2 2 2 2 2 2 2 2 2 2 2 2 2 2 2 2 2 2 2 2 2 2 2 2 2 2
left_child=1 4 11 7 -1 6 16 8 10 -8 28 12 -2 14 -10 17 29 -15 19 20 -19 22 -21 -23 25 27 -26 -9 -3 -6
right_child=2 3 -4 -5 5 -7 9 24 13 -11 -12 -13 -14 15 -16 -17 -18 18 -20 21 -22 23 -24 -25 26 -27 -28 -29 -30 -31
leaf_value=-0.00072884502599819068 0.011456413391644471 0.0081090658099764092 -0.00079732148881147993 -0.00093723196250416552 -0.0048496343401960356 -0.00049097958524678984 0.0060115618186527778 -0.00058760286931171821 0.0024176859438963519 8.3015245216673089e-05 0.018129349075625429 0.0090855585250260301 0.0091985121378353827 0.0021778510432290273 -0.014989450902380309 -0.0022551742821235649 -0.00097829593929334743 0.018139608314997661 0.014473427053343719 0.0064583238555768509 -0.0023120625766193071 0.014945812168550827 -0.0072423732820382043 0.0020724758429419101 -0.001544244496424219 0.0069939859066894981 0.011221172440069632 0.002581954324930873 0.0033195882264844029 0.0016087012780658949
leaf_weight=249388 1729 331 238 768 52 6700 495 674 26 187 30 14354 2333 322 23 107 723 41 39 29 22 32 49 34 380 312 32 475 134 1640
leaf_count=249388 1729 331 238 768 52 6700 495 674 26 187 30 14354 2333 322 23 107 723 41 39 29 22 32 49 34 380 312 32 475 134 1640
internal_value=0 -0.0111799 0.15643 0.0333008 -0.0118423 0.00239761 0.0256581 0.0455333 0.0766237 0.0746302 0.126252 0.158627 0.172871 0.0426925 -0.0978908 0.0528978 0.0118283 0.0700915 0.113331 0.088284 0.187133 0.0450376 -0.0365584 0.141469 0.0252987 0.0350853 -0.00940546 0.0122972 0.114496 0.0239957
internal_weight=0 263045 18654 3860 259185 9797 3097 3092 1219 682 495 18416 4062 724 49 675 2415 568 246 207 63 144 78 66 1873 1461 412 1149 465 1692
internal_count=281699 263045 18654 3860 259185 9797 3097 3092 1219 682 495 18416 4062 724 49 675 2415 568 246 207 63 144 78 66 1873 1461 412 1149 465 1692
shrinkage=0.0587697


Tree=14
num_leaves=31
num_cat=0
split_feature=0 7 5 5 7 5 3 3 3 5 1 3 7 3 3 12 11 7 11 5 7 7 7 7 12 12 3 3 9 12
split_gain=333.061 5.27543 4.74181 1.58271 1.43998 2.50667 1.32394 0.834606 1.06646 1.56836 3.07938 0.890972 0.789369 1.49455 0.972277 0.927288 0.908206 0.775015 1.11603 0.749974 0.899788 0.973589 0.81898 0.735932 0.778621 0.940477 0.909199 0.704168 0.687539 0.666058
threshold=1.0000000180025095e-35 1.6483851953934503 0.71969266738708026 0.71969266738708026 1.1014780675620948 -0.078823379195098187 1.9953186194510184 -1.0590420514288954 1.4980971148891722 -1.2673514737921507 1.0000000180025095e-35 1.9242869759421832 1.726514785083644 -0.41975725984937867 1.2139705408538313 -0.12331024271495565 0.70649896572266524 1.4139964263228695 -0.15927124062591733 -0.67000543473488627 -0.7736320850025532 -1.3205392128339088 0.63270052942093269 1.5702556057032566 0.48119003568380131 0.33357092007970929 -0.49078890335821396 -0.63285219037588425 1.0000000180025095e-35 1.0000000180025095e-35
decision_type=2 2 2 2 2 2 2 2 2 2 2 2 2 2 2 2 2 2 2 2 2 2 2 2 2 2 2 2 2 2
left_child=1 4 17 6 -1 7 12 -6 23 10 -10 -12 15 27 16 28 -15 18 19 -2 21 -21 -22 24 25 -9 -27 29 -3 -14
right_child=2 3 -4 -5 5 -7 -8 8 9 -11 11 -13 13 14 -16 -17 -18 -19 -20 20 22 -23 -24 -25 -26 26 -28 -29 -30 -31
leaf_value=-0.00032738245673998023 0.0050658028472503622 0.0016197823754422447 -0.00034545315495994718 -0.00040607173299569478 -0.000648003012847211 -0.00040420370708391833 0.00064418048876023492 0.00082840890961650775 6.8254527524624963e-05 -0.00030677836477124328 0.002289137563251613 -0.00043272562749805326 3.222215001956985e-05 0.0095048902993216926 0.0030966148082646515 -0.0010512390006811188 0.0026393186010772391 0.0038802258413918721 0.0039370296352964412 0.0033645661039430072 0.0060631047001519986 -0.0041740242345833485 0.0039051146931067568 -0.00083004461966334217 -0.00059600943396039691 0.0010118238547651395 0.006930115166812017 -0.0043272880933562206 0.0071780034680626065 0.006177709062859145
leaf_weight=230145 2075 583 238 768 1102 13509 1873 3310 4062 5262 913 131 84 50 273 130 29 11300 3866 47 206 25 897 294 358 51 48 27 22 21
leaf_count=230145 2075 583 238 768 1102 13509 1873 3310 4062 5262 913 131 84 50 273 130 29 11300 3866 47 206 25 897 294 358 51 48 27 22 21
internal_value=0 -0.0092234 0.129055 0.0274732 -0.00976991 -0.00313438 0.0375649 0.0055305 0.00755638 0.00217587 0.0146615 0.0631023 0.0632146 0.0945733 0.128602 0.0425647 0.226302 0.130867 0.139042 0.152701 0.132514 0.0242028 0.139584 0.0212932 0.025054 0.029713 0.125754 0.00382953 0.0590295 0.0408668
internal_weight=0 263045 18654 3860 259185 29040 3092 15531 14429 10368 5106 1044 1219 484 352 735 79 18416 7116 3250 1175 72 1103 4061 3767 3409 99 132 605 105
internal_count=281699 263045 18654 3860 259185 29040 3092 15531 14429 10368 5106 1044 1219 484 352 735 79 18416 7116 3250 1175 72 1103 4061 3767 3409 99 132 605 105
shrinkage=0.0308642


Tree=15
num_leaves=31
num_cat=0
split_feature=0 15 5 5 1 3 4 11 4 4 4 12 3 4 4 3 15 3 4 4 3 11 15 15 12 15 5 14 3 15
split_gain=225.149 3.4597 3.29802 3.1976 3.09078 0.896979 1.17044 1.2158 0.857916 0.824228 0.751031 3.56495 0.735427 1.12593 0.735981 0.726754 0.824907 0.761278 0.720189 0.714239 0.701476 0.660468 0.645481 0.894437 0.800071 0.752101 0.932632 0.733724 0.643292 0.584569
threshold=1.0000000180025095e-35 1.5673079353633421 0.71969266738708026 -1.146313251994431 1.0000000180025095e-35 1.4270654713803368 -0.014028034533656102 1.3798757928826737 0.28639663731202764 -1.0454860745371697 -1.1489656837284608 -0.50601279991856418 1.7111920454156777 -1.1489656837284608 -1.0621763340841521 2.0663502629598538 1.6798676052177739 -1.0590420514288954 -1.0154436073526014 -0.78878988270458017 -1.2011053384465658 1.1874824136940998 1.135521660839784 -0.89424287751882214 0.62880915128789339 -1.2097790012091145 -0.67000543473488627 0.88266041732494449 -1.2011053384465658 1.7942725155616226
decision_type=2 2 2 2 2 2 2 2 2 2 2 2 2 2 2 2 2 2 2 2 2 2 2 2 2 2 2 2 2 2
left_child=1 -1 22 4 8 6 7 9 10 -5 15 21 19 -14 -15 16 -3 -18 -13 -6 -11 -12 23 24 25 28 -27 -25 -2 -21
right_child=2 3 -4 5 12 -7 -8 -9 -10 20 11 18 13 14 -16 -17 17 -19 -20 29 -22 -23 -24 27 -26 26 -28 -29 -30 -31
leaf_value=-0.0003030770058232289 -0.0013005542006658583 0.0012067638163190916 -0.00035052684351187329 -0.0038759225813248315 0.0019529865411651048 -0.0003758894468656497 -0.00029313535497865132 0.0080019907988040147 -0.0053312651151910485 -0.0029825642300277174 0.006051223207225247 -0.0069199168682313791 0.0026183450019697349 0.011992677374363438 0.0049414566409822181 0.0017400778035403792 -0.0063661484741882471 -5.870928162995499e-05 8.5109202969395957e-05 0.00013119161866803139 0.0013639154340794094 0.01272167001152818 0.0037506700926071669 0.0049357452471683917 -0.0039322590798969411 0.0029190282199844696 -0.0038591178190078147 0.003925069874842823 0.0049365866597369246 -0.0078008838397659484
leaf_weight=249401 24 818 243 43 142 5953 1450 33 32 50 73 22 811 24 94 479 25 2166 137 30 1174 26 14382 1851 23 80 39 1860 194 20
leaf_count=249401 24 818 243 43 142 5953 1450 33 32 50 73 22 811 24 94 479 25 2166 137 30 1174 26 14382 1851 23 80 39 1860 194 20
internal_value=0 -0.00758621 0.105986 0.00794434 0.0283801 -0.00355916 0.0113777 0.0331659 0.0146981 0.0282304 0.0160908 0.0681532 0.0744915 0.0861357 0.177403 0.0122399 0.00648069 -0.00363619 -0.0246015 0.0181505 0.033011 0.217123 0.10751 0.118627 0.0710365 0.0833523 0.0194115 0.123243 0.118256 -0.0846346
internal_weight=0 263003 18696 13602 4899 8703 2750 1300 3778 1267 3746 258 1121 929 118 3488 3009 2191 159 192 1224 99 18453 4071 360 337 119 3711 218 50
internal_count=281699 263003 18696 13602 4899 8703 2750 1300 3778 1267 3746 258 1121 929 118 3488 3009 2191 159 192 1224 99 18453 4071 360 337 119 3711 218 50
shrinkage=0.0359385


Tree=16
num_leaves=31
num_cat=0
split_feature=0 7 5 4 7 13 1 4 5 4 5 5 3 7 3 4 3 5 3 3 12 12 12 4 4 3 4 3 3 4
split_gain=153.242 2.44578 2.24471 1.10896 2.87889 1.33948 3.24278 2.31908 1.99222 1.15515 1.10405 0.775053 0.621079 0.596434 0.930037 0.526879 0.477046 1.91753 0.622543 0.470022 0.746984 1.22074 0.829893 0.697447 1.33762 1.75956 0.63519 0.991034 0.860795 1.15841
threshold=1.0000000180025095e-35 1.6483851953934503 0.71969266738708026 -0.51473582094312875 1.0233484778719011 -0.2795526638062516 1.0000000180025095e-35 -0.6372423260179797 0.16493415081419846 -1.1489656837284608 -1.2673514737921507 0.71969266738708026 -0.98801040792006034 1.4139964263228695 1.4980971148891722 0.95400701919132469 -1.2011053384465658 -0.078823379195098187 1.4980971148891722 -0.70388383388471942 -0.38939369859133149 -0.57908426214258968 -0.50601279991856418 -0.97839123115830051 -0.73938671444551218 -0.2066623293228731 -0.78878988270458017 1.2850021843626664 1.0719072538361609 -0.93800080305460309
decision_type=2 2 2 2 2 2 2 2 2 2 2 2 2 2 2 2 2 2 2 2 2 2 2 2 2 2 2 2 2 2
left_child=1 3 16 4 -1 6 19 8 9 12 13 15 -8 14 -11 -3 17 -2 -18 -6 21 23 -23 -21 26 -26 28 -28 -25 -30
right_child=2 11 -4 -5 5 -7 7 -9 -10 10 -12 -13 -14 -15 -16 -17 18 -19 -20 20 -22 22 -24 24 25 -27 27 -29 29 -31
leaf_value=-0.00033661401455887586 0.0041158579821518023 0.0015449587422983694 -0.00042873374078129139 -0.00041940013639397923 -0.0012739532098270637 -0.00027115061276338762 -0.0039025016855419618 -0.00024886562338865452 -0.00091969001282089433 0.0072491462484707411 0.0045613933902396292 -0.00051489720044824963 0.002925441924462706 0.0060494557657360983 0.021367738196157098 -0.0016934311106489726 0.0051636657540040419 -0.0075026070489921451 0.0045203741145634357 0.00011234255943685111 -0.0063654464731182055 0.015482918590159048 0.0021270590987326351 -0.0034787018522317113 0.0096354109165911299 -0.0024967418909811172 0.019849631377818484 0.004730463528560578 0.017620103883637172 0.0035614172714826665
leaf_weight=55719 483 2901 243 190422 581 3988 39 775 304 26 685 761 1249 44 27 150 7019 44 10907 4787 47 25 28 36 41 197 20 32 20 99
leaf_count=55719 483 2901 243 190422 581 3988 39 775 304 26 685 761 1249 44 27 150 7019 44 10907 4787 47 25 28 36 41 197 20 32 20 99
internal_value=0 -0.00625862 0.0874386 -0.00662844 -0.00318645 0.010183 0.0169039 0.0428256 0.058331 0.0694325 0.0997496 0.018887 0.0510257 0.1996 0.271047 0.0260083 0.088696 0.059042 0.0895678 0.00309913 0.00604219 0.00715837 0.158161 0.00562872 0.0434968 -0.00763405 0.102285 0.197923 0.0701999 0.111188
internal_weight=0 263003 18696 259191 68769 13050 9062 3149 2374 2070 782 3812 1288 97 53 3051 18453 527 17926 5913 5332 5285 53 5232 445 238 207 52 155 119
internal_count=281699 263003 18696 259191 68769 13050 9062 3149 2374 2070 782 3812 1288 97 53 3051 18453 527 17926 5913 5332 5285 53 5232 445 238 207 52 155 119
shrinkage=0.053281


Tree=17
num_leaves=31
num_cat=0
split_feature=8 7 1 11 5 5 7 4 11 5 4 4 5 7 7 4 1 4 2 3 11 4 4 4 3 4 7 3 3 4
split_gain=47.9286 14.6756 6.65749 7.01114 3.73574 1.81292 3.47481 1.76961 2.49064 0.976636 0.879515 0.721247 0.701355 0.671153 0.628006 0.598185 0.594786 1.08013 0.854929 0.631597 0.510451 0.496482 0.492232 0.60337 0.490138 0.455559 0.449477 0.567349 0.443929 0.749756
threshold=1.0000000180025095e-35 1.4139964263228695 1.0000000180025095e-35 -0.11117289582877389 -1.385027522762156 -0.41223885127677956 0.86708929849151362 -0.51473582094312875 -0.11117289582877389 0.71969266738708026 -0.10081738417796469 -0.32980774516256356 -0.078823379195098187 0.085793401589576948 1.726514785083644 -0.20162655184173853 1.0000000180025095e-35 -0.65827205304717762 1.0000000180025095e-35 1.5691287583980074 0.41790889693980432 -1.1489656837284608 -1.0154436073526014 -0.70533858496966806 -1.2011053384465658 0.79611716387687093 1.3358668366326758 0.21952753173013814 -0.70388383388471942 -0.61487737822502331
decision_type=2 2 2 2 2 2 2 2 2 2 2 2 2 2 2 2 2 2 2 2 2 2 2 2 2 2 2 2 2 2
left_child=1 5 3 9 14 6 13 8 16 24 11 28 -2 -1 21 -15 18 19 -8 26 -16 -4 -23 -24 -3 -9 -18 -28 29 -5
right_child=12 2 4 10 -6 -7 7 25 -10 -11 -12 -13 -14 15 20 -17 17 -19 -20 -21 -22 22 23 -25 -26 -27 27 -29 -30 -31
leaf_value=-0.0004037312088592823 0.0049670896420301825 -0.00031095197606849053 0.0027654774034470649 -0.0049425944549712003 -0.00039068596059931373 -0.00046724778779357214 0.0022412480760992583 0.00019617147956956822 0.00041969579425209328 -0.0037842531420114425 -0.0025914604204682139 0.0057452136084975907 0.0021218128831496977 0.00034262209663235977 0.011989320865234916 -0.00043531544931582335 0.0054942308802287355 0.0011956659592132245 -0.005239895172679445 0.0018796169759952739 0.0039866100141891505 0.012799810612661302 -0.0034876758459409713 0.011520570311122949 0.004333388085284275 -0.0014052506542340452 0.02017954154951393 0.007025098013711842 0.00079880187075608608 0.0056917417164704899
leaf_weight=56935 9382 115 809 154 7158 157252 3017 5870 5670 76 427 141 452 13571 83 7718 717 544 78 236 76 52 30 24 6867 1041 24 51 3087 42
leaf_count=56935 9382 115 809 154 7158 157252 3017 5870 5670 76 427 141 452 13571 83 7718 717 544 78 236 76 52 30 24 6867 1041 24 51 3087 42
internal_value=0 -0.00251385 0.0241831 0.0403838 0.00271408 -0.00453585 -0.00109848 0.0117493 0.0200314 0.0591099 0.00606312 0.0113999 0.0685499 -0.00393135 0.0577098 0.000858842 0.0371407 0.0529811 0.0290951 0.0720495 0.115718 0.0476297 0.111982 0.045111 0.0603372 -0.000638536 0.0855801 0.159238 0.00839213 -0.0377568
internal_weight=0 271865 19141 10909 8232 252724 95472 17248 10337 7058 3851 3424 9834 78224 1074 21289 4667 1572 3095 1028 159 915 106 54 6982 6911 792 75 3283 196
internal_count=281699 271865 19141 10909 8232 252724 95472 17248 10337 7058 3851 3424 9834 78224 1074 21289 4667 1572 3095 1028 159 915 106 54 6982 6911 792 75 3283 196
shrinkage=0.0705517


Tree=18
num_leaves=31
num_cat=0
split_feature=0 5 7 14 7 7 14 7 5 7 3 3 1 4 4 5 12 7 3 12 5 4 4 3 1 5 3 11 4 4
split_gain=77.7529 1.26651 1.16236 0.737182 1.43644 0.747792 0.586735 0.4355 0.530834 0.386101 0.380316 0.774859 1.86429 0.575365 0.478991 0.723413 0.390772 0.377192 0.376205 0.369343 0.368998 0.33847 0.334933 0.45007 0.330732 1.18551 0.727594 0.637146 0.468619 0.624716
threshold=1.0000000180025095e-35 0.16493415081419846 1.6483851953934503 -0.071241844422520448 1.4139964263228695 -0.85176167469274688 1.6631259042092341 1.4921260160130632 0.28597237261191816 0.78895970880131994 1.7822236889245129 -0.3487256163405435 1.0000000180025095e-35 -0.4713411461209745 0.045723094644540982 -0.24861310699467717 -0.55564972754044006 1.6483851953934503 -0.13563068581403789 -0.49752470077132893 0.71969266738708026 0.3531576754999573 -0.41492806885217387 1.5691287583980074 1.0000000180025095e-35 -1.385027522762156 1.9242869759421832 0.4660072417369478 0.89892916268628265 -0.12785560464407622
decision_type=2 2 2 2 2 2 2 2 2 2 2 2 2 2 2 2 2 2 2 2 2 2 2 2 2 2 2 2 2 2
left_child=2 3 6 4 9 -5 -1 8 10 -2 11 14 18 -14 15 16 -8 -6 -13 -12 24 -3 23 -20 -4 -26 27 28 29 -27
right_child=1 21 20 5 17 -7 7 -9 -10 -11 19 12 13 -15 -16 -17 -18 -19 22 -21 -22 -23 -24 -25 25 26 -28 -29 -30 -31
leaf_value=-0.00026252697431394692 0.0054567347131281065 -0.00059426323051901321 0.00046298070106810872 -0.0011578441729180892 0.0036743306209523329 0.0031138097427942835 -0.0042764308780498779 -9.7173517251837675e-05 -0.00054986851233398786 0.0042195073239329759 0.0016274463507200249 0.0065827258599751911 0.0065881699133442575 0.015658843133686786 -0.0030839122437701727 0.01164017493269047 0.0023542869296601693 0.002790399081058647 0.0062124782870543321 -0.00040849231681159919 -0.0003637924734021746 0.0033389025026370049 -0.0043045444965901444 -0.0017677131166971684 0.0037993685736511574 0.00020893151058609671 -0.0012547001739508731 0.0079535386400483681 -0.0023311355408154638 0.0048205219738988257
leaf_weight=254188 1074 293 1728 118 2637 9471 33 2934 526 2160 677 31 37 43 72 20 108 2864 37 405 761 79 36 44 452 205 396 44 85 141
leaf_count=254188 1074 293 1728 118 2637 9471 33 2934 526 2160 677 31 37 43 72 20 108 2864 37 405 761 79 36 44 452 205 396 44 85 141
internal_value=0 0.0622847 -0.00445681 0.0634574 0.070103 0.0574037 -0.00471176 0.00601264 0.017123 0.0868279 0.0264751 0.0505272 0.0919721 0.214964 0.00997164 0.0402923 0.0150467 0.0602706 0.0254901 0.0162274 0.0128782 0.00451928 -0.000461787 0.0352076 0.0177919 0.0296908 0.00812661 0.0345164 0.0228144 0.0391578
internal_weight=0 18696 263003 18324 8735 9589 259191 5003 2069 3234 1543 461 228 80 233 161 141 5501 148 1082 3812 372 117 81 3051 1323 871 475 431 346
internal_count=281699 18696 263003 18324 8735 9589 259191 5003 2069 3234 1543 461 228 80 233 161 141 5501 148 1082 3812 372 117 81 3051 1323 871 475 431 346
shrinkage=0.0533283


Tree=19
num_leaves=31
num_cat=0
split_feature=0 5 7 7 14 7 4 4 14 5 3 1 5 4 7 7 3 7 7 7 7 3 12 4 3 3 4 4 3 4
split_gain=52.9206 0.862401 0.791131 0.522073 0.862253 0.540023 0.491763 0.484828 0.44763 0.793722 0.569911 0.415385 0.787056 1.9424 1.5938 0.850746 1.20686 0.798674 0.773876 0.987021 1.57298 0.960206 0.853562 0.804987 1.14199 0.578361 0.719491 0.616461 0.672403 0.489086
threshold=1.0000000180025095e-35 0.71969266738708026 1.6483851953934503 1.2577372469424821 -0.071241844422520448 -0.85176167469274688 -0.0053490995692252429 -0.73938671444551218 1.3162523544828832 -0.41223885127677956 -1.0590420514288954 1.0000000180025095e-35 -1.7010717685673129 -1.1489656837284608 0.39831176035035165 1.3358668366326758 -0.56182054686704908 -0.070465777790810383 0.63270052942093269 1.4139964263228695 1.4921260160130632 1.7111920454156777 -0.58886402855136077 -0.16691081198401511 -0.98801040792006034 -0.63285219037588425 -0.52474997667131817 -0.61487737822502331 1.2139705408538313 -0.15055435762797231
decision_type=2 2 2 2 2 2 2 2 2 2 2 2 2 2 2 2 2 2 2 2 2 2 2 2 2 2 2 2 2 2
left_child=2 3 8 4 -2 6 7 -6 11 10 -10 18 13 17 -15 16 -16 -13 -1 22 21 -21 29 24 -22 -26 27 28 -27 -20
right_child=1 -3 -4 -5 5 -7 -8 -9 9 -11 -12 12 -14 14 15 -17 -18 -19 19 20 23 -23 -24 -25 25 26 -28 -29 -30 -31
leaf_value=-0.00025195340699770699 0.0034573907051934703 -0.00036117379168685161 0.00049196146811284153 0.0022593233172562414 -0.0014799330797677823 0.0024016336573560045 -0.0073778748307803156 0.0055122565405421676 -0.00073136926204137769 -0.00026311963104277383 0.0003354049229302951 -0.00034531928324896662 -0.00017977718060928853 0.0016676489991644073 0.0050334348013555737 0.0023174911982463083 0.01713750659842022 0.00098762774323400151 -0.0012834563286536194 0.004248580780146464 -0.0086361732233455647 -7.5490202791568406e-05 -3.2052977530236828e-05 0.0063153862871505673 0.0061470182937639409 -0.0065751723377209109 -0.0063181270869376053 0.0069409894038020351 -0.00041929781470884613 -0.0029736220611483706
leaf_weight=54945 2381 243 3812 13164 73 2785 20 30 1174 12726 12576 2452 167810 211 33 31 38 1588 2963 272 44 185 1149 30 24 42 53 22 404 419
leaf_count=54945 2381 243 3812 13164 73 2785 20 30 1174 12726 12576 2452 167810 211 33 31 38 1588 2963 272 44 185 1149 30 24 42 53 22 404 419
internal_value=0 0.0513849 -0.00367687 0.0521643 0.0605558 0.0490023 -0.0158416 0.012021 -0.0038872 8.94352e-06 0.00527642 -0.00433047 -0.00353814 0.00973726 0.0856289 0.188262 0.248608 0.00385754 -0.00658325 -0.0177743 0.00945203 0.0539502 -0.0242399 -0.0234004 -0.0315391 -0.0190278 -0.0260196 -0.0135139 -0.0215746 -0.0322399
internal_weight=0 18696 263003 18453 5289 2908 123 103 259191 26476 13750 232715 172163 4353 313 102 71 4040 60552 5607 1076 457 4531 619 589 545 521 468 446 3382
internal_count=281699 18696 263003 18453 5289 2908 123 103 259191 26476 13750 232715 172163 4353 313 102 71 4040 60552 5607 1076 457 4531 619 589 545 521 468 446 3382
shrinkage=0.0463045


Tree=20
num_leaves=31
num_cat=0
split_feature=0 5 7 14 7 14 5 3 5 5 4 3 7 7 12 11 4 4 12 4 4 4 1 7 5 4 1 5 7 4
split_gain=211.646 3.25163 3.14557 1.44596 2.21338 1.16174 0.953681 0.805418 1.13827 0.686433 5.89736 2.98459 1.41011 0.54563 0.822412 0.776738 1.38774 0.997483 0.599365 0.560738 0.554859 1.13272 0.707762 0.542145 0.482849 0.46836 0.568491 0.458682 0.952536 1.06048
threshold=1.0000000180025095e-35 0.71969266738708026 1.6483851953934503 -0.11460103813831431 1.0233484778719011 1.6631259042092341 0.71969266738708026 1.9242869759421832 -0.078823379195098187 -0.67000543473488627 -0.87891728425828519 1.9242869759421832 0.39831176035035165 1.726514785083644 0.31659472178523868 0.17741717295408696 -0.51473582094312875 -0.61821543013441971 -0.15541740035884563 -0.89293710227775047 -0.81616190836163127 -1.0321338668995839 1.0000000180025095e-35 1.6483851953934503 0.16493415081419846 1.0207680573792544 1.0000000180025095e-35 -0.41223885127677956 0.78895970880131994 -0.090803228449775245
decision_type=2 2 2 2 2 2 2 2 2 2 2 2 2 2 2 2 2 2 2 2 2 2 2 2 2 2 2 2 2 2
left_child=2 3 5 4 -2 27 13 8 -7 -5 11 12 -11 -4 15 16 17 20 19 -17 21 22 -15 24 -6 26 -16 28 -1 -30
right_child=1 -3 6 9 23 7 -8 -9 -10 10 -12 -13 -14 14 25 18 -18 -19 -20 -21 -22 -23 -24 -25 -26 -27 -28 -29 29 -31
leaf_value=-0.00019948960992514694 0.0037306790932889701 -0.00033716935353895799 0.00043271427528420993 0.0025329262897989739 0.0028919991155778161 0.00060338147450950726 -0.00026796729771917665 -0.00046652433636616355 -0.00034284657792220722 -0.0070788611223026503 0.0024201160616663373 -0.0095072048835065613 0.0002839146594458932 0.001017494321571613 0.0068435429413192389 0.00050401156927774513 0.00018864598269208499 0.0076542775366704391 -0.0017091714928619891 0.0042373266637455546 -0.00021704027662804065 0.0073781031819364577 0.0040961860748212871 0.0024175135503115082 -1.9161625909592014e-05 0.00048072090039026291 0.0021314335230707133 -0.00022860923309878903 9.9548423230526664e-05 -0.00034203015623101592
leaf_weight=74882 1601 239 1764 7865 4288 2963 772 984 1131 20 1729 33 103 128 34 638 230 25 77 27 45 31 77 2875 37 25 32 159224 15277 4543
leaf_count=74882 1601 239 1764 7865 4288 2963 772 984 1131 20 1729 33 103 128 34 638 230 25 77 27 45 31 77 2875 37 25 32 159224 15277 4543
internal_value=0 0.102609 -0.0072487 0.104102 0.113395 -0.00767342 0.0209215 0.00730299 0.0134773 0.0957143 0.0785751 -0.107637 -0.0359924 0.0286789 0.0436591 0.0371188 0.066125 0.110239 0.0161655 0.0258367 0.0932091 0.112613 0.0856722 0.105917 0.112992 0.135511 0.179665 -0.00797292 -0.0062302 -6.56997e-05
internal_weight=0 18790 262909 18551 8801 259004 3905 5078 4094 9750 1885 156 123 3133 1369 1278 536 306 742 665 281 236 205 7200 4325 91 66 253926 94702 19820
internal_count=281699 18790 262909 18551 8801 259004 3905 5078 4094 9750 1885 156 123 3133 1369 1278 536 306 742 665 281 236 205 7200 4325 91 66 253926 94702 19820
shrinkage=0.0253744


Tree=21
num_leaves=31
num_cat=0
split_feature=0 7 5 13 12 3 7 7 3 3 14 12 14 5 1 12 12 7 3 12 12 3 12 3 3 3 12 3 7 3
split_gain=64.2897 1.28571 0.996379 0.750889 4.75215 3.00061 0.930414 0.572567 1.43719 0.540262 0.524117 0.508556 0.471609 0.95262 3.35947 1.71149 0.980711 1.17583 0.592953 0.547056 0.775134 0.543221 0.467511 0.44704 1.77804 0.721193 0.409053 0.390977 0.467981 0.397255
threshold=1.0000000180025095e-35 1.726514785083644 0.71969266738708026 0.28778155518058174 -0.44954848819999904 1.9242869759421832 0.9452188881817073 1.1796076572522884 -0.27769397283170827 2.0663502629598538 0.10219493044065499 -0.33440557802880727 1.1861747733355017 -1.4657196706273026 1.0000000180025095e-35 -0.62595333134688891 -0.48571517152300159 1.4139964263228695 1.0008756103273257 -0.45988182629228547 0.075237467772548153 -0.91697876441122506 -0.38127464723310645 -0.49078890335821396 0.21952753173013814 -0.84594712090238988 0.72697586316461471 1.8532553324333481 1.6483851953934503 1.7111920454156777
decision_type=2 2 2 2 2 2 2 2 2 2 2 2 2 2 2 2 2 2 2 2 2 2 2 2 2 2 2 2 2 2
left_child=1 12 3 6 5 7 10 8 -5 11 -2 22 27 14 26 21 17 -17 -18 -20 -21 -16 -6 25 -25 -3 -14 28 -1 -30
right_child=2 23 -4 4 9 -7 -8 -9 -10 -11 -12 -13 13 -15 15 16 18 -19 19 20 -22 -23 -24 24 -26 -27 -28 -29 29 -31
leaf_value=-0.00023278986620235502 0.0044723829365372683 0.0019223805319129646 -0.00037841085390233217 -0.017785744794529691 0.0020188546455734572 -0.025515585927306836 0.0028097546880784729 0.0004659181915267065 0.00089356832743684854 -0.0050929001321957223 0.0030414459634467328 0.0027441747824694142 3.9317528228354039e-05 -0.00016298007533826201 -0.0034454672324487376 0.022850952265412311 -0.001933113251939675 0.0076121261185089486 0.00056487188247572194 0.017006609684868102 0.0044976991970389875 0.0024118830644359506 -0.007576795141297334 0.0085687938127979642 0.001020139201264932 -0.005457585225176865 -0.0032605893994392247 -0.0010310363460452562 0.0004013512925512233 0.0034588705075417133
leaf_weight=221658 1440 69 239 20 28 21 14069 35 21 23 1141 1730 5624 30639 41 20 24 34 22 22 28 995 23 82 1447 63 95 1523 376 147
leaf_count=221658 1440 69 239 20 28 21 14069 35 21 23 1141 1730 5624 30639 41 20 24 34 22 22 28 995 23 82 1447 63 95 1523 376 147
internal_value=0 -0.00398017 0.0565675 0.057394 0.0385653 -0.177053 0.0595438 -0.0846002 -0.164795 0.050159 0.0769967 0.0521256 -0.0041565 -0.00087682 0.00973391 0.0581703 0.158005 0.265816 0.0973608 0.142735 0.200555 0.0437155 -0.0462926 0.0237537 0.0285739 -0.0320811 -0.000310774 -0.00470692 -0.00459747 0.0252805
internal_weight=0 262909 18790 18551 1901 97 16650 76 41 1804 2581 1781 261248 37544 6905 1186 150 54 96 72 50 1036 51 1661 1529 132 5719 223704 222181 523
internal_count=281699 262909 18790 18551 1901 97 16650 76 41 1804 2581 1781 261248 37544 6905 1186 150 54 96 72 50 1036 51 1661 1529 132 5719 223704 222181 523
shrinkage=0.0498697


Tree=22
num_leaves=31
num_cat=0
split_feature=0 7 5 13 4 12 7 4 7 5 12 6 4 5 1 5 7 4 7 4 7 7 14 7 7 7 4 4 4 4
split_gain=43.7572 0.875084 0.678161 0.511074 3.37022 0.643296 0.638923 0.475972 0.430537 0.418405 0.709502 0.577915 0.811008 0.402464 0.835462 1.82233 2.40787 1.85005 0.955554 0.83139 0.939574 0.718199 0.452577 0.891382 1.67132 1.76544 0.619174 0.827995 0.870362 0.595573
threshold=1.0000000180025095e-35 1.726514785083644 0.71969266738708026 0.28778155518058174 -1.0154436073526014 -0.50785803886361525 1.0233484778719011 -0.8485410118827772 1.1014780675620948 0.16493415081419846 0.31659472178523868 1.0000000180025095e-35 -0.37053197845720065 -0.41223885127677956 1.0000000180025095e-35 -1.7010717685673129 0.39831176035035165 -1.1489656837284608 1.2577372469424821 -1.0154436073526014 0.63270052942093269 1.0233484778719011 0.62250525503018139 0.39831176035035165 1.4139964263228695 1.4921260160130632 -0.4713411461209745 -0.74839945460088264 -1.082204645540531 -1.082204645540531
decision_type=2 2 2 2 2 2 2 2 2 2 2 2 2 2 2 2 2 2 2 2 2 2 2 2 2 2 2 2 2 2
left_child=1 13 3 6 5 -5 -2 8 -6 10 11 12 -3 14 22 16 -16 -18 19 -19 -21 -22 23 -1 29 26 27 28 -26 -25
right_child=2 9 -4 4 7 -7 -8 -9 -10 -11 -12 -13 -14 -15 15 -17 17 18 -20 20 21 -23 -24 24 25 -27 -28 -29 -30 -31
leaf_value=-0.0002448766858320384 0.0030874657855657411 0.003873522316553571 -0.00030878793377752523 -0.0051671643549034444 0.0020356341183647374 -0.014492149779602562 0.0022825561666096634 0.0021947360425520058 -0.0046089746780570593 -0.00069409311669072697 0.0056189802501837825 0.00016958722487164373 -0.00013665113660686561 -0.00021740137919726282 -1.580193942003291e-05 -5.4145555637033099e-05 0.0015916915050619624 0.015884556723982372 0.003528800354208648 0.014912217402031138 -0.0039191994023971494 0.0084193338485646051 -5.0199237232547508e-05 -0.0022766494800142735 0.0022882963532434618 -0.00082246653086004147 0.0083796979174586162 -0.0032210651490421566 0.0094319680540411385 -0.00089402510230945811
leaf_weight=26093 2907 315 239 54 46 27 13743 1725 49 302 88 755 201 161140 3119 44340 2194 35 149 22 22 24 19823 1630 271 818 48 54 49 1417
leaf_count=26093 2907 315 239 54 46 27 13743 1725 49 302 88 755 201 161140 3119 44340 2194 35 149 22 22 24 19823 1630 271 818 48 54 49 1417
internal_value=0 -0.00328364 0.0466682 0.0473501 0.0318164 -0.16777 0.0491236 0.0406991 -0.0282118 0.0195968 0.0270786 0.0210664 0.0468597 -0.00342911 -0.00185439 0.0010431 0.0181003 0.0415892 0.122738 0.196801 0.132345 0.0510538 -0.00473468 -0.00716002 -0.0205236 0.0104277 0.0629612 0.0492386 0.0685672 -0.0331195
internal_weight=0 262909 18790 18551 1901 81 16650 1820 95 1661 1359 1271 516 261248 100108 49905 5565 2446 252 103 68 46 50203 30380 4287 1240 422 374 320 3047
internal_count=281699 262909 18790 18551 1901 81 16650 1820 95 1661 1359 1271 516 261248 100108 49905 5565 2446 252 103 68 46 50203 30380 4287 1240 422 374 320 3047
shrinkage=0.0493264


Tree=23
num_leaves=31
num_cat=0
split_feature=0 7 5 3 12 14 3 2 14 7 5 3 3 3 6 7 7 12 7 3 7 5 7 1 5 3 12 3 3 3
split_gain=29.7822 0.595604 0.513376 1.43758 0.928643 0.893732 0.499335 1.08969 0.407089 0.642102 0.37188 0.324707 1.40972 0.462697 0.299186 0.288434 0.640047 0.857188 0.547827 0.454059 0.452 0.288347 0.568234 0.526901 2.22247 0.79458 0.627869 0.592279 0.539114 1.00544
threshold=1.0000000180025095e-35 1.726514785083644 -0.67000543473488627 1.9953186194510184 -0.050607828279940321 1.8365626790724094 -1.2011053384465658 1.0000000180025095e-35 1.0994563859039139 1.6483851953934503 0.71969266738708026 -0.41975725984937867 0.21952753173013814 -0.84594712090238988 1.0000000180025095e-35 -0.7736320850025532 -1.3205392128339088 -0.29381032123768192 0.47644135004054528 -1.1300736949377306 -1.5549279819044897 0.40364842158192343 0.78895970880131994 1.0000000180025095e-35 -1.4657196706273026 1.8532553324333481 -0.57041163910084935 1.4980971148891722 1.0008756103273257 -0.3487256163405435
decision_type=2 2 2 2 2 2 2 2 2 2 2 2 2 2 2 2 2 2 2 2 2 2 2 2 2 2 2 2 2 2
left_child=1 21 8 6 5 -5 7 -4 9 -2 15 13 -13 14 -3 16 19 -18 -17 -8 -21 22 -1 -24 25 28 -27 -26 29 -25
right_child=2 11 3 4 -6 -7 10 -9 -10 -11 -12 12 -14 -15 -16 18 17 -19 -20 20 -22 -23 23 24 27 26 -28 -29 -30 -31
leaf_value=-0.00014827931512774957 0.00271911609132099 -0.00083865950792272011 -0.0065908669516844794 -0.0041165568007500743 0.0014593310583027367 -0.016749522284741827 0.0079312803049906219 0.0017680817521004801 0.0018278385697212728 0.0016923779332246205 -0.00028942832884538104 0.0078075215538740694 0.00068110373194570529 -0.0043607842220059105 0.0062771601320039195 0.0036482528119547112 -0.011261196004090712 0.0010494387424463368 0.0017137800549193352 -0.0037741622272703711 0.0048982382876372257 -0.00019575637540206244 -0.00014534222124767726 0.0022301897590602526 0.00026213120346600433 -0.00040679720916048849 0.0057586271030031465 -0.00042684314071754433 0.0028397660212808149 -0.0052919816555652551
leaf_weight=100368 4512 47 59 49 46 20 26 120 7330 2349 220 74 1447 71 22 415 26 32 3524 35 27 129695 13103 165 11734 469 46 4333 1273 62
leaf_count=100368 4512 47 59 49 46 20 26 120 7330 2349 220 74 1447 71 22 415 26 32 3524 35 27 129695 13103 165 11734 469 46 4333 1273 62
internal_value=0 -0.002709 0.0385012 0.0293194 -0.0810802 -0.154452 0.0321508 -0.0196007 0.0414769 0.0470129 0.0343026 0.0161673 0.0204092 -0.0299179 0.0283983 0.0364595 -0.00718641 -0.0887426 0.0380773 0.0465665 5.02044e-05 -0.00282902 -0.00178588 0.00194266 0.00544174 0.0367476 0.00285742 0.0015156 0.0483832 0.00348837
internal_weight=0 262909 18790 4599 115 69 4484 179 14191 6861 4305 1661 1521 140 69 4085 146 58 3939 88 62 261248 131553 31185 18082 2015 515 16067 1500 227
internal_count=281699 262909 18790 4599 115 69 4484 179 14191 6861 4305 1661 1521 140 69 4085 146 58 3939 88 62 261248 131553 31185 18082 2015 515 16067 1500 227
shrinkage=0.0503605


Tree=24
num_leaves=31
num_cat=0
split_feature=0 7 3 14 5 13 4 3 7 3 7 5 3 14 7 3 2 3 3 4 1 5 5 3 3 4 4 4 3 3
split_gain=20.2705 0.418872 0.474774 0.477551 0.383321 0.359418 1.53903 0.757339 0.845662 1.17196 0.3531 0.398434 0.340181 0.300576 0.326153 0.270917 0.547429 0.265498 1.47745 0.633711 0.484957 0.642466 0.445645 0.673267 0.723209 0.423446 0.411848 0.408726 0.5306 0.875272
threshold=1.0000000180025095e-35 1.6483851953934503 1.9242869759421832 1.6631259042092341 -0.078823379195098187 0.28778155518058174 -1.0154436073526014 1.7822236889245129 1.1796076572522884 0.85881232330965507 0.9452188881817073 0.16493415081419846 2.0663502629598538 0.10219493044065499 -1.0080208540731341 -1.2011053384465658 1.0000000180025095e-35 1.7822236889245129 1.7111920454156777 -0.26838759002966822 1.0000000180025095e-35 -1.0286372030244257 -0.80841488280913043 -0.70388383388471942 1.0719072538361609 -0.58149685913105842 -0.3545093292920975 -0.81616190836163127 -0.70388383388471942 0.2905591752389734
decision_type=2 2 2 2 2 2 2 2 2 2 2 2 2 2 2 2 2 2 2 2 2 2 2 2 2 2 2 2 2 2
left_child=1 2 3 -1 17 10 7 8 9 -7 13 -12 15 -2 -15 16 -8 18 20 25 27 -22 -23 -24 -25 -20 -26 28 -5 -30
right_child=5 -3 -4 4 -6 6 12 -9 -10 -11 11 -13 -14 14 -16 -17 -18 -19 19 -21 21 22 23 24 26 -27 -28 -29 29 -31
leaf_value=-0.00013394864874800846 0.0028951966368338934 0.00043745583001833787 -0.0011304273378619791 -0.0013632010595899292 -0.00039358325208134546 -0.013304812434378872 -0.0094333087537625329 -0.011107615335213747 0.0063234390150246527 0.0034666326414448034 0.0017258377932526162 -0.0018451840282798706 -0.0047669962535018609 -0.0036039748745219477 0.0018819156802957486 0.0016206673467321845 0.001274561187049152 0.00044939675723388185 0.0073788198811601449 0.013970931117790382 -0.0031780010421577003 0.00892248945471503 -0.0035352252113071336 0.011776717553558681 -0.0044589763035222463 -0.0017212159585918607 0.0063104901201929903 -0.0011186188226695664 0.0084228636618811879 -0.0011152772839086277
leaf_weight=253515 1495 3905 1395 84 1131 28 20 40 25 22 14022 93 26 33 1108 1830 48 2086 54 32 39 49 35 32 21 21 21 373 66 50
leaf_count=253515 1495 3905 1395 84 1131 28 20 40 25 22 14022 93 26 33 1108 1830 48 2086 54 32 39 49 35 32 21 21 21 373 66 50
internal_value=0 -0.00223493 -0.00238991 -0.00229028 0.00842385 0.0317635 0.0192278 -0.0931469 -0.0338823 -0.108967 0.0332894 0.0313053 0.0259446 0.0439136 0.0316905 0.0275009 -0.0344776 0.0144021 0.029001 0.139107 0.0137006 0.0565013 0.0848736 0.0492654 0.103316 0.0888382 0.0170246 -0.00101445 0.0354591 0.0792899
internal_weight=0 262909 259004 257609 4094 18790 2039 115 75 50 16751 14115 1924 2636 1141 1898 68 2963 877 107 770 197 158 109 74 75 42 573 200 116
internal_count=281699 262909 259004 257609 4094 18790 2039 115 75 50 16751 14115 1924 2636 1141 1898 68 2963 877 107 770 197 158 109 74 75 42 573 200 116
shrinkage=0.0543776


Tree=25
num_leaves=31
num_cat=0
split_feature=0 4 7 13 1 3 4 4 4 7 3 3 4 12 4 4 5 7 5 3 7 6 3 5 7 3 7 3 7 4
split_gain=14.3855 0.381833 0.817958 0.79544 1.31329 0.945968 0.789714 1.40569 0.970812 0.737972 0.68677 0.587011 0.64334 0.526679 0.465921 0.482497 0.476155 0.463048 0.52815 0.821285 0.456307 0.585887 0.471794 0.428453 0.481538 0.562999 0.926278 0.805087 0.526245 0.432849
threshold=1.0000000180025095e-35 -0.55178819713742977 0.9452188881817073 -0.2795526638062516 1.0000000180025095e-35 1.0719072538361609 -1.0454860745371697 -1.1489656837284608 -0.75641077918343425 1.4921260160130632 -1.0590420514288954 -0.77491547739355471 -0.58149685913105842 -0.62595333134688891 -0.6515959492283846 -0.72236264970759012 -0.67000543473488627 1.1014780675620948 -0.80841488280913043 -0.91697876441122506 1.1014780675620948 1.0000000180025095e-35 1.6401604019068425 0.71969266738708026 1.0233484778719011 1.4980971148891722 1.5702556057032566 1.3560338278715016 1.6483851953934503 -0.65827205304717762
decision_type=2 2 2 2 2 2 2 2 2 2 2 2 2 2 2 2 2 2 2 2 2 2 2 2 2 2 2 2 2 2
left_child=1 2 -1 4 11 6 7 -6 9 17 -10 -4 20 23 15 -12 -17 -8 19 -19 21 -13 -22 24 -7 26 27 -26 29 -27
right_child=-2 -3 3 -5 5 13 8 -9 10 -11 14 12 -14 -15 -16 16 -18 18 -20 -21 22 -23 -24 -25 25 28 -28 -29 -30 -31
leaf_value=-0.00010801606070064136 0.0015821852814601673 -0.00015231469771056369 -0.0015529349662963218 -0.00028865548158366251 0.0025078365120446591 -0.0019575874702291306 0.012089712387073553 -0.012513436181306936 -0.0015541744498344919 0.018227184682883566 0.001975677559503721 -0.003139095241864052 0.0089643734396703083 0.0057671060353631778 0.0023068090733974569 0.018904659462388625 0.0070838824236938956 0.014754939561922876 -0.00065676508846261908 0.0003974633750601975 0.0012859114416902742 0.00019563139682753542 0.00015997718698454943 -0.00052971706904167556 0.00087425881280458236 0.00083607156463250869 -0.0050159374988119716 0.0059206922075317851 0.0027428259229163895 -0.0025076591815931756
leaf_weight=48180 18643 198934 610 4463 161 146 43 25 83 24 26 288 30 83 99 20 29 31 38 25 1811 502 4517 521 176 1229 43 292 476 151
leaf_count=48180 18643 198934 610 4463 161 146 43 25 83 24 26 288 30 83 99 20 29 31 38 25 1811 502 4517 521 176 1229 43 292 476 151
internal_value=0 -0.00190036 0.000221733 0.00643077 0.0108352 0.0262797 0.0625005 0.00829442 0.0866209 0.147509 0.048477 0.00342755 0.00596865 0.019261 0.0841799 0.143632 0.202058 0.119172 0.0798514 0.141598 0.00535275 -0.0173077 0.00818173 0.017111 0.0225218 0.0259598 0.055352 0.0682574 0.0178674 0.007978
internal_weight=0 263056 64122 15942 11479 3721 604 186 418 161 257 7758 7148 3117 174 75 49 137 94 56 7118 790 6328 3034 2513 2367 511 468 1856 1380
internal_count=281699 263056 64122 15942 11479 3721 604 186 418 161 257 7758 7148 3117 174 75 49 137 94 56 7118 790 6328 3034 2513 2367 511 468 1856 1380
shrinkage=0.058937


Tree=26
num_leaves=31
num_cat=0
split_feature=8 7 4 14 5 11 11 4 11 11 4 11 12 11 11 5 7 7 11 11 4 5 12 5 11 7 4 7 11 5
split_gain=3.78454 1.31571 1.06707 1.36731 0.456092 0.374446 0.472231 0.498369 0.376132 0.339715 0.597729 1.10919 0.830804 0.75966 0.409949 0.927822 0.569004 0.326185 0.453848 0.402829 0.314468 0.528307 0.830339 0.683869 1.35242 0.652143 0.306277 0.621861 0.602958 0.60288
threshold=1.0000000180025095e-35 1.4139964263228695 -0.4369592114541907 1.7064850979250279 -0.078823379195098187 0.4660072417369478 0.17741717295408696 -0.67095665030288421 0.12931882815694348 2.0532526200426826 -0.83318597309955333 0.56220393133123481 -0.4787032635318072 1.9570559304483954 1.8127608960569652 -0.67000543473488627 1.6483851953934503 1.6483851953934503 2.0051542752455394 1.8608592408541085 -0.44931000351895772 -0.67000543473488627 -0.44954848819999904 -0.078823379195098187 1.9570559304483954 1.1796076572522884 -0.16691081198401511 0.86708929849151362 0.80269565531695208 0.16493415081419846
decision_type=2 2 2 2 2 2 2 2 2 2 2 2 2 2 2 2 2 2 2 2 2 2 2 2 2 2 2 2 2 2
left_child=1 26 3 4 -3 6 8 -8 -5 10 12 -12 17 14 15 16 -13 18 19 -7 21 -2 23 24 25 -23 27 -1 29 -29
right_child=20 2 -4 5 -6 9 7 -9 -10 -11 11 13 -14 -15 -16 -17 -18 -19 -20 -21 -22 22 -24 -25 -26 -27 -28 28 -30 -31
leaf_value=-6.5958974990596716e-05 0.0011420794337082675 0.0012347146890956064 -0.00016407113859399076 -0.0014771069361314878 -0.0006075236092794986 0.0027350101238142422 -0.0021639606275936263 -0.0093556030923851747 0.0075703564967130521 -0.00024405077596933262 0.010772957136659579 -0.0019631242100745425 0.01438637392290989 0.0066677604450039061 -0.01172293326035761 0.006339874732568653 -0.014071973603105283 -0.0016286406875867484 -0.00082610879156719253 0.011895049361439826 0.0019198255009785655 -0.0072829538625667958 0.00037376103654710975 0.0016101727337035328 -0.018402759663396041 0.0052428232682753921 -0.00013504747264440146 0.00080178771425074794 -8.2334262225122043e-05 -0.00025848663896277613
leaf_weight=97555 7549 8337 6762 48 481 33 112 46 23 3058 23 29 23 22 25 24 24 45 37 32 1424 39 748 40 27 22 136045 8644 8125 2297
leaf_count=97555 7549 8337 6762 48 481 33 112 46 23 3058 23 29 23 22 25 24 24 45 37 32 1424 39 748 40 27 22 136045 8644 8125 2297
internal_value=0 -0.00069597 0.00728799 0.0127906 0.0194979 -0.00362025 -0.0427513 -0.0731924 0.0249909 -0.000965133 0.0301958 -0.0165012 0.0705749 -0.053912 -0.0902625 -0.0541391 -0.128007 0.0429226 0.0742108 0.124538 0.0192584 0.0169354 -0.00631078 -0.0807362 -0.130016 -0.0475396 -0.00130216 -0.000113013 0.00511039 0.00995654
internal_weight=0 271850 19184 12422 8818 3604 229 158 71 3375 317 147 170 124 102 77 53 147 102 65 9849 8425 876 128 88 61 252666 116621 19066 10941
internal_count=281699 271850 19184 12422 8818 3604 229 158 71 3375 317 147 170 124 102 77 53 147 102 65 9849 8425 876 128 88 61 252666 116621 19066 10941
shrinkage=0.0581717


Tree=27
num_leaves=31
num_cat=0
split_feature=0 5 7 6 7 5 7 4 4 5 11 3 7 7 4 3 7 4 4 4 9 12 4 5 3 3 3 3 3 3
split_gain=56.8705 1.01075 0.91382 0.534465 1.3157 0.45403 0.784737 0.941052 0.889472 0.451757 0.517983 0.429684 0.342784 0.333219 0.331536 0.327241 0.517371 0.929932 0.490109 0.615401 1.04102 0.480946 0.969003 1.35127 0.637537 1.52227 0.84117 0.836392 0.624788 0.695791
threshold=1.0000000180025095e-35 0.71969266738708026 1.6483851953934503 1.0000000180025095e-35 1.4139964263228695 -0.67000543473488627 -0.7736320850025532 -0.24435361628201355 -0.93800080305460309 0.71969266738708026 0.27361386254837389 -0.49078890335821396 0.63270052942093269 0.085793401589576948 -0.53443032720856798 1.9242869759421832 1.4139964263228695 -0.75641077918343425 -0.72236264970759012 -0.71501893550691786 1.0000000180025095e-35 -0.42408419075829312 -0.99875334780561908 -0.67000543473488627 1.4270654713803368 1.6401604019068425 1.0719072538361609 0.57468574927431426 -0.77491547739355471 0.2905591752389734
decision_type=2 2 2 2 2 2 2 2 2 2 2 2 2 2 2 2 2 2 2 2 2 2 2 2 2 2 2 2 2 2
left_child=2 3 15 4 5 -2 7 -7 -8 10 -4 -12 13 14 -10 16 -1 21 -19 20 -20 22 24 -24 26 -26 27 -18 -23 -30
right_child=1 -3 9 -5 -6 6 8 -9 12 -11 11 -13 -14 -15 -16 -17 17 18 19 -21 -22 28 23 -25 25 -27 -28 -29 29 -31
leaf_value=-8.9277920063979789e-05 0.0018023639493500456 -0.00027578877630644476 0.00067326010091579738 0.0010451679022539765 0.0010733301866674907 -0.0029137669976008126 -0.00050902546670817685 0.0022405598702259278 -0.00061593933946537912 -0.0002239784996038227 -0.001553590487735398 0.0001844776599796196 0.0014116161481028591 0.0029653379057325031 0.0026908604192220167 -0.00041142592832050357 -0.00038785180161963578 -0.0015043947516507734 0.0058539914785865161 -7.5687589781318898e-05 -0.00093364192692084447 -0.0033353751179448854 0.0053333010612000454 0.0010089357783899357 0.0026644274207925003 0.00033808469918743689 -0.0029018898539991127 0.0039446955094624191 0.0025570129877939972 -0.00064152191766920423
leaf_weight=249353 2086 227 1339 9714 5463 42 99 26 28 754 67 1718 792 139 27 1389 247 108 21 5323 20 31 41 163 136 2046 56 22 37 185
leaf_count=249353 2086 227 1339 9714 5463 42 99 26 28 754 67 1718 792 139 27 1389 247 108 21 5323 20 31 41 163 136 2046 56 22 37 185
internal_value=0 0.0533681 -0.00378689 0.0541856 0.0598774 0.0758465 0.0599215 -0.0442881 0.0664526 0.0114502 0.0167527 0.00560012 0.0755252 0.113198 0.0473129 -0.00401488 -0.0039324 0.00376968 -0.00395754 -0.00261465 0.119431 0.0180353 0.0219267 0.0882033 0.0165336 0.0226881 -0.0247864 -0.00157414 -0.0236625 -0.00509259
internal_weight=0 18643 263056 18416 8702 3239 1153 68 1085 3878 3124 1785 986 194 55 259178 257789 8436 5472 5364 41 2964 2711 204 2507 2182 325 269 253 222
internal_count=281699 18643 263056 18416 8702 3239 1153 68 1085 3878 3124 1785 986 194 55 259178 257789 8436 5472 5364 41 2964 2711 204 2507 2182 325 269 253 222
shrinkage=0.0212923


Tree=28
num_leaves=31
num_cat=0
split_feature=0 5 7 14 7 4 12 4 7 4 7 5 3 3 4 5 6 4 4 3 3 3 3 3 3 4 3 4 4 4
split_gain=12.8998 0.290031 0.288239 0.649403 0.308007 0.387472 0.286438 0.283058 0.215056 0.446168 0.632685 0.504721 0.412109 1.23114 0.627035 0.452433 0.589547 0.553451 0.386437 0.374808 0.386036 0.950424 0.654458 0.390604 0.431742 0.381444 0.738409 0.784115 0.499413 0.608141
threshold=1.0000000180025095e-35 0.71969266738708026 1.5702556057032566 -0.071241844422520448 -0.61737290562216596 -0.12785560464407622 -0.17756026769945946 -0.24435361628201355 1.4139964263228695 0.079771224120385134 1.4921260160130632 0.28597237261191816 -0.84594712090238988 -0.13563068581403789 -0.50038219773272385 -0.80841488280913043 1.0000000180025095e-35 -0.51740626247064592 -0.1595670977833428 1.0000000180025095e-35 0.2905591752389734 0.78778067980081989 1.0719072538361609 1.2139705408538313 1.7822236889245129 -0.3545093292920975 1.7111920454156777 -0.24435361628201355 -0.41492806885217387 -0.48135530184916392
decision_type=2 2 2 2 2 2 2 2 2 2 2 2 2 2 2 2 2 2 2 2 2 2 2 2 2 2 2 2 2 2
left_child=8 2 3 -2 5 6 -5 -6 -1 10 11 12 15 14 -14 16 17 -10 -16 -15 -21 -22 -23 -24 25 28 27 -27 29 -25
right_child=1 -3 -4 4 7 -7 -8 -9 9 -11 -12 -13 13 19 18 -17 -18 -19 -20 20 21 22 23 24 -26 26 -28 -29 -30 -31
leaf_value=-0.00011933394346848008 0.0022514540520798352 -0.00059904625552645991 0.0012746412043550994 -0.0016515856848458869 0.001209146891825174 -0.0076620115775719684 0.0039493396433165646 0.0024940546846856154 0.0084012256316234393 -0.00042825328103723181 3.262497681299476e-05 -0.00049666322405711504 0.0034101148108118522 -0.0068151456886524405 0.012768370140786835 -0.0049868744780256925 -0.003478809817030022 -0.0032117400355247145 0.0035423690140557991 0.0093333622343376582 -0.011599077791491113 0.010916899654878659 -0.0060970885295334332 0.0019874320132972044 0.00081070363797865999 0.010556583280249639 0.014171552225819704 -0.0029517701105374891 -0.0070303056836269664 0.012635508270812433
leaf_weight=249353 4734 227 8331 106 4476 27 46 696 46 3759 7128 568 116 20 58 69 56 21 22 21 20 25 25 326 1292 26 29 36 20 20
leaf_count=249353 4734 227 8331 106 4476 27 46 696 46 3759 7128 568 116 20 58 69 56 21 22 21 20 25 25 326 1292 26 29 36 20 20
internal_value=0 0.0254196 0.0258575 0.0294532 0.0219055 -0.0188762 0.000732735 0.0233169 -0.00180134 0.00205567 0.00556397 0.0182545 0.0249841 0.0291217 0.104504 -0.0193226 0.0170353 0.0803294 0.172613 0.0211781 0.0226581 0.0211018 0.0235119 0.0212477 0.0230218 0.0494392 0.107379 0.0457719 0.0350334 0.0439145
internal_weight=0 18643 18416 10085 5351 179 152 5172 263056 13703 9944 2816 2248 2056 196 192 123 67 80 1860 1840 1819 1799 1774 1749 457 91 62 366 346
internal_count=281699 18643 18416 10085 5351 179 152 5172 263056 13703 9944 2816 2248 2056 196 192 123 67 80 1860 1840 1819 1799 1774 1749 457 91 62 366 346
shrinkage=0.0592727


Tree=29
num_leaves=31
num_cat=0
split_feature=0 5 4 5 4 3 12 15 12 15 4 4 3 15 14 3 15 15 15 4 15 15 3 14 3 5 5 4 3 14
split_gain=8.77996 0.197402 0.225522 0.616611 1.14657 0.783558 0.920398 0.355467 0.57147 0.35098 0.458518 0.439153 0.329455 0.323018 0.444647 0.247604 0.210036 0.312564 0.330297 0.243276 0.20655 0.192068 0.22161 0.25534 0.292578 0.302134 0.243585 0.231117 0.220474 0.387954
threshold=1.0000000180025095e-35 0.71969266738708026 -0.50138361330554282 -0.67000543473488627 -0.99875334780561908 1.7822236889245129 -0.57041163910084935 -1.0603145215663445 -0.22110790680266659 1.4565935059983273 -1.0621763340841521 -1.0321338668995839 0.78778067980081989 1.3477243171227291 -0.027882650706726606 -1.2011053384465658 -1.3832316072143045 -1.2559100134445373 -1.1119812552700179 -0.26137768101993558 0.36052065528467969 1.9105226663948882 1.9242869759421832 1.6631259042092341 -0.84594712090238988 -1.0286372030244257 -0.24861310699467717 1.6549979201645868 1.8532553324333481 1.7498442916408219
decision_type=2 2 2 2 2 2 2 2 2 2 2 2 2 2 2 2 2 2 2 2 2 2 2 2 2 2 2 2 2 2
left_child=21 2 3 13 5 9 -7 8 -6 10 12 -12 -5 14 -2 -9 19 -18 -19 -4 -20 22 23 -1 25 -25 27 28 -26 -30
right_child=1 -3 16 4 7 6 -8 15 -10 -11 11 -13 -14 -15 -16 -17 17 18 20 -21 -22 -23 -24 24 26 -27 -28 -29 29 -31
leaf_value=-7.6340269629325531e-05 0.0020609948079096155 -0.0003860646410648777 0.0014771192947750833 -0.010456671626219612 -0.007937929218403441 -0.0033311456682019328 -0.014785126382893938 -0.0024549813558596171 0.0022016452100280907 0.00050936071649939566 0.0049822110603877316 -0.0034133809783154874 -0.0030961445585480228 0.00090298291418175849 0.00095102933458149851 0.00085488360000523643 0.0069014131487499615 -0.0033923051776935794 0.0024394148865420251 -0.0051212494481953407 0.0012645485703329726 0.00025463407142630709 -0.00065692885353287175 -0.0040772148475367379 0.00096089068171967122 -0.00032454750475095193 -0.00020216435105167659 -0.0033521926386239744 -0.00011220313481722059 0.0050027946576208879
leaf_weight=253723 1382 227 25 22 26 53 21 50 22 129 22 34 32 10280 1758 1568 22 31 367 23 2549 3878 1389 61 1825 187 1062 31 867 33
leaf_count=253723 1382 227 25 22 26 53 21 50 22 129 22 34 32 10280 1758 1568 22 31 367 23 2549 3878 1389 61 1825 187 1062 31 867 33
internal_value=0 0.0209712 0.0213324 0.0197835 0.00330516 -0.0522269 -0.142145 0.0137383 -0.0710686 -0.0243862 -0.0658855 -0.00248612 -0.131633 0.0222135 0.0310905 0.0162542 0.0292384 0.0302993 0.0294128 -0.0363828 0.0305043 -0.00148611 -0.00159063 -0.00152276 0.00633907 -0.0269444 0.00850102 0.0134593 0.014436 0.00162729
internal_weight=0 18643 18416 15399 1979 313 74 1666 48 239 110 56 54 13420 3140 1618 3017 2969 2947 48 2916 263056 259178 257789 4066 248 3818 2756 2725 900
internal_count=281699 18643 18416 15399 1979 313 74 1666 48 239 110 56 54 13420 3140 1618 3017 2969 2947 48 2916 263056 259178 257789 4066 248 3818 2756 2725 900
shrinkage=0.0463021


Tree=30
num_leaves=31
num_cat=0
split_feature=0 7 5 5 4 12 7 4 5 7 7 11 11 11 4 4 11 7 7 1 11 1 5 4 4 11 7 7 7 7
split_gain=24.9939 0.696297 0.622714 0.45277 0.390248 1.45164 0.375903 0.375076 0.368301 0.696878 0.770366 1.14576 0.319182 0.53612 0.367689 0.321399 0.294766 0.282001 0.458257 0.280808 0.268824 0.337117 0.805432 1.98908 1.68784 1.05487 0.903713 0.745355 0.599343 0.491991
threshold=1.0000000180025095e-35 1.6483851953934503 0.16493415081419846 0.71969266738708026 1.354573248318903 1.5883334027144917 0.39831176035035165 0.84785696847251646 -0.67000543473488627 -0.7736320850025532 -1.3205392128339088 0.41790889693980432 1.8608592408541085 0.99508903450552599 -0.46633406825687979 -0.31478651157027931 0.27361386254837389 -1.7893167509750707 -1.5549279819044897 1.0000000180025095e-35 2.0051542752455394 1.0000000180025095e-35 -1.7010717685673129 -1.1489656837284608 -0.95535867298346477 0.80269565531695208 0.71083011911112637 0.71083011911112637 1.2577372469424821 0.39831176035035165
decision_type=2 2 2 2 2 2 2 2 2 2 2 2 2 2 2 2 2 2 2 2 2 2 2 2 2 2 2 2 2 2
left_child=1 20 6 4 5 7 8 12 16 10 17 -12 13 -3 -14 -16 -2 -10 -19 -6 21 -1 23 27 25 26 -25 -23 29 -26
right_child=2 3 -4 -5 19 -7 -8 -9 9 -11 11 -13 14 -15 15 -17 -18 18 -20 -21 -22 22 -24 24 28 -27 -28 -29 -30 -31
leaf_value=-0.00016355991457699906 0.0027083568957977826 0.00090014365561223828 -0.00017247019446243065 -0.000378005803094886 -0.0050956767346770678 0.0086761355677746604 0.0012135791649470445 -0.0021877250859337035 0.0041598698420409804 0.001847158639549344 -0.0081923463229250006 0.0020104751501552991 0.00044472837747220641 0.0057692228638573928 -0.0051754298501974529 -0.00068598837668546863 0.0014127582821174905 -0.0025998222248819142 0.003304126110087369 -0.00062198891952980925 0.00019762830739530307 -0.00011939690477041842 -8.4864417267442379e-05 0.0013054133558081397 0.00060074189678834184 0.010847049699708386 0.0078333517042619219 0.00086780218398365295 -0.0033017338392469621 0.0044359989751592086
leaf_weight=68059 571 1379 376 778 21 27 16918 59 25 388 34 22 1400 28 23 122 340 39 27 90 3810 3214 182269 62 141 37 44 1305 34 57
leaf_count=68059 571 1379 376 778 21 27 16918 59 25 388 34 22 1400 28 23 122 340 39 27 90 3810 3214 182269 62 141 37 44 1305 34 57
internal_value=0 -0.0024644 0.0353346 0.0107516 0.0160888 0.0182167 0.0361595 0.0161467 0.051635 0.0308093 -0.0278259 -0.120108 0.0177246 0.0286209 0.00780156 -0.0401338 0.0638652 0.0289629 -0.00529825 -0.0421505 -0.00266476 -0.00278923 -0.00209618 0.0105637 0.0805479 0.166001 0.115257 0.00475618 0.0278765 0.0489386
internal_weight=0 262959 18740 3927 3149 3038 18364 3011 1446 535 147 56 2952 1407 1545 145 911 91 66 111 259032 255222 187163 4894 375 143 106 4519 232 198
internal_count=281699 262959 18740 3927 3149 3038 18364 3011 1446 535 147 56 2952 1407 1545 145 911 91 66 111 259032 255222 187163 4894 375 143 106 4519 232 198
shrinkage=0.0348361


Tree=31
num_leaves=31
num_cat=0
split_feature=0 7 5 4 3 7 3 2 4 3 12 4 4 14 7 5 4 12 3 5 1 4 1 4 1 12 3 5 12 3
split_gain=10.5468 0.411165 0.350242 0.717021 0.617623 0.532174 0.524868 1.4786 0.654977 0.480657 0.915158 0.424113 0.380472 0.366521 0.331698 0.304672 0.289327 1.245 0.370847 0.464541 0.559858 0.396887 0.728595 0.33824 0.372185 0.314369 0.797412 1.00189 0.626239 0.533756
threshold=1.0000000180025095e-35 1.6483851953934503 -0.67000543473488627 -0.87891728425828519 2.0663502629598538 0.24205258096996426 -1.2011053384465658 1.0000000180025095e-35 -0.56881226187535183 1.6401604019068425 -0.50785803886361525 -1.0454860745371697 -0.03739439789943149 0.10219493044065499 -1.0080208540731341 0.71969266738708026 1.354573248318903 1.5883334027144917 1.9953186194510184 -0.67000543473488627 1.0000000180025095e-35 -1.0321338668995839 1.0000000180025095e-35 0.78376637181210385 1.0000000180025095e-35 -0.10079832758533161 1.6401604019068425 -0.67000543473488627 -0.39898894110559752 -0.13563068581403789
decision_type=2 2 2 2 2 2 2 2 2 2 2 2 2 2 2 2 2 2 2 2 2 2 2 2 2 2 2 2 2 2
left_child=1 -1 5 9 6 13 7 12 -9 -4 11 -11 -5 -2 -15 16 17 18 23 20 -20 -21 -23 24 25 28 27 29 -3 -27
right_child=2 15 3 4 -6 -7 -8 8 -10 10 -12 -13 -14 14 -16 -17 -18 -19 19 21 -22 22 -24 -25 -26 26 -28 -29 -30 -31
leaf_value=-7.2881763486771752e-05 0.0030755404617121181 0.00071213986372340886 0.00014800166331222232 -0.0040594401585955092 -0.005037065286532404 0.0010048056730274739 0.00099259758344018116 -0.0035071063601039574 0.0037230988960151009 -0.0035659126547938251 -0.0082003965698380869 0.00071100263337147925 -0.011216532801695014 -0.0033507474314938218 0.0015602142003396022 -0.00038315501303515627 -0.0015573964663121063 0.009568816217840212 7.5837614861529854e-05 -0.0048523557931607038 0.0020471956314264141 0.0041576893648386064 -0.0013951455649252118 -0.0024331680219037621 0.0020169641738656116 0.00075929110829891806 -0.0063930425073161906 0.0070100830227015675 0.0083128651792875406 -0.0065141560043278099
leaf_weight=259032 376 380 407 30 31 13399 3808 32 70 68 38 101 23 26 331 778 111 27 1132 44 325 48 302 45 570 48 38 31 20 28
leaf_count=259032 376 380 407 30 31 13399 3808 32 70 68 38 101 23 26 331 778 111 27 1132 44 325 48 302 45 570 48 38 31 20 28
internal_value=0 -0.00158687 0.0229672 0.0153963 0.0202872 0.0254358 0.0213871 -0.0356551 0.0347489 -0.0164185 -0.0556509 -0.0241219 -0.171149 0.0516725 0.0287238 0.00856884 0.012947 0.0147792 0.0128622 0.00407668 0.0123148 -0.0263876 -0.0151343 0.0268812 0.0303117 0.0116272 -0.0282631 0.0159303 0.0260874 -0.0458701
internal_weight=0 262959 18740 4608 3994 14132 3963 155 102 614 207 169 53 733 357 3927 3149 3038 3011 1851 1457 394 350 1160 1115 545 145 107 400 76
internal_count=281699 262959 18740 4608 3994 14132 3963 155 102 614 207 169 53 733 357 3927 3149 3038 3011 1851 1457 394 350 1160 1115 545 145 107 400 76
shrinkage=0.041866


Tree=32
num_leaves=31
num_cat=0
split_feature=0 14 5 1 5 4 12 3 3 4 7 7 11 12 4 7 7 7 11 7 3 4 4 3 7 4 4 4 3 4
split_gain=7.17838 0.363525 0.288598 0.272524 1.01011 1.83701 1.26091 1.06304 1.85459 1.40851 0.906912 0.747279 0.728674 0.724581 0.458055 0.358118 0.31581 0.315155 1.30221 0.928364 0.563161 0.451254 0.769831 0.455139 0.883063 0.557445 0.39981 0.583741 0.456614 0.498441
threshold=1.0000000180025095e-35 1.6631259042092341 0.16493415081419846 1.0000000180025095e-35 -1.7010717685673129 -1.1489656837284608 -0.073857838987584815 -0.56182054686704908 1.5691287583980074 -0.93800080305460309 0.71083011911112637 0.55457093973073901 0.80269565531695208 -0.54107233987453596 -1.0321338668995839 0.55457093973073901 -0.14859536748100402 0.32018217066015797 -0.11117289582877389 1.4139964263228695 1.7111920454156777 -0.1932814220682473 0.28439380616638971 -0.98801040792006034 1.4921260160130632 -0.70533858496966806 -1.0154436073526014 -0.15889948740146351 -1.2011053384465658 -0.19661947397764382
decision_type=2 2 2 2 2 2 2 2 2 2 2 2 2 2 2 2 2 2 2 2 2 2 2 2 2 2 2 2 2 2
left_child=1 3 -2 17 5 10 7 13 9 12 -5 -11 -9 14 -7 -8 -15 -1 19 20 26 23 -23 24 -21 -26 -19 28 -28 -30
right_child=2 -3 -4 4 -6 6 15 8 -10 11 -12 -13 -14 16 -16 -17 -18 18 -20 21 -22 22 -24 -25 25 -27 27 -29 29 -31
leaf_value=-0.00012652579770074606 0.0012504785046973039 0.00036464176745371914 -0.00054336653559946429 -0.00013363614398674022 -8.1722495642940808e-05 -0.007219903122410584 0.0014464630011892911 0.016536215275541156 0.0033279637664838393 0.00039815471847660662 0.0017720489023942342 0.017302006787074338 0.032852783305328676 0.0033505497511427205 0.002836548342410311 -0.0066273184596254819 0.013784934195265455 -0.0023259903575916846 -4.9961481940720138e-05 0.0035407836242398022 -0.0058103169045036753 0.0081391197510262518 -0.0033201352682401303 0.00010039328555145118 -0.014321018736323878 -0.00097474529528571109 -0.0031633584822335836 -0.0026931210132986666 -0.0001411415234300128 0.0086525165574527219
leaf_weight=50699 18364 7219 376 3214 182830 30 83 22 77 22 1507 21 23 22 49 31 26 1755 11405 34 135 69 37 1348 36 20 212 628 1378 27
leaf_count=50699 18364 7219 376 3214 182830 30 83 22 77 22 1507 21 23 22 49 31 26 1755 11405 34 135 69 37 1348 36 20 212 628 1378 27
internal_value=0 -0.00130917 0.0189479 -0.00150671 -0.000886793 0.0129568 0.0775041 0.112325 0.16526 0.264431 0.00740579 0.135009 0.388102 0.0435511 -0.0153263 -0.0116862 0.140453 -0.00322569 -0.00694025 -0.0193128 -0.0271256 0.00161088 0.064578 -0.00303064 -0.0718826 -0.149065 -0.0249817 -0.0161422 -0.00609308 0.000434456
internal_weight=0 262959 18740 255740 187957 5127 406 292 165 88 4721 43 45 127 79 114 48 67783 17084 5679 4135 1544 106 1438 90 56 4000 2245 1617 1405
internal_count=281699 262959 18740 255740 187957 5127 406 292 165 88 4721 43 45 127 79 114 48 67783 17084 5679 4135 1544 106 1438 90 56 4000 2245 1617 1405
shrinkage=0.064096


Tree=33
num_leaves=31
num_cat=0
split_feature=0 14 5 12 5 7 4 3 4 4 3 3 4 3 3 3 3 5 4 12 4 4 12 4 4 3 4 4 13 3
split_gain=4.88579 0.247424 0.24734 0.247117 0.963148 0.624101 0.400289 0.308884 0.247828 1.05918 0.344241 0.723064 0.438441 0.347251 0.286416 0.822266 0.528814 0.994126 0.519518 0.528291 0.460233 0.537272 0.387377 0.437992 0.337831 0.284528 0.318394 0.92558 0.231505 0.489105
threshold=1.0000000180025095e-35 1.6631259042092341 -0.078823379195098187 1.1768451179680852 -0.80841488280913043 1.726514785083644 0.60718342580502982 1.7111920454156777 -0.1595670977833428 -0.19661947397764382 -0.3487256163405435 1.4980971148891722 -0.017366086443052587 -0.98801040792006034 -0.70388383388471942 -0.77491547739355471 -0.41975725984937867 -0.80841488280913043 -0.44931000351895772 -0.028095913150316284 -0.87891728425828519 -0.6372423260179797 -0.44954848819999904 -0.8485410118827772 -1.082204645540531 -0.3487256163405435 -0.28107218728537481 -0.23534087612664303 0.28778155518058174 -1.2011053384465658
decision_type=2 2 2 2 2 2 2 2 2 2 2 2 2 2 2 2 2 2 2 2 2 2 2 2 2 2 2 2 2 2
left_child=1 -1 3 8 -5 6 -6 -8 9 14 13 12 -12 -10 15 18 17 20 19 22 -16 -22 24 -24 -3 -18 -27 -28 -2 -30
right_child=28 2 -4 4 5 -7 7 -9 10 -11 11 -13 -14 -15 16 -17 25 -19 -20 -21 21 -23 23 -25 -26 26 27 -29 29 -31
