tree
version=v3
num_class=1
num_tree_per_iteration=1
label_index=0
max_feature_idx=15
objective=regression
feature_names=Column_0 Column_1 Column_2 Column_3 Column_4 Column_5 Column_6 Column_7 Column_8 Column_9 Column_10 Column_11 Column_12 Column_13 Column_14 Column_15
feature_infos=[-1.0980739291455603:0.91068549526362563] [-1.6529222917696418:0.60498911835073976] [-0.22731600369453997:13.266876385453548] [-1.5318560651926554:2.3722538201442034] [-1.2286632782033806:20.5325217001174] [-2.206312296416868:3.9330711199658106] [-1.0466120672172341:0.95546385458638172] [-1.8955382050419127:1.9858814576698318] [-0.4650368637779842:2.1503671598762026] [-0.71549761289531677:1.3976287020070162] [-0.16385076537636287:18.113285160615586] [-0.91176602189289835:2.3726290233377321] [-0.65316092033362694:22.827547366171267] [-0.8563909205944582:3.8111710463081647] [-0.96324832216006673:1.9628861456555056] [-1.5097805174932541:2.4172394821679677]
tree_sizes=2924 2965 2964 2988 2970 2974 2985 2996 2971 2967 2924 2972 2954 2963 2961 2972 2997 2897 2935 2935 2963 2923 2936 3002 2891 2942 2911 2912 2929 2905 2919 2903 2871 2921 2978 3002 2909 2927 2872 2949 2975 2935 3000 2878 2903 2930 2933 2927 2985 2960 2899 2856 2998 2970 2915 2977 2939 2930 3016 2899 2923 2894 2920 3009 2981 2946 2916 2995 2974 2973 2946 2883 2926 2903 2892 2905 2935 3011 2871 2912 2945 2914 2961 2965 3003 2962 2870 3017 3011 2969 2916 2923 2916 2941 2965 2974 2907 2985 2982 2937 2947 2949 3004 2886 2929 3008 2998 2938 2996 2968 2926 2946 2930 2918 2862 2934 3014 2974 2999 2986 2968 2973 2915 2961 3002 2948 2955 2987 2911 2946 2945 2918 2944 2929 2948 2944 3008 2905 2929 2997 2949 2967 2852 2983 2907 3005 2965 3010 2953 2963 2948 2946 2937 2958 2963 2979 2976 2973 2984 2977 2913 2989 2939 2869 2881 2889 2964 2970 2857 2947 2900 2950 2927 2875 2913 2985 2975 2978 2860 2984 2867 2926 2944 2959 2987 2871 2908 2899 2980 3019 2920 2887 2929 2941 2974 2986 2949 2961 2899 2993

Tree=0
num_leaves=31
num_cat=0
split_feature=5 0 5 9 7 5 5 0 9 5 7 6 7 4 6 5 7 12 12 9 7 5 5 5 7 4 4 3 2 3
split_gain=16925.7 10947.9 2173.89 2051.42 1998.87 647.725 570.744 727.255 934.853 561.209 328.445 169.609 245.141 190.804 163.136 282.615 132.859 96.9399 96.5106 71.5287 71.3285 46.9103 43.1644 41.421 40.0106 39.2153 36.7812 35.8237 45.5782 29.1403
threshold=-0.22380306820996171 1.0000000180025095e-35 -1.7312409606253512 1.0000000180025095e-35 -1.6064963152655058 0.17269877743141973 0.38830807598295419 1.0000000180025095e-35 1.0000000180025095e-35 -1.7312409606253512 0.045171626313959559 1.0000000180025095e-35 -0.20257856492296028 -0.85353392792325089 1.0000000180025095e-35 -0.75673565643762475 -1.8542465065024258 -0.034173325734763227 -0.20973677538463056 1.0000000180025095e-35 -1.2761627269496127 -1.5582662691320297 -0.035601731338706998 -0.75673565643762475 0.29292181755087948 -0.26966459558184402 -0.57900820973520406 -1.1873757811923442 1.0000000180025095e-35 -1.1873757811923442
decision_type=2 2 2 2 2 2 2 2 2 2 2 2 2 2 2 2 2 2 2 2 2 2 2 2 2 2 2 2 2 2
left_child=1 3 -3 14 5 16 7 8 17 -5 18 13 23 -4 15 21 -2 29 -11 22 -17 -1 25 -13 -22 -18 -12 28 -19 -6
right_child=4 2 11 9 6 -7 -8 -9 -10 10 26 12 -14 -15 -16 20 19 27 -20 -21 24 -23 -24 -25 -26 -27 -28 -29 -30 -31
leaf_value=0.16294276773072991 0.16427670331615044 0.16272793481751199 0.22448727804640101 0.16272793481751199 0.24732911491858606 0.25509907576654745 0.2753152935615969 0.27235129712989914 0.26994559671277274 0.24951199823413722 0.26798981303087599 0.25557755105357893 0.26456908915330712 0.27047772931320962 0.16685764955433047 0.18530149678259433 0.21501869870833826 0.25672323944355796 0.19829053180011719 0.25102743293562013 0.22094398592971656 0.17949077496263682 0.21900725514219785 0.21967147424362618 0.19674555211443487 0.18258268893412155 0.24842141094227738 0.18005442873637301 0.18538997045981331 0.21163688985800405
leaf_weight=6307 1531 2916 1203 1358 339 3452 126716 14761 4580 605 2627 484 5599 26157 35708 2521 637 191 2086 367 1957 3341 957 2665 1570 1871 2294 2333 284 2087
leaf_count=6307 1531 2916 1203 1358 339 3452 126716 14761 4580 605 2627 484 5599 26157 35708 2521 637 191 2086 367 1957 3341 957 2665 1570 1871 2294 2333 284 2087
internal_value=0 -0.324684 0.0881115 -0.591503 0.200672 -0.262224 0.227642 0.0881716 -0.122804 -0.150232 -0.0445831 0.155184 0.0339774 0.193938 -0.668504 -0.583535 -0.479703 -0.411515 -0.325483 -0.380216 -0.414056 -0.689775 -0.42468 -0.189237 -0.322242 -0.493625 0.109024 -0.538013 -0.287692 -0.2651
internal_weight=0 99398 39024 60374 160106 8815 151291 24575 9814 8970 7612 36108 8748 27360 51404 15696 5363 5234 2691 3832 6048 9648 3465 3149 3527 2508 4921 2808 475 2426
internal_count=259504 99398 39024 60374 160106 8815 151291 24575 9814 8970 7612 36108 8748 27360 51404 15696 5363 5234 2691 3832 6048 9648 3465 3149 3527 2508 4921 2808 475 2426
shrinkage=0.332096


Tree=1
num_leaves=31
num_cat=0
split_feature=1 13 4 11 4 3 13 11 7 4 13 7 4 7 13 7 8 13 4 3 7 13 13 7 4 3 4 7 3 2
split_gain=11951 1823.49 1710.43 240.386 188.696 133.04 61.6076 328.856 228.252 69.2235 60.0015 57.2313 48.9583 45.7562 45.3137 35.4495 32.8479 23.7263 109.029 32.6296 23.3864 22.903 21.9215 20.5511 19.4617 17.6745 13.4743 12.6915 15.4062 24.1182
threshold=1.0000000180025095e-35 1.3106914211817597 -1.228495884472778 -0.07803497194973831 -1.228495884472778 -0.88117108430317881 1.0495302158907798 0.17461080076031019 0.21033842047190615 -0.75979343878586902 0.37532682067151185 -1.8542465065024258 -0.62956111637714918 -1.3587461240285861 0.37532682067151185 -1.5239129181865327 1.0000000180025095e-35 -0.13403014000238564 -0.82675093102685604 0.49675005169806535 1.1187557883406125 1.0000000180025095e-35 1.3106914211817597 -1.1935793298706396 -0.80063750905287112 0.11399418058660855 0.5666344825080839 -1.8542465065024258 -1.1873757811923442 1.0000000180025095e-35
decision_type=2 2 2 2 2 2 2 2 2 2 2 2 2 2 2 2 2 2 2 2 2 2 2 2 2 2 2 2 2 2
left_child=1 3 22 4 -1 11 7 9 10 -4 12 -6 -9 -11 17 26 -14 -5 19 -19 23 -10 -2 -7 -25 -18 -3 -16 29 -29
right_child=2 15 6 14 5 20 -8 8 21 13 -12 -13 16 -15 27 -17 25 18 -20 -21 -22 -23 -24 24 -26 -27 -28 28 -30 -31
leaf_value=-0.044047109423642025 -0.043657370207010583 0.0029647466583460381 0.0045859643817085672 -0.04525536983194596 -0.045988852299257435 -0.021004007611536007 0.015492724671026331 -0.0053441697812004613 -0.0085573425014084017 0.0060600281482769431 0.0069262760260232533 -0.028055069454403558 -0.033467315062688206 0.014680796372978739 -0.044165677970800635 0.014278724751826278 -0.020978842882278293 -0.027560144634065149 -0.042770524160764281 -0.00081407813340750638 -0.026690032633709344 0.010472343592961156 0.015485303882520078 -0.019226426654800975 -0.0052004079471045265 -0.0024646558276782645 -0.01893925773463364 -0.00180272720765518 -0.034145097830588778 -0.032924016376852695
leaf_weight=5387 4519 836 6473 13747 1801 1672 59700 1950 555 5323 1025 7702 1489 98612 782 5930 1555 2044 19106 458 1153 7953 52 1121 2939 581 318 336 3864 521
leaf_count=5387 4519 836 6473 13747 1801 1672 59700 1950 555 5323 1025 7702 1489 98612 782 5930 1555 2044 19106 458 1153 7953 52 1121 2939 581 318 336 3864 521
internal_value=0 -0.35444 0.1297 -0.40883 -0.323969 -0.270597 0.144614 0.132035 -0.0063372 0.15097 -0.145892 -0.347289 -0.186776 0.157219 -0.454057 0.126448 -0.255507 -0.467196 -0.446533 -0.25024 -0.164743 0.101921 -0.474601 -0.138604 -0.100178 -0.176029 -0.0339097 -0.369645 -0.3501 -0.228801
internal_weight=0 69717 189787 62633 21775 16388 185216 125516 15108 110408 6600 9503 5575 103935 40858 7084 3625 35355 21608 2502 6885 8508 4571 5732 4060 2136 1154 5503 4721 857
internal_count=259504 69717 189787 62633 21775 16388 185216 125516 15108 110408 6600 9503 5575 103935 40858 7084 3625 35355 21608 2502 6885 8508 4571 5732 4060 2136 1154 5503 4721 857
shrinkage=0.0905698


Tree=2
num_leaves=31
num_cat=0
split_feature=1 5 5 5 12 7 5 4 5 4 7 7 11 8 8 11 5 11 4 5 3 3 6 7 4 3 2 4 7 3
split_gain=5205.85 1502.88 865.528 149.13 97.1249 114.429 45.9608 39.3516 33.0481 28.3854 35.6233 25.6366 20.1877 18.328 17.7546 16.5133 16.1099 14.141 14.2583 13.7815 22.9231 22.1807 12.5167 11.4461 10.9698 10.6672 9.911 9.8358 8.86837 8.43136
threshold=1.0000000180025095e-35 0.38830807598295419 -1.7312409606253512 -0.58619722820477238 -0.15880170048621225 -0.20257856492296028 -0.9345828744518847 -0.85353392792325089 -0.035601731338706998 -0.62587845430389499 -1.3587461240285861 -1.4413295211075594 0.93254811889045564 1.0000000180025095e-35 1.0000000180025095e-35 0.93254811889045564 -0.75673565643762475 0.37672741892834899 -0.0065216510747651271 -1.0168067594927239 -0.42186403896943075 1.5684664908101442 1.0000000180025095e-35 1.2013391854195858 0.51239891379288438 -1.1108246069700527 1.0000000180025095e-35 -1.1113202730510507 -1.8542465065024258 -0.65151756163630481
decision_type=2 2 2 2 2 2 2 2 2 2 2 2 2 2 2 2 2 2 2 2 2 2 2 2 2 2 2 2 2 2
left_child=1 6 -2 4 9 14 -1 12 17 15 -11 24 -8 19 -6 23 29 18 -9 -7 26 -22 -13 27 -3 -18 -21 -4 -10 -16
right_child=2 11 3 -5 5 13 7 8 28 10 -12 22 -14 -15 16 -17 25 -19 -20 20 21 -23 -24 -25 -26 -27 -28 -29 -30 -31
leaf_value=-0.051453793955923227 -0.052698145599799011 0.0098148511941790421 -0.018060654324684473 0.017609533343240134 -0.038887272027969787 -0.028221677533445819 -0.030854867488890547 -0.038130604361537597 -0.051823796649396861 -0.02058297942044093 0.016161823918847421 0.029788057096142819 0.0050907174470009933 0.012396459032142031 -0.0096395185578189227 0.018081139558780525 0.021594084347274792 -0.049724846968393452 -0.048153030438414485 0.02290064337904572 -0.026891856370339366 0.010166531515135562 0.016642367115578503 -0.012019961557346307 -0.011829337374978075 -0.025770392926614847 -0.018826954316131499 0.0058879159993007572 -0.022843449372360367 0.037793342611121758
leaf_weight=26612 4742 1848 447 140647 1607 453 2422 7959 297 669 20674 2570 456 4719 198 1995 124 12688 6204 1062 926 694 5780 1187 835 2008 161 7302 2046 172
leaf_count=26612 4742 1848 447 140647 1607 453 2422 7959 297 669 20674 2570 456 4719 198 1995 124 12688 6204 1062 926 694 5780 1187 835 2008 161 7302 2046 172
internal_value=0 -0.233931 0.0856019 0.0964125 0.0458851 -0.0304259 -0.297592 -0.2721 -0.283098 0.0745519 0.0957758 0.104684 -0.160537 0.0391345 -0.16611 0.033112 -0.11343 -0.293037 -0.271316 -0.0180841 0.00772753 -0.0702921 0.132008 0.0147472 0.019645 -0.146857 0.111073 0.0287546 -0.169199 0.0791877
internal_weight=0 69717 189787 185045 44398 12124 58684 32072 29194 32274 21343 11033 2878 8015 4109 10931 2502 26851 14163 3296 2843 1620 8350 8936 2683 2132 1223 7749 2343 370
internal_count=259504 69717 189787 185045 44398 12124 58684 32072 29194 32274 21343 11033 2878 8015 4109 10931 2502 26851 14163 3296 2843 1620 8350 8936 2683 2132 1223 7749 2343 370
shrinkage=0.156721


Tree=3
num_leaves=31
num_cat=0
split_feature=5 0 9 4 5 7 5 5 12 4 0 4 9 7 4 7 11 5 3 3 7 3 12 12 3 5 12 7 7 3
split_gain=1564.51 1067.17 297.063 244.531 62.2848 48.4963 31.652 26.1893 39.4336 25.7548 23.1557 19.9863 17.7816 16.5844 16.569 14.1359 13.5369 11.2833 10.6096 10.4629 9.78763 7.85857 7.83683 7.50525 11.7674 12.2529 6.70031 16.7216 8.8928 6.30786
threshold=1.0000000180025095e-35 1.0000000180025095e-35 1.0000000180025095e-35 -0.96066591550883007 -1.2561696248338345 -0.20257856492296028 0.30060259860605892 -1.0168067594927239 -0.14290706718457816 -0.39822298068453915 1.0000000180025095e-35 -0.40692745467586749 1.0000000180025095e-35 -1.028412535712693 -0.91044779632808981 -0.69807894739679999 0.52831488255437808 -1.6435354832484557 1.9512223619216009 0.2670965290311913 -1.8542465065024258 0.42019887747577395 0.45856030661589336 -0.064156384008300246 -0.65151756163630481 -1.0168067594927239 -0.20323442539759848 -0.69807894739679999 0.21033842047190615 2.1043247103661842
decision_type=2 2 2 2 2 2 2 2 2 2 2 2 2 2 2 2 2 2 2 2 2 2 2 2 2 2 2 2 2 2
left_child=1 2 7 -3 -4 14 10 -1 9 18 12 17 22 -11 -6 16 -13 -5 20 -15 -9 -22 -2 -7 25 -25 28 -28 -19 -21
right_child=6 3 4 11 5 23 -8 8 -10 13 -12 15 -14 19 -16 -17 -18 26 -20 29 21 -23 -24 24 -26 -27 27 -29 -30 -31
leaf_value=-0.025456418482076616 -0.0051254980487020121 -0.02615476279678311 -0.025073171568568156 -0.043118610000777512 0.0095037111571899639 0.010128849320914393 0.0090904383759872667 -0.031232246960321546 -0.023774412443869429 -0.024805232726709158 0.0078244760807900313 0.0033389135807483728 0.0068750537511506789 -0.0010851848976719796 -0.01774574457940464 0.0087169840014748642 -0.020447009596929373 0.0065493018501407802 0.014783432448937579 -0.029550706898207359 -0.0082543712837407461 -0.018296650735994808 -0.018132305253757967 -0.018304654904680098 -0.0056452188180042048 0.0076589981641201317 -0.014149941455015667 0.0031720281226370033 0.00027660488666830639 0.037590164154353969
leaf_weight=26800 1560 3657 1532 76 368 2602 130126 334 19471 4287 3806 3693 1189 790 2196 25095 372 8030 226 336 5203 1396 1127 275 1769 3866 1077 2925 5299 21
leaf_count=26800 1560 3657 1532 76 368 2602 130126 334 19471 4287 3806 3693 1189 790 2196 25095 372 8030 226 336 5203 1396 1127 275 1769 3866 1077 2925 5299 21
internal_value=0 -0.0827856 -0.161285 0.028924 -0.0219827 0.0041573 0.0728058 -0.191122 -0.171838 -0.128231 0.0104311 0.0484779 -0.0439732 -0.180139 -0.116407 0.0644844 0.00977885 0.0216641 -0.0888309 -0.0733352 -0.0957815 -0.0873284 -0.089029 0.040474 0.0207712 0.049936 0.0233501 -0.0125335 0.034124 -0.215412
internal_weight=0 121696 71472 50224 12608 11076 137808 58864 32064 12593 7682 46567 3876 5434 2564 29160 4065 17407 7159 1147 6933 6599 2687 8512 5910 4141 17331 4002 13329 357
internal_count=259504 121696 71472 50224 12608 11076 137808 58864 32064 12593 7682 46567 3876 5434 2564 29160 4065 17407 7159 1147 6933 6599 2687 8512 5910 4141 17331 4002 13329 357
shrinkage=0.118848


Tree=4
num_leaves=31
num_cat=0
split_feature=1 5 5 5 12 7 5 7 12 4 3 5 5 4 0 4 6 7 3 7 2 5 7 4 11 3 6 7 4 0
split_gain=1035.37 284.81 169.07 25.787 26.5635 28.701 14.6512 11.843 9.07705 8.86865 7.69688 14.284 11.918 7.23189 16.8919 23.7084 10.4789 9.97945 6.74075 12.9601 6.22595 6.19128 6.04186 7.02206 6.03064 5.81698 5.6319 5.06041 5.04055 4.66934
threshold=1.0000000180025095e-35 0.38830807598295419 -1.5582662691320297 -0.58619722820477238 -0.071019975661278587 0.12775502339293288 -0.58619722820477238 -1.3587461240285861 -0.17289012545811519 -0.49196346982192096 -0.65151756163630481 -0.75673565643762475 -1.0168067594927239 -0.69283594654488201 1.0000000180025095e-35 -1.0031839230818569 1.0000000180025095e-35 -1.4413295211075594 -1.1108246069700527 -1.6890797123444792 1.0000000180025095e-35 -1.0168067594927239 -1.7716631094234525 -0.29109099309895992 0.98307727343246532 -0.039108167857974128 1.0000000180025095e-35 -0.53291215323885333 -1.228495884472778 1.0000000180025095e-35
decision_type=2 2 2 2 2 2 2 2 2 2 2 2 2 2 2 2 2 2 2 2 2 2 2 2 2 2 2 2 2 2
left_child=1 6 -2 4 13 10 -1 8 22 -8 12 -12 -6 14 16 24 -4 21 19 -11 -14 -15 -3 -24 28 -13 -9 -18 -16 -7
right_child=2 7 3 -5 5 29 9 26 -10 18 11 25 20 17 15 -17 27 -19 -20 -21 -22 -23 23 -25 -26 -27 -28 -29 -30 -31
leaf_value=-0.015284615776184209 -0.015972078082513774 0.013424355930093399 0.019586087690269229 0.0054572093428723366 -0.021469045132636793 -0.0010916059836597969 -0.0010904023541349114 0.011396279668332737 -0.0087216369780493009 -0.012749620520630009 0.017808628030484667 -0.01811775030017123 0.0067604101583898079 -0.027490722572179539 0.015605859243741596 0.00014932293832212201 -0.0050820841395213777 0.0053526031201171775 -0.014936984682354385 5.7378724870018073e-05 -0.017232328960389801 -0.0019654187478235488 0.0086586738976399159 -0.0075255666042019134 0.0068516284233307093 -0.0085509809065596118 0.0050382799376249158 0.0065837899272669278 -0.030123655892885584 0.0051417142067736567
leaf_weight=48959 4891 541 684 140647 297 2427 1053 2404 1167 3099 186 1609 929 165 31 5807 542 22795 4194 1379 152 377 580 733 71 1468 5608 2620 478 3611
leaf_count=48959 4891 541 684 140647 297 2427 1053 2404 1167 3099 186 1609 929 165 31 5807 542 22795 4194 1379 152 377 580 733 71 1468 5608 2620 478 3611
internal_value=0 -0.104323 0.0381781 0.0430325 0.0219778 -0.0214634 -0.132037 0.0430853 -0.0102703 -0.096584 -0.0805956 -0.10706 -0.0179291 0.0357969 0.0136317 -0.0178961 0.0659896 0.0455161 -0.107107 -0.0801254 0.0308172 -0.0885908 0.0332185 -0.00342494 -0.210677 -0.123327 0.0632035 0.0417123 -0.248761 0.0239875
internal_weight=0 69717 189787 184896 44249 10679 58684 11033 3021 9725 4641 3263 1378 33570 10233 6387 3846 23337 8672 4478 1081 542 1854 1313 580 3077 8012 3162 509 6038
internal_count=259504 69717 189787 184896 44249 10679 58684 11033 3021 9725 4641 3263 1378 33570 10233 6387 3846 23337 8672 4478 1081 542 1854 1313 580 3077 8012 3162 509 6038
shrinkage=0.109899


Tree=5
num_leaves=31
num_cat=0
split_feature=1 5 5 5 11 7 7 5 7 7 3 2 5 3 5 7 7 4 4 7 12 0 4 3 7 3 4 0 13 12
split_gain=449.147 124.717 79.0308 11.1745 13.8659 17.916 7.53675 5.92044 9.28825 7.19891 5.86259 19.068 5.79722 7.17714 5.65999 5.59551 7.91464 6.53206 5.06807 5.22507 4.7446 5.26363 4.52947 4.47515 4.45223 4.16479 4.04637 12.3524 3.98364 21.3926
threshold=1.0000000180025095e-35 0.30060259860605892 -1.3840734460084736 1.0000000180025095e-35 0.073552491676290771 0.62325540586677264 -1.7716631094234525 -0.47656538148365329 0.7884222000247193 -1.8542465065024258 -1.1873757811923442 1.0000000180025095e-35 -0.75673565643762475 -0.95772225852547022 -1.0168067594927239 -1.5239129181865327 -1.7716631094234525 -0.89370842326784306 0.39522330237115705 -1.7716631094234525 -0.24658342531114594 1.0000000180025095e-35 -1.228495884472778 -1.0342734327477614 -1.5239129181865327 1.5684664908101442 -0.82675093102685604 1.0000000180025095e-35 -0.68969227891936435 -0.38204905004098183
decision_type=2 2 2 2 2 2 2 2 2 2 2 2 2 2 2 2 2 2 2 2 2 2 2 2 2 2 2 2 2 2
left_child=1 7 -2 4 6 12 -4 28 9 -9 11 -11 13 -6 -8 16 -3 -18 19 -12 -14 -22 -16 -19 -20 -7 27 -24 -1 -30
right_child=2 15 3 -5 5 25 14 8 -10 10 18 -13 20 -15 22 -17 17 23 24 -21 21 -23 26 -25 -26 -27 -28 -29 29 -31
leaf_value=-0.013613577360871758 -0.012008468831913786 0.0078303779625315054 -0.0384483397138407 0.0046004513100845797 -0.015905492078366015 0.0011869774385453705 -0.0010011020182085168 -0.015537463511741786 -0.019748817848557913 0.023142473886724631 0.0057838302304656962 -0.010355701419327762 0.0034175023651357604 0.0146756896103282 0.05969335673504058 0.0054083843225904904 0.014815212978955909 -0.020412661128628599 -0.017315992664852078 -0.0068454049766541415 -0.011580352788471688 -0.00420973545785911 0.013126167684950975 -0.0041379561241736817 -0.0049307689610419824 0.0076240164448777075 0.0045089291788007312 -0.0092497790216560325 0.004491999331852339 -0.012258326291005407
leaf_weight=25895 5938 912 78 124696 192 4490 4228 1550 1240 515 781 791 854 529 27 8724 194 594 1310 2614 3029 4308 683 649 898 3132 36511 1344 1498 21300
leaf_count=25895 5938 912 78 124696 192 4490 4228 1550 1240 515 781 791 854 529 27 8724 194 594 1310 2614 3029 4308 683 649 898 3132 36511 1344 1498 21300
internal_value=0 -0.0690483 0.0249158 0.0285782 0.0172906 -0.00731055 0.0267785 -0.0875 -0.0649383 -0.0530901 -0.0392725 0.0210634 -0.0377529 0.0482123 0.0273446 0.0282542 -0.0150673 -0.06131 -0.0533362 -0.0290817 -0.0453199 -0.053531 0.0311526 -0.0879455 -0.0906295 0.0282841 0.0308657 -0.0126227 -0.0919939 -0.0823542
internal_weight=0 69465 190039 184101 59405 16534 42871 58392 9699 8459 6909 1306 8912 721 42793 11073 2349 1437 5603 3395 8191 7337 38565 1243 2208 7622 38538 2027 48693 22798
internal_count=259504 69465 190039 184101 59405 16534 42871 58392 9699 8459 6909 1306 8912 721 42793 11073 2349 1437 5603 3395 8191 7337 38565 1243 2208 7622 38538 2027 48693 22798
shrinkage=0.135484


Tree=6
num_leaves=31
num_cat=0
split_feature=1 5 5 4 5 11 3 5 4 7 4 7 3 2 5 3 4 5 5 4 4 7 3 10 14 4 3 3 12 4
split_gain=195.648 54.3268 34.9237 6.42675 5.79319 6.34489 9.47772 7.50514 5.89871 5.56448 7.80487 3.86899 6.0551 3.89772 4.84225 13.144 10.0148 6.38355 3.72391 3.65178 3.55835 3.96188 4.30778 3.3953 3.30215 3.46246 3.2998 3.17038 3.12693 3.80961
threshold=1.0000000180025095e-35 0.30060259860605892 -1.7312409606253512 -1.228495884472778 0.30060259860605892 0.27566910984432957 1.262261793920979 -0.40835001019051248 -0.59239970818340149 -1.1935793298706396 -0.91044779632808981 -1.8542465065024258 -1.1108246069700527 1.0000000180025095e-35 -0.75673565643762475 -1.1873757811923442 -0.41094490421032664 -0.22380306820996171 -1.3840734460084736 -0.94191781768135374 0.021265708205244493 1.2013391854195858 1.6450176650324357 1.0000000180025095e-35 0.54483636509872835 -0.62587845430389499 -0.19221051630255678 -0.65151756163630481 -0.29173863355442459 -0.54787297584314509
decision_type=2 2 2 2 2 2 2 2 2 2 2 2 2 2 2 2 2 2 2 2 2 2 2 2 2 2 2 2 2 2
left_child=1 11 3 -2 5 9 7 8 26 18 -11 -1 13 14 -13 16 24 -18 -4 -20 21 23 28 -12 -16 -26 -7 -10 29 -23
right_child=2 -3 4 -5 -6 6 -8 -9 27 10 20 12 -14 -15 15 -17 17 -19 19 -21 -22 22 -24 -25 25 -27 -28 -29 -30 -31
leaf_value=-0.010234975922822727 -0.0067322331609602683 0.0021444806207117227 -0.016003747566041598 -0.023884707440604787 0.0026185419742022508 -0.0052750670360347208 0.0035048778085444701 0.0031942520269953004 0.0026280527285612604 -0.0057650643818123997 0.0024274666883519081 -0.0056768840818000148 -0.0070039415142896079 -0.0074752275468354572 0.019133323081643335 -0.0039930854668695183 -0.0021412469453287466 0.016890554644484052 0.011395781457197723 -0.0016491452856480932 0.0037155052409398419 -0.015455598113852706 0.0027743879048867152 -0.0066698951049452091 0.066250646567505275 0.023470056277193223 0.0027094961721832252 -0.0086856780561731291 0.0050036173426586429 -0.0037079655173359463
leaf_weight=3710 4438 11073 226 309 119357 1229 4182 1929 359 1555 22420 3700 43702 3052 111 3038 593 384 300 5255 19121 528 1484 556 58 44 1545 3740 323 1183
leaf_count=3710 4438 11073 226 309 119357 1229 4182 1929 359 1555 22420 3700 43702 3052 111 3038 593 384 300 5255 19121 528 1484 556 58 44 1545 3740 323 1183
internal_value=0 -0.0455719 0.0164444 -0.0682505 0.0186142 0.0110911 -0.00871899 -0.027342 -0.0428117 0.0159487 0.0195375 -0.05775 -0.0556297 -0.0346361 -0.0229461 0.000173254 0.0892607 0.0464265 -0.0133337 -0.0082144 0.0219125 0.0144092 -0.016842 0.0191942 0.285735 0.415623 -0.0072001 -0.0669118 -0.0467316 -0.0637673
internal_weight=0 69465 190039 4747 185292 65935 12984 8802 6873 52951 47170 58392 54682 10980 7928 4228 1190 977 5781 5555 45615 26494 3518 22976 213 102 2774 4099 2034 1711
internal_count=259504 69465 190039 4747 185292 65935 12984 8802 6873 52951 47170 58392 54682 10980 7928 4228 1190 977 5781 5555 45615 26494 3518 22976 213 102 2774 4099 2034 1711
shrinkage=0.114999


Tree=7
num_leaves=31
num_cat=0
split_feature=1 5 5 5 11 7 14 5 12 7 11 12 0 5 7 7 5 7 7 5 7 7 12 7 5 7 3 2 7 12
split_gain=2868.42 518.15 416.718 42.6628 65.7985 59.3613 34.9292 31.4185 46.869 31.1777 22.9257 15.3226 15.6506 12.605 12.2343 11.7008 11.0099 9.23403 8.46987 8.25099 7.10025 8.12511 6.4394 4.93725 4.92825 6.80193 4.46747 10.9301 5.10803 4.45021
threshold=1.0000000180025095e-35 0.38830807598295419 -1.7312409606253512 -0.40835001019051248 0.12408164621830046 0.45808861170882603 0.094661831588640208 -1.2561696248338345 -0.21949030036517878 -1.8542465065024258 1.1346647370584946 -0.0067189591228498146 1.0000000180025095e-35 -0.47656538148365329 1.3665059795775323 -1.5239129181865327 -1.0168067594927239 -1.1109959327916663 -0.45032875615988011 -1.0168067594927239 0.70583880294574597 -1.6890797123444792 -0.067407559001816303 -1.3587461240285861 0.30060259860605892 -1.2761627269496127 -1.1873757811923442 1.0000000180025095e-35 -0.20257856492296028 -0.61974606623360062
decision_type=2 2 2 2 2 2 2 2 2 2 2 2 2 2 2 2 2 2 2 2 2 2 2 2 2 2 2 2 2 2
left_child=1 7 -2 4 16 11 17 -1 9 -9 14 29 -13 -10 15 -11 22 -3 -14 -7 21 -15 23 -4 25 -5 27 -23 -28 -6
right_child=2 6 3 24 5 19 -8 8 13 10 -12 12 18 20 -16 -17 -18 -19 -20 -21 -22 26 -24 -25 -26 -27 28 -29 -30 -31
leaf_value=-0.0125237983995658 -0.011790257994003146 -0.003443645404382798 -0.0030786300132218413 0.0010276573819239453 -0.022562714248492339 -0.0034888487838736146 0.0040249514250992489 -0.013990916242749524 -0.011998876465958982 -0.008743031172127028 0.0047717421867421988 -0.010136293878305731 -0.0060729243883052876 -0.010707798313497611 -0.013145429563392395 -0.0052707520724068332 0.0039169872562719553 0.0010064049243668155 0.00023516028182818822 0.0032669918533463852 -0.012906131515702505 0.0064051800734872977 -0.0035253811186039554 0.0025497424052256818 0.0042182180957715237 0.0037290609694542957 -0.0049015334094981364 -0.0085455584678588142 -0.010326375417925271 -0.00072500023862395876
leaf_weight=20282 4747 3281 456 2843 25 524 5786 1771 18951 4270 446 1680 1468 1955 828 6455 26634 1980 915 5541 1085 229 628 4349 119357 18727 990 298 858 2145
leaf_count=20282 4747 3281 456 2843 25 524 5786 1771 18951 4270 446 1680 1468 1955 828 6455 26634 1980 915 5541 1085 229 628 4349 119357 18727 990 298 858 2145
internal_value=0 -0.174011 0.0634478 0.070943 0.0438988 -0.0182882 0.0245962 -0.211569 -0.194656 -0.148022 -0.129742 -0.0868214 -0.123056 -0.22101 -0.13833 -0.129288 0.0677482 -0.0343732 -0.0709445 0.0521434 -0.178461 -0.160334 0.0267221 0.0391683 0.0794567 0.065546 -0.121033 -0.039816 -0.144193 -0.0189775
internal_weight=0 69465 190039 185292 44365 12298 11047 58418 38136 13770 11999 6233 4063 24366 11553 10725 32067 5261 2383 6065 5415 4330 5433 4805 140927 21570 2375 527 1848 2170
internal_count=259504 69465 190039 185292 44365 12298 11047 58418 38136 13770 11999 6233 4063 24366 11553 10725 32067 5261 2383 6065 5415 4330 5433 4805 140927 21570 2375 527 1848 2170
shrinkage=0.0514601


Tree=8
num_leaves=31
num_cat=0
split_feature=1 5 5 5 11 7 7 4 7 5 4 0 5 4 11 5 7 11 4 11 3 3 5 4 7 4 7 7 4 13
split_gain=321.741 68.0859 50.2857 6.07186 9.03095 8.52836 5.98614 4.88366 4.83965 4.36147 4.2192 12.3152 4.15251 10.4169 5.06431 4.46569 4.09199 4.27326 3.99649 3.63868 3.53392 3.17956 3.15264 3.75517 3.2258 3.0438 5.06618 3.1348 2.98433 4.68649
threshold=1.0000000180025095e-35 0.38830807598295419 -1.7312409606253512 0.30060259860605892 0.12408164621830046 0.54067200878779931 -1.2761627269496127 0.31152643706992328 -1.7716631094234525 -0.75673565643762475 -0.81637251972950298 1.0000000180025095e-35 -1.2561696248338345 -0.68078359794150434 2.246306136982708 -0.47656538148365329 0.7884222000247193 0.42725657347035867 -0.92718716938833656 1.0000000180025095e-35 -0.88117108430317881 -0.65151756163630481 -0.47656538148365329 -0.84349030408710279 -0.53291215323885333 0.67979264439535192 -1.3587461240285861 -1.8542465065024258 -1.1113202730510507 0.22715025029365069
decision_type=2 2 2 2 2 2 2 2 2 2 2 2 2 2 2 2 2 2 2 2 2 2 2 2 2 2 2 2 2 2
left_child=1 12 -2 4 8 9 7 -3 -4 21 11 19 -1 14 28 -15 17 25 20 -10 -13 -6 23 -11 -25 27 -27 -17 29 -14
right_child=2 6 3 -5 5 -7 -8 -9 10 22 -12 18 13 15 -16 16 -18 -19 -20 -21 -22 -23 -24 24 -26 26 -28 -29 -30 -31
leaf_value=-0.01000845778113092 -0.009640050511044513 0.00092212758370460442 -0.023875251122363553 0.0033620310102342914 -0.0027051845754559509 0.0022829003386508843 0.0034922578170039718 -0.0085088142198395614 0.01211029097118275 0.0024124503343710422 0.0030669160477273427 -0.025516555036927648 -0.0049720369494253482 -0.0098961682403752062 0.034726573051173784 -0.010735338864689643 -0.013351097036466877 0.015138399631721096 -0.0026917008403173921 -0.00389063268326789 -0.0084681866324364165 0.013522611312066848 0.0002486304814130377 -0.0094991044917198571 -0.0033955070771068329 -0.01221090828284326 0.0021159052784317386 -0.0032515488460012868 -0.0052070023605209582 0.011295670741773447
leaf_weight=20282 4747 2137 98 119357 328 7957 7660 1250 867 762 46531 254 627 20729 48 977 1171 138 1090 267 559 368 1863 2637 2354 1998 431 4539 7050 428
leaf_count=20282 4747 2137 98 119357 328 7957 7660 1250 867 762 46531 254 627 20729 48 977 1171 138 1090 267 559 368 1863 2637 2354 1998 431 4539 7050 428
internal_value=0 -0.0583341 0.0211941 0.0237977 0.0160958 -0.00435253 0.0136599 -0.0213473 0.022794 -0.0267539 0.023233 -0.01288 -0.0719484 -0.0657999 -0.0341056 -0.0744182 -0.0561527 -0.048149 -0.0620371 0.069612 -0.1151 0.0490205 -0.0336786 -0.0452566 -0.0552394 -0.0511793 -0.0806751 -0.0381907 -0.0360236 0.0135802
internal_weight=0 69465 190039 185292 65935 16269 11047 3387 49666 8312 49568 3037 58418 38136 8153 29983 9254 8083 1903 1134 813 696 7616 5753 4991 7945 2429 5516 8105 1055
internal_count=259504 69465 190039 185292 65935 16269 11047 3387 49666 8312 49568 3037 58418 38136 8153 29983 9254 8083 1903 1134 813 696 7616 5753 4991 7945 2429 5516 8105 1055
shrinkage=0.119848


Tree=9
num_leaves=31
num_cat=0
split_feature=1 5 5 4 7 5 11 3 0 4 12 7 3 5 7 4 5 7 4 4 4 7 0 4 2 7 7 4 3 3
split_gain=140.151 29.7835 22.1677 4.88415 2.63248 2.27109 4.02241 4.42487 3.76486 4.8713 2.49507 3.68096 2.88282 3.00461 8.03471 4.14767 2.8026 2.37641 2.30582 2.21994 2.11068 2.08978 2.30678 4.9495 3.77173 2.59867 2.33178 2.58907 2.87429 2.1562
threshold=1.0000000180025095e-35 -0.035601731338706998 -1.3840734460084736 1.148495090082261 -1.5239129181865327 0.30060259860605892 0.073552491676290771 1.5684664908101442 1.0000000180025095e-35 -1.0778415269305572 -0.34917605843987504 -0.53291215323885333 -0.42186403896943075 -0.22380306820996171 1.1187557883406125 -0.5659514987482116 -1.0168067594927239 -1.6064963152655058 0.043696468105975141 0.043361680644770209 1.8684555254034743 -1.7716631094234525 1.0000000180025095e-35 -0.89370842326784306 1.0000000180025095e-35 -1.4413295211075594 1.7794229649723987 0.31152643706992328 2.1043247103661842 1.5684664908101442
decision_type=2 2 2 2 2 2 2 2 2 2 2 2 2 2 2 2 2 2 2 2 2 2 2 2 2 2 2 2 2 2
left_child=1 -1 -2 -3 -5 6 21 8 10 -10 -8 -12 16 14 15 -14 -13 -7 19 -11 -9 -4 24 -24 29 -25 -27 28 -28 -23
right_child=2 3 5 4 -6 17 7 20 9 18 11 12 13 -15 -16 -17 -18 -19 -20 -21 -22 22 23 25 -26 26 27 -29 -30 -31
leaf_value=-0.0066422970546012906 -0.0063053731244735794 0.0014619230608850287 -0.018163556006819667 -0.012908211111713327 -0.0014705058169425125 0.0081276427178719451 0.00411017469239608 0.0048147190519345672 -0.037730361607989225 -0.00033593084079948745 -0.01014206599074377 -0.01463394466382344 0.0035492556237014822 0.0091753240391973506 -0.050564602437485152 -0.011123036716803784 0.0022514136397644847 0.0024632320359706189 0.0043737638044906288 -0.033915812898552056 -0.028926429089543307 0.0055554877149806064 -0.0076589886888622158 -0.0042893711129385051 -0.0034294173781590437 0.0024342490892234414 -0.020365218873407104 0.004305107563074507 0.0012558579339411037 0.023994868227763155
leaf_weight=56082 5938 11873 94 702 808 1399 688 3097 61 5459 1612 201 541 206 80 1073 2107 117958 2604 37 35 5469 998 1159 933 37366 279 329 195 121
leaf_count=56082 5938 11873 94 702 808 1399 688 3097 61 5459 1612 201 541 206 80 1073 2107 117958 2604 37 35 5469 998 1159 933 37366 279 329 195 121
internal_value=0 -0.0385005 0.0139881 0.00388716 -0.0496813 0.0159278 0.0111589 -0.00164098 -0.00892613 0.00538013 -0.0268661 -0.0335982 -0.0180327 -0.0468804 -0.0607478 -0.045415 0.00571545 0.0185146 0.00750031 -0.00411331 0.0324797 0.0160127 0.0163116 0.0134894 0.0337586 0.0152542 0.0166707 -0.0366467 -0.0839535 0.0435825
internal_weight=0 69465 190039 13383 1510 184101 64744 17801 14669 8161 6508 5820 4208 1900 1694 1614 2308 119357 8100 5496 3132 46943 46849 40326 6523 39328 38169 803 474 5590
internal_count=259504 69465 190039 13383 1510 184101 64744 17801 14669 8161 6508 5820 4208 1900 1694 1614 2308 119357 8100 5496 3132 46943 46849 40326 6523 39328 38169 803 474 5590
shrinkage=0.136629


Tree=10
num_leaves=31
num_cat=0
split_feature=1 5 5 7 7 4 2 7 5 3 7 4 7 7 14 5 0 4 5 3 7 7 0 4 4 7 4 7 3 2
split_gain=61.6087 12.8776 10.6176 2.89597 3.91571 2.97704 2.50514 2.15317 2.02104 3.63257 7.35218 2.45472 5.91609 5.19773 4.57618 2.75078 2.70987 3.44132 2.74793 2.65485 2.38092 2.0696 2.04862 2.01343 1.97809 1.96769 1.93153 1.78633 2.82836 4.77975
threshold=1.0000000180025095e-35 0.64411571833223247 -1.6435354832484557 -1.5239129181865327 -1.7716631094234525 -0.89370842326784306 1.0000000180025095e-35 -1.8542465065024258 -0.9345828744518847 -0.34531286474713946 1.7794229649723987 -0.54787297584314509 -1.1109959327916663 -0.45032875615988011 0.63487127180074598 -1.0168067594927239 1.0000000180025095e-35 -0.91044779632808981 -1.2561696248338345 -0.88117108430317881 1.3665059795775323 0.62325540586677264 1.0000000180025095e-35 -1.1280596461112975 -0.51305507987783183 0.45808861170882603 -1.1548426430076921 -1.8542465065024258 -1.1873757811923442 1.0000000180025095e-35
decision_type=2 2 2 2 2 2 2 2 2 2 2 2 2 2 2 2 2 2 2 2 2 2 2 2 2 2 2 2 2 2
left_child=1 27 -2 4 7 -6 -7 -3 9 11 20 13 15 -4 22 24 18 -18 21 -19 -11 -15 -14 26 -13 -16 -5 -1 29 -29
right_child=2 3 8 23 5 6 -8 -9 -10 10 -12 12 14 16 25 -17 17 19 -20 -21 -22 -23 -24 -25 -26 -27 -28 28 -30 -31
leaf_value=-0.006614296899093511 -0.0046822493271966364 0.030567159774391429 0.002953157107304333 -0.0014358130185491006 0.0073991992177878446 -0.0078561748784327871 -0.027745419966569745 0.0018565826054120862 0.0013635299733719965 0.0081943590531736894 -0.05814149881422058 0.010192310409710621 0.030984718658734207 -0.010985846265614016 -0.015631820646710242 0.0041497795894035738 -0.029763539275266693 -0.0065620755763080331 -0.0056911169637068387 -0.02367226723518993 -0.013630431458036607 0.035220075299229832 0.004298340140657636 0.0022210736105024568 -0.021557741913480675 -0.0018562180654348153 -0.019370374030542464 0.0022219553046229994 -0.0041004961656643689 -0.00475780180315802
leaf_weight=3722 4797 43 796 371 185 1102 109 843 178173 1152 28 34 46 22 249 110 164 703 426 178 84 49 2195 8196 320 467 126 3088 48667 3059
leaf_count=3722 4797 43 796 371 185 1102 109 843 178173 1152 28 34 46 22 249 110 164 703 426 178 84 49 2195 8196 320 467 126 3088 48667 3059
internal_value=0 -0.0257574 0.00903608 0.00567671 -0.0260279 -0.0590284 -0.0770779 0.0259685 0.0102392 -0.00639994 0.0421452 -0.0170547 1.28775e-05 -0.0420284 0.0164859 -0.104967 -0.0759049 -0.104815 -0.0151177 -0.0800559 0.0536242 0.16702 0.0387222 0.0139995 -0.147888 -0.053111 -0.0478031 -0.031651 -0.0302115 -0.00999959
internal_weight=0 69511 189993 10975 2282 1396 1211 886 185196 7023 1264 5759 3421 2338 2957 464 1542 1045 497 881 1236 71 2241 8693 354 716 497 58536 54814 6147
internal_count=259504 69511 189993 10975 2282 1396 1211 886 185196 7023 1264 5759 3421 2338 2957 464 1542 1045 497 881 1236 71 2241 8693 354 716 497 58536 54814 6147
shrinkage=0.125151


Tree=11
num_leaves=31
num_cat=0
split_feature=1 5 5 5 12 7 7 7 5 4 7 4 4 0 4 0 4 11 11 5 2 5 11 4 7 2 4 11 11 7
split_gain=352.794 86.8113 58.2976 8.29168 10.968 10.9793 6.86006 6.66897 6.36045 6.72765 4.67696 5.00354 4.39164 4.10832 3.97111 7.07636 9.34314 3.48002 3.34568 8.36038 7.05797 6.14635 3.90985 3.83796 4.50023 3.31909 3.27174 4.30293 2.95136 2.777
threshold=1.0000000180025095e-35 0.64411571833223247 -1.6435354832484557 -0.40835001019051248 -0.064156384008300246 0.12775502339293288 -1.3587461240285861 -1.4413295211075594 -0.58619722820477238 -0.49196346982192096 -1.7716631094234525 -0.7835633485314194 -0.91044779632808981 1.0000000180025095e-35 -0.69283594654488201 1.0000000180025095e-35 -1.0031839230818569 0.17461080076031019 0.37672741892834899 -1.0168067594927239 1.0000000180025095e-35 -0.75673565643762475 0.7809606552644266 -0.32456973921945342 -1.2761627269496127 1.0000000180025095e-35 -1.228495884472778 0.98307727343246532 1.0000000180025095e-35 0.45808861170882603
decision_type=2 2 2 2 2 2 2 2 2 2 2 2 2 2 2 2 2 2 2 2 2 2 2 2 2 2 2 2 2 2
left_child=1 8 -2 4 7 18 10 12 -1 17 -3 -12 -4 29 15 28 26 -10 19 -6 23 -20 -23 24 -21 -13 -17 -28 -9 -7
right_child=2 6 3 -5 5 13 -8 14 9 -11 11 25 -14 -15 -16 16 -18 -19 21 20 -22 22 -24 -25 -26 -27 27 -29 -30 -31
leaf_value=-0.005410789545642513 -0.0057870498486808676 0.0026846966225388394 0.0040411055392537438 0.0019058120304162791 -0.010723836694940819 -0.0054474894549449539 0.0023741960242289078 0.0061148024255631784 0.0001132089933533689 -0.0041549543367263193 0.0036414854667455527 -0.0038318361309385997 -0.0057184013089141041 0.0023085707277628914 0.0021001522281992114 0.0092153119057751497 -3.6200947231865819e-05 0.012169833487698012 0.0070908098988233751 -0.0059623963780890011 -0.012731232543082373 -0.0076113834350716924 -0.0028506019441859199 0.0079334287711709875 0.007851532538907224 -0.015034863738848995 -0.012622162256613246 0.0050955008087143327 0.0017209218469037863 -3.470024564321437e-05
leaf_weight=48883 4797 886 265 140725 290 542 7998 923 935 8598 397 1567 902 3581 23050 41 5547 120 188 268 127 1595 1475 510 172 127 468 70 2570 1887
leaf_count=48883 4797 886 265 140725 290 542 7998 923 935 8598 397 1567 902 3581 23050 41 5547 120 188 268 127 1595 1475 510 172 127 468 70 2570 1887
internal_value=0 -0.0612469 0.0220133 0.0248325 0.0129296 -0.0150825 0.0203682 0.0217341 -0.076549 -0.0530916 -0.0206109 -0.0464117 -0.052546 0.0131037 0.0243875 0.00732049 -0.0131605 0.022274 -0.0517093 -0.0101874 0.0303934 -0.0691312 -0.0798796 0.059992 -0.0084381 -0.0700927 -0.134039 -0.15479 0.0432399 -0.0186419
internal_weight=0 69511 189993 185196 44471 10635 10975 33836 58536 9653 2977 2091 1167 6010 32669 9619 6126 1055 4625 1367 1077 3258 3070 950 440 1694 579 538 3493 2429
internal_count=259504 69511 189993 185196 44471 10635 10975 33836 58536 9653 2977 2091 1167 6010 32669 9619 6126 1055 4625 1367 1077 3258 3070 950 440 1694 579 538 3493 2429
shrinkage=0.0666508


Tree=12
num_leaves=31
num_cat=0
split_feature=1 5 5 7 4 5 4 11 7 14 7 14 12 3 14 3 4 4 5 4 5 3 12 7 11 7 11 7 3 11
split_gain=57.5449 13.1679 9.69381 2.13617 2.0781 1.99804 2.83837 2.41294 2.4199 2.29493 5.20599 4.42937 4.49994 3.76432 3.47693 3.37281 2.62966 2.32659 3.26037 2.06469 3.77872 4.58116 3.85496 4.86609 4.12751 3.30683 2.36066 3.74761 2.57042 2.15016
threshold=1.0000000180025095e-35 0.64411571833223247 -1.6435354832484557 -1.028412535712693 1.685494177854977 -0.58619722820477238 -0.59507800787304099 0.12408164621830046 -1.6890797123444792 1.0850458053108341 -1.1935793298706396 0.81494108520478126 2.1285805282853114 -1.1873757811923442 1.0000000180025095e-35 -0.8046199100808874 0.21109019870844273 0.14413270646745571 -0.22380306820996171 -0.45848472370142745 -1.6435354832484557 2.1808758845884753 -0.17614130045163126 1.3665059795775323 1.6399562824785916 -1.8542465065024258 -0.07803497194973831 -1.1935793298706396 0.2670965290311913 1.033606427974475
decision_type=2 2 2 2 2 2 2 2 2 2 2 2 2 2 2 2 2 2 2 2 2 2 2 2 2 2 2 2 2 2
left_child=1 5 -2 4 -3 19 7 8 -7 10 14 12 13 -12 15 17 -15 18 -8 20 -1 22 23 25 -25 -22 27 -21 -29 -27
right_child=2 3 -4 -5 -6 6 9 -9 -10 -11 11 -13 -14 16 -16 -17 -18 -19 -20 26 21 -23 -24 24 -26 29 -28 28 -30 -31
leaf_value=-0.0031398596463428352 -0.0028958804233361292 -0.00039073713919483903 0.00081171324359868629 0.0014905687888651592 -0.008008684177889306 0.0084736716380277577 0.017262422789764753 0.014763924745576718 -0.0024108868765830987 -0.0047557271791958001 0.017120172966201351 -0.0023776364238255886 0.043931878859899479 -0.0006017054723121009 0.0035637871163764173 -0.011910908321032717 0.009569983157102304 -0.0038384729502476678 -0.00089583745850730419 -0.0068411382847171319 -0.0057986490949475849 0.017592147759789102 -0.0028528551313315004 -0.0092075521898056772 0.0071906216815986459 0.00060391367158309499 -0.0029380930394034871 0.0020292816739998945 -0.0068673085465150736 0.006802583579135278
leaf_weight=17621 4797 4108 185196 6615 252 212 68 108 375 1478 159 596 21 443 600 266 272 3224 1831 2694 514 84 7013 614 122 5888 12968 646 323 396
leaf_count=17621 4797 4108 185196 6615 252 212 68 108 375 1478 159 596 21 443 600 266 272 3224 1831 2694 514 84 7013 614 122 5888 12968 646 323 396
internal_value=0 -0.0248075 0.00881881 0.00697877 -0.0102058 -0.0307672 -0.0176199 0.0439426 0.0186687 -0.0223961 -0.0152813 0.0375923 0.0820702 0.071079 -0.0284445 -0.0364843 0.0401309 -0.0307837 -0.00301639 -0.0333634 -0.0286965 -0.0168177 -0.0181624 -0.0024565 -0.0796941 0.00590579 -0.0424138 -0.0648307 -0.0114978 0.0122136
internal_weight=0 69511 189993 10975 4360 58536 9653 695 587 8958 7480 1491 895 874 5989 5389 715 5123 1899 48883 32252 14631 14547 7534 736 6798 16631 3663 969 6284
internal_count=259504 69511 189993 10975 4360 58536 9653 695 587 8958 7480 1491 895 874 5989 5389 715 5123 1899 48883 32252 14631 14547 7534 736 6798 16631 3663 969 6284
shrinkage=0.0814286


Tree=13
num_leaves=31
num_cat=0
split_feature=1 5 5 7 4 5 4 0 4 12 7 7 5 3 7 5 11 5 7 4 11 12 12 7 7 7 7 4 7 3
split_gain=25.0665 5.73592 5.00734 1.77453 4.33702 2.22993 1.97627 2.36035 2.18984 2.07038 4.41549 1.60719 3.48427 2.15688 2.14912 1.87132 1.57656 2.83598 5.43742 2.68899 2.56102 1.92481 1.89349 1.71537 1.84872 1.51617 1.51184 1.57248 1.84462 1.82448
threshold=1.0000000180025095e-35 0.64411571833223247 -0.9345828744518847 -1.5239129181865327 -0.86391233922060384 -1.0168067594927239 -0.54385552630868583 1.0000000180025095e-35 2.6225642817675907 0.10887837397994353 -1.1109959327916663 -0.2851619620019335 -1.2561696248338345 0.2670965290311913 1.4490893766565056 -1.5582662691320297 1.0000000180025095e-35 1.0000000180025095e-35 -0.53291215323885333 -1.228495884472778 -0.027505817407728627 -0.34592488344635891 0.18690657382432904 -1.6064963152655058 -1.5239129181865327 -1.8542465065024258 -1.5239129181865327 -0.92718716938833656 -1.7716631094234525 -1.0342734327477614
decision_type=2 2 2 2 2 2 2 2 2 2 2 2 2 2 2 2 2 2 2 2 2 2 2 2 2 2 2 2 2 2
left_child=1 -1 3 4 -2 -6 11 8 9 10 -8 12 -5 14 -13 -15 19 18 21 -4 23 -18 -23 -21 -25 -3 27 -27 -29 -30
right_child=2 25 16 6 5 -7 7 -9 -10 -11 -12 13 -14 15 -16 -17 17 -19 -20 20 -22 22 -24 24 -26 26 -28 28 29 -31
leaf_value=-0.002634393461310466 0.0022482234645985798 0.024910393720980237 0.02667579519381524 -0.0029448485630158604 -0.023545934859011332 0.0062298665030929394 -0.029611285526235997 0.0021254493855986543 0.034809947666745965 -0.012883898400892954 0.030605907767228598 -0.0058169183706318654 0.0075672080933768529 -0.0028186799297015741 -0.01924655967950745 0.0088956824775634786 0.0057473181727137551 0.00090311620550907528 0.00029961002041284119 0.0053421738944805933 0.0047164577546545145 -0.0091003523529838964 -0.0032632634045300216 -0.0047504060818458959 0.001105377207979444 0.007418120543302909 0.0012761872437003037 0.00126233167487187 -0.01209057696092905 -0.002064781064344537
leaf_weight=58536 322 43 70 2110 276 50 32 3421 20 408 57 1916 709 2016 224 259 255 58620 12837 1593 3447 1705 2072 916 96658 240 8693 774 582 643
leaf_count=58536 322 43 70 2110 276 50 32 3421 20 408 57 1916 709 2016 224 259 255 58620 12837 1593 3447 1705 2072 916 96658 240 8693 774 582 643
internal_value=0 -0.016373 0.00582041 -0.0141114 -0.0649872 -0.146294 -0.0111605 0.00686592 -0.056111 -0.0691666 0.069025 -0.0209736 -0.00232005 -0.032884 -0.0556733 -0.011447 0.00714269 0.00367338 -0.00775246 0.00969318 0.00955953 -0.0397874 -0.0454645 0.00862812 0.0080967 0.00460599 0.00386884 -0.0193031 -0.0284856 -0.0526318
internal_weight=0 69511 189993 11820 648 326 11172 3938 517 497 89 7234 2819 4415 2140 2275 178173 75489 16869 102684 102614 4032 3777 99167 97574 10975 10932 2239 1999 1225
internal_count=259504 69511 189993 11820 648 326 11172 3938 517 497 89 7234 2819 4415 2140 2275 178173 75489 16869 102684 102614 4032 3777 99167 97574 10975 10932 2239 1999 1225
shrinkage=0.129732


Tree=14
num_leaves=31
num_cat=0
split_feature=1 5 5 12 7 3 2 12 7 3 12 5 7 5 7 7 5 5 12 3 2 7 7 5 3 7 5 11 5 3
split_gain=10.919 3.05926 2.1812 1.0035 1.1694 1.17822 3.45192 1.22828 1.12818 1.8063 1.4125 1.56079 1.15941 2.23236 1.04617 1.27652 0.954704 0.840225 0.8277 0.792115 1.33228 0.772987 0.739226 1.41118 1.4039 0.735069 0.896449 0.73353 2.10705 3.54907
threshold=1.0000000180025095e-35 -0.58619722820477238 -0.9345828744518847 0.41268261504072229 -0.45032875615988011 -1.1873757811923442 1.0000000180025095e-35 -0.046094300710988786 -1.7716631094234525 -1.0342734327477614 -0.44707254991130313 0.64411571833223247 -1.8542465065024258 -0.22380306820996171 0.37550521462985276 -1.1935793298706396 -0.035601731338706998 0.30060259860605892 0.34043428185147645 -1.1873757811923442 1.0000000180025095e-35 -1.5239129181865327 1.862006362051372 -1.5582662691320297 -0.42186403896943075 0.87100559710369252 0.64411571833223247 0.17461080076031019 -0.47656538148365329 1.4919153165878531
decision_type=2 2 2 2 2 2 2 2 2 2 2 2 2 2 2 2 2 2 2 2 2 2 2 2 2 2 2 2 2 2
left_child=1 -1 21 4 8 6 -6 25 12 18 16 -12 17 -14 15 -5 -11 -3 -10 20 -17 -2 -23 -24 -25 26 -8 -4 29 -29
right_child=2 3 27 14 5 -7 7 -9 9 10 11 -13 13 -15 -16 19 -18 -19 -20 -21 -22 22 23 24 -26 -27 -28 28 -30 -31
leaf_value=-0.00094266565409499765 -0.0026748607629319158 -0.0010064741630124436 0.00039276755176054353 -0.0010466042921205162 0.012549498162763123 0.00080439070803433796 0.013776431858556697 -0.0034814341131034613 -0.0021852429139865453 -0.0023921864042229773 0.0082713666771431389 0.0010321584325460606 0.019540554687970228 0.0017693454137207244 -0.0019945249391255943 0.01002404172805477 -1.3801233194058985e-05 0.010583107098637433 -0.014366482057803826 0.00043176537649389799 0.0005824339696590135 -0.00039246024634289505 -0.00080963959518949775 -0.0041781970900463764 -0.024001348008659568 -0.0034040663830677527 0.0029756721656487789 -0.001428685570389188 0.00028419516889728472 0.0010067025276520676
leaf_weight=48883 648 906 110711 3337 135 3437 43 149 1562 900 126 1435 28 1512 1641 93 2425 25 22 2560 155 10981 134 33 24 39 98 7428 56645 3389
leaf_count=48883 648 906 110711 3337 135 3437 43 149 1562 900 126 1435 28 1512 1641 93 2425 25 22 2560 155 10981 134 33 24 39 98 7428 56645 3389
internal_value=0 -0.0108062 0.00384147 -0.00059368 0.00483721 0.0192839 0.0665833 0.0113323 -0.00146597 -0.0084079 0.00110566 0.0259205 0.0167106 0.0335527 -0.00955123 -0.00356108 -0.0105443 -0.0111486 -0.0377534 0.012151 0.0661132 -0.00931353 -0.00736593 -0.0690435 -0.200836 0.0669236 0.100532 0.00471417 0.00211489 -0.0106741
internal_weight=0 69511 189993 20628 12842 3901 464 329 8941 6470 4886 1561 2471 1540 7786 6145 3325 931 1584 2808 248 11820 11172 191 57 180 141 178173 67462 10817
internal_count=259504 69511 189993 20628 12842 3901 464 329 8941 6470 4886 1561 2471 1540 7786 6145 3325 931 1584 2808 248 11820 11172 191 57 180 141 178173 67462 10817
shrinkage=0.0623633


Tree=15
num_leaves=31
num_cat=0
split_feature=5 12 1 15 3 2 0 15 4 5 5 4 5 6 11 1 4 5 4 15 4 4 5 11 3 14 4 3 4 0
split_gain=4.99182 2.00789 3.15261 1.52358 1.11322 4.25484 5.19868 1.67997 1.47176 1.74534 1.24959 1.30739 1.1727 1.2696 1.14248 1.58338 1.33126 2.6075 1.6707 1.18204 3.68905 3.86822 2.48983 1.89926 1.46527 1.43007 1.38716 2.41679 1.25163 1.17659
threshold=-1.2561696248338345 -0.10244800059860053 1.0000000180025095e-35 -1.4911571209298773 -1.1873757811923442 1.0000000180025095e-35 1.0000000180025095e-35 -0.89923511123984945 -1.0031839230818569 -0.75673565643762475 -0.47656538148365329 0.043361680644770209 0.17269877743141973 1.0000000180025095e-35 1.4378396643105529 1.0000000180025095e-35 -0.91044779632808981 0.64411571833223247 -1.1782777652920378 0.53224974892889121 -0.79327218490636253 -1.1548426430076921 -0.22380306820996171 0.22513995530231987 2.0277735361438927 1.4451854321189044 -0.093901178449253178 0.11399418058660855 -1.1280596461112975 1.0000000180025095e-35
decision_type=2 2 2 2 2 2 2 2 2 2 2 2 2 2 2 2 2 2 2 2 2 2 2 2 2 2 2 2 2 2
left_child=-1 3 -3 -2 5 6 10 8 9 -7 11 -5 13 -12 19 16 17 18 -16 -6 21 23 24 -21 25 -23 27 -22 -24 -28
right_child=1 2 -4 4 14 7 -8 -9 -10 -11 12 -13 -14 -15 15 -17 -18 -19 -20 20 26 22 28 -25 -26 -27 29 -29 -30 -31
leaf_value=-0.00094588183522036008 -0.0017992426928323995 -0.00077863843163407734 0.00016423551415252542 0.0065936139030535659 0.00041789773371349672 0.025110094684079948 0.0012475845072058027 0.00033050141658332542 -0.003424320595795294 -0.0046987159719700531 0.012694941202772828 2.6847869604330584e-05 -0.0017953941871402237 -0.0012162210813310048 -0.0016511369736176384 0.00082022945161218277 0.0010097362822515503 0.0003348141247193071 0.014251442993208581 0.0090684306572389999 -0.0025157078459415532 -0.0070155790235063731 -0.013509348378756133 -0.0095496467624302337 0.0048926496778305762 -0.0017015849074113972 0.0032366429251359141 8.2996889231833895e-05 0.0010075225746980841 0.00037464996753151428
leaf_weight=26175 1861 28102 73128 748 80873 23 4004 5232 1096 22 355 226 44 42 45 4011 369 195 237 206 2728 1255 36 37 77 377 861 8227 612 18300
leaf_count=26175 1861 28102 73128 748 80873 23 4004 5232 1096 22 355 226 44 42 45 4011 369 195 237 206 2728 1255 36 37 77 377 861 8227 612 18300
internal_value=0 0.00206226 -0.00128879 0.00463023 0.0050362 0.0143021 0.0349018 -0.0032139 -0.0379811 0.139264 0.0870039 0.0670079 0.131168 0.148335 0.00411372 0.0191329 0.0584471 0.0933371 0.154819 0.00347151 -0.00160038 -0.0377405 -0.0501254 0.0823879 -0.0701388 -0.076499 0.0015197 -0.00745597 0.00265697 0.00665139
internal_weight=0 233329 101230 132099 130238 11792 5419 6373 1141 45 1415 974 441 397 118446 4857 846 477 282 113589 32716 2600 2357 243 1709 1632 30116 10955 648 19161
internal_count=259504 233329 101230 132099 130238 11792 5419 6373 1141 45 1415 974 441 397 118446 4857 846 477 282 113589 32716 2600 2357 243 1709 1632 30116 10955 648 19161
shrinkage=0.0756614


Tree=16
num_leaves=31
num_cat=0
split_feature=5 12 5 4 0 7 1 3 5 2 5 1 4 4 7 4 5 7 4 13 12 3 5 5 0 4 5 3 2 3
split_gain=2.23284 1.04945 1.77903 1.4145 1.58953 1.27298 1.04832 1.012 1.27537 1.18447 1.94883 1.8097 1.71757 1.46357 1.01032 5.38999 3.8373 2.57235 2.6495 2.21673 2.27322 1.90556 2.60876 1.62746 1.5577 2.44476 1.98619 1.96988 1.5586 1.39996
threshold=-1.7312409606253512 -0.028754700745569791 0.64411571833223247 -0.6466352768986009 1.0000000180025095e-35 -0.78066234447577321 1.0000000180025095e-35 -1.1873757811923442 -0.22380306820996171 1.0000000180025095e-35 -0.75673565643762475 1.0000000180025095e-35 -0.2944388677110093 -0.54787297584314509 -1.1109959327916663 -0.85353392792325089 -0.58619722820477238 -1.5239129181865327 0.10395821112286348 1.0000000180025095e-35 -0.20142821706786732 -0.72806873585859611 -0.75673565643762475 -0.75673565643762475 1.0000000180025095e-35 -1.027623407749817 -0.22380306820996171 -1.1873757811923442 1.0000000180025095e-35 1.1857106196986875
decision_type=2 2 2 2 2 2 2 2 2 2 2 2 2 2 2 2 2 2 2 2 2 2 2 2 2 2 2 2 2 2
left_child=-1 14 3 6 5 -5 -3 8 9 10 -7 -11 13 -13 15 23 17 -17 19 20 21 22 -19 -2 27 26 29 28 -16 -26
right_child=1 2 -4 4 -6 7 -8 -9 -10 11 -12 12 -14 -15 24 16 -18 18 -20 -21 -22 -23 -24 -25 25 -27 -28 -29 -30 -31
leaf_value=-0.0010194440599743915 0.0078061654623807833 -0.0031284669388352854 0.00027490015190318151 4.5549875005147061e-05 0.00057266930821645305 -0.0035216829759841519 -0.016872681046855364 -0.0019072022679227335 0.0020541924579929832 -0.0023840240882292479 0.0048722625485273984 -0.003621228735535427 -0.0064289098989131661 -0.038939119394969385 0.0079041828079559305 -0.0051342266111282743 0.00011447206732686594 -0.0025144749092416941 -0.0080180333614962556 -0.0049438491123996661 0.019114926084955821 -0.0026348684213155257 0.0079435302818489407 0.0022785610109107299 -0.014175018641857424 0.00033014968870385633 0.0013921946363154053 0.00098176888015073511 0.0017810466010113634 0.00020239544494303721
leaf_weight=22709 857 181 56419 9460 10264 773 114 17106 2043 736 635 21 119 50 966 3793 12886 474 562 744 95 887 822 3099 349 91246 275 20561 1145 113
leaf_count=22709 857 181 56419 9460 10264 773 114 17106 2043 736 635 21 119 50 966 3793 12886 474 562 744 95 887 822 3099 349 91246 275 20561 1145 113
internal_value=0 0.00129995 -0.00120712 -0.00617684 -0.00568288 -0.00925994 -0.0751757 -0.0135162 5.2213e-05 -0.0159181 0.00235098 -0.0436966 -0.130705 -0.253795 0.0030677 -0.00280093 -0.00939254 -0.0275803 -0.00837009 0.00335508 0.0188332 0.0122433 0.0366857 0.030962 0.00430735 0.00247741 -0.0548863 0.0117316 0.0408222 -0.0949381
internal_weight=0 236795 97921 41502 41207 30943 295 21483 4377 2334 1408 926 190 71 138874 24219 20263 7377 3584 3022 2278 2183 1296 3956 114655 91983 737 22672 2111 462
internal_count=259504 236795 97921 41502 41207 30943 295 21483 4377 2334 1408 926 190 71 138874 24219 20263 7377 3584 3022 2278 2183 1296 3956 114655 91983 737 22672 2111 462
shrinkage=0.112268


Tree=17
num_leaves=31
num_cat=0
split_feature=5 14 13 7 7 4 4 3 4 5 7 3 1 7 7 4 3 3 5 4 4 8 11 7 7 4 5 4 1 7
split_gain=0.985513 0.977788 1.43201 2.4953 0.729934 2.68658 1.91372 1.62242 1.72916 1.25025 1.58355 1.143 2.39617 2.13875 1.14783 2.3282 2.16188 1.10406 0.873307 1.28981 1.28151 0.869424 0.874652 1.10592 0.857094 0.843039 0.83117 1.15475 0.829956 0.831504
threshold=-1.0168067594927239 0.58985381844973717 -0.13403014000238564 -1.4413295211075594 -1.028412535712693 -0.62587845430389499 -0.71526670644561263 -0.72806873585859611 -1.1782777652920378 -1.2561696248338345 1.3665059795775323 -0.88117108430317881 1.0000000180025095e-35 0.95358899418266574 0.95358899418266574 -0.32088707714619913 0.34364770325348265 -1.1108246069700527 -1.7312409606253512 -1.027623407749817 -1.094580899990804 1.0000000180025095e-35 1.0000000180025095e-35 -1.8542465065024258 -1.6890797123444792 -1.0544064046462116 -1.2561696248338345 -0.56092968683013755 1.0000000180025095e-35 0.37550521462985276
decision_type=2 2 2 2 2 2 2 2 2 2 2 2 2 2 2 2 2 2 2 2 2 2 2 2 2 2 2 2 2 2
left_child=1 2 4 -4 5 18 7 8 -6 -9 -11 12 13 26 -13 16 -16 -10 -1 20 -20 22 23 -7 25 -22 27 -8 -19 -30
right_child=-2 -3 3 -5 6 21 11 9 17 10 -12 14 -14 -15 15 -17 -18 28 19 -21 24 -23 -24 -25 -26 -27 -28 -29 29 -31
leaf_value=-0.00066405296249556528 0.0001489752992548122 -0.0015322647962233789 0.00055275936737309668 0.013147274421161773 0.000432632841859842 0.00054328483623620485 -0.01083155833490634 -0.0003709130319418494 -0.0052768065243179989 0.014356863006174355 -0.011039167119493548 0.0026773481317853621 0.0036572793201605893 -0.0018353983249743511 -0.020689702982240259 0.005029558505322506 0.012195654845959388 -0.00962658084832607 0.003973388215524648 0.00082124389262271916 0.046117887690616303 -0.025264538874111803 0.0012344390324085714 -0.0078392717683579624 0.011426202556899851 0.010606495194571392 0.038106398589655664 0.034305705743050016 -0.0014926894736179519 -0.029457990139719517
leaf_weight=5010 222363 14699 1119 436 578 391 20 6833 436 233 62 1106 1926 61 214 224 49 169 205 971 40 43 377 1592 72 20 88 26 26 115
leaf_count=5010 222363 14699 1119 436 578 391 20 6833 436 233 62 1106 1926 61 214 224 49 169 205 971 40 43 377 1592 72 20 88 26 26 115
internal_value=0 -0.00450987 -0.000357377 0.0289189 -0.00253694 -0.00951918 0.00246816 -0.00584576 -0.0379928 0.000125437 0.0638651 0.0213883 0.0365916 0.142225 0.00114574 -0.0393067 -0.103117 -0.0698031 0.00130522 0.0243148 0.077618 -0.0379788 -0.0354113 -0.0438053 0.154467 0.242738 0.212885 0.103953 -0.115427 -0.172074
internal_weight=0 37141 22442 1555 20887 8721 12166 8452 1324 7128 295 3714 2121 195 1593 487 263 746 6318 1308 337 2403 2360 1983 132 60 134 46 310 141
internal_count=259504 37141 22442 1555 20887 8721 12166 8452 1324 7128 295 3714 2121 195 1593 487 263 746 6318 1308 337 2403 2360 1983 132 60 134 46 310 141
shrinkage=0.141226


Tree=18
num_leaves=31
num_cat=0
split_feature=5 3 7 2 7 3 7 5 13 5 1 7 4 14 5 13 12 7 7 4 5 12 12 4 12 1 7 12 9 7
split_gain=0.565041 0.724976 1.14244 0.934081 1.35778 1.07766 1.98818 2.27297 1.28071 1.1924 1.88739 2.60937 2.39785 1.74898 1.00228 0.826448 1.03354 1.05343 0.838585 0.799769 0.798627 1.19796 1.0274 1.02183 1.02526 0.975189 0.770213 0.738425 0.704109 1.10029
threshold=0.30060259860605892 -1.1108246069700527 -1.6890797123444792 1.0000000180025095e-35 -1.8542465065024258 -1.1873757811923442 -1.7716631094234525 -1.0168067594927239 0.57304993176947017 -0.9345828744518847 1.0000000180025095e-35 -0.20257856492296028 -0.72631469266537552 -0.040390528464386219 0.17269877743141973 0.11046120112108512 -0.45429738323022767 -1.6064963152655058 -0.36774535908090683 -0.24154244884062956 -0.40835001019051248 0.26818594866223061 -0.075716117318579565 -0.89370842326784306 -0.10244800059860053 1.0000000180025095e-35 -1.6890797123444792 1.5505938627713443 1.0000000180025095e-35 1.2013391854195858
decision_type=2 2 2 2 2 2 2 2 2 2 2 2 2 2 2 2 2 2 2 2 2 2 2 2 2 2 2 2 2 2
left_child=1 3 19 4 14 6 7 -6 15 -8 12 -12 13 -11 -1 28 26 -18 -19 20 21 23 -22 -3 -25 -24 -17 -5 -7 -30
right_child=-2 2 -4 27 5 8 9 -9 -10 10 11 -13 -14 -15 -16 16 17 18 -20 -21 22 -23 25 24 -26 -27 -28 -29 29 -31
leaf_value=-0.0012732687076738656 0.00019118957297171359 0.00054853086038097933 -0.00024778076666243727 -0.0011697072988076812 -0.0029492878166409824 0.0005829924569072816 -0.00021499578108077671 0.020823547536284188 -0.0022305107730737849 0.003414092763511031 0.0076126237128678487 0.00072982118534982497 0.0053182085458540569 0.039265326019101564 -0.026812175678951885 0.0068178617108837899 -0.00031376949094941793 0.01686774153175833 0.0054578392179999895 -0.0050326736684083813 0.010408008285168737 0.020203854886368111 -0.014134227401242903 -0.011289138460949448 0.0010489738710274588 0.010502844508692464 -0.016858957479910251 0.0036411742893270272 -0.0075556932746281107 0.020201769074500091
leaf_weight=3589 130272 484 95069 6588 85 5760 3504 153 2376 29 861 5720 1027 51 21 28 422 100 701 1157 168 31 58 284 135 35 56 464 255 21
leaf_count=3589 130272 484 95069 6588 85 5760 3504 153 2376 29 861 5720 1027 51 21 28 422 100 701 1157 168 31 58 284 135 35 56 464 255 21
internal_value=0 -0.00131096 -0.0026644 0.00283394 0.00572591 0.00878545 0.0153678 0.10581 0.00104426 0.0134446 0.0204129 0.0139868 0.0586158 0.22537 -0.0121982 0.00757408 0.0303727 0.0377424 0.0590449 -0.024436 -0.00629146 -0.0199573 0.0426122 -0.0265929 -0.0627473 -0.0417141 -0.0769273 -0.00731952 0.00263741 -0.0467029
internal_weight=0 129232 97421 31811 24759 21149 11430 238 9719 11192 7688 6581 1107 80 3610 7343 1307 1223 801 2352 1195 934 261 903 419 93 84 7052 6036 276
internal_count=259504 129232 97421 31811 24759 21149 11430 238 9719 11192 7688 6581 1107 80 3610 7343 1307 1223 801 2352 1195 934 261 903 419 93 84 7052 6036 276
shrinkage=0.11656


Tree=19
num_leaves=31
num_cat=0
split_feature=12 4 5 3 5 5 5 12 3 7 1 4 3 7 7 4 3 7 3 4 4 3 1 3 7 0 4 7 4 3
split_gain=0.330624 0.550947 0.469674 0.814879 1.77404 2.09464 1.48261 2.49247 1.46704 1.58964 1.36736 1.34628 2.55373 1.18635 2.73162 2.30824 1.16395 1.1485 1.05602 0.924953 0.854589 0.851747 0.827763 1.70206 2.07647 1.81749 2.16136 1.96837 1.89278 1.40455
threshold=-0.026226009083946188 -0.6466352768986009 0.64411571833223247 -0.65151756163630481 -0.22380306820996171 -1.0168067594927239 -0.40835001019051248 1.0351020054660751 -1.2639269554146353 -0.78066234447577321 1.0000000180025095e-35 1.4601822164640559 -0.26876169052484811 -0.11999516784398702 -1.2761627269496127 -0.023261024135011878 1.9512223619216009 0.29292181755087948 -1.0342734327477614 -0.44710195002045966 1.031319478660534 0.2670965290311913 1.0000000180025095e-35 0.19054535480889992 1.6142561708144523 1.0000000180025095e-35 -0.32088707714619913 0.045171626313959559 -0.35436582326669264 1.5684664908101442
decision_type=2 2 2 2 2 2 2 2 2 2 2 2 2 2 2 2 2 2 2 2 2 2 2 2 2 2 2 2 2 2
left_child=-1 -2 3 4 5 -3 11 17 9 -7 -10 16 -13 14 15 -12 22 -8 -16 -20 -11 -9 -5 -24 25 26 28 -28 -25 -29
right_child=1 2 -4 6 -6 8 7 21 10 20 13 12 -14 -15 18 -17 -18 -19 19 -21 -22 -23 23 24 -26 -27 27 29 -30 -31
leaf_value=0.00012817951436118705 -0.0052946222289221422 -0.0011347909155426318 8.9547221581255529e-05 -0.0012557412792469299 -0.0010273734447542738 0.010798106790498802 0.012680629976924441 -0.0047964800581159588 0.0014798692101669559 -0.0052075554228231402 -0.0015527437591285082 0.033278095257674556 0.0020642374328722637 0.0037932423077482414 0.01303828667353441 0.014885237969948279 0.0026404086613658387 0.003470571557908433 0.010030939670427568 0.038456584215127189 0.0096401837555549728 0.0093022371116246467 -0.0057821511716994812 -0.00064569741565068887 -0.032884132184138562 0.0015896267497174982 -3.8597223636447824e-05 -0.019275708193329674 0.029261476725453883 -0.0037169276838984492
leaf_weight=161040 347 3874 56302 10260 12077 140 350 638 2960 791 344 47 581 2018 99 241 977 627 25 79 70 80 2410 461 34 1903 239 313 38 139
leaf_count=161040 347 3874 56302 10260 12077 140 350 638 2960 791 344 47 581 2018 99 241 977 627 25 79 70 80 2410 461 34 1903 239 313 38 139
internal_value=0 -0.00133095 -0.00119028 -0.00372904 0.000318381 0.00973262 -0.00854389 0.0196883 0.0203482 -0.0149898 0.0264831 -0.0112938 0.0341637 0.0422994 0.0752042 0.0405212 -0.0129957 0.0525618 0.175153 0.245523 -0.0310591 -0.0250433 -0.0150673 -0.024921 -0.00952904 -0.00682727 -0.0374816 -0.0736977 0.0126692 -0.112508
internal_weight=0 98464 98117 41815 22718 10641 19097 1695 6767 1001 5766 17402 628 2806 788 585 16774 977 203 104 861 718 15797 5537 3127 3093 1190 691 499 452
internal_count=259504 98464 98117 41815 22718 10641 19097 1695 6767 1001 5766 17402 628 2806 788 585 16774 977 203 104 861 718 15797 5537 3127 3093 1190 691 499 452
shrinkage=0.1288


Tree=20
num_leaves=31
num_cat=0
split_feature=1 5 5 14 7 5 11 7 5 5 4 7 4 12 4 4 0 7 4 0 13 5 4 4 14 7 3 3 7 7
split_gain=58.7279 16.7295 9.61651 1.36543 1.51427 1.23183 2.52284 4.87496 2.32739 2.54086 3.62996 1.71096 2.3107 1.80522 1.76528 1.47656 2.78923 1.44265 1.37536 5.10307 6.0289 5.06381 4.40258 2.85227 2.40918 1.9153 3.61194 1.95205 1.65886 1.54586
threshold=1.0000000180025095e-35 0.38830807598295419 -1.7312409606253512 -0.13042543516640381 -1.1935793298706396 0.30060259860605892 0.37672741892834899 -0.61549555031782666 -0.75673565643762475 -0.40835001019051248 -0.62956111637714918 -1.1935793298706396 -0.66370943742005262 -0.056931550689375658 -0.84349030408710279 0.033318056808622161 1.0000000180025095e-35 0.045171626313959559 -0.68078359794150434 1.0000000180025095e-35 -0.13403014000238564 -0.22380306820996171 -1.0031839230818569 -1.228495884472778 0.13967928493964901 1.6142561708144523 1.8746711876993098 -0.65151756163630481 -1.1935793298706396 1.7794229649723987
decision_type=2 2 2 2 2 2 2 2 2 2 2 2 2 2 2 2 2 2 2 2 2 2 2 2 2 2 2 2 2 2
left_child=1 -1 -2 -3 -5 6 18 8 -8 10 11 14 13 -13 -10 -9 -17 -18 19 20 -4 22 23 -21 25 27 -27 -24 -20 -28
right_child=2 3 5 4 -6 -7 7 15 9 -11 -12 12 -14 -15 -16 16 17 -19 28 21 -22 -23 24 -25 -26 26 29 -29 -30 -31
leaf_value=-0.00156065221237577 -0.0017374751302100503 0.0012673256426285623 0.0051202043575666375 -0.0010900495346023715 0.00055316273043139869 0.00059841896799896752 0.0028962844447000041 0.00054795649173507632 0.0034932282655854448 0.0016423606533987358 -0.0047272686467098365 0.00024667665424945077 0.011416215211794898 -0.014155823775955282 -0.012095767551564341 -0.0030953035108861405 -0.0026537732020229551 0.0015778706330812659 -0.00027470092220638478 0.010190460702038981 -0.00027774239851738184 -0.0078487016839673511 -0.0019206823328498065 -0.0060199258088148638 0.0030753912280469834 -0.013315185854131691 0.0055450364855917748 0.00040130932183720947 0.00067510167893337642 -0.0069821764291194965
leaf_weight=58361 4772 3957 855 1846 5209 119347 199 7017 26 293 1378 548 44 22 55 857 252 878 5004 28 1221 245 1268 456 504 80 62 2875 41806 39
leaf_count=58361 4772 3957 855 1846 5209 119347 199 7017 26 293 1378 548 44 22 55 857 252 878 5004 28 1221 245 1268 456 504 80 62 2875 41806 39
internal_value=0 -0.0249114 0.00908027 0.0108385 0.00249909 0.0102214 0.00675511 -0.00665575 -0.045116 -0.0538519 -0.0661721 -0.00724926 0.010772 -0.00627214 -0.143855 0.00430054 -0.0197644 0.0128639 0.00960488 -0.00284196 0.0394614 -0.0186458 -0.0121628 -0.103088 -0.00304767 -0.0106741 -0.111366 -0.00627511 0.0116345 0.0143572
internal_weight=0 69373 190131 11012 7055 185359 66012 11569 2565 2366 2073 695 614 570 81 9004 1987 1130 54443 7633 2076 5557 5312 484 4828 4324 181 4143 46810 101
internal_count=259504 69373 190131 11012 7055 185359 66012 11569 2565 2366 2073 695 614 570 81 9004 1987 1130 54443 7633 2076 5557 5312 484 4828 4324 181 4143 46810 101
shrinkage=0.0492988


Tree=21
num_leaves=31
num_cat=0
split_feature=1 5 14 7 12 12 5 7 12 7 7 5 5 12 12 5 0 8 11 5 5 14 12 12 12 12 12 12 5 12
split_gain=3.45219 1.31273 1.27468 1.54231 1.13553 1.44717 0.726158 0.704825 1.51496 0.982737 0.935986 1.22933 0.998718 3.77602 0.936688 2.5501 2.34505 1.06272 0.886196 0.796906 0.668646 0.639164 1.64664 1.90368 0.74327 1.44931 0.697563 1.07844 0.919429 0.958765
threshold=1.0000000180025095e-35 -0.035601731338706998 -0.085407981815395023 -1.6890797123444792 1.6589663625552129 1.8771563287867354 0.64411571833223247 -1.6064963152655058 1.8771563287867354 -1.6890797123444792 -1.1109959327916663 0.30060259860605892 -0.22380306820996171 0.45856030661589336 0.93648303066275462 -0.10868962915278658 1.0000000180025095e-35 1.0000000180025095e-35 0.37672741892834899 -0.75673565643762475 0.64411571833223247 0.13967928493964901 0.15981344887836188 -0.0099701341163658756 -0.064156384008300246 -0.14868693383971784 0.28624803195954213 -0.20973677538463056 -0.75673565643762475 -0.0251422840861075
decision_type=2 2 2 2 2 2 2 2 2 2 2 2 2 2 2 2 2 2 2 2 2 2 2 2 2 2 2 2 2 2
left_child=1 -1 -3 4 -4 -6 -7 8 -2 20 11 12 13 18 17 16 -16 -14 21 -20 -10 26 23 24 25 -23 27 -9 29 -29
right_child=7 2 3 -5 5 6 -8 10 9 -11 -12 -13 14 -15 15 -17 -18 -19 19 -21 -22 22 -24 -25 -26 -27 -28 28 -30 -31
leaf_value=-0.00082710547856210202 0.0021400168594325011 0.0014148635425471462 -0.0099770962794703665 -0.00023295568850893234 0.021305740316209205 -0.015045090800103406 0.0038445747716182119 -0.0010667743686348058 -0.029358389504059629 -0.00094125164621948563 0.0002592774784207469 0.00020459064245371712 -0.003390558537067833 0.0088599779724564415 -0.036794218912843249 -0.0024394585530931011 -0.0085653243665305794 0.0031208945437918153 0.0001098688805469067 -0.0082417523650370438 -0.0081033740166302232 0.00044766140002328015 -0.013008253311395469 0.02323528235768664 -0.014596937319951738 0.022232749678538284 0.011716782505701621 0.012623674458923486 -0.010929008432882281 -0.010742358856706756
leaf_weight=56014 3096 5742 289 7216 29 38 45 2851 29 72 170907 9282 1561 382 49 290 76 303 173 349 31 188 55 53 24 37 40 40 211 32
leaf_count=56014 3096 5742 289 7216 29 38 45 2851 29 72 170907 9282 1561 382 49 290 76 303 173 349 31 188 55 53 24 37 40 40 211 32
internal_value=0 -0.00609603 0.00281142 -0.00566971 -0.0660326 0.0194479 -0.0477429 0.0021453 0.0167959 -0.0881213 0.00189227 -0.0054225 -0.0157301 -0.00698721 -0.0327441 -0.07571 -0.195108 -0.0231782 -0.0159453 -0.0544036 -0.182641 -0.0102598 0.029857 0.05884 0.0222104 0.0400542 -0.014772 -0.0164469 -0.0753249 0.0222506
internal_weight=0 69373 13359 7617 401 112 83 190131 3228 132 186903 15996 6714 4435 2279 415 125 1864 4053 522 60 3531 357 302 249 225 3174 3134 283 72
internal_count=259504 69373 13359 7617 401 112 83 190131 3228 132 186903 15996 6714 4435 2279 415 125 1864 4053 522 60 3531 357 302 249 225 3174 3134 283 72
shrinkage=0.100616


Tree=22
num_leaves=31
num_cat=0
split_feature=5 1 4 13 4 12 7 13 7 4 5 4 5 4 7 7 13 12 5 2 7 7 4 4 5 12 12 5 7 4
split_gain=1.54349 0.837234 1.26139 0.948047 0.882769 0.917742 1.75705 2.94127 1.95758 6.03543 1.77355 1.76089 1.62691 1.20545 1.09915 1.07132 1.39033 1.69887 1.04766 1.03176 0.855931 0.823812 1.20472 0.977288 0.796124 0.78971 0.740116 0.985379 0.991389 0.736595
threshold=-1.7312409606253512 1.0000000180025095e-35 -1.228495884472778 -0.13403014000238564 -0.39152723146044044 -0.2928223585522633 0.21033842047190615 0.22715025029365069 -1.5239129181865327 -0.89370842326784306 0.64411571833223247 -0.91044779632808981 0.64411571833223247 -0.44107577571877082 -1.8542465065024258 -1.7716631094234525 0.22715025029365069 -0.47958429984646372 1.0000000180025095e-35 1.0000000180025095e-35 -1.3587461240285861 1.0361723912616392 -0.92718716938833656 -0.96066591550883007 -0.035601731338706998 -0.42792674161615296 -0.56086367468436527 -0.75673565643762475 -1.6890797123444792 -1.1782777652920378
decision_type=2 2 2 2 2 2 2 2 2 2 2 2 2 2 2 2 2 2 2 2 2 2 2 2 2 2 2 2 2 2
left_child=-1 2 3 -2 5 6 8 18 11 20 19 14 -11 -13 -4 16 17 -16 29 21 -10 -9 23 -23 -6 -22 -17 -28 -29 -8
right_child=1 -3 4 -5 24 -7 7 10 9 12 -12 13 -14 -15 15 26 -18 -19 -20 -21 25 22 -24 -25 -26 -27 27 28 -30 -31
leaf_value=-0.00088270920708276421 0.019621643901750696 0.0001903239091104892 -0.0046682004273091949 0.0018192714230373911 -0.0011404555029902821 -0.0004708654440723491 0.0067079869977260927 0.0023582394569441295 0.0047210710885500513 0.010027511387531642 -0.0023472554556766565 -0.0040768738253855732 0.0032523605741746273 0.0058937714360310827 0.010979163807475417 -0.0016841971834391191 -0.0005003142213271456 0.039620971199897229 0.0022599271503451553 0.031097687506798772 -0.0026217590655094191 0.011814739979233404 -0.014254451471444702 0.035560306895263766 0.00012579937069178129 0.0026233733597420292 0.017461693898157337 -0.0096910462845104933 0.0081807348198103189 -0.0044749795520437115
leaf_weight=22683 68 185359 193 82 20147 12184 76 194 335 1375 264 1326 648 170 181 332 108 30 387 25 1500 210 20 24 8894 468 71 60 108 1982
leaf_count=22683 68 185359 193 82 20147 12184 76 194 335 1375 264 1326 648 170 181 332 108 30 387 25 1500 210 20 24 8894 468 71 60 108 1982
internal_value=0 0.000716601 -0.00285183 0.0887163 -0.00311951 0.00161691 0.00867203 -0.01077 0.0176314 0.0306319 0.0446061 -0.00417555 0.0704848 -0.0264081 0.0265353 0.0413706 0.0877888 0.135021 -0.0274622 0.0812549 -0.00437561 0.070222 0.107698 0.127833 -0.00675178 -0.0123296 0.0154383 0.0578711 0.0161287 -0.0364386
internal_weight=0 236821 51462 150 51312 22271 10087 3182 6905 4326 737 2579 2023 1496 1083 890 319 211 2445 473 2303 448 254 234 29041 1968 571 239 168 2058
internal_count=259504 236821 51462 150 51312 22271 10087 3182 6905 4326 737 2579 2023 1496 1083 890 319 211 2445 473 2303 448 254 234 29041 1968 571 239 168 2058
shrinkage=0.111475


Tree=23
num_leaves=31
num_cat=0
split_feature=5 7 3 7 13 12 7 5 13 12 7 14 3 5 3 7 12 7 1 2 7 3 5 12 12 12 12 3 0 12
split_gain=0.698278 0.503867 0.85843 1.34614 0.933114 0.701665 1.04004 1.19578 1.04731 0.960808 1.74207 0.876936 0.853036 0.671494 1.47182 1.0728 0.784978 0.732827 1.36539 3.15121 1.16812 2.70097 1.27767 1.28452 0.968118 1.12327 0.956483 0.877676 0.84794 0.784884
threshold=1.0000000180025095e-35 -1.1935793298706396 -0.8046199100808874 -1.4413295211075594 0.22715025029365069 0.033378865797181627 0.045171626313959559 -1.7312409606253512 1.0000000180025095e-35 1.5867180293659671 -1.028412535712693 0.85995853855578996 -1.1108246069700527 -0.47656538148365329 -0.19221051630255678 -0.78066234447577321 0.23206178206760766 0.37550521462985276 1.0000000180025095e-35 1.0000000180025095e-35 -0.78066234447577321 -0.57496638741401351 -0.75673565643762475 0.14175136558105042 0.7016759477977057 0.68361386450039419 0.56801653139760089 -0.19221051630255678 1.0000000180025095e-35 1.4060971963928526
decision_type=2 2 2 2 2 2 2 2 2 2 2 2 2 2 2 2 2 2 2 2 2 2 2 2 2 2 2 2 2 2
left_child=1 2 3 -1 -5 6 7 -3 12 13 -11 -9 -8 17 15 -15 -16 18 -7 20 21 26 -23 -24 25 -22 -20 -26 -21 -19
right_child=-2 5 -4 4 -6 9 8 11 -10 10 -12 -13 -14 14 16 -17 -18 29 19 28 24 22 23 -25 27 -27 -28 -29 -30 -31
leaf_value=-0.00064500207901209059 0.00018344065819532327 -0.00067562301300698956 -0.002082605318744509 0.0016164561305081193 0.0090889824607199663 -0.00091663640127923073 0.00057050151799069965 0.0010767937623767764 0.0012720394782356863 0.02030782292691647 0.00086353047439045633 0.0076065984666169604 -0.00082365011068691633 0.0088251503316835647 0.023856392271897862 -0.00055587283185423698 0.0055605991802466642 -5.4025376037073908e-05 0.0041707477474131685 -0.027636652796385185 -0.00057242744479177581 0.0067413865138811011 -0.020760834136736444 -0.0079291277552901735 0.0015425773949992254 0.025299442369210598 0.0324058124885356 -0.0076208134193568589 -0.010220381453129878 -0.0061953017487809655
leaf_weight=16511 138080 6878 5272 1245 306 7729 8395 19771 5663 69 3670 307 27858 185 38 5699 371 7444 45 94 1849 69 144 563 207 25 29 596 73 319
leaf_count=16511 138080 6878 5272 1245 306 7729 8395 19771 5663 69 3670 307 27858 185 38 5699 371 7444 45 94 1849 69 144 563 207 25 29 596 73 319
internal_value=0 -0.00177446 -0.00595107 -0.00267417 0.025493 -0.000780915 0.000961118 0.00580692 -0.0021552 -0.00488719 0.0100823 0.00970516 -0.0041308 -0.00708394 0.00187988 -0.00215214 0.0598858 -0.0100241 -0.0151189 -0.0309333 -0.0245779 -0.0568744 -0.0742819 -0.0869582 -0.0143231 -0.0018747 0.125669 -0.0433745 -0.165159 -0.00252713
internal_weight=0 121424 23334 18062 1551 98090 68872 26956 41916 29218 3739 20078 36253 25479 6293 5884 409 19186 11423 3694 3527 850 776 707 2677 1874 74 803 167 7763
internal_count=259504 121424 23334 18062 1551 98090 68872 26956 41916 29218 3739 20078 36253 25479 6293 5884 409 19186 11423 3694 3527 850 776 707 2677 1874 74 803 167 7763
shrinkage=0.121238


Tree=24
num_leaves=31
num_cat=0
split_feature=3 7 5 5 4 11 4 0 7 3 3 1 0 4 1 4 4 7 5 4 5 4 9 7 3 4 3 7 4 3
split_gain=0.315754 1.6613 1.13173 2.99675 2.54762 1.70909 0.484873 1.09817 0.54071 0.619162 0.423114 1.22273 0.408599 0.809259 0.475373 0.365122 0.900395 0.375921 0.318593 0.48357 0.51861 0.470335 0.954359 0.539046 1.68538 0.648474 1.42508 0.793893 0.586617 0.525999
threshold=1.721568839254727 1.4490893766565056 -0.22380306820996171 -1.0168067594927239 0.24456894482893624 -0.027505817407728627 -0.86391233922060384 1.0000000180025095e-35 1.6968395678934256 1.3388129681432701 0.95605709703181352 1.0000000180025095e-35 1.0000000180025095e-35 -0.23585106200014563 1.0000000180025095e-35 -0.20136795349603734 -0.25761224697846641 1.6142561708144523 -1.2561696248338345 -0.2780342821119674 0.64411571833223247 -1.1113202730510507 1.0000000180025095e-35 1.6142561708144523 2.0277735361438927 -0.68078359794150434 1.7981200134770183 1.7794229649723987 -1.0544064046462116 2.0277735361438927
decision_type=2 2 2 2 2 2 2 2 2 2 2 2 2 2 2 2 2 2 2 2 2 2 2 2 2 2 2 2 2 2
left_child=1 -1 3 -3 5 6 7 -5 15 -10 12 -12 14 -14 -7 16 17 -8 -2 20 21 22 29 -23 25 26 -25 -28 -26 -20
right_child=18 2 -4 4 -6 10 8 -9 9 -11 11 -13 13 -15 -16 -17 -18 -19 19 -21 -22 23 -24 24 28 -27 27 -29 -30 -31
leaf_value=1.3309527005525164e-05 -0.00035997446985044018 -0.00031875373176470001 -0.00049169669811520769 -0.013670803018383471 0.00075136648606511031 -0.0033282106624071763 -0.0097584938544117081 -0.039880794592479701 -0.029956010491473572 -0.012165511148708251 0.0016157127172803402 -0.030175298604663059 -0.023375235020003368 0.0077298805454405336 0.010458562054284627 -0.0055491720611009062 -0.038924529351239766 -0.021593210678999202 0.0062977438128810122 9.7612606994604509e-05 0.00035449759438225474 0.0035585614197704142 -0.0010025891060856074 -0.041080162443934351 -0.0051325404979497948 -0.0030858706023208439 0.00049033878464882215 -0.022418391582773391 0.0039210006955636666 0.022400806559067787
leaf_weight=234568 4997 1636 3387 69 345 105 214 39 62 60 44 33 32 22 62 109 21 52 57 7158 2927 1950 101 25 127 212 65 37 917 71
leaf_count=234568 4997 1636 3387 69 345 105 214 39 62 60 44 33 32 22 62 109 21 52 57 7158 2927 1950 101 25 127 212 65 37 917 71
internal_value=0 -0.000323525 -0.016359 -0.0308404 -0.0673085 -0.0946871 -0.12436 -0.185311 -0.111653 -0.169861 -0.0323531 -0.0961899 -0.0101113 -0.0857273 0.0143394 -0.0937197 -0.112433 -0.0966949 0.00394811 0.00644952 0.0127015 0.0208054 0.064644 0.0177934 0.00269257 -0.0585689 -0.115077 -0.0626343 0.022585 0.121989
internal_weight=0 240860 6292 2905 1269 924 626 108 518 122 298 77 221 54 167 396 287 266 18644 13647 6489 3562 229 3333 1383 339 127 102 1044 128
internal_count=259504 240860 6292 2905 1269 924 626 108 518 122 298 77 221 54 167 396 287 266 18644 13647 6489 3562 229 3333 1383 339 127 102 1044 128
shrinkage=0.124847


Tree=25
num_leaves=31
num_cat=0
split_feature=5 7 4 12 0 9 12 3 5 2 4 7 1 4 4 4 3 4 4 4 7 3 12 4 13 3 12 4 7 12
split_gain=0.460057 0.513234 0.894467 1.26108 0.894338 0.972787 0.822158 1.09403 1.31461 1.42343 1.06219 0.803089 1.71072 1.03319 0.791555 0.691406 1.04634 0.668359 0.665176 0.629263 0.622918 0.564891 0.50935 0.498098 0.495391 0.494797 0.477419 0.882114 1.0137 0.608406
threshold=-0.58619722820477238 -1.5239129181865327 -0.85353392792325089 0.085758907359384864 1.0000000180025095e-35 1.0000000180025095e-35 0.033378865797181627 -0.65151756163630481 -0.9345828744518847 1.0000000180025095e-35 -0.74908024002731111 0.21033842047190615 1.0000000180025095e-35 0.14413270646745571 -0.74908024002731111 1.4601822164640559 -0.26876169052484811 -0.15851515846180561 -0.45814993624022254 1.4330644321064561 -1.6890797123444792 -1.0342734327477614 -0.19546772957975453 -0.66940082426053649 0.22715025029365069 1.1091594454763964 -0.38204905004098183 -1.0778415269305572 -1.8542465065024258 -0.26500675027440362
decision_type=2 2 2 2 2 2 2 2 2 2 2 2 2 2 2 2 2 2 2 2 2 2 2 2 2 2 2 2 2 2
left_child=1 2 26 4 5 22 10 8 -8 -10 -3 12 -11 17 -6 19 -17 18 -14 -9 -5 -7 24 -16 -4 -21 27 -1 -29 -28
right_child=-2 6 3 20 14 21 7 15 9 11 -12 -13 13 -15 23 16 -18 -19 -20 25 -22 -23 -24 -25 -26 -27 29 28 -30 -31
leaf_value=1.3346316516041081e-05 0.00012788147306768121 -0.00043597341782810391 -0.0030773204767751269 -0.00097825560384625439 0.0034444159237443086 -0.0067213295461446432 -0.0015912347741993452 -0.0015553104238123978 0.00327984765115668 -0.0010594119997549634 0.00062790043247098234 0.0010527930932365179 -0.036553108974336321 0.0013386441261453853 -0.027636623321844973 0.023078605306693378 0.0014350178568201632 -0.047674948952908872 -0.010848543692786023 -0.0072038330462049884 0.0038139055254328542 -0.034054070185266308 0.00072786066009688166 -0.010899255158860026 -0.015864841123693726 -0.031573455283513366 -0.0073069269896222002 -0.0043635897498200795 0.0089667304122729441 0.014937484191203458
leaf_weight=2220 161611 32612 3077 1551 62 26 2926 14996 3311 246 33150 406 29 30 36 42 572 21 45 54 685 27 668 231 54 20 210 130 432 24
leaf_count=2220 161611 32612 3077 1551 62 26 2926 14996 3311 246 33150 406 29 30 36 42 572 21 45 54 685 27 668 231 54 20 210 130 432 24
internal_value=0 -0.00178083 -0.00879264 -0.0154685 -0.0257203 -0.021446 -0.00103312 -0.00622229 0.00415935 0.0157417 0.000757942 -0.0227778 -0.0564094 -0.15167 -0.0757648 -0.010865 0.0220285 -0.20276 -0.158078 -0.0122052 0.00370093 -0.155989 -0.019569 -0.0994012 -0.0249173 -0.104193 0.00541126 0.00906017 0.0444511 -0.0379703
internal_weight=0 97893 9433 6417 4181 3852 88460 22698 7014 4088 65762 777 371 125 329 15684 614 95 74 15070 2236 53 3799 267 3131 74 3016 2782 562 234
internal_count=259504 97893 9433 6417 4181 3852 88460 22698 7014 4088 65762 777 371 125 329 15684 614 95 74 15070 2236 53 3799 267 3131 74 3016 2782 562 234
shrinkage=0.132352


Tree=26
num_leaves=31
num_cat=0
split_feature=11 5 4 12 11 11 7 12 7 5 4 12 12 5 7 12 7 11 12 11 1 8 11 4 11 4 4 7 4 7
split_gain=0.241669 0.570366 0.387527 0.542126 0.623506 0.816891 0.54343 0.5033 0.917636 0.768664 1.33558 1.05013 0.861219 0.726064 0.668691 0.658706 1.35662 1.6002 0.685108 0.553579 0.531913 0.475449 0.61907 0.947892 0.974263 1.18502 1.24828 1.12717 0.927058 0.870715
threshold=0.27566910984432957 -0.40835001019051248 -0.85353392792325089 -0.22816010034788828 1.5894271279365817 0.37672741892834899 0.62325540586677264 -0.58073196631140778 -1.3587461240285861 -1.6435354832484557 -1.228495884472778 -0.61974606623360062 -0.61288247458062217 -0.75673565643762475 1.1187557883406125 -0.5352155164021829 -0.20257856492296028 0.67990234618040724 -0.551110149703817 0.93254811889045564 1.0000000180025095e-35 1.0000000180025095e-35 0.93254811889045564 1.4601822164640559 0.37672741892834899 -0.3778009455510381 -0.36507902202525055 -0.36774535908090683 0.021265708205244493 -1.1935793298706396
decision_type=2 2 2 2 2 2 2 2 2 2 2 2 2 2 2 2 2 2 2 2 2 2 2 2 2 2 2 2 2 2
left_child=-1 2 7 4 5 -4 -7 9 20 -2 19 -12 -13 -14 -15 16 17 18 -10 -11 -9 -5 23 24 28 27 -27 29 -23 -26
right_child=1 -3 3 21 -6 6 -8 8 15 10 11 12 13 14 -16 -17 -18 -19 -20 -21 -22 22 -24 -25 25 26 -28 -29 -30 -31
leaf_value=8.2540783263314958e-05 -0.00023611855436676257 7.6429093287907845e-05 0.007128935391912004 -0.0010345616860265095 0.001980456615553607 -0.0099439883124176152 -0.028967613352122116 0.0053726768774789825 0.021196247214660395 -0.011405544141370121 0.014204058895513143 -0.022123228943579085 -0.020854197998755604 0.0080819019214424612 -0.0079008572562177595 0.00037396914022791818 0.00089683202823935613 0.035077526269023628 -0.0038086414748241372 -0.03780098094398051 0.026119826498859071 0.00095908812943808143 0.0012868684396035576 0.016466866096707826 -0.0098403522566738212 -0.030493514849349913 -0.0052279384375370861 -0.011241610536270841 0.015422343639985762 0.0023021753796174126
leaf_weight=162033 11328 59302 35 17636 100 153 24 38 24 21 41 39 26 76 69 2716 237 41 41 23 31 315 3165 41 90 28 769 113 76 873
leaf_count=162033 11328 59302 35 17636 100 153 24 38 24 21 41 39 26 76 69 2716 237 41 41 23 31 315 3165 41 90 28 769 113 76 873
internal_value=0 -0.00129047 -0.00430568 -0.00683458 -0.0482403 -0.0789429 -0.106546 -0.000290923 0.0109688 -0.00332116 -0.0537147 -0.025543 -0.0541233 -0.0235402 0.00405234 0.00839644 0.0496892 0.143727 0.0461454 -0.214422 0.125011 -0.00627548 0.00186961 -0.0105964 -0.0133254 -0.0228034 -0.0520296 -0.00115546 0.0320772 0.00993158
internal_weight=0 97471 38169 23418 312 212 177 14751 3128 11623 295 251 210 171 145 3059 343 106 65 44 69 23106 5470 2305 2264 1873 797 1076 391 963
internal_count=259504 97471 38169 23418 312 212 177 14751 3128 11623 295 251 210 171 145 3059 343 106 65 44 69 23106 5470 2305 2264 1873 797 1076 391 963
shrinkage=0.11754


Tree=27
num_leaves=31
num_cat=0
split_feature=1 5 5 4 4 3 11 7 4 7 3 12 5 7 3 4 12 3 7 4 5 7 0 4 5 12 0 3 4 7
split_gain=4.69817 1.60288 1.02613 0.866618 0.941002 1.14615 3.47648 0.952757 0.848437 1.04979 0.816191 0.789831 0.727308 0.937409 0.67908 0.637102 0.605631 0.595077 1.02508 3.26373 2.22406 1.06695 1.48115 0.988634 0.775569 0.920408 1.58095 0.763732 0.657694 1.15834
threshold=1.0000000180025095e-35 0.17269877743141973 -0.9345828744518847 -1.1280596461112975 -1.1548426430076921 -0.49841521319172216 0.62937319163839756 -0.69807894739679999 0.31152643706992328 -1.028412535712693 -1.0342734327477614 -0.58795679963033243 0.30060259860605892 -0.94582913863371976 -1.1873757811923442 2.3706367172108771 2.399511777744983 1.7981200134770183 1.4490893766565056 -0.5351510523173576 -0.22380306820996171 1.6142561708144523 1.0000000180025095e-35 -0.62956111637714918 0.64411571833223247 1.1109627553147834 1.0000000180025095e-35 -0.57496638741401351 -0.82675093102685604 1.5316727737354789
decision_type=2 2 2 2 2 2 2 2 2 2 2 2 2 2 2 2 2 2 2 2 2 2 2 2 2 2 2 2 2 2
left_child=1 -1 -2 4 11 -6 7 -7 12 10 14 -3 13 -5 -10 16 -12 18 -4 20 21 27 -23 -24 25 -19 -27 -20 -29 -30
right_child=2 3 17 8 5 6 -8 -9 9 -11 15 -13 -14 -15 -16 -17 -18 24 19 -21 -22 22 23 -25 -26 26 -28 28 29 -31
leaf_value=-0.00042816237729989288 -0.00030368286182250539 0.00030474713336253316 0.00014286752379967711 0.0086805862366526754 0.00050760453208913191 -0.010194926416341192 0.000490218022961144 -0.024060191024693551 -0.0026242641738215646 0.00049145969849544559 -0.0022578886209649383 -0.0058207936411951364 0.00048232850841116643 -0.0021591797706770853 0.00056992867876514493 -0.006311587592262715 0.0032104752787049436 0.0011790981478995487 0.0027352793725785012 -0.00012285505501938469 -0.00035289574035545364 -0.0014597004230405537 -0.015662451212402381 -0.0045597649574847278 0.00017264392486516047 -0.010052982811478817 0.00044017269504268905 -0.010541610115104802 0.00074780199090377383 -0.009286732366589754
leaf_weight=58133 11752 360 164189 51 55 20 49 23 189 1483 626 52 7645 26 599 78 47 3552 28 3891 202 33 70 23 6031 43 111 42 57 44
leaf_count=58133 11752 360 164189 51 55 20 49 23 189 1483 626 52 7645 26 599 78 47 3552 28 3891 202 33 70 23 6031 43 111 42 57 44
internal_value=0 -0.00709709 0.00251437 0.00379906 -0.0345888 -0.103277 -0.17155 -0.37906 0.00579635 -0.00840875 -0.0267047 -0.0100813 0.0113555 0.108058 -0.00422277 -0.0502942 -0.0403785 0.00311087 0.00267183 -0.0124087 -0.0885473 -0.143605 -0.21343 -0.278014 0.010712 0.0220972 -0.0535885 -0.0921559 -0.121728 -0.0779952
internal_weight=0 69436 190068 11303 559 147 92 43 10744 3022 1539 412 7722 77 788 751 673 178316 168579 4390 499 297 126 93 9737 3706 154 171 143 101
internal_count=259504 69436 190068 11303 559 147 92 43 10744 3022 1539 412 7722 77 788 751 673 178316 168579 4390 499 297 126 93 9737 3706 154 171 143 101
shrinkage=0.0464603


Tree=28
num_leaves=31
num_cat=0
split_feature=5 7 4 7 5 9 12 3 5 5 4 7 14 4 4 7 14 14 0 7 7 3 4 3 7 3 4 3 12 7
split_gain=0.372065 0.398116 1.49383 1.75041 0.958771 1.29023 0.896182 0.855559 0.785218 2.16329 1.88687 1.25845 0.916626 0.884377 0.781204 0.892219 1.34408 0.74278 1.74116 1.0066 1.26175 0.821785 1.00902 0.864534 0.75076 0.712155 0.845581 0.691903 0.642219 0.77374
threshold=-0.035601731338706998 -1.5239129181865327 0.32458314805691574 -1.8542465065024258 -0.22380306820996171 1.0000000180025095e-35 1.075561072052053 -0.95772225852547022 -0.40835001019051248 -0.22380306820996171 -0.75979343878586902 -1.6890797123444792 -0.13042543516640381 -0.85353392792325089 0.29478706400967652 -1.028412535712693 0.094661831588640208 0.45480145839671071 1.0000000180025095e-35 -0.78066234447577321 -0.20257856492296028 1.0000000180025095e-35 0.89405661956651039 0.95605709703181352 0.7884222000247193 -0.88117108430317881 0.42903683595285552 -0.8046199100808874 0.18690657382432904 -1.7716631094234525
decision_type=2 2 2 2 2 2 2 2 2 2 2 2 2 2 2 2 2 2 2 2 2 2 2 2 2 2 2 2 2 2
left_child=1 2 8 -4 -5 6 7 -6 -1 12 11 -11 -10 -13 -3 16 25 18 19 -17 -21 24 23 -23 -22 26 -16 -18 29 -12
right_child=-2 14 3 4 5 -7 -8 -9 9 10 28 13 -14 -15 15 17 27 -19 -20 20 21 22 -24 -25 -26 -27 -28 -29 -30 -31
leaf_value=-0.00068963962732411445 0.00013936494751427505 -0.00023774368745413803 0.0012848010361433992 -0.0024866078186527199 -0.0076079766431113435 -0.025266603254619577 -0.0021657976537099188 -0.020607552209133927 0.0089459559799519688 0.021226083056156975 0.0048880795498982988 -0.023053560913730127 0.030541744050096908 0.013597752489662199 0.012104618272888196 0.0026691913912731107 0.0091192195199707882 7.5084268178055759e-05 0.0013335703842042575 0.03560635525125691 0.027389331158676786 -0.024051552161199658 0.018872319042020535 0.0063693461820132063 0.0094065752919858855 -0.0069089237005841636 -0.0028821631795977456 -0.00032169325606414912 -0.0024811296574100946 -0.00092091787265962061
leaf_weight=7842 138031 89316 1068 1312 593 63 466 96 79 118 697 21 54 22 73 235 203 7744 7962 38 61 30 34 31 100 738 388 337 944 808
leaf_count=7842 138031 89316 1068 1312 593 63 466 96 79 118 697 21 54 22 73 235 203 7744 7962 38 61 30 34 31 100 738 388 337 944 808
internal_value=0 -0.00130875 -0.00628796 -0.0238908 -0.0382214 -0.0584255 -0.0508242 -0.0737324 -0.000304508 0.0142585 0.00791904 0.112784 0.138664 -0.0336733 -0.000650534 0.00536459 -0.0161627 0.00767048 0.0141301 0.0696852 0.108685 0.0834451 0.00968692 -0.0672549 0.126967 -0.0348201 -0.00398426 0.0252635 0.00102508 0.0138503
internal_weight=0 121473 14183 3598 2530 1218 1155 689 10585 2743 2610 161 133 43 107290 17974 1739 16235 8491 529 294 256 95 61 161 1199 461 540 2449 1505
internal_count=259504 121473 14183 3598 2530 1218 1155 689 10585 2743 2610 161 133 43 107290 17974 1739 16235 8491 529 294 256 95 61 161 1199 461 540 2449 1505
shrinkage=0.127749


Tree=29
num_leaves=31
num_cat=0
split_feature=4 15 4 4 0 5 3 3 14 13 12 3 5 15 3 15 4 15 12 1 14 15 6 15 15 12 3 15 5 15
split_gain=0.233536 0.51717 1.13119 0.97995 1.85416 1.08066 0.901966 0.853995 1.04378 0.946741 0.782814 0.706205 0.788588 0.701607 1.45872 1.3653 0.868154 0.60999 0.687215 0.555997 0.933585 1.3946 0.923455 0.860652 0.736181 0.586947 0.510737 0.500992 0.660243 0.48251
threshold=-1.0544064046462116 -1.412636854338343 -1.1548426430076921 -1.1782777652920378 1.0000000180025095e-35 -0.22380306820996171 0.72640357436493941 -1.0342734327477614 0.85995853855578996 -0.68969227891936435 -0.56086367468436527 -1.1108246069700527 -0.75673565643762475 -0.49455373726809582 -1.1873757811923442 -0.83682156600042479 -1.1113202730510507 -1.4911571209298773 -0.53738296639786032 1.0000000180025095e-35 0.45480145839671071 -1.0743957059440412 1.0000000180025095e-35 -0.34355322459206833 -0.18449935123998604 -0.49981383313945255 -0.34531286474713946 1.6093867393512207 0.64411571833223247 1.1543718611541247
decision_type=2 2 2 2 2 2 2 2 2 2 2 2 2 2 2 2 2 2 2 2 2 2 2 2 2 2 2 2 2 2
left_child=1 2 -1 -3 7 6 13 8 9 -5 -10 -12 -13 15 -15 -6 -17 -4 -19 20 21 25 -21 -23 -25 -9 -22 -26 -29 -8
right_child=-2 3 17 4 5 -7 29 19 10 -11 11 12 -14 14 -16 16 -18 18 -20 22 26 23 -24 24 27 -27 -28 28 -30 -31
leaf_value=-0.00024462297054645338 2.8684952132120239e-05 -7.3197735507037922e-05 -0.00020223146215416141 -0.0044149082546509916 -0.015326101250056444 -0.00037400471634705632 0.0067475276011470312 0.0016984470217575088 0.0077007024821868454 -0.015342953572388218 -0.00056641725321204415 -0.0018065481028076836 -0.02367665373499616 -0.00089675685596457989 -0.020853265094464179 -0.0093619769199358733 0.014023578194970743 0.011570293673826736 0.0024771427360083995 0.0047594056088166928 -0.0038827656987984148 -0.0099465825126252919 -0.00025694915779825485 0.013278617220989261 -0.0069761842415463514 -0.0077728270554521641 0.0023565847906362597 0.0051780114744348887 -0.013875600721553973 -0.0062521927211013906
leaf_weight=971 231800 21265 115 232 70 178 37 433 80 99 259 31 27 43 126 24 33 176 124 408 143 287 1510 23 186 66 583 78 20 77
leaf_count=971 231800 21265 115 232 70 178 37 433 80 99 259 31 27 43 126 24 33 176 124 408 143 287 1510 23 186 66 583 78 20 77
internal_value=0 -0.0027654 0.016062 -0.00375691 -0.0162749 -0.0690611 -0.0973082 -0.0093234 -0.0406572 -0.0821258 -0.00608256 -0.02839 -0.128131 -0.126416 -0.168621 -0.070254 0.0446471 0.059761 0.083498 -0.00321931 -0.0157445 -0.0342082 0.00865933 -0.0669477 -0.0301439 0.00476432 0.0120528 -0.0440796 0.0137833 -0.02173
internal_weight=0 27704 1386 26318 5053 588 410 4465 728 331 397 317 58 296 169 127 57 415 300 3737 1819 1093 1918 594 307 499 726 284 98 114
internal_count=259504 27704 1386 26318 5053 588 410 4465 728 331 397 317 58 296 169 127 57 415 300 3737 1819 1093 1918 594 307 499 726 284 98 114
shrinkage=0.0935566


Tree=30
num_leaves=31
num_cat=0
split_feature=5 7 12 11 1 5 7 7 4 5 4 4 0 7 5 5 4 1 7 4 4 7 4 11 4 12 4 4 12 11
split_gain=1.14615 0.843171 0.432312 0.698507 1.54156 1.04909 0.739825 0.58503 1.12173 1.80109 1.41066 0.778608 1.25429 1.70222 0.955154 0.863084 0.862569 0.783071 1.21492 0.757183 0.621202 0.816072 0.607014 0.573043 0.566313 0.541782 0.541071 0.523497 0.669356 1.35989
threshold=-1.2561696248338345 -1.8542465065024258 -0.32786280014904751 1.741014591562611 1.0000000180025095e-35 0.64411571833223247 1.1187557883406125 0.87100559710369252 -0.093901178449253178 0.64411571833223247 -1.1782777652920378 -0.7835633485314194 1.0000000180025095e-35 1.3665059795775323 -1.0168067594927239 -0.40835001019051248 -1.0031839230818569 1.0000000180025095e-35 1.3665059795775323 -0.9794140133363064 -0.63793080290727266 1.1187557883406125 -1.0031839230818569 0.22513995530231987 -0.57900820973520406 -0.61974606623360062 -0.91044779632808981 -1.1782777652920378 -0.44707254991130313 2.0441895188146693
decision_type=2 2 2 2 2 2 2 2 2 2 2 2 2 2 2 2 2 2 2 2 2 2 2 2 2 2 2 2 2 2
left_child=-1 -2 3 7 5 6 -5 -3 9 10 25 12 17 14 -14 24 -15 -12 19 23 21 -17 -16 -19 -13 -9 -18 -8 29 -29
right_child=1 2 -4 4 -6 -7 27 8 -10 -11 11 15 13 16 22 20 26 18 -20 -21 -22 -23 -24 -25 -26 -27 -28 28 -30 -31
leaf_value=-0.00045571746865802961 -0.001136518293906592 0.00024825340411298243 -2.5098588497876135e-05 0.020246785878451492 0.00055644100212947408 0.00075351714382523014 -0.001825606214480145 0.011635145793896847 0.00025401972818020295 0.0004077232390861482 -0.0028380033011949331 0.00061907000891912531 -0.010318606157761192 -0.0020191194429270034 -0.0082455607590119686 -0.020433646455936958 -0.019754190406013221 0.0045283092970067893 0.0084887405205488747 -0.011212656223153076 -0.0026527489931507681 -0.0037525896969731105 0.0017380167541743269 -0.0058813441567612448 -0.0013329730992269724 -0.0017796885175131944 -0.01055481789960137 0.026980124726570191 0.00084651084929973186 0.0076052233613398326
leaf_weight=26225 3211 91768 110282 31 1233 117 27 62 15646 4496 682 1236 63 54 41 26 46 82 99 38 917 44 197 46 2510 23 158 27 37 80
leaf_count=26225 3211 91768 110282 31 1233 117 27 62 15646 4496 682 1236 63 54 41 26 46 82 99 38 917 44 197 46 2510 23 158 27 37 80
internal_value=0 0.000867812 0.00109241 0.0024077 0.0234846 0.0854459 0.12909 0.00213103 -0.00201106 -0.00983972 -0.0207183 -0.0224616 -0.0422658 -0.0798284 -0.0287392 -0.01616 -0.139432 -0.0200931 0.0260381 -0.0262515 -0.0424678 -0.133269 0.000243229 0.0105472 -0.00922844 0.107239 -0.169181 0.103323 0.127281 0.167373
internal_weight=0 233279 230068 119786 1552 319 202 118234 26466 10820 6324 6239 1506 559 301 4733 258 947 265 166 987 70 238 128 3746 85 204 171 144 107
internal_count=259504 233279 230068 119786 1552 319 202 118234 26466 10820 6324 6239 1506 559 301 4733 258 947 265 166 987 70 238 128 3746 85 204 171 144 107
shrinkage=0.0746489


Tree=31
num_leaves=31
num_cat=0
split_feature=5 3 7 5 4 4 12 9 4 3 5 0 5 1 7 4 1 4 0 3 4 12 1 5 7 5 5 7 4 4
split_gain=0.258778 0.428341 0.632563 0.85284 0.647236 0.606842 0.494391 1.55164 0.69413 0.792206 1.2019 0.551496 0.415633 0.41518 0.372099 0.351896 0.390156 0.335094 1.39261 0.772706 0.465193 0.810953 0.641694 0.428862 0.32477 0.38077 0.848777 0.362697 1.72179 0.920765
threshold=-1.2561696248338345 2.1043247103661842 1.6968395678934256 -0.22380306820996171 0.043696468105975141 -0.59507800787304099 0.32237219855416505 1.0000000180025095e-35 -0.057074557716710321 1.721568839254727 -1.0168067594927239 1.0000000180025095e-35 -0.22380306820996171 1.0000000180025095e-35 1.862006362051372 -1.1113202730510507 1.0000000180025095e-35 -0.75979343878586902 1.0000000180025095e-35 1.6450176650324357 -1.094580899990804 -0.61288247458062217 1.0000000180025095e-35 -1.0168067594927239 -1.8542465065024258 0.64411571833223247 0.17269877743141973 -1.7716631094234525 0.94494431366966058 -1.027623407749817
decision_type=2 2 2 2 2 2 2 2 2 2 2 2 2 2 2 2 2 2 2 2 2 2 2 2 2 2 2 2 2 2
left_child=-1 2 24 4 5 17 7 8 9 10 -7 -12 15 -11 -15 16 -3 18 20 -20 21 -4 23 -22 25 26 -2 28 29 -26
right_child=1 12 3 -5 -6 6 -8 -9 -10 13 11 -13 -14 14 -16 -17 -18 -19 19 -21 22 -23 -24 -25 27 -27 -28 -29 -30 -31
leaf_value=-0.00027056910309105969 -0.00085137872251457667 0.01424219610356035 0.016593770528091474 0.00010916184385276839 0.00013215026012126821 -0.0036912890286189041 0.00041444238768331221 -0.032509033174880249 -0.019692600669865619 -0.0080781418789282883 -0.010455961254437155 -0.028063111912119597 0.00010556056591774581 0.0051631825756373291 -0.0064919636795520968 0.0019577911894986971 0.0019227094995473096 0.0007525154029189927 -0.0040651504723217711 -0.026915496704041121 -0.00168171618903759 -0.0063616765844729962 0.008467775568878573 -0.01374022219914423 0.0082841939561481177 0.0085246507983568354 -0.017538058304556056 3.4712170833933746e-05 -0.0037572051423006804 0.001373098286499811
leaf_weight=26225 3149 43 30 1479 356 94 66 21 32 50 27 34 1466 84 32 1224 44 195 21 31 56 23 29 45 172 36 26 220703 566 3145
leaf_count=26225 3149 43 30 1479 356 94 66 21 32 50 27 34 1466 84 32 1224 44 195 21 31 56 23 29 45 172 36 26 220703 566 3145
internal_value=0 0.000371409 0.000222676 -0.0149795 -0.0344819 -0.0491797 -0.0752884 -0.0893698 -0.0736596 -0.0596587 -0.11107 -0.220381 0.0127168 -0.0116546 0.0211791 0.0256538 0.0871059 -0.0224638 -0.0478929 -0.192305 -0.0068577 0.0721055 -0.0390504 -0.0766974 0.000403195 -0.00958266 -0.0107422 0.000545967 0.0101268 0.0188252
internal_weight=0 233279 230502 2705 1226 870 440 374 353 321 155 61 2777 166 116 1311 87 430 235 52 183 53 130 101 227797 3211 3175 224586 3883 3317
internal_count=259504 233279 230502 2705 1226 870 440 374 353 321 155 61 2777 166 116 1311 87 430 235 52 183 53 130 101 227797 3211 3175 224586 3883 3317
shrinkage=0.091976


Tree=32
num_leaves=31
num_cat=0
split_feature=2 7 13 4 3 7 5 7 4 1 12 4 4 4 7 9 7 4 7 7 0 7 5 4 4 4 0 13 5 12
split_gain=0.208865 0.670273 0.708962 1.34208 0.604596 0.504893 1.08932 1.86913 1.14066 0.904671 0.81558 1.00474 1.22939 1.06825 0.995997 0.801871 1.02177 1.05587 0.791338 0.798591 0.733923 0.730129 0.697118 0.485556 0.912634 0.707995 0.649669 0.483947 0.805999 0.965878
threshold=1.0000000180025095e-35 -1.3587461240285861 1.3106914211817597 -0.47522409676167421 -1.1873757811923442 -1.8542465065024258 -1.0168067594927239 -1.6064963152655058 -0.45814993624022254 1.0000000180025095e-35 0.90035886406813159 -0.68078359794150434 1.081537597841274 2.1535270486194764 -1.6890797123444792 1.0000000180025095e-35 0.45808861170882603 -0.66940082426053649 0.12775502339293288 -0.36774535908090683 1.0000000180025095e-35 -0.20257856492296028 -0.22380306820996171 -0.30414770408595238 -0.49196346982192096 -0.62587845430389499 1.0000000180025095e-35 0.22715025029365069 -0.22380306820996171 -0.016472484103397998
decision_type=2 2 2 2 2 2 2 2 2 2 2 2 2 2 2 2 2 2 2 2 2 2 2 2 2 2 2 2 2 2
left_child=4 2 -2 -4 5 -1 15 10 9 27 11 -8 -13 -14 -12 -7 17 18 19 -17 -18 22 -11 24 25 -19 -25 -9 29 -29
right_child=1 -3 3 -5 -6 6 7 8 -10 21 14 12 13 -15 -16 16 20 23 -20 -21 -22 -23 -24 26 -26 -27 -28 28 -30 -31
leaf_value=-0.00054033888357109239 -0.0018733367956445522 -0.00010075318827434729 -0.039814148116392618 -0.0062577199180826881 -2.3105883842418307e-05 0.0001505545570819413 -0.010620156966310379 0.006811074062953849 0.00081585668058221439 0.02612541189961437 -0.0061893175062183205 0.014862127891112693 -0.011844935644612316 0.021444990572084575 0.012367457146509248 0.012625242167249274 0.0084496329423351304 -0.033458480971275698 0.010640129127543942 -0.016688783666606664 -0.0067616547528133184 0.0022992741800387569 0.0014622044623821134 -0.019891864052626083 -0.043372490739701647 -0.0019901339438794081 0.0028875791290942526 0.040249614787685351 0.0033871054681228396 0.0048641283697017802
leaf_weight=3597 1851 10892 24 197 231274 2745 37 82 6631 48 131 472 62 24 86 22 123 21 56 69 106 665 36 55 30 33 38 45 32 20
leaf_count=3597 1851 10892 24 197 231274 2745 37 82 6631 48 131 472 62 24 86 22 123 21 56 69 106 665 36 55 30 33 38 45 32 20
internal_value=0 -0.00388818 -0.0203742 -0.0739074 0.000229873 0.0063251 0.00951803 0.0155826 0.010685 0.0435219 0.0611742 0.0803135 0.0908951 -0.0190684 0.00869541 -0.00587497 -0.0406154 -0.076753 -0.0141117 -0.0716684 0.0105138 0.0282583 0.116106 -0.128777 -0.183888 -0.106196 -0.0789999 0.10739 0.155197 0.219156
internal_weight=0 12964 2072 221 246540 15266 11669 8371 7559 928 812 595 558 86 217 3298 553 324 147 91 229 749 84 177 84 54 93 179 97 65
internal_count=259504 12964 2072 221 246540 15266 11669 8371 7559 928 812 595 558 86 217 3298 553 324 147 91 229 749 84 177 84 54 93 179 97 65
shrinkage=0.133976


Tree=33
num_leaves=31
num_cat=0
split_feature=5 4 1 4 3 11 7 4 3 3 11 3 7 3 4 4 13 1 0 13 4 5 11 1 12 5 3 4 5 12
split_gain=0.19382 0.303418 0.461355 0.875683 1.27511 1.1536 1.01996 2.08249 0.356638 0.580171 0.300479 0.286844 1.23941 0.847108 0.868874 0.986609 1.00534 0.848018 1.02089 1.09736 1.0665 0.880533 1.2053 0.733733 1.09861 0.743423 1.29369 0.726746 0.700025 0.712841
