tree
version=v3
num_class=4
num_tree_per_iteration=4
label_index=0
max_feature_idx=26
objective=multiclass num_class:4
feature_names=age gross_earnings hhweight female east married child in_couple hours motherpid education migback hh_income hh_youngest_age n_people n_children hh_frac_working birth year retired hours_t1 gross_earnings_t1 retired_t1 hours_t2 gross_earnings_t2 employment_status_t1 employment_status_t2
feature_infos=[-1.8455804145717529:2.608832348237379] [-0.61538398689290874:51.582670980396209] [-0.94647984013943609:10.002129960544453] [-1.043432703119292:0.95837517552454332] [-0.51448131181584278:1.943705197902208] [-1.0774656932117239:0.92810379606536408] [-0.4624336033702196:2.1624726073364742] [-1.326499050745531:0.75386409016875733] [-0.85648486140980928:2.9767699585946086] none [-0.78092597495777871:3.1196006565643399] none [-0.97851415546370035:30.104978325008123] [-1.6495318136310191:2.8291422440704279] [-1.2249940930351844:9.3597760951932845] [-0.43837434924819663:10.142607169860092] [-1.4594881174490606:3.5091336032808775] [-0.041013219802924314:24.382382188113368] [-2.2844528691847548:1.4417305994761436] [-0.51454576251668327:1.9434617343050749] [-0.85366769307446488:2.9729639065933231] [-0.60964434217765373:65.00183381446702] [-0.4975363052815161:2.0099035776578744] [-0.85096636178458485:2.9621859040279079] [-0.60567795542519831:53.835418109536612] [-1.1384797875890218:1.2211451452628124] [-1.1192981306633694:1.220765836864401]
tree_sizes=3459 881 3535 3511 3512 3534 3605 3564 3562 3528 3571 3549 3510 3501 3550 3595 3542 3499 3566 3593 3516 3539 3566 3546 3563 3494 3529 3572 3541 3510 3578 3552 3510 3506 3567 3564 3513 3512 3554 3574 3541 3540 3554 3560 3517 3515 3547 3563 3499 3539 3557 3574 3547 3544 3556 3566 3521 3496 3568 3578 3510 3531 3558 3585 3530 3521 3569 3576 3510 3531 3537 3566 3511 3539 3554 3555 3558 3515 3552 3583 3496 3534 3537 3555 3495 3516 3554 3573 3510 3534 3534 3568 3550 3549 3530 3567 3507 3516 3538 3566 3536 3520 3565 3581 3514 3531 3526 3569 3518 3521 3571 3570 3515 3528 3568 3573 3506 3518 3543 3567 3555 3489 3550 3581 3513 3524 3549 3566 3532 3518 3580 3561 3510 3527 3557 3544 3552 3520 3572 3565 3617 3530 3563 3571 3547 3535 3555 3570 3506 3536 3572 3586 3506 3525 3583 3591 3516 3520 3529 3556 3503 3516 3537 3568 3521 3513 3524 3561 3514 3523 3579 3568 3522 3516 3562 3556 3513 3513 3541 3572 3525 3496 3578 3566 3515 3508 3525 3544 3523 3515 3563 3567 3503 3483 3587 3558 3516 3556 3572 3569 3517 3553 3535 3559 3470 3516 3558 3574 3516 3511 3552 3558 3512 3557 3543 3573 3504 3508 3580 3573 3504 3503 3540 3571 3503 3506 3561 3567 3497 3506 3567 3572 3506 3498 3554 3579 3518 3506 3558 3572 3512 3506 3558 3575 3512 3505 3560 3558 3506 3489 3556 3578 3522 3495 3551 3561 3511 3488 3568 3550 3522 3488 3572 3558 3516 3501 3525 3571 3513 3495 3516 3561 3519 3487 3516 3588 3517 3478 3567 3548 3524 3502 3552 3577 3504 3490 3512 3572 3515 3494 3551 3570 3499 3516 3519 3587 3507 3490 3504 3559 3479 3499 3518 3571 3504 3502 3517 3570 3485 3468 3542 3561 3516 3478 3503 3547 3492 3488 3547 3556 3485 3498 3541 3566 3485 3492 3578 3584 3488 3498 3542 3591 3487 3490 3547 3585 3499 3482 3526 3589 3494 3470 3573 3571 3484 3500 3565 3531 3498 3497 3567 3519 3494 3492 3533 3570 3502 3477 3544 3566 3507 3473 3511 3562 3494 3479 3527 3570 3490 3472 3568 3556 3490 3500 3533 3573 3518 3488 3538 3549 3520 3488 3512 3523 3523 3473 3532 3546 3501 3496 3499 3575 3508 3459 3438 3512 3491 3478 3497 3499 3496 3479 3534 3568 3475 3480 3486 3527 3507 3434 3517 3554 3512 3479 3450 3565 3488 3468 3538 3601 3516 3453 3511 3536 3494 3480 3519 3562 3478 3468 3450 3532 3486 3482 3464 3550 3465 3463 3489 3539 3486 3490 3440 3532 3480 3462 3539 3524 3511 3458 3523 3518 3498 3483 3533 3552 3465 3465 3466 3531 3481 3475 3521 3532 3488 3474 3537 3515 3463 3455 3476 3514 3450 3471 3537 3519 3464 3465 3427 3530 3509 3474 3532 3527 3483 3463 3556 3498 3481 3466 3557 3496 3487 3469 3495 3497 3480 3473 3503 3526 3519 3465 3531 3493 3500 3465 3439 3482 3488 3477 3394 3560 3495 3461 3551 3516 3494 3472 3499 3543 3489 3477 3549 3534 3495 3457 3489 3513 3499 3480 3523 3546 3489 3466 3429 3523 3485 3466 3509 3514 3482 3472 3487 3538 3488 3476 3484 3507 3493 3481 3413 3489 3499 3481 3458 3512 3488 3451 3492 3468 3481 3455 3479 3493 3506 3447 3505 3455 3475 3457 3400 3548 3490 3452 3481 3466 3503 3452 3426 3438 3487 3466 3458 3459 3449 3456 3405 3475 3508 3457 3387 3458 3510 3459 3426 3511 3481 3429 3502 3543 3464 3439 3516 3494 3497 3446 3497 3493 3506 3447 3485 3509 3482 3459 3486 3525 3485 3458 3477 3520 3462 3469 3410 3456 3452 3463 3459 3524 3468 3461 3429 3502 3480 3465 3499 3540 3485 3459 3440 3465 3471 3447 3449 3511 3489 3476 3458 3439 3440 3427 3491 3523 3482 3471 3401 3497 3471 3478 3476 3455 3462 3477 3430 3503 3492 3477 3431 3439 3484 3487 3419 3460 3461 3483 3460 3415 3492 3473 3455 3458 3455 3441 3420 3497 3463 3459 3408 3439 3464 3484 3455 3492 3500 3481 3423 3459 3477 3488 3479 3497 3496 3489 3449 3420 3455 3476 3439 3487 3484 3481 3388 3442 3518 3446 3460 3400 3468 3488 3410 3517 3461 3488 3408 3424 3472 3481 3497 3462 3443 3490 3479 3441 3524 3477 3475 3550 3493 3483 3442 3462 3479 3491 3460 3507 3456 3448 3466 3452 3475 3488 3502 3493 3484 3491 3430 3453 3486 3503 3413 3500 3502 3488 3520 3461 3484 3495 3441 3459 3490 3499 3494 3475 3505 3459 3457 3455 3504 3497 3535 3464 3502 3474 3421 3476 3488 3507 3378 3465 3456 3497 3429 3427

Tree=0
num_leaves=31
num_cat=0
split_feature=25 8 19 0 8 19 20 0 1 18 18 0 14 1 18 0 14 1 1 18 21 8 1 8 12 18 12 2 0 18
split_gain=5.67548e+08 9.49667e+07 3.66419e+07 7.50583e+06 7.13836e+06 1.16371e+08 3.79322e+06 1.62912e+06 1.36069e+06 526470 384673 1.08971e+06 268400 247525 135493 124047 96812.4 146286 53029.3 50904.2 48818.5 45877.3 89865.1 35350.9 32207.1 31875.3 30168 32952.7 28531.5 201181
threshold=-0.74520896544704929 -0.84450594009729529 1.0000000180025095e-35 -1.0799782209639333 -0.84450594009729529 1.0000000180025095e-35 -0.79387657432965553 -1.0335780880180045 0.034739189767547952 0.68484958240439875 0.68484958240439875 -0.89437768918021943 -0.8178875473340893 -0.062128886788927078 1.3835089827783171 -0.75517729034243408 1.0000000180025095e-35 -0.1767099830585861 0.36409065005956309 -0.36313951815647899 -0.085621655252836867 0.58817303060097259 -0.23870555205473012 1.2805547190210376 1.1148138498104994 0.80129281580005185 0.42799425586067968 0.087344023490214903 -0.89437768918021943 0.68484958240439875
decision_type=2 2 2 2 2 2 2 2 2 2 2 2 2 2 2 2 2 2 2 2 2 2 2 2 2 2 2 2 2 2
left_child=1 2 -1 -3 5 -2 10 9 14 -8 -5 12 -12 26 19 16 -13 -18 20 -9 -10 22 25 -23 -15 -21 27 -14 29 -6
right_child=4 3 -4 6 28 -7 7 8 18 -11 11 15 13 24 -16 -17 17 -19 -20 21 -22 23 -24 -25 -26 -27 -28 -29 -30 -31
leaf_value=-1.2528571594767497 -1.2528570671592998 -1.2604685560945887 -1.3829756355195111 -1.3825507964469566 -1.3825606016186907 -1.3829756355430898 -1.379674368961858 -1.3247483984545656 -1.3639685357510063 -1.2676130284815976 -1.3816668880366931 -1.3729656668688408 -1.2787937786677435 -1.3680646203809703 -1.3829756350869828 -1.3807148544023333 -1.2877769750263459 -1.3779044328746135 -1.3785555965235921 -1.3256623035486739 -1.3098988560622138 -1.259042496611148 -1.3517853010497125 -1.2880972362360961 -1.3116809534096814 -1.269678163295104 -1.2658210478880234 -1.3165611415644298 -1.3828993710823536 -1.3544285807034031
leaf_weight=145668227.43361592 19027117.422444999 1651818.330871582 5619241.6707448959 15655830.123123169 6071067.0242080688 177322738.29002094 1024306.1033363342 39826.644706726074 116386.53607559204 116756.67181396484 110557.60701751709 238051.34380435944 176749.89239740372 109148.80658316612 26505.006885528564 3042758.6854977012 109544.21904373169 76438.771421432495 312520.98769187927 27509.245483398438 65094.672744750977 976906.24601745605 41265.075336456299 117256.24668502808 32979.689849853516 335606.13238239288 213339.37052631378 85789.196899414062 271274330.709638 709815.79444313049
leaf_count=157909 15472 1688 3843 12143 4747 104277 947 38 106 162 100 238 343 118 20 4094 86 77 256 20 55 770 40 101 54 233 243 28 221682 701
internal_value=0 1.53371 1.83054 -0.284185 -0.568961 -0.422987 -0.431742 0.578628 1.10981 -0.379814 -0.59461 -0.325701 0.786033 1.04275 1.56657 -0.559337 -0.0526244 0.48796 -0.337095 1.6052 0.0928545 1.63485 1.34704 1.74122 -0.115281 1.50596 1.38861 1.16165 -0.672041 -0.60797
internal_weight=0 1.7599e+08 1.51287e+08 2.47029e+07 4.74405e+08 1.9635e+08 2.30511e+07 3.19994e+06 2.05888e+06 1.14106e+06 1.98512e+07 4.19536e+06 728565 618007 1.56487e+06 3.46679e+06 424034 185983 494002 1.53837e+06 181481 1.49854e+06 404380 1.09416e+06 142128 363115 475878 262539 2.78055e+08 6.78088e+06
internal_count=530591 183712 161752 21960 346879 119749 20272 2748 1639 1109 17524 5381 886 786 1222 4495 401 163 417 1202 161 1164 293 871 172 253 614 371 227130 5448
shrinkage=1


Tree=1
num_leaves=7
num_cat=0
split_feature=19 0 0 0 0 2
split_gain=8.46285e+08 1.19209e-07 1.19209e-07 2.98023e-08 4.65661e-10 2.32831e-10
threshold=1.0000000180025095e-35 2.5856322817644153 2.3536316170347731 0.77602709687320504 2.4464318829266296 2.2645524307795615
decision_type=2 2 2 2 2 2
left_child=3 2 -2 -1 -4 -6
right_child=1 -3 4 -5 5 -7
leaf_value=-1.2817974460909829 -1.1597401101686053 -1.1597401097461004 -1.159740110267971 -1.2817974460919122 -1.1597401102466518 -1.1597401105808176
leaf_weight=456140163.68320537 197886811.031425 54933.170341491699 866926.16079711914 37908000.216684818 293940.91511535645 199842.82421875
leaf_count=392702 110511 26 339 26818 159 36
internal_value=0 1.73944 1.73944 -0.701703 1.73944 1.73944
internal_weight=0 1.99302e+08 1.99248e+08 4.94048e+08 1.36071e+06 493784
internal_count=530591 111071 111045 419520 534 195
shrinkage=1


Tree=2
num_leaves=31
num_cat=0
split_feature=8 8 25 19 25 25 1 8 1 0 1 0 0 21 0 0 26 20 8 23 1 26 26 21 19 8 26 8 0 8
split_gain=1.13355e+08 4.40436e+08 4.49688e+07 3.69766e+07 2.51949e+07 1.40746e+07 5.38449e+06 5.98145e+06 4.15715e+06 3.79809e+06 3.29943e+06 2.74131e+06 1.94015e+06 2.02672e+06 1.52125e+06 1.2369e+06 1.23385e+06 952825 650351 990974 579533 553003 523727 511718 511010 487480 474898 472872 471565 455512
threshold=-0.84450594009729529 0.77744002389545741 0.82787432312084019 1.0000000180025095e-35 0.82787432312084019 1.0000000180025095e-35 -0.1113932228662201 0.93795758776152582 -0.13408802937373707 -1.0799782209639333 0.10448420488820999 -1.0799782209639333 -1.0335780880180045 -0.58057900197665402 -0.15197556204536419 -0.84797755623429094 0.83075517560977263 0.77504234504053471 -0.29347555972166034 0.95789778067527032 -0.0045615727210790635 0.83075517560977263 0.83075517560977263 -0.18608050099609738 1.0000000180025095e-35 0.87327139439556789 0.83075517560977263 0.8948333979229427 -0.80157742328836257 0.48755011899343159
decision_type=2 2 2 2 2 2 2 2 2 2 2 2 2 2 2 2 2 2 2 2 2 2 2 2 2 2 2 2 2 2
left_child=-1 3 5 4 9 8 -7 23 11 -2 29 -3 24 28 20 -11 -12 -16 -18 -20 -9 -17 -19 -8 -13 26 -4 -10 -14 -6
right_child=1 2 25 -5 10 6 7 14 27 15 16 12 13 -15 17 21 18 22 19 -21 -22 -23 -24 -25 -26 -27 -28 -29 -30 -31
leaf_value=-2.2868058591547502 -2.2616280331847611 -2.2866382904946456 -2.215872166114135 -2.2868059386846378 -2.0875766708498045 -2.068104745788657 -2.1835994105870737 -2.1631555891864007 -2.2052907395411436 -2.0817799194921003 -2.1288104099629503 -2.0805002032137736 -2.1252331458448319 -2.2724889193547169 -2.2072697948278108 -2.027327358283733 -2.2752319241787613 -2.1079713133869888 -2.2449935716626097 -2.1676759717831731 -2.2441298952407767 -2.056627954978993 -2.1942428270013132 -2.0696325016919266 -2.2868059384596573 -2.2850913263594594 -2.2728742783149527 -2.2703646941169078 -2.1912478913527345 -2.1453167035701624
leaf_weight=169271657.14567512 180807.39341545105 579812.47398471832 413320.95532751083 1756774.9663333893 950140.89129686356 1967366.2566883564 106690.76569271088 257341.01104354858 298280.26757240295 1176989.3151302338 467125.00413095951 604626.11912536621 611148.49326777458 544151.3546295166 769449.11967110634 23454909.950626731 409249.62079191208 650040.85858559608 798392.35382038355 861721.27577614784 1563223.7839317322 1729037.2699905634 241190.55550670624 1282160.9010703564 31583.508865356445 97186432.813184619 3150955.8710041046 4357504.009809494 485361.27301883698 533293.61130785942
leaf_count=281501 401 1180 772 2718 1545 3386 236 407 598 2167 917 1270 1063 796 1638 45636 475 1264 1453 1506 2655 3075 495 2797 35 155983 5460 7393 832 937
internal_value=0 0.641088 -0.274819 3.90305 4.1595 1.38139 2.41949 1.85546 0.436574 4.51285 1.82645 1.38624 1.88058 1.30575 1.15547 4.54418 1.13362 1.84761 0.802248 1.08059 0.524113 4.59101 2.55142 3.61004 3.36295 -0.510713 -0.147491 -0.14612 2.08871 3.01111
internal_weight=0 1.47419e+08 1.15101e+08 3.23184e+07 3.05617e+07 1.43499e+07 6.83746e+06 4.8701e+06 7.51247e+06 2.65417e+07 4.01992e+06 2.85668e+06 2.27687e+06 1.64066e+06 3.48125e+06 2.63609e+07 2.53649e+06 1.66068e+06 2.06936e+06 1.66011e+06 1.82056e+06 2.51839e+07 891231 1.38885e+06 636210 1.00751e+08 3.56428e+06 4.65578e+06 1.09651e+06 1.48343e+06
internal_count=530591 249090 188260 60830 58112 26045 12878 9492 13167 51279 6833 5176 3996 2691 6459 50878 4351 3397 3434 2959 3062 48711 1759 3033 1305 162215 6232 7991 1895 2482
shrinkage=1


Tree=3
num_leaves=31
num_cat=0
split_feature=8 25 1 1 25 21 8 18 8 25 26 0 20 8 20 25 8 20 0 1 26 0 26 8 26 1 1 1 25 8
split_gain=7.25853e+08 3.18945e+07 1.05494e+07 4.95982e+06 8.62664e+06 4.86387e+06 1.72837e+06 1.316e+06 885775 739959 505138 484950 412952 395677 393150 349361 249331 296058 222427 413985 220826 220683 212462 252201 186412 183591 168811 161552 571004 287718
threshold=0.77744002389545741 0.82787432312084019 -0.11692854152659009 0.10448420488820999 0.82787432312084019 -0.16237672840499096 0.93795758776152582 -1.2946853853217035 0.46598806977009843 0.82787432312084019 0.83075517560977263 -0.80157742328836257 0.30149670282844726 0.8948333979229427 0.77504234504053471 -0.74520896544704929 -0.238372517114501 0.89462458253015298 -0.10557542909943576 0.082342930246729978 0.83075517560977263 -1.0799782209639333 0.83075517560977263 0.93795758776152582 0.83075517560977263 -0.1999583214321401 -0.0045615727210790635 -0.28298810133769009 0.82787432312084019 -0.30785027443586854
decision_type=2 2 2 2 2 2 2 2 2 2 2 2 2 2 2 2 2 2 2 2 2 2 2 2 2 2 2 2 2 2
left_child=3 2 7 8 24 13 -7 15 27 -10 -6 -9 -13 -4 -8 -2 -12 -18 19 -16 -20 -15 23 -3 -5 -25 -23 -1 -29 -30
right_child=1 22 5 4 10 6 14 11 9 -11 16 12 -14 21 18 -17 17 -19 20 -21 -22 26 -24 25 -26 -27 -28 28 29 -31
leaf_value=-1.0920443233350687 -0.99612868937550259 -1.0103228914643205 -1.0260944334486428 -1.0878669281571973 -1.0475041961662777 -1.0713788814026168 -1.0110158820708341 -1.0841246121706545 -1.0819252618776165 -1.0412829253642095 -0.99026741020193365 -1.0392871747012418 -1.0770160453503514 -1.0743132782894518 -1.0609889139034447 -1.0519177610727759 -1.0030956886600393 -1.0306183152676114 -1.0579182700692205 -1.0109773096663044 -1.0205132440350153 -1.0061364228085117 -0.9826622728010791 -1.0141887054561907 -1.0711938903612177 -0.98561642739231792 -0.98904968594334597 -1.0898228159752283 -1.0117486174580355 -1.0682033624834781
leaf_weight=437067110.30607152 627946.1410484314 1251989.6748657227 913272.90397453308 15610931.293921232 1141286.538918972 3158798.4010906219 2544522.3894634247 7866790.5198016167 6263639.9943950176 1363768.8687069416 1154659.8230085373 1300744.61673069 1639258.9258041382 80830.236839294434 568741.06947898865 507339.31100463867 1975033.7525281906 1933783.4330654144 1473111.0449943542 1518840.0132293701 538929.42399024963 1678462.584145546 229832546.38182044 587853.50207901001 1878114.0596264005 12889626.245064735 10415397.748405695 19474168.190542519 278030.08930206299 1198765.6740188599
leaf_count=300986 357 970 757 14373 921 2840 2042 6131 4935 993 555 964 1037 76 408 240 1497 1408 1181 1107 454 1168 151751 405 1421 9089 7283 14312 143 787
internal_value=0 1.28597 0.390717 -0.734244 -0.287933 0.788207 0.255588 -0.371204 -0.756954 -0.418978 0.725101 -0.478799 -0.132282 1.18714 0.545109 0.652995 0.860562 0.739956 0.353467 0.582142 0.116207 1.23476 1.41348 1.29706 -0.647337 1.33694 1.24577 -0.762583 -0.676802 -0.0773054
internal_weight=0 2.79395e+08 3.4833e+07 4.89339e+08 2.36938e+07 2.28909e+07 9.80294e+06 1.19421e+07 4.65645e+08 7.62741e+06 6.20476e+06 1.08068e+07 2.94e+06 1.3088e+07 6.64414e+06 1.13529e+06 5.06348e+06 3.90882e+06 4.09962e+06 2.08758e+06 2.01204e+06 1.21747e+07 2.44562e+08 1.47295e+07 1.7489e+07 1.34775e+07 1.20939e+07 4.58018e+08 2.0951e+07 1.4768e+06
internal_count=530591 188260 26045 342331 20175 17316 8032 8729 322156 5928 4381 8132 2001 9284 5192 597 3460 2905 3150 1515 1635 8527 162215 10464 15794 9494 8451 316228 15242 930
shrinkage=1


Tree=4
num_leaves=31
num_cat=0
split_feature=25 8 19 8 19 0 20 0 1 18 18 0 14 1 0 18 14 1 1 21 18 16 0 8 1 12 8 18 0 18
split_gain=5.129e+08 8.0395e+07 3.0996e+07 7.00978e+06 1.05782e+08 6.78515e+06 3.60849e+06 1.47621e+06 1.19228e+06 491021 380728 1.03378e+06 247741 218336 121348 119691 92311.3 134478 51419.1 45046.4 44592.9 39517.4 189615 32626.5 79671.4 30605.3 29939.2 27872.5 27860.3 198722
threshold=-0.74520896544704929 -0.84450594009729529 1.0000000180025095e-35 -0.84450594009729529 1.0000000180025095e-35 -1.0799782209639333 -0.79387657432965553 -1.0335780880180045 0.034739189767547952 0.68484958240439875 0.68484958240439875 -0.89437768918021943 -0.8178875473340893 -0.062128886788927078 -0.75517729034243408 1.3835089827783171 1.0000000180025095e-35 -0.1767099830585861 0.36409065005956309 -0.085621655252836867 -0.36313951815647899 0.56936575184899774 -1.1263783539098615 0.58817303060097259 -0.23870555205473012 1.1148138498104994 1.2805547190210376 0.80129281580005185 -0.89437768918021943 0.68484958240439875
decision_type=2 2 2 2 2 2 2 2 2 2 2 2 2 2 2 2 2 2 2 2 2 2 2 2 2 2 2 2 2 2
left_child=1 2 -1 4 -2 21 10 9 15 -8 -7 12 -12 -14 16 20 -13 -18 19 -10 -9 -3 -23 24 27 -15 -25 -22 29 -5
right_child=3 5 -4 28 -6 6 7 8 18 -11 11 14 13 25 -16 -17 17 -19 -20 -21 23 22 -24 26 -26 -27 -28 -29 -30 -31
leaf_value=0.087538415859787694 0.08753881891777146 0.084538898879356533 -0.033353372912576167 -0.032962555054478954 -0.033353371863794223 -0.032962497593643884 -0.030102157910358685 0.022682220156377591 -0.01429550519398734 0.076297621805748284 -0.032137074611213429 -0.023361162946018445 0.06524737512563604 -0.018337922952486558 -0.031096205659230797 -0.033522625720642789 0.058182968131172456 -0.028236953853373895 -0.028930225234030601 0.03741536411611019 0.022729332129613762 0.08059823137337907 -0.034870444523012384 0.082766832018746878 -0.0024024435686984323 0.036477638197629877 0.056578678650203079 0.074745376727533619 -0.033262754089679887 -0.0048831356252561691
leaf_weight=154686838.31185591 20205080.043186963 1448146.9619750977 5490341.2463674545 5943228.7748451233 173255100.84812117 15335165.710346222 1007056.6335678101 40765.844787597656 114955.37218475342 121516.17071533203 108747.2070350647 234756.5392832756 492615.77762651443 107461.44863367081 2981744.5035848618 26151.636726379395 112744.88559150696 74934.83399772644 306784.59009742737 66464.965492248535 27811.218734741211 254981.81302642822 41314.391176223755 1029609.6570692062 41126.65252494812 33372.014600753784 122076.5500831604 348132.42094230652 264850029.84022862 704825.21768379211
leaf_count=157909 15472 1435 3843 4747 104277 12143 947 38 106 162 100 238 614 118 4094 20 86 77 256 55 20 201 52 770 40 54 101 233 221682 701
internal_value=0 1.40995 1.66789 -0.560003 -0.414547 -0.277931 -0.423771 0.551289 1.04239 -0.372917 -0.586558 -0.317711 0.751655 0.991038 -0.550859 1.45172 -0.0492517 0.473562 -0.329037 0.0929847 1.4862 1.6227 1.28995 1.51303 1.27339 -0.106976 1.59982 1.41795 -0.66365 -0.599712
internal_weight=0 1.84656e+08 1.60177e+08 4.64958e+08 1.9346e+08 2.44784e+07 2.2734e+07 3.25245e+06 2.12388e+06 1.12857e+06 1.94815e+07 4.14638e+06 742196 633449 3.40418e+06 1.63567e+06 422436 187680 488205 181420 1.60952e+06 1.74444e+06 296296 1.56876e+06 417070 140833 1.15169e+06 375944 2.71498e+08 6.64805e+06
internal_count=530591 183712 161752 346879 119749 21960 20272 2748 1639 1109 17524 5381 886 786 4495 1222 401 163 417 161 1202 1688 253 1164 293 172 871 253 227130 5448
shrinkage=0.05


Tree=5
num_leaves=31
num_cat=0
split_feature=19 8 25 22 20 25 8 1 25 13 18 8 8 8 1 8 18 14 8 18 8 1 0 0 20 1 21 8 0 23
split_gain=7.64868e+08 312.029 178.561 68.4097 37.5929 29.2906 26.7214 24.897 58.1006 10.0912 8.14394 5.82461 5.80943 2.99693 2.90823 5.55971 13.7128 6.38694 4.67291 3.84024 4.86672 4.52124 4.24468 5.62289 3.40491 2.68186 8.09334 2.90933 2.78239 2.64414
threshold=1.0000000180025095e-35 0.8109809487353461 0.82787432312084019 1.0000000180025095e-35 0.4162956781886829 -0.74520896544704929 0.77744002389545741 0.082342930246729978 0.82787432312084019 -0.71266632196898161 -1.2946853853217035 -0.84450594009729529 0.46598806977009843 0.46598806977009843 0.049131018284509963 -0.84450594009729529 0.68484958240439875 1.0000000180025095e-35 0.8948333979229427 -1.2946853853217035 0.8109809487353461 -0.13408802937373707 -1.0799782209639333 -0.84797755623429094 -0.79387657432965553 -0.1661928776038831 -0.16237672840499096 0.8948333979229427 -0.80157742328836257 0.57658250863770377
decision_type=2 2 2 2 2 2 2 2 2 2 2 2 2 2 2 2 2 2 2 2 2 2 2 2 2 2 2 2 2 2
left_child=2 7 5 -3 9 14 -4 13 29 -5 -6 -7 -13 -2 15 -1 19 24 -16 20 -17 -22 -21 -24 -18 28 27 -27 -14 -9
right_child=1 3 6 4 10 11 -8 8 -10 -11 -12 12 25 -15 18 16 17 -19 -20 22 21 -23 23 -25 -26 26 -28 -29 -30 -31
leaf_value=-0.034599301133041473 0.079848922990885585 0.082440780201103389 -0.03460560791482916 0.081120820966552348 0.081021816753097164 -0.034599302507698118 -0.034545633550625288 0.079962784928454544 0.081911173476190549 0.082136530888117121 0.080391558298429672 -0.034657378937403005 -0.034694513620145272 0.080149316794217329 -0.034640217776669147 -0.03466828900718337 -0.03463982139254166 -0.034486603365121833 -0.034553744026866687 -0.034588424901887599 -0.034415023231630537 -0.034613477496764966 -0.034736673322216811 -0.034652639005081663 -0.03447299818341381 -0.034620305105575781 -0.034632355642286915 -0.034520072864223796 -0.03462091156807226 0.080279126028124384
leaf_weight=151987237.45119625 208290480.91979837 85566.471309661865 20325571.074794769 43090.833251953125 69572.925903320312 8146658.4918812513 215321775.74105728 311802.23606491089 45785.970581054688 56538.821197509766 194672.40045166016 35707235.913987696 2637069.7632732391 83063.061595916748 2013276.7994627953 1227250.6339035034 1766369.5190895796 1999970.4433689117 6974140.4167063236 1398223.0347518921 515318.59420394897 647746.10604476929 3074613.237121582 5646082.6891498566 369923.01651382446 1019968.0719432831 17375458.244686961 2494664.2748451233 2502608.7029435635 83811.98104095459
leaf_count=157905 110517 58 15680 20 24 6625 162195 188 30 38 93 31415 2075 65 1893 678 2326 2100 5521 1232 335 399 2652 4415 304 968 16764 2018 2020 38
internal_value=0 1.59705 -0.691639 1.62337 1.61739 -0.692232 -0.691016 1.597 1.6045 1.63394 1.61115 -0.692781 -0.692886 1.59698 -0.692017 -0.692046 -0.692595 -0.691016 -0.691462 -0.693117 -0.691977 -0.690511 -0.693386 -0.693645 -0.692219 -0.692526 -0.692367 -0.690983 -0.693174 1.6006
internal_weight=0 2.09264e+08 4.83151e+08 449441 363875 2.47504e+08 2.35647e+08 2.08815e+08 441400 99629.7 264245 6.98837e+07 6.1737e+07 2.08374e+08 1.7762e+08 1.68633e+08 1.66455e+07 4.13626e+06 8.98742e+06 1.25092e+07 2.39032e+06 1.16306e+06 1.01189e+07 8.7207e+06 2.13629e+06 2.60298e+07 2.08901e+07 3.51463e+06 5.13968e+06 395614
internal_count=530591 111071 419520 233 175 241645 177875 110838 256 58 117 61885 55260 110582 179760 172346 14441 4730 7414 9711 1412 734 8299 7067 2630 23845 19750 2986 4095 226
shrinkage=0.05


Tree=6
num_leaves=31
num_cat=0
split_feature=1 25 25 19 1 0 19 1 3 1 0 18 14 26 20 26 26 0 21 20 20 0 21 26 18 0 22 24 21 1
split_gain=1.04663e+08 3.27269e+08 3.37775e+07 7.07877e+06 9.83031e+06 7.49906e+06 3.94437e+06 3.79127e+06 3.47976e+06 3.37651e+06 5.51425e+06 3.05736e+06 2.72293e+06 1.77479e+06 1.5302e+06 1.42492e+06 1.20821e+06 1.16461e+06 1.14875e+06 1.0275e+06 860498 826064 657436 652074 626835 697264 623526 619280 569319 427812
threshold=-0.61400015722781609 0.82787432312084019 1.0000000180025095e-35 1.0000000180025095e-35 -0.11969620085677508 -1.0799782209639333 1.0000000180025095e-35 -0.083716629564370079 1.0000000180025095e-35 0.10448420488820999 -0.61597689150464874 0.68484958240439875 1.0000000180025095e-35 0.83075517560977263 0.77504234504053471 0.83075517560977263 0.83075517560977263 -0.56957675855872025 1.0000000180025095e-35 0.10777351458886818 0.56936093305199376 -0.10557542909943576 -0.011688459790100209 0.83075517560977263 -1.2946853853217035 -0.89437768918021943 1.0000000180025095e-35 -0.036153657778487551 -0.04272911437369193 -0.2099218950208061
decision_type=2 2 2 2 2 2 2 2 2 2 2 2 2 2 2 2 2 2 2 2 2 2 2 2 2 2 2 2 2 2
left_child=-1 2 3 4 5 -2 9 15 26 20 22 24 19 18 16 29 -9 -10 -12 -13 -4 -14 -11 27 25 -7 -6 -16 -17 -3
right_child=1 7 6 -5 8 11 -8 14 17 10 13 12 21 -15 23 28 -18 -19 -20 -21 -22 -23 -24 -25 -26 -27 -28 -29 -30 -31
leaf_value=-0.027537118754921916 -0.022373892212172893 0.11088689774402503 0.18282946009370374 -0.027828460341354468 9.5409608460904065e-05 0.029241234234417459 -0.02784012971489282 0.077391140130972133 0.034677877581373764 0.0028133159453251158 0.11279361297630384 0.16111453910747445 -0.0043642582057886702 0.10235830854330952 -0.016390519000064611 -0.0071452602006979692 -0.0035707392375922717 0.10177509012415234 0.1683765958217536 0.0038022076349339233 0.15951273670633884 0.18603912449921098 0.088445166285567325 -0.024783685630150067 0.17049867757086851 0.14445878346156976 0.098896475864304861 0.022954371252131057 0.040451029882670603 0.044654513877632133
leaf_weight=165420803.9913694 774123.88879489899 530703.72803115845 16498877.168806612 1528019.4839611053 3194375.6330370903 157784.95020866394 265873.36395454407 599983.43135213852 965598.48300147057 662346.25037002563 1044917.1967039108 800611.51880043745 674424.44917106628 1423406.5810956061 4259402.7610881329 1727231.4596891403 1986561.3771230578 1958291.0691587925 8420673.590038538 119261.77444267273 5205270.5542150736 62219.87970161438 338790.78712749481 90537284.41171962 3995812.0786604881 782599.94690704346 168090.62114620209 1307002.8957333565 987459.48754787445 451007.2045249939
leaf_count=282180 1728 813 24582 2348 5049 181 419 1006 1826 999 1792 1775 1230 2428 7300 2702 3254 3568 16058 186 7892 189 522 149056 5771 789 217 2524 1464 743
internal_value=0 0.599861 2.72403 1.4846 1.71304 2.49687 3.27973 -0.41758 0.794478 3.3101 2.88177 2.8426 1.66706 3.08826 -0.454821 0.576722 0.304189 1.59233 3.24481 2.81438 3.54475 0.234359 0.635833 -0.475249 3.2371 2.50253 0.10069 -0.143045 0.203355 1.60918
internal_weight=0 1.51428e+08 4.90414e+07 1.51812e+07 1.36532e+07 7.36684e+06 3.38602e+07 1.02387e+08 6.28636e+06 3.35943e+07 1.18901e+07 6.59271e+06 1.65652e+06 1.0889e+07 9.86902e+07 3.6964e+06 2.58654e+06 2.92389e+06 9.46559e+06 919873 2.17041e+07 736644 1.00114e+06 9.61037e+07 4.9362e+06 940385 3.36247e+06 5.56641e+06 2.71469e+06 981711
internal_count=530591 248411 79549 24857 22509 11849 54692 168862 10660 54273 21799 10121 3380 20278 163140 5722 4260 5394 17850 1961 32474 1419 1521 158880 6741 970 5266 9824 4166 1556
shrinkage=0.05


Tree=7
num_leaves=31
num_cat=0
split_feature=8 1 26 26 1 26 8 18 24 8 1 24 18 0 3 26 19 0 1 0 23 8 24 8 23 1 20 8 23 0
split_gain=6.65599e+08 2.12018e+07 7.06273e+06 5.05239e+06 4.76437e+06 6.2011e+06 3.9022e+06 1.42031e+06 919911 855496 823983 786760 573049 572901 546738 401107 351729 337154 245320 237962 233826 229955 214698 195314 170342 151904 308790 350433 150107 125124
threshold=0.77744002389545741 -0.1390698161680701 0.83075517560977263 0.83075517560977263 0.10448420488820999 0.83075517560977263 0.93795758776152582 -1.2946853853217035 0.014650334307584971 0.46598806977009843 -0.0045615727210790635 -0.14353482286950445 -0.82891245173909123 -0.80157742328836257 1.0000000180025095e-35 0.83075517560977263 1.0000000180025095e-35 0.31202576741392035 0.93478200394371036 -0.89437768918021943 0.6313965997325488 0.87327139439556789 -0.32192611326264547 -0.14014537606067526 0.95789778067527032 -0.28298810133769009 0.96159070851154482 -0.18326947450734163 0.93883194661610025 -1.0799782209639333
decision_type=2 2 2 2 2 2 2 2 2 2 2 2 2 2 2 2 2 2 2 2 2 2 2 2 2 2 2 2 2 2
left_child=4 2 7 6 9 -6 11 16 10 25 12 -3 -8 -9 23 -11 -2 -10 28 -14 -15 -5 -21 -7 -25 -1 -27 -28 -16 -12
right_child=1 3 -4 21 5 14 8 13 17 15 29 -13 19 20 18 -17 -18 -19 -20 22 -22 -23 -24 24 -26 26 27 -29 -30 -31
leaf_value=-0.037563418476734015 0.0448713466992684 0.030170732412039949 0.056234477291880497 0.057979898727048819 -0.030743986720590446 0.058602007681488301 0.057967645675399797 -0.029416656187528319 0.042661137151815708 -0.025996805303790407 -0.011304983371921375 -0.012487410276992553 -0.0055914648555520649 0.0082276553484693111 0.019275591967682706 0.0033019088522350821 -0.038127785242749401 0.016427600951265189 0.036259654774023278 0.0449719430051779 -0.022732108717212152 0.066401484365010296 3.444233387095594e-05 0.04630115650202983 0.018350939365340029 -0.034628368830979313 0.040718838321278233 -0.0239001102075499 -0.0035866312338878846 0.061386908374866156
leaf_weight=428949666.3774696 1063041.1129722595 1685232.4596319199 4724447.7498836517 8401174.7040500641 16525111.196957827 1022911.5228748322 1471175.271987915 7602622.643913269 3724783.8389558792 6112232.9533500671 59394.199989318848 3014047.9922151566 744319.22979164124 1750873.7501449585 1216649.8838371038 1444168.4731044769 145062.63513183594 1824790.9021239281 849282.89788168669 816107.74327659607 935850.09929466248 230541426.6057781 394175.63019752502 1074486.205493927 1106459.8333969116 19542983.174311161 281252.91074752808 825964.83535385132 1751641.6461763382 17962324.703291893
leaf_count=300986 586 1426 2888 5906 15294 502 822 5988 2986 4841 51 2639 590 1313 945 1087 52 1442 678 646 540 147903 270 730 829 14533 155 554 1197 12212
internal_value=0 1.20579 0.0953452 1.27234 -0.719033 -0.280368 0.897202 -0.327625 1.04359 -0.741627 1.13749 0.0562088 0.687927 -0.44806 0.506914 -0.407946 0.698105 0.680702 0.251279 0.333098 -0.0511274 1.32211 0.606726 0.811517 0.642423 -0.747235 -0.663461 -0.149715 0.115684 1.22295
internal_weight=0 2.86861e+08 1.62219e+07 2.70639e+08 4.80703e+08 2.35465e+07 3.16964e+07 1.14975e+07 2.69971e+07 4.57156e+08 2.14475e+07 4.69928e+06 3.42578e+06 1.02893e+07 7.02143e+06 7.5564e+06 1.2081e+06 5.54957e+06 3.81757e+06 1.9546e+06 2.68672e+06 2.38943e+08 1.21028e+06 3.20386e+06 2.18095e+06 4.496e+08 2.06502e+07 1.10722e+06 2.96829e+06 1.80217e+07
internal_count=530591 188260 11367 176893 342331 20175 23084 8479 19019 322156 14591 4065 2328 7841 4881 5928 638 4428 2820 1506 1853 153809 916 2061 1559 316228 15242 709 2142 12263
shrinkage=0.05


Tree=8
num_leaves=31
num_cat=0
split_feature=25 8 8 22 0 0 0 21 0 0 1 26 0 18 0 18 0 0 26 4 3 0 14 1 18 18 18 18 5 18
split_gain=4.66356e+08 6.90648e+07 6.87486e+06 7.85703e+07 6.17526e+06 5.68275e+06 5.27217e+06 3.40285e+06 1.89154e+06 1.33912e+06 1.05139e+06 954430 736525 465012 446583 385574 970384 357593 348434 321288 277128 335145 260258 246601 242850 197236 162891 158915 118631 113844
threshold=-0.74520896544704929 -0.84450594009729529 -0.84450594009729529 1.0000000180025095e-35 -1.0799782209639333 0.86882736276506189 0.86882736276506189 -0.60936215440871189 1.1008280274947044 -1.0335780880180045 0.034739189767547952 -0.7292874694087409 1.1008280274947044 0.68484958240439875 0.59042656508949121 0.68484958240439875 -0.84797755623429094 0.49762629919763418 0.83075517560977263 1.0000000180025095e-35 1.0000000180025095e-35 1.0544278945487757 -0.8178875473340893 -0.062128886788927078 -0.13025305136517284 1.0000000180025095e-35 -0.36313951815647899 -1.4111286187173564 1.0000000180025095e-35 -0.47958275155213198
decision_type=2 2 2 2 2 2 2 2 2 2 2 2 2 2 2 2 2 2 2 2 2 2 2 2 2 2 2 2 2 2
left_child=1 6 3 5 -3 14 17 15 11 13 -11 19 29 -9 -2 -6 22 -1 -19 20 24 28 -17 -24 -8 -21 -13 -23 -22 -7
right_child=2 4 -4 -5 7 12 8 9 -10 10 -12 26 -14 -15 -16 16 -18 18 -20 25 21 27 23 -25 -26 -27 -28 -29 -30 -31
leaf_value=0.079887433455156948 0.077980587949694743 0.074831239972945593 -0.032784527208771203 -0.032541739524318332 -0.032592160629907926 0.0091983587590999862 0.01648857802945651 -0.029752458306016645 -0.024504792816821452 0.067818811997351736 -0.016180556044490622 -0.00045142287023959207 -0.030967392268534528 0.072400696261575914 0.057925458034913384 -0.031805235615329101 -0.028078670185786272 0.074628208487365386 0.051104316649627106 0.001292435589116442 0.047351209918932116 0.0098426984486278679 0.058159972086855798 -0.0098425733956275033 0.059543140969393907 0.049979712189580944 0.031256374593787217 0.051230428628622621 0.071851638215453789 0.029244926452715581
leaf_weight=140076983.40335333 16923678.300361633 1825432.2615470886 264881464.52448177 166286609.16216946 15004353.564498425 1260248.0303497314 636035.17220306396 988872.16356468201 940673.00901603699 1683343.5716352463 478387.20989990234 857366.78737640381 918273.27669143677 125547.81856918335 3320437.530333519 139770.5274605751 3227156.7029365301 15010491.71549201 1758555.1628341675 395496.56771850586 552754.07958602905 328253.61386108398 578703.43475675583 173222.03537845612 675221.02792072296 438813.36370277405 767756.25968170166 790402.71630859375 4653854.7413825989 1616836.0408735275
leaf_count=144292 12828 1688 227130 102192 12147 594 366 946 705 1214 412 474 707 163 2061 135 4377 9178 1077 370 326 127 675 203 446 433 642 562 2754 1367
internal_value=0 1.30646 -0.551519 -0.40654 -0.271988 1.2833 1.53422 -0.41612 0.866168 0.525557 0.984598 0.992535 0.160406 -0.364883 1.49382 -0.577447 -0.306431 1.58123 1.44323 1.12721 1.19158 1.27832 0.616959 0.849883 0.773184 0.538 0.290566 0.781716 1.38501 0.409279
internal_weight=0 1.92107e+08 4.55208e+08 1.90326e+08 2.42248e+07 2.40395e+07 1.67883e+08 2.23994e+07 1.10366e+07 3.27615e+06 2.16173e+06 1.0096e+07 3.79536e+06 1.11442e+06 2.02441e+07 1.91232e+07 4.11885e+06 1.56846e+08 1.6769e+07 8.47083e+06 7.63652e+06 6.32527e+06 891696 751925 1.31126e+06 834310 1.62512e+06 1.11866e+06 5.20661e+06 2.87708e+06
internal_count=530591 183712 346879 119749 21960 17557 161752 20272 7205 2735 1626 6500 2668 1109 14889 17537 5390 154547 10255 5384 4581 3769 1013 878 812 803 1116 689 3080 1961
shrinkage=0.05


Tree=9
num_leaves=31
num_cat=0
split_feature=19 8 8 8 1 1 26 22 1 25 0 25 21 1 21 8 26 26 25 18 18 0 0 8 25 1 26 20 1 8
split_gain=6.9571e+08 796.577 633.453 351.609 147.181 122.657 182.049 78.6612 68.1361 43.0912 34.9432 30.4139 22.4732 22.0454 18.0339 17.9946 18.5388 16.1084 13.9455 13.4665 12.6247 14.1279 11.9725 11.0257 10.0077 9.59255 9.14713 8.11672 8.07259 7.89302
threshold=-1.0000000180025095e-35 0.77744002389545741 0.8109809487353461 -0.84450594009729529 -0.11969620085677508 0.10448420488820999 0.83075517560977263 1.0000000180025095e-35 -0.1661928776038831 0.82787432312084019 -0.80157742328836257 0.82787432312084019 -0.46826826993784038 0.10448420488820999 -0.60936215440871189 0.87327139439556789 0.83075517560977263 0.83075517560977263 0.82787432312084019 -1.2946853853217035 0.68484958240439875 -1.0799782209639333 -0.94077782212614791 0.46598806977009843 -0.74520896544704929 -0.11969620085677508 0.83075517560977263 0.56936093305199376 -0.61400015722781609 0.93795758776152582
decision_type=2 2 2 2 2 2 2 2 2 2 2 2 2 2 2 2 2 2 2 2 2 2 2 2 2 2 2 2 2 2
left_child=1 3 5 -1 7 23 -7 -4 10 -8 19 14 22 -13 25 16 -10 -15 -17 -3 21 -21 -9 -2 -16 -5 29 -24 -26 -20
right_child=2 8 4 11 -6 6 9 12 15 -11 -12 13 -14 17 24 18 -18 -19 26 20 -22 -23 27 -25 28 -27 -28 -29 -30 -31
leaf_value=-0.034133743321323733 0.073920712387054374 -0.033978370278369287 0.077125779218217172 -0.034287658426915023 0.078211750399256624 0.074211939830995027 0.075850508071566278 0.074995857060449464 -0.034192668173627608 0.078018840184520655 -0.034061023134903549 -0.034463921634033862 0.074791695240147865 -0.034478870374173645 -0.034045336159493081 -0.033989616575655378 -0.034052456455283368 -0.03425594762688574 -0.034382915793229656 -0.03411409106738824 -0.03408936876758014 -0.034318741734455739 0.076365798349784852 0.074485986621834394 -0.034658952652202257 -0.034395989843486338 -0.034033698757939455 0.075492648487301126 -0.034246053599099158 -0.034074430560546175
leaf_weight=167997005.61836267 216785848.11573356 494255.93154525757 59531.15705871582 7237792.6967870593 54410.334442138672 344189.10457229614 62091.751678466797 55318.42919921875 3539898.0134310722 36312.549438476562 5451450.6479635239 3158094.0703184605 190034.97860717773 995300.46890044212 622828.73104000092 17385669.328314543 7057981.1800088882 4361391.9799631834 211353.34621047974 1042937.9558448792 1038741.1138520241 4405992.5112056732 50108.870300292969 86297.70726776123 118687.74597597122 2847351.691057682 187981921.07021976 56770.440948486328 45120625.995829344 10960501.993284225
leaf_count=173381 110527 302 36 6372 47 192 29 23 3566 25 4072 2482 68 917 489 14835 5927 3434 190 936 1165 3692 25 65 120 2684 144364 34 41614 8978
internal_value=0 -0.682118 1.47853 -0.683437 1.51535 1.47845 1.49508 1.5089 -0.680838 1.53301 -0.683118 -0.685422 1.50321 -0.687183 -0.685154 -0.680714 -0.681986 -0.685947 -0.680651 -0.684599 -0.684982 -0.685591 1.51186 1.47842 -0.684888 -0.686365 -0.680726 1.51804 -0.684943 -0.681605
internal_weight=0 4.7203e+08 2.17781e+08 2.32459e+08 466174 2.17315e+08 442593 411764 2.39571e+08 98404.3 1.24334e+07 6.44621e+07 352233 8.51479e+06 5.59473e+07 2.27137e+08 1.05979e+07 5.35669e+06 2.16539e+08 6.98193e+06 6.48767e+06 5.44893e+06 162198 2.16872e+08 4.58621e+07 1.00851e+07 1.99154e+08 106879 4.52393e+07 1.11719e+07
internal_count=530591 419520 111071 231493 233 110838 246 186 188027 54 10167 58112 150 6833 51279 177860 9493 4351 168367 6095 5793 4628 82 110592 42223 9056 153532 59 41734 9168
shrinkage=0.05


Tree=10
num_leaves=31
num_cat=0
split_feature=8 8 25 19 25 25 1 1 8 1 0 18 0 18 0 21 1 8 1 21 8 20 26 26 0 18 14 8 1 8
split_gain=1.00073e+08 2.82538e+08 3.68245e+07 1.87939e+07 8.45884e+06 8.28728e+06 3.13556e+06 2.69734e+06 3.39826e+06 2.13237e+06 1.94182e+06 1.69129e+06 1.68656e+06 1.45923e+06 1.22066e+06 1.01336e+06 601193 1.03408e+06 566759 509719 485257 412263 411530 410129 408478 1.10383e+06 681411 387170 328829 296486
threshold=-0.84450594009729529 0.8109809487353461 0.82787432312084019 1.0000000180025095e-35 1.0000000180025095e-35 0.82787432312084019 -0.17228172813029011 -0.1113932228662201 0.93795758776152582 0.51631191321973824 -1.0799782209639333 0.68484958240439875 -1.0799782209639333 -1.2946853853217035 -0.84797755623429094 0.54478582056301716 -0.061575354922890076 -0.30785027443586854 0.082342930246729978 1.0000000180025095e-35 0.87327139439556789 0.081465413217751456 0.83075517560977263 0.83075517560977263 -0.80157742328836257 0.68484958240439875 -0.8178875473340893 0.8948333979229427 -0.26140035856224708 0.41567659111834876
decision_type=2 2 2 2 2 2 2 2 2 2 2 2 2 2 2 2 2 2 2 2 2 2 2 2 2 2 2 2 2 2
left_child=-1 3 4 5 6 12 10 -6 -9 16 -3 13 -2 -12 -15 18 -7 -18 -10 -20 23 -16 -11 -4 25 -14 -27 -8 -28 -19
right_child=1 2 20 -5 7 9 27 8 15 22 11 -13 24 14 21 -17 17 29 19 -21 -22 -23 -24 -25 -26 26 28 -29 -30 -31
leaf_value=-0.027732185186264875 -0.0022816643319417285 -0.027563752198529107 0.03818930839638468 -0.027729980454050587 0.13201045278638218 0.13307213068242693 0.044947760172580606 0.12775268047406307 0.067557816997371706 0.091902658042450985 -0.0078456232128107459 0.0029723302362064338 0.15402424163156839 0.14451035555953384 0.078053128711128378 0.087699067378535556 -0.0072242088175442937 0.13061776594079738 -0.0060626388396726877 0.042105683418197044 -0.025928119398841834 -0.027741402278958167 0.021248186593760522 -0.01343316126753125 0.15321515782323086 0.16185943292107963 0.018085748393380029 -0.0097662903392877962 0.12781689295865797 0.084875896031722131
leaf_weight=160700671.4573769 178068.25999450684 536860.69446182251 441011.65406370163 1666393.8761129379 2663869.3034591675 1129679.883439064 347807.89682483673 1832732.1553719044 769988.94580554962 244007.94979810715 268902.57959747314 585897.66279268265 1399301.9457073212 1184938.221165657 323999.78824710846 1054926.0943279266 252887.26803398132 566458.09629774094 1112930.0200064182 1084328.5116171837 92289348.139842987 128648.17369842529 1326316.2460413575 3016130.3270409107 35063887.979918003 155804.02985191345 344837.17281103134 4593909.0231212378 85127.237180709839 945651.99827933311
leaf_count=281501 402 1139 770 2718 3384 1599 639 3019 1082 404 296 1090 1773 1684 424 1733 303 796 1794 1850 155983 139 2221 5442 48188 190 577 7749 172 1530
internal_value=0 0.570477 -0.267074 2.73853 1.11317 2.87016 0.372747 1.80598 1.42643 1.58281 1.17382 1.54541 3.02456 2.00207 2.35659 0.912163 2.0918 1.72721 0.612877 0.35416 -0.504784 0.9597 0.644539 -0.136958 3.03932 2.59801 1.44548 -0.118308 0.796221 2.04023
internal_weight=0 1.55595e+08 1.12236e+08 4.33584e+07 1.64897e+07 4.1692e+07 7.97096e+06 8.51878e+06 5.85491e+06 4.465e+06 3.02925e+06 2.49239e+06 3.7227e+07 1.90649e+06 1.63759e+06 4.02217e+06 2.89468e+06 1.765e+06 2.96725e+06 2.19726e+06 9.57465e+07 452648 1.57032e+06 3.45714e+06 3.7049e+07 1.98507e+06 585768 4.94172e+06 429964 1.51211e+06
internal_count=530591 249090 188217 60873 26022 58155 13160 12862 9478 6853 4772 3633 51302 2543 2247 6459 4228 2629 4726 3644 162195 563 2625 6212 50900 2712 939 8388 749 2326
shrinkage=0.05


Tree=11
num_leaves=31
num_cat=0
split_feature=8 25 1 25 1 21 8 18 1 8 0 8 20 8 20 25 8 1 26 0 1 8 26 26 8 18 26 23 8 0
split_gain=6.13119e+08 2.46939e+07 8.81928e+06 4.58532e+06 8.53339e+06 3.99242e+06 1.42947e+06 1.17992e+06 575654 470302 441816 424278 370937 327820 319392 298991 236727 228311 189649 185632 290896 177958 174178 162279 158870 154407 145836 122998 157936 114118
threshold=0.77744002389545741 0.82787432312084019 -0.11692854152659009 0.82787432312084019 -0.1661928776038831 -0.14488108673060288 0.93795758776152582 -1.2946853853217035 0.51631191321973824 -0.30785027443586854 -0.80157742328836257 0.41567659111834876 0.30149670282844726 0.8948333979229427 0.77504234504053471 -0.74520896544704929 0.41567659111834876 -0.055486504396483075 0.83075517560977263 -0.19837569499129268 0.17755041120509404 0.46598806977009843 0.83075517560977263 0.83075517560977263 0.87327139439556789 -1.1782421519260502 0.83075517560977263 0.95789778067527032 -0.14014537606067526 -1.0799782209639333
decision_type=2 2 2 2 2 2 2 2 2 2 2 2 2 2 2 2 2 2 2 2 2 2 2 2 2 2 2 2 2 2
left_child=3 2 7 11 16 13 -7 15 9 -6 -9 -1 -12 -4 -8 -2 -5 25 -10 20 -16 -11 -21 -13 26 -15 -3 -20 -29 -19
right_child=1 24 5 4 8 6 14 10 18 21 12 23 -14 17 19 -17 -18 29 27 22 -22 -23 -24 -25 -26 -27 -28 28 -30 -31
leaf_value=-0.036715624976193559 0.052737381001927902 0.038033930021524956 0.024259787698869269 -0.035920363530896476 0.052378719461849181 -0.017547904276589057 0.037697833924233703 -0.029226695894585028 0.012362805811091331 -0.0045890296046728254 0.013310551547504457 -0.030074347156704762 -0.02246140312497685 0.059353718038859152 -0.0011849886203922496 0.0015357099430481061 0.001979349676577786 -0.013419923283353853 0.056772895238683944 -0.003706622277461324 0.041025435596209137 0.016911457879137098 0.028237912466543891 -0.013968321870825327 0.062477323062852398 0.016623041450232995 0.058010327888901904 0.056757022464997697 0.026281211173756688 0.056572373416913305
leaf_weight=431179898.92641866 649025.37760543823 1030798.6244649887 970526.73624897003 16623250.942472935 708393.65474700928 3092615.1001133919 2516185.8967142105 7674169.814060688 497171.92518949509 1621927.0935344696 1315128.3604164124 13292410.022225857 1614176.2435998917 316559.82583618164 618137.48215103149 508515.73361206055 422489.71084213257 58518.970069885254 1389781.3555383682 1566577.6824502945 1201617.2253551483 2366825.0074567795 586462.06372833252 1772513.8905898333 248386084.31113672 636469.15487098694 8037653.9234867096 659206.12740707397 1197175.8363246918 12049035.764508486
leaf_count=311805 357 772 791 11254 344 2800 1968 6131 405 1068 964 11831 1037 175 451 240 305 55 1034 1244 832 1712 491 1382 155983 472 5460 302 889 8037
internal_value=0 1.13716 0.353732 -0.704987 -0.292442 0.706124 0.208533 -0.353768 0.529862 0.296725 -0.45842 -0.728549 -0.128028 1.04592 0.475184 0.604883 -0.69962 1.08759 0.822401 0.298622 0.533746 0.163376 0.0998937 -0.563587 1.2448 0.616331 1.11479 0.910489 0.742065 1.12468
internal_weight=0 2.92828e+08 3.53737e+07 4.71731e+08 2.54862e+07 2.36127e+07 9.5816e+06 1.1761e+07 8.44048e+06 4.69715e+06 1.06035e+07 4.46245e+08 2.9293e+06 1.40311e+07 6.48898e+06 1.15754e+06 1.70457e+07 1.30606e+07 3.74334e+06 3.97279e+06 1.81975e+06 3.98875e+06 2.15304e+06 1.50649e+07 2.57455e+08 953029 9.06845e+06 3.24616e+06 1.85638e+06 1.21076e+07
internal_count=530591 188260 26045 342331 17313 17316 7786 8729 5754 3124 8132 325018 2001 9530 4986 597 11559 8739 2630 3018 1283 2780 1735 13213 162215 647 6232 2225 1191 8092
shrinkage=0.05


Tree=12
num_leaves=31
num_cat=0
split_feature=25 8 19 8 19 0 20 0 1 18 18 0 14 1 18 0 14 1 8 18 16 0 24 8 1 0 18 1 14 18
split_gain=4.26012e+08 6.00715e+07 2.42434e+07 6.73722e+06 8.98347e+07 5.64962e+06 3.27884e+06 1.2309e+06 937954 421480 366116 919033 237659 217517 113797 71565.5 77261.7 81309.5 43821.3 33831.6 32995.8 163929 31290.2 29638.8 71787.4 27708.2 200845 262127 162701 69619.2
threshold=-0.74520896544704929 -0.84450594009729529 1.0000000180025095e-35 -0.84450594009729529 1.0000000180025095e-35 -1.0799782209639333 -0.79387657432965553 -1.0335780880180045 0.092306503835395973 0.68484958240439875 0.68484958240439875 -0.84797755623429094 -0.8178875473340893 -0.062128886788927078 1.3835089827783171 -0.75517729034243408 1.0000000180025095e-35 -0.1767099830585861 1.551278322405466 -0.36313951815647899 0.56936575184899774 -1.1263783539098615 -0.43450314118064709 0.58817303060097259 -0.23870555205473012 -0.89437768918021943 0.68484958240439875 -0.072645992243630067 -0.8178875473340893 0.80129281580005185
decision_type=2 2 2 2 2 2 2 2 2 2 2 2 2 2 2 2 2 2 2 2 2 2 2 2 2 2 2 2 2 2
left_child=1 2 -1 4 -2 20 10 9 14 -8 -7 12 -12 22 18 16 -13 -18 19 -9 -3 -22 -14 24 -21 26 -5 28 -28 -30
right_child=3 5 -4 25 -6 6 7 8 -10 -11 11 15 13 -15 -16 -17 17 -19 -20 23 21 -23 -24 -25 -26 -27 27 -29 29 -31
leaf_value=0.074436730200957785 0.074926656032008848 0.072466273621609678 -0.033116507852700199 -0.032230422113436318 -0.03260031034462995 -0.032253940223190267 -0.029372097282905237 0.021978777504089272 -0.020158065488249419 0.066103582905412087 -0.031886071115576821 -0.026135440197707423 0.057819537212768106 -0.0098452542048283777 -0.034084866422640553 -0.030393518237537484 0.057312525966661969 -0.028079809217766538 0.0064289298891883097 0.061794003672896475 0.068959028154050181 -0.035908081615630909 0.01763953322968553 0.070160964128467604 -0.0053063625468627341 -0.032485764807291213 -0.033312511322804945 -0.029246737795892864 0.080638078047965842 0.022712717706971062
leaf_weight=169112816.49368763 22016430.987665772 1575782.3304367065 5406978.9610862732 5676329.545343399 164994765.32623672 14671158.261965275 969815.37196350098 44375.193618774414 425479.72003173828 131235.03011703491 135228.06895303726 168755.51761627197 543222.07893753052 170223.02726817131 30069.601768493652 2867913.5430314541 76711.618654251099 43790.030876159668 32444.163177490234 403932.19479560852 277227.60743713379 43053.836112976074 53199.090026855469 1249199.4144706726 44224.124820709229 251815981.55426562 68412.29768371582 405431.99249076843 119142.43464279175 91869.681425094604
leaf_count=157909 15472 1435 3843 4747 104277 12143 947 39 376 162 133 174 631 200 22 4094 50 53 20 253 201 52 46 887 42 221682 53 447 113 88
internal_value=0 1.21826 1.42209 -0.54337 -0.398828 -0.2666 -0.408967 0.505244 0.93243 -0.359846 -0.57154 -0.305738 0.58455 0.800146 1.24739 -0.560056 -0.0859843 0.525623 1.28009 1.30154 1.38985 1.09725 1.08471 1.32407 1.10345 -0.648069 -0.582888 -0.0713294 0.673888 1.10837
internal_weight=0 1.98477e+08 1.7452e+08 4.45188e+08 1.87011e+08 2.3957e+07 2.2061e+07 3.33077e+06 2.22972e+06 1.10105e+06 1.87302e+07 4.05904e+06 901872 766644 1.80424e+06 3.15717e+06 289257 120502 1.77418e+06 1.74173e+06 1.89606e+06 320281 596421 1.69736e+06 448156 2.58177e+08 6.36119e+06 684856 279424 211012
internal_count=530591 183712 161752 346879 119749 21960 20272 2748 1639 1109 17524 5381 1010 877 1263 4371 277 103 1241 1221 1688 253 677 1182 295 227130 5448 701 254 201
shrinkage=0.05


Tree=13
num_leaves=31
num_cat=0
split_feature=19 22 8 0 8 8 0 8 8 1 8 8 1 1 1 26 1 26 26 22 20 1 18 0 18 4 18 18 26 0
split_gain=6.36757e+08 4498.09 1475.61 1079.26 692.821 422.746 417.613 301.244 185.03 148.666 132.922 99.8768 97.8766 71.0139 67.7858 74.5574 65.0144 64.729 64.3459 41.7697 41.2109 37.9421 48.2501 34.3542 33.7617 38.183 31.8756 31.6217 26.8196 21.8105
threshold=-1.0000000180025095e-35 1.0000000180025095e-35 0.8469177126728874 0.86882736276506189 0.8109809487353461 -0.84450594009729529 1.1008280274947044 0.8109809487353461 0.57619410928845882 -0.14460513482844009 0.77744002389545741 -0.81336074439915973 -0.11969620085677508 0.082342930246729978 0.049131018284509963 -0.7292874694087409 -1.0000000180025095e-35 0.83075517560977263 0.83075517560977263 1.0000000180025095e-35 0.4162956781886829 -0.5868770957920032 -0.36313951815647899 0.86882736276506189 1.0000000180025095e-35 1.0000000180025095e-35 -1.2946853853217035 -0.94535568513474433 0.83075517560977263 0.49762629919763418
decision_type=2 2 2 2 2 2 2 2 2 2 2 2 2 2 2 2 2 2 2 2 2 2 2 2 2 2 2 2 2 2
left_child=2 3 5 7 -3 19 14 11 13 17 -7 29 20 -8 15 24 -13 26 -15 23 27 22 -17 -1 25 -5 -4 -6 -12 -2
right_child=1 4 9 6 12 10 8 -9 -10 -11 28 16 -14 18 -16 21 -18 -19 -20 -21 -22 -23 -24 -25 -26 -27 -28 -29 -30 -31
leaf_value=-0.033694492744939096 0.070824433193605082 0.068922767039008778 -0.033504133570748364 0.070049534164586175 0.07105557090613572 -0.033871677332666182 0.069002156311703908 0.07391356573540761 0.07338426906527723 -0.033556619483404153 -0.033767757999971393 0.069229126972612201 0.073989229346350785 0.069440039820370072 0.071631315260263881 0.06955841929422503 0.071894442501383715 -0.033559477596575363 0.072374541737995873 -0.034130055307456546 0.070508766970264716 0.069062774242681577 0.069964855095357867 -0.033801318544925442 0.070357096875196229 0.069467013677680906 -0.033841176236370174 0.072987661883358604 -0.033586887233536852 0.070548470163703303
leaf_weight=155699094.23829496 1015297.3491697311 212371502.26360369 770730.99496841431 1358927.5082015991 60834.04541015625 63146249.132143319 2575602.8196001053 68351.465576171875 24829.790416717529 212778908.47326148 3467285.6815013885 197259.56782531738 26166.934768676758 51300.139190673828 52640.496307373047 1815401.3052825928 25881.779998719692 3648329.7252864838 29378.775909423828 565662.87899398804 269066.0341796875 235245.90462493896 1221588.5110416412 7908322.8847732544 629603.01902008057 354747.72895812988 7809871.2042369843 32486.278106689453 5012414.9337673187 2428689.5637722015
leaf_count=167545 634 103979 518 611 23 58112 1577 37 25 169807 3413 111 25 28 20 764 20 2709 21 329 106 157 896 5507 489 270 7046 21 4534 1257
internal_value=0 1.3796 -0.673159 1.39837 1.37853 -0.674907 1.39204 1.41249 1.38176 -0.671327 -0.676934 1.41127 1.42072 1.38096 1.39691 1.39657 1.39077 -0.674718 1.41017 -0.674023 1.41646 1.39349 1.39444 -0.673993 1.40088 1.39858 -0.676218 1.43456 -0.673217 1.4126
internal_weight=0 2.24845e+08 4.60807e+08 1.20847e+07 2.1276e+08 2.35799e+08 8.34927e+06 3.73548e+06 2.68111e+06 2.25008e+08 7.16259e+07 3.66713e+06 388553 2.65628e+06 5.66815e+06 5.61551e+06 223141 1.22289e+07 80678.9 1.64173e+08 362386 3.27224e+06 3.03699e+06 1.63607e+08 2.34328e+06 1.71368e+06 8.5806e+06 93320.3 8.4797e+06 3.44399e+06
internal_count=530591 111071 419520 6917 104154 239440 4858 2059 1651 180080 66059 2022 175 1626 3207 3187 131 10273 49 173381 150 1817 1660 173052 1370 881 7564 44 7947 1891
shrinkage=0.05


Tree=14
num_leaves=31
num_cat=0
split_feature=8 8 25 19 25 25 1 1 8 1 18 13 18 21 13 20 3 8 18 26 8 6 26 20 3 14 5 14 18 1
split_gain=9.43328e+07 2.33336e+08 3.4174e+07 1.43158e+07 6.89246e+06 5.7382e+06 2.76767e+06 1.95522e+06 2.58192e+06 1.64372e+06 976017 1.065e+06 1.2402e+06 881855 806093 564388 509446 485062 389703 380813 371994 360218 339514 328641 304824 292149 284876 430988 748449 806158
threshold=-0.84450594009729529 0.8109809487353461 0.82787432312084019 1.0000000180025095e-35 1.0000000180025095e-35 0.82787432312084019 -0.13408802937373707 -0.1113932228662201 0.93795758776152582 0.51631191321973824 0.68484958240439875 -0.8040678333506438 -1.2946853853217035 -0.16237672840499096 -0.57556405489648843 0.77504234504053471 1.0000000180025095e-35 0.87327139439556789 -1.0617989185303973 0.83075517560977263 0.8948333979229427 1.0000000180025095e-35 0.83075517560977263 0.081465413217751456 1.0000000180025095e-35 0.81053863547029048 1.0000000180025095e-35 1.0000000180025095e-35 0.68484958240439875 -0.28298810133769009
decision_type=2 2 2 2 2 2 2 2 2 2 2 2 2 2 2 2 2 2 2 2 2 2 2 2 2 2 2 2 2 2
left_child=-1 3 4 5 6 21 10 -6 -9 16 11 25 -13 -10 -14 -15 18 19 -7 -4 -8 26 -11 -16 -17 -3 27 -2 -29 -30
right_child=1 2 17 -5 7 9 20 8 13 22 -12 12 14 15 23 24 -18 -19 -20 -21 -22 -23 -24 -25 -26 -27 -28 28 29 -31
leaf_value=-0.027640178929352024 0.12784511318633349 -0.017442141385671774 0.035984062570737933 -0.027635137706593899 0.11450298069645724 0.018836726658038701 0.043243272821578638 0.11135167116958261 0.0027786145488678869 0.082417596348589056 -0.00079573362973844495 -0.0073638389607893319 0.12149920624995161 0.029698662771919671 0.069104929606692053 0.042983107363308626 0.10626420340902393 -0.025779454909931707 0.084988996627254454 -0.013131868668950181 -0.011264366637523339 -0.022608529478466796 0.020396821499336412 -0.02759924236869751 0.086446074506059012 0.046483982775539459 0.13217792801278169 0.12306556733533586 0.018357030829076523 0.12270792505929098
leaf_weight=156321912.18734372 9385223.3566064537 375232.22869110107 455220.49276733398 1619516.398598671 2972207.1552400589 331782.08253479004 337519.11138153076 2036279.4250898361 1039881.1756162643 263856.70863699913 700045.20621538162 313864.82189750671 1250473.8569374084 1240680.1347045898 333890.52489376068 582548.25544071198 2160798.3548289537 89669900.001105428 676717.56910419464 2965757.544054985 4310990.4432655573 38902.469657897949 1347830.6802645922 119228.34310150146 1311910.758048296 341279.65473747253 30249787.113191634 1639685.7838745117 433202.82423114777 323146.07350158691
leaf_count=281501 10208 705 770 2718 3384 321 594 3019 1650 404 1426 337 1563 2018 392 783 3020 155983 887 5442 7393 82 2221 124 2008 626 37852 1995 693 472
internal_value=0 0.541447 -0.261833 2.37035 1.03029 2.47139 0.35682 1.62303 1.30384 1.43325 1.03765 1.30742 1.67937 0.853578 2.01591 1.11826 1.85138 -0.50149 1.26452 -0.131923 -0.146133 2.58937 0.611011 0.873187 1.46162 0.260126 2.59218 2.46026 2.08172 1.25881
internal_weight=0 1.58827e+08 1.10357e+08 4.84704e+07 1.7266e+07 4.68509e+07 8.08252e+06 9.18351e+06 6.2113e+06 4.78099e+06 3.43401e+06 2.73397e+06 2.01746e+06 4.17502e+06 1.70359e+06 3.13514e+06 3.1693e+06 9.30909e+07 1.0085e+06 3.42098e+06 4.64851e+06 4.20699e+07 1.61169e+06 453119 1.89446e+06 716512 4.2031e+07 1.17813e+07 2.39603e+06 756349
internal_count=530591 249090 188217 60873 26022 58155 13160 12862 9478 6853 5173 3747 2416 6459 2079 4809 4228 162195 1208 6212 7987 51302 2625 516 2791 1331 51220 13368 3160 1165
shrinkage=0.05


Tree=15
num_leaves=31
num_cat=0
split_feature=25 1 1 25 0 1 3 26 16 1 20 26 26 20 23 18 3 13 19 1 26 23 4 24 19 1 24 20 1 24
split_gain=5.06645e+08 4.88937e+07 2.10824e+07 1.0507e+07 3.23926e+06 1.47439e+06 1.20124e+06 1.15446e+06 871053 851387 511517 507177 472012 463622 430926 348042 321066 277646 242232 233376 204029 194056 183720 181859 171258 163898 163820 152495 154203 134483
threshold=0.82787432312084019 -0.61400015722781609 -0.078181310904000087 -0.74520896544704929 -0.52317662561279177 -0.17228172813029011 1.0000000180025095e-35 0.83075517560977263 0.84737196717555363 -0.34664426593194514 0.77504234504053471 0.83075517560977263 0.83075517560977263 -0.82496795636206255 0.86971861634582959 -1.1782421519260502 1.0000000180025095e-35 -0.30135952075150191 1.0000000180025095e-35 0.43660332451041012 0.83075517560977263 0.67191131528301618 1.0000000180025095e-35 -0.088689604140221631 1.0000000180025095e-35 -0.1999583214321401 -0.18683367976104356 -0.67907762748004696 1.0000000180025095e-35 -0.014792888378661608
decision_type=2 2 2 2 2 2 2 2 2 2 2 2 2 2 2 2 2 2 2 2 2 2 2 2 2 2 2 2 2 2
left_child=2 8 9 6 14 11 27 16 -2 -1 12 -3 -7 15 19 25 -6 -8 29 -5 23 -15 -17 -12 -22 -11 -18 -4 -29 -13
right_child=1 5 3 4 7 10 17 -9 -10 13 20 18 -14 21 -16 22 26 -19 -20 -21 24 -23 -24 -25 -26 -27 -28 28 -30 -31
leaf_value=-0.036022147335092854 -0.035807403095063382 0.0074389961853354768 0.051296214194909519 0.000323007081908153 -0.0095907188835046321 0.019611878789409374 0.030931343579374621 0.0043310083170023392 0.044903653491564187 -0.0098347902648854759 0.055756420170904722 0.05002046792680255 0.051343449450515666 -0.032612164237006643 0.039125764457837477 -0.026909140016822194 -0.01672416101814066 0.0092948410618474246 -0.03621161283976345 0.033520117894078855 0.058585339826088212 -0.019462338472324085 -0.0015018993635083006 0.043139688087534607 -0.039056657174623012 0.023798569046131549 -0.02798161156096144 -0.021663379067537559 0.03838413151588408 0.030972050313870028
leaf_weight=397875574.76554173 15140042.220407009 1530019.531709671 7030338.6995997429 1956588.6678524017 3248656.0270833969 1504139.5258915424 2745590.4469385147 3988413.6508879066 341833.78503417969 702398.1075592041 11430566.036301613 2543660.6859970093 5306565.5901840925 14663204.86376667 2209316.4123687744 3093419.3340859413 3803772.2976067066 3223535.1396150589 98692.067649841309 725801.1065864563 244045389.84028912 3469446.160828352 924051.55717754364 3807534.6316022873 44915.562973022461 747910.69794464111 21486673.807346821 134341.81240081787 523720.11533355713 1457544.0296554565
leaf_count=291626 10453 1039 4360 1349 2261 1090 2235 3037 213 368 7440 1469 3371 10718 1424 2531 3698 2629 59 424 150667 2544 870 2817 28 405 20152 97 335 882
internal_value=0 1.04805 -0.635968 -0.0292182 -0.303228 1.14652 0.72152 -0.417327 -0.680507 -0.709497 1.15723 0.640103 0.886711 -0.524957 0.455473 -0.269718 -0.487754 0.384938 0.823457 0.18611 1.16434 -0.601922 -0.421305 1.05208 1.17135 0.150192 -0.525769 0.982836 0.522511 0.861632
internal_weight=0 2.87251e+08 4.72553e+08 5.10767e+07 3.74192e+07 2.71769e+08 1.36575e+07 3.25275e+07 1.54819e+07 4.21476e+08 2.66139e+08 5.62992e+06 6.81071e+06 2.36004e+07 4.89171e+06 5.46778e+06 2.85391e+07 5.96913e+06 4.0999e+06 2.68239e+06 2.59328e+08 1.81327e+07 4.01747e+06 1.52381e+07 2.4409e+08 1.45031e+06 2.52904e+07 7.6884e+06 658062 4.0012e+06
internal_count=530591 179528 351063 42001 32345 168862 9656 29148 10666 309062 165413 3449 4461 17436 3197 4174 26111 4864 2410 1773 160952 13262 3401 10257 150695 773 23850 4792 432 2351
shrinkage=0.05


Tree=16
num_leaves=31
num_cat=0
split_feature=25 1 19 1 19 0 20 16 0 1 0 12 1 1 2 24 12 1 0 1 21 12 0 1 12 26 14 7 1 14
split_gain=3.9085e+08 5.17822e+07 2.12717e+07 6.54782e+06 8.10085e+07 5.50497e+06 3.0854e+06 1.61708e+06 1.12453e+06 840588 277892 75377.7 47374.9 47010.3 40470.7 37573.8 43420.5 29790 27161.3 25541.9 23488.2 22619.1 22286.3 38887.5 50546.6 33380 21709 23611.5 21277.7 67765.8
threshold=-0.74520896544704929 -0.61400015722781609 1.0000000180025095e-35 -0.61400015722781609 1.0000000180025095e-35 -1.0799782209639333 -0.79387657432965553 0.84737196717555363 -1.0335780880180045 0.092306503835395973 -0.89437768918021943 0.54246418818564968 -0.001240381524857063 -0.047183526405928072 0.16328038134293357 -0.60538929637925454 1.1148138498104994 -0.067664205449297063 -0.89437768918021943 0.36409065005956309 -0.24816181016328084 1.4091651043604216 -0.75517729034243408 -0.1999583214321401 -0.20911268176515269 1.0000000180025095e-35 -0.8178875473340893 1.0000000180025095e-35 -0.37099966803757312 -0.8178875473340893
decision_type=2 2 2 2 2 2 2 2 2 2 2 2 2 2 2 2 2 2 2 2 2 2 2 2 2 2 2 2 2 2
left_child=1 2 -1 4 7 -3 10 -2 15 13 11 14 -13 28 17 16 -8 26 -5 20 -11 -15 23 24 -12 -26 -7 -28 -10 -30
right_child=3 5 -4 18 -6 6 8 -9 9 19 22 12 -14 21 -16 -17 -18 -19 -20 -21 -22 -23 -24 -25 25 -27 27 -29 29 -31
leaf_value=0.069228274698311859 0.06934972164984482 0.065577133354013259 -0.032723475140889087 -0.028774737505637873 -0.032239863106839267 -0.031077246648843915 -0.014739700966531483 -0.031017410765536269 0.066635404928624728 -0.029919126235451222 -0.028544519058121706 0.0037476564537331442 -0.02232992122189045 0.016721771893147178 -0.026079764378590525 -0.029019078408960897 0.025932194117941627 -0.02914704085793679 -0.032121113207127731 -0.027898495653988033 0.014874203133203307 0.064196266415633974 -0.031872127281631885 -0.031886380230433886 0.005034051723640476 -0.031417612760904476 0.0096617240766914015 -0.010723806266792063 -0.0037382762526159152 0.058753714990454356
leaf_weight=174931005.57002223 22854587.88510263 2052611.238209486 5270409.4839978218 6217859.1851730347 160761068.95977259 91180.84139251709 573298.81064987183 408490.60441017151 836121.04839897156 45452.478542327881 471062.56375694275 696475.64000320435 232235.23108148575 93346.867362976074 1177355.1113891602 440113.11980438232 74103.614599227905 212218.65524578094 244663768.23737133 291488.9258480072 82180.381204605103 34311.942962646484 12936319.190675735 1231516.3326115608 268975.09607124329 81936.346050262451 195161.2654876709 521879.45877218246 45787.283802032471 825539.2524728775
leaf_count=158025 15592 1871 3845 5433 104337 138 603 381 432 46 383 733 247 84 438 410 94 341 221136 256 74 28 12493 1082 216 81 297 788 28 679
internal_value=0 1.14282 1.32493 -0.535675 -0.392408 -0.252999 -0.402658 1.35175 0.480236 0.883154 -0.565517 -0.294328 -0.0554671 1.17499 -0.395262 -0.354942 -0.201685 -0.249503 -0.640764 -0.394617 -0.021551 0.589638 -0.62208 -0.525301 -0.35686 -0.0695452 -0.16195 -0.103507 1.21875 1.1094
internal_weight=0 2.03712e+08 1.80201e+08 4.34906e+08 1.84024e+08 2.35107e+07 2.14581e+07 2.32631e+07 3.34174e+06 2.25423e+06 1.81163e+07 3.12651e+06 928711 1.83511e+06 2.1978e+06 1.08752e+06 647402 1.02044e+06 2.50882e+08 419122 127633 127659 1.49898e+07 2.05349e+06 821974 350911 808222 717041 1.70745e+06 871327
internal_count=530591 183712 161870 346879 120310 21842 19971 15973 2734 1627 17237 2982 980 1251 2002 1107 697 1564 226569 376 120 112 14255 1762 680 297 1223 1085 1139 707
shrinkage=0.05


Tree=17
num_leaves=31
num_cat=0
split_feature=19 22 26 0 8 8 8 8 0 8 8 1 1 1 1 1 26 26 8 20 20 22 24 0 18 18 4 18 1 26
split_gain=5.84726e+08 3560.48 1581.46 851.634 809.474 450.355 400.765 341.476 298.951 232.615 199.214 166.493 111.031 106.774 106.444 79.3869 70.0046 54.899 52.0097 69.1021 49.9821 38.5223 36.7991 28.6371 27.3486 26.4847 29.3382 26.2657 31.0208 22.339
threshold=1.0000000180025095e-35 1.0000000180025095e-35 0.83075517560977263 0.86882736276506189 0.8109809487353461 0.8109809487353461 0.77744002389545741 -0.84450594009729529 1.1008280274947044 0.92118707964562319 0.57619410928845882 -0.1113932228662201 0.049131018284509963 0.20633406823901804 -0.11969620085677508 -0.062128886788927078 0.83075517560977263 -0.7292874694087409 -0.81336074439915973 0.56936093305199376 0.081465413217751456 1.0000000180025095e-35 -0.032689749227164423 -1.0799782209639333 -0.94535568513474433 1.0000000180025095e-35 1.0000000180025095e-35 -0.36313951815647899 -0.55975403435619009 0.83075517560977263
decision_type=2 2 2 2 2 2 2 2 2 2 2 2 2 2 2 2 2 2 2 2 2 2 2 2 2 2 2 2 2 2
left_child=2 3 7 5 15 18 -4 21 12 -9 13 23 17 -10 20 -3 -15 25 -2 -20 24 -1 -13 -11 -6 26 -5 -19 -29 -17
right_child=1 4 6 8 14 -7 -8 9 10 11 -12 22 -14 16 -16 29 -18 27 19 -21 -22 -23 -24 -25 -26 -27 -28 28 -30 -31
leaf_value=-0.033270661674078418 0.066114118221482471 0.064646044970648395 -0.033323818729418433 0.065612533539416582 0.067059134730937484 0.070112874425664898 -0.033107298880849199 -0.033456326430120469 0.064720351607190932 -0.033216807592479559 0.069213659326079355 -0.033171475423830241 0.067705211279130803 0.06553122641501373 0.069941914240537875 0.065251118640590564 0.068701813025278682 0.065176253888640068 0.064777359007259602 0.066686337194308498 0.066347575017971991 -0.033702968593047798 -0.033328090921392203 -0.033501071881269648 0.068857410207110378 0.065882338663704521 0.065108662290720112 0.065544523021399653 0.064820670917228707 0.06660613116341825
leaf_weight=145054294.70157689 3541534.060251236 217514798.76612759 24036452.14791888 1396375.4784584045 60708.59326171875 70056.066757202148 192758837.70129585 57254056.515112042 2647477.1411724091 1001692.1849803925 25504.732418060303 16143291.174194813 53961.745819091797 51779.875183105469 26861.579895019531 345579.61048316956 26227.94157409668 1937755.5852279663 161860.15377807617 67040.268157958984 278687.52102661133 517145.64007377625 4885808.4980540276 7669755.0290503502 32440.982818603516 647194.77753448486 364249.97978210449 1255078.816532135 167799.40410995483 33352.693984985352
leaf_count=161457 1891 103763 19654 611 22 37 156669 55194 1579 1035 25 13766 20 27 25 194 20 796 102 29 108 298 4766 6681 20 489 270 896 125 22
internal_value=0 1.29397 -0.664569 1.31044 1.29303 1.32281 -0.662626 -0.666381 1.3049 -0.667949 1.2963 -0.665678 1.30895 1.29548 1.33805 1.29295 1.33194 1.30853 1.32134 1.30673 1.33365 -0.665444 -0.664157 -0.669365 1.35371 1.31218 1.31017 1.30592 1.30918 1.30741
internal_weight=0 2.30706e+08 4.49321e+08 1.24139e+07 2.18292e+08 3.84049e+06 2.16795e+08 2.32526e+08 8.57341e+06 8.69546e+07 2.75099e+06 2.97005e+07 5.82242e+06 2.72548e+06 398699 2.17894e+08 78007.8 5.76845e+06 3.77043e+06 228900 371837 1.45571e+08 2.10291e+07 8.67145e+06 93149.6 2.40782e+06 1.76063e+06 3.36063e+06 1.42288e+06 378932
internal_count=530591 111071 419520 6917 104154 2059 176323 243197 4858 81442 1651 26248 3207 1626 175 103979 47 3187 2022 131 150 161755 18532 7716 42 1370 881 1817 1021 216
shrinkage=0.05


Tree=18
num_leaves=31
num_cat=0
split_feature=8 8 25 19 25 25 1 1 8 0 1 18 18 0 0 0 8 3 20 26 1 21 8 18 26 20 8 8 1 19
split_gain=8.91037e+07 1.97758e+08 3.16248e+07 1.13783e+07 5.64954e+06 4.05861e+06 2.44946e+06 1.50912e+06 2.07079e+06 1.4246e+06 1.33926e+06 1.15803e+06 1.24254e+06 1.03972e+06 780119 747741 486204 397295 370464 355112 344334 364832 337749 324564 285810 249993 239936 242955 295000 236688
threshold=-0.84450594009729529 0.8109809487353461 0.82787432312084019 1.0000000180025095e-35 1.0000000180025095e-35 0.82787432312084019 -0.12910624257940409 -0.1113932228662201 0.93795758776152582 -1.0799782209639333 0.51631191321973824 0.68484958240439875 -1.2946853853217035 -1.0799782209639333 -0.059175296153507313 -0.80157742328836257 0.87327139439556789 1.0000000180025095e-35 0.77504234504053471 0.83075517560977263 -0.0045615727210790635 -0.0037872022597314051 0.8948333979229427 -1.0617989185303973 0.83075517560977263 0.081465413217751456 0.46598806977009843 -0.30785027443586854 -0.28298810133769009 1.0000000180025095e-35
decision_type=2 2 2 2 2 2 2 2 2 2 2 2 2 2 2 2 2 2 2 2 2 2 2 2 2 2 2 2 2 2
left_child=-1 3 4 5 6 13 9 -6 -9 -3 17 12 -11 -2 20 29 19 23 -16 -4 -10 -22 -8 -7 -12 -17 27 28 -19 -14
right_child=1 2 16 -5 7 10 22 8 14 11 24 -13 15 -15 18 25 -18 26 -20 -21 21 -23 -24 -25 -26 -27 -28 -29 -30 -31
leaf_value=-0.027548568320869989 -0.0037918348037497898 -0.027463817396574376 0.034134484053216008 -0.027538894251097009 0.10090369465214111 0.018273486856828162 0.040157913060813802 0.098559323095951695 0.063988171687439019 -0.0096003623041948007 0.075257419589920202 0.001423897240542614 0.11102998487564118 0.11415795466977295 0.037023443317906725 0.057200027482186493 -0.02563213286121041 0.13494340004677005 0.080565707566921704 -0.012799053292260909 -0.0093629529794409475 0.033479069728365528 -0.011093358200041183 0.07783200674478094 0.019866631364906226 -0.027509373377788117 0.078935241994175051 0.12149510816522564 0.017099038705246355 -0.028404946815750121
leaf_weight=151902741.65011147 187595.51529884338 535315.32615089417 467784.14580774307 1571259.231303215 3260631.3831558228 335355.63834762573 347693.66825580597 2226225.6344871521 371825.77025270462 355236.84595870972 280936.86903047562 645564.91901493073 1550709.6182308197 46176612.430806726 843449.55255579948 372451.64199352264 87101957.530276179 87872.503662109375 1160793.8231146336 2911584.9576463699 1017187.4511475563 971569.1266450882 4260234.7462666035 719548.78455066681 1361577.7880283594 113681.69290924072 1102036.715359807 1007643.8836669922 134226.63046646118 31044.228302001953
leaf_count=281501 402 1181 770 2718 3384 321 590 3019 436 396 404 1224 1793 50900 1450 447 155983 121 1610 5442 1596 1367 7371 887 2221 128 1553 1201 145 30
internal_value=0 0.515929 -0.257029 2.10002 0.951026 2.18106 0.338482 1.46162 1.18633 0.956033 1.32781 1.21863 1.5357 2.27361 0.786026 1.8325 -0.498204 1.68719 1.24483 -0.126047 0.396477 0.231334 -0.144523 1.17797 0.586814 0.747817 1.91756 2.22122 1.27447 2.16587
internal_weight=0 1.6151e+08 1.08545e+08 5.29647e+07 1.80636e+07 5.13934e+07 8.21193e+06 9.85168e+06 6.59105e+06 3.604e+06 5.0292e+06 3.06869e+06 2.42312e+06 4.63642e+07 4.36483e+06 2.06789e+06 9.04813e+07 3.38668e+06 2.00424e+06 3.37937e+06 2.36058e+06 1.98876e+06 4.60793e+06 1.0549e+06 1.64251e+06 486133 2.33178e+06 1.22974e+06 222099 1.58175e+06
internal_count=530591 249090 188217 60873 26022 58155 13160 12862 9478 5199 6853 4018 2794 51302 6459 2398 162195 4228 3060 6212 3399 2963 7961 1208 2625 575 3020 1467 266 1823
shrinkage=0.05


Tree=19
num_leaves=31
num_cat=0
split_feature=25 1 1 21 3 1 23 16 1 5 26 20 19 26 26 21 24 1 1 21 18 1 21 26 19 23 20 26 4 25
split_gain=4.68466e+08 4.42946e+07 2.01995e+07 1.0748e+07 1.67899e+06 1.34371e+06 1.29405e+06 818206 616759 546116 515767 637751 476286 393503 365171 320002 318940 344642 285322 455418 234036 229867 228157 227397 191174 176989 176158 170206 157713 145724
threshold=0.82787432312084019 -0.61400015722781609 -0.1113932228662201 -0.16237672840499096 1.0000000180025095e-35 -0.22763491473399011 0.84350313997078807 0.84737196717555363 -0.34664426593194514 1.0000000180025095e-35 0.83075517560977263 0.82526693952657848 1.0000000180025095e-35 0.83075517560977263 0.83075517560977263 -0.47109014762725782 -0.036153657778487551 0.23401066154086805 0.43660332451041012 0.23720115241651715 -1.1782421519260502 -0.055486504396483075 -0.17648611685207813 0.83075517560977263 1.0000000180025095e-35 0.81967093830945992 0.56936093305199376 0.83075517560977263 1.0000000180025095e-35 -0.74520896544704929
decision_type=2 2 2 2 2 2 2 2 2 2 2 2 2 2 2 2 2 2 2 2 2 2 2 2 2 2 2 2 2 2
left_child=2 7 8 4 12 14 13 -2 -1 25 11 -7 21 18 -3 20 17 -8 26 -20 -10 -4 -16 28 -12 -6 -5 -18 -11 -23
right_child=1 5 3 6 9 10 16 -9 15 23 24 -13 -14 -15 22 -17 27 -19 19 -21 -22 29 -24 -25 -26 -27 -28 -29 -30 -31
leaf_value=-0.03539058064112692 -0.035175096087694223 0.0013474681065318806 0.01384042441874809 -0.031915386869007155 0.018324551972204853 0.021437593860854892 -0.0035389370011731525 0.042598276397164542 0.0018873663026740357 -0.0078838407927661006 0.055423225667692123 0.050160335801409106 -0.03619384134680205 0.0028030409994764037 0.048655713030244352 -0.030209501880170866 -0.013998563665480541 0.048913749301356065 0.015676064461849836 -0.02170287341020416 -0.022122061689103766 0.048850601386825662 0.020174813042595774 0.022154087759215901 -0.038410989892150402 0.039179705776618667 -0.021400707639552999 0.0040305906082605128 0.019681381132925117 0.032569295831642454
leaf_weight=389002965.47358602 14805970.882233143 1124766.4930076599 602639.94511795044 12764330.076897323 3010091.0032901764 2215160.2903602123 607321.3156414032 346079.18022918701 1359530.6409912109 3476014.9291729927 253866415.0223974 15150145.456122398 190147.50804710388 1308267.9137723446 1471541.9970016479 15467628.334338665 2500594.2034378052 646567.00111198425 928932.38688373566 6637359.4539141655 4004988.7574343681 7211662.9918520451 1346705.7635421753 1066855.9665141106 54292.432235717773 1536672.358631134 5790372.4154803753 2747290.2838563919 609956.87423801422 1697906.4923801422
leaf_count=291626 10453 748 393 11157 2285 1683 426 213 714 3055 154817 9955 127 1025 766 11496 2034 401 831 6928 3445 4417 854 831 39 1068 5157 2002 672 973
internal_value=0 0.996598 -0.6235 -0.044595 0.549072 1.08824 -0.384057 -0.667974 -0.698834 0.254857 1.09666 0.929928 0.843202 -0.479136 0.508667 -0.5312 0.0170576 0.470165 -0.505941 -0.342275 -0.320747 0.874528 0.700921 0.0319656 1.10806 0.50746 -0.572681 -0.0912045 -0.0753777 0.914957
internal_weight=0 2.90381e+08 4.63168e+08 5.3333e+07 1.94019e+07 2.75229e+08 3.3931e+07 1.51521e+07 4.09835e+08 9.69959e+06 2.71286e+08 1.73653e+07 9.70236e+06 2.74293e+07 3.94301e+06 2.08321e+07 6.50177e+06 1.25389e+06 2.6121e+07 7.56629e+06 5.36452e+06 9.51221e+06 2.81825e+06 5.15283e+06 2.53921e+08 4.54676e+06 1.85547e+07 5.24788e+06 4.08597e+06 8.90957e+06
internal_count=530591 179528 351063 43782 13821 168862 29961 10666 307281 7911 166494 11638 5910 25098 2368 15655 4863 827 24073 7759 4159 5783 1620 4558 154856 3353 16314 4036 3727 5390
shrinkage=0.05


Tree=20
num_leaves=31
num_cat=0
split_feature=25 8 19 8 19 0 20 0 1 18 18 0 14 1 18 14 8 0 1 12 16 0 18 26 0 18 1 14 18 21
split_gain=3.59842e+08 4.69336e+07 1.89193e+07 6.43195e+06 7.70388e+07 4.80789e+06 2.96585e+06 1.04302e+06 756922 384781 363469 858866 288728 222783 97564.9 41757 37738.1 29956 46701.6 75283.5 29143.4 145171 28261.7 28103.9 26775.3 202969 249875 151747 61828.1 48191.8
threshold=-0.74520896544704929 -0.84450594009729529 1.0000000180025095e-35 -0.84450594009729529 1.0000000180025095e-35 -1.0799782209639333 -0.79387657432965553 -1.0335780880180045 0.092306503835395973 0.68484958240439875 0.68484958240439875 -0.80157742328836257 -0.8178875473340893 -0.062128886788927078 1.3835089827783171 1.0000000180025095e-35 1.551278322405466 -0.66237702445057722 -0.28298810133769009 -0.42660555318259546 0.56936575184899774 -1.1263783539098615 -0.36313951815647899 1.0000000180025095e-35 -0.89437768918021943 0.68484958240439875 -0.072645992243630067 -0.8178875473340893 0.80129281580005185 -0.011688459790100209
decision_type=2 2 2 2 2 2 2 2 2 2 2 2 2 2 2 2 2 2 2 2 2 2 2 2 2 2 2 2 2 2
left_child=1 2 -1 4 -2 20 10 9 14 -8 -7 12 -12 15 16 23 22 18 19 -13 -3 -22 -9 -14 25 -5 27 -27 -29 -30
right_child=3 5 -4 24 -6 6 7 8 -10 -11 11 17 13 -15 -16 -17 -18 -19 -20 -21 21 -23 -24 -25 -26 26 -28 28 29 -31
leaf_value=0.065033263041116479 0.065413610490169347 0.063889308909659423 -0.032347908831574561 -0.031618262627847081 -0.031894535157573838 -0.031650422761750556 -0.02886611966873244 0.019043468303760129 -0.019339727567050283 0.061043901169873897 -0.03177062826380294 -0.02397852593755867 0.036720890235835218 -0.011390740177053356 -0.034097772993205343 0.057154808703188453 0.0041478338605809599 -0.030657554447425562 -0.029410783916053763 0.047031572222921911 0.060502992576867566 -0.036704900371103487 0.058739190445252588 -0.021827418115449894 -0.031777758732335369 -0.032719378593371082 -0.028397626378089805 0.07737253895552347 -0.0026795407254794987 0.074272366476610743
leaf_weight=179411571.23294115 23381350.746230125 1667200.4349002838 5130263.5711417198 5430769.7263259888 156370389.65812969 14050867.352334499 942595.68476486206 45989.940902709961 412895.65600776672 136190.5435295105 189990.6847577095 89147.563446044922 154396.28528785706 191135.79780507088 30002.927089691162 498957.69948625565 33440.135231018066 2482115.5061143041 245729.35411977768 64208.187450408936 293474.02674865723 44191.096502304077 1790790.6280145645 23633.814346313477 238568635.46022981 65847.280181884766 387047.96811485291 122164.70323944092 60936.732530593872 30543.854667663574
leaf_count=157909 15472 1435 3843 4747 104277 12143 947 39 376 162 175 78 186 244 22 519 20 3818 272 69 201 52 1182 20 221682 53 447 113 65 23
internal_value=0 1.07739 1.24652 -0.528365 -0.384742 -0.257193 -0.39603 0.461689 0.840387 -0.35031 -0.557747 -0.2893 0.4812 0.725573 1.10704 0.994746 1.13574 -0.572265 -0.317973 0.115051 1.22353 0.955623 1.15491 0.57897 -0.633883 -0.568447 -0.0476565 0.672862 1.08193 0.460269
internal_weight=0 2.07929e+08 1.84542e+08 4.24418e+08 1.79752e+08 2.3387e+07 2.13821e+07 3.39191e+06 2.31312e+06 1.07879e+06 1.79902e+07 3.93931e+06 1.05811e+06 868124 1.90022e+06 676988 1.87022e+06 2.8812e+06 399085 153356 2.00487e+06 337665 1.83678e+06 178030 2.44666e+08 6.09731e+06 666541 279493 213645 91480.6
internal_count=530591 183712 161752 346879 119749 21960 20272 2748 1639 1109 17524 5381 1144 969 1263 725 1241 4237 419 147 1688 253 1221 206 227130 5448 701 254 201 88
shrinkage=0.05


Tree=21
num_leaves=31
num_cat=0
split_feature=19 22 25 8 8 8 0 1 0 1 1 1 21 1 26 1 20 26 26 0 8 22 3 1 1 18 8 26 26 0
split_gain=5.38934e+08 2906.52 2074.43 962.201 790.318 578.963 561.196 293.721 238.855 138.44 134.21 115.314 113.326 108.201 101.478 65.7129 61.7816 57.3411 51.9876 51.7619 45.4385 39.7087 39.5101 39.1532 45.392 35.713 31.7995 30.7425 24.2579 22.2964
threshold=1.0000000180025095e-35 1.0000000180025095e-35 0.82787432312084019 0.8109809487353461 0.8109809487353461 -0.84450594009729529 0.86882736276506189 -0.17228172813029011 1.1008280274947044 -0.091466075688888079 0.20633406823901804 -0.32727065062065014 -0.16237672840499096 -0.11969620085677508 0.83075517560977263 -0.077627779037963071 0.081465413217751456 0.83075517560977263 0.83075517560977263 -1.0799782209639333 0.93795758776152582 1.0000000180025095e-35 1.0000000180025095e-35 0.092306503835395973 -0.47672425445064015 -0.36313951815647899 0.77744002389545741 0.83075517560977263 -0.7292874694087409 0.86882736276506189
decision_type=2 2 2 2 2 2 2 2 2 2 2 2 2 2 2 2 2 2 2 2 2 2 2 2 2 2 2 2 2 2
left_child=2 3 5 6 11 21 23 -4 15 19 -10 -3 22 16 20 25 -6 -12 -14 -7 -9 29 -11 24 -2 28 -16 -13 -8 -1
right_child=1 4 7 -5 13 9 8 14 10 12 17 27 18 -15 26 -17 -18 -19 -20 -21 -22 -23 -24 -25 -26 -27 -28 -29 -30 -31
leaf_value=-0.032861265421162043 0.062224990454182762 0.060955726325050488 -0.032920420691644914 0.066757345892922232 0.064045622170714286 -0.032812774655694668 0.061692568024857675 -0.033022169259294791 0.061037316227608232 -0.032772089825752033 0.062069888374220054 0.06157084332913329 -0.033055823439214045 0.066191188992858765 -0.032806935034095701 0.063380592454291076 0.062574043535176677 0.064765277706638258 -0.032842637714574151 -0.033114823424069496 -0.032782879801061864 -0.033295132240029716 -0.032938965713531311 0.064096828059813246 0.061310776298601002 0.061791787267332678 -0.032679597752551366 0.063086337875099943 0.061426030608261808 -0.032954635065295085
leaf_weight=138190629.94237643 3685034.2856998444 221688235.29847193 15224126.684045315 94839.452236175537 95162.089630126953 1475157.4288196564 1502627.5596046448 2464998.1853654385 2706265.2066459656 6987035.9592046738 54074.383880615234 538955.46580505371 24299297.381950438 27488.113861083984 5040672.0326372385 54954.312225341797 284717.09948730469 31068.429412841797 3241167.6212751865 36859346.306590557 10164489.641281128 540032.72630882263 7204285.467476368 27148.797424316406 140970.37373352051 2402805.2992343903 179315235.28487468 35678.754577636719 1976486.1128158569 6704037.8565597534
leaf_count=159339 1921 103646 12508 58 42 1580 672 2353 1583 5675 29 308 26098 25 4268 20 108 22 3075 33194 8987 329 7489 20 81 1716 149759 25 795 4866
internal_value=0 1.22007 -0.656421 1.2348 1.21923 -0.658533 1.23404 -0.654177 1.22961 -0.660692 1.22198 1.21915 -0.659432 1.26324 -0.653849 1.23319 1.25885 1.26107 -0.660615 -0.662064 -0.656592 -0.657344 -0.657136 1.24409 1.24383 1.23287 -0.653662 1.2333 1.23082 -0.657312
internal_weight=0 2.35347e+08 4.37711e+08 1.26763e+07 2.2267e+08 2.25501e+08 1.25814e+07 2.1221e+08 8.72828e+06 8.00663e+07 2.79141e+06 2.22263e+08 4.17318e+07 407367 1.96985e+08 5.93687e+06 379879 85142.8 2.75405e+07 3.83345e+07 1.26295e+07 1.45435e+08 1.41913e+07 3.85315e+06 3.826e+06 5.88192e+06 1.84356e+08 574634 3.47911e+06 1.44895e+08
internal_count=530591 111071 419520 6917 104154 241645 6859 177875 4837 77111 1634 103979 42337 175 165367 3203 150 51 29173 34774 11340 164534 13164 2022 2002 3183 154027 333 1467 164205
shrinkage=0.05


Tree=22
num_leaves=31
num_cat=0
split_feature=8 25 8 8 19 1 21 0 18 18 0 1 0 0 8 8 25 12 3 26 26 23 8 18 26 26 23 1 0 18
split_gain=8.42903e+07 1.71583e+08 1.75719e+07 1.47114e+07 9.55903e+06 3.76762e+06 2.56321e+06 1.76887e+06 1.20551e+06 1.42175e+06 1.14742e+06 1.06064e+06 574648 518408 494987 422593 414479 392777 387728 329348 248686 285348 389134 237925 225476 222780 313136 217261 191239 559870
threshold=-0.84450594009729529 0.82787432312084019 0.87327139439556789 0.77744002389545741 1.0000000180025095e-35 -0.11692854152659009 -0.16237672840499096 -1.0799782209639333 0.68484958240439875 -1.2946853853217035 -1.0799782209639333 0.49195651111411015 -0.75517729034243408 -0.059175296153507313 0.87327139439556789 0.72952433864540223 -0.74520896544704929 -0.6720617937822807 1.0000000180025095e-35 0.83075517560977263 0.83075517560977263 0.95789778067527032 -0.053897133471384202 -1.0617989185303973 0.83075517560977263 0.83075517560977263 0.72910859017894014 -0.1661928776038831 -0.80157742328836257 0.68484958240439875
decision_type=2 2 2 2 2 2 2 2 2 2 2 2 2 2 2 2 2 2 2 2 2 2 2 2 2 2 2 2 2 2
left_child=-1 2 4 11 10 7 -7 -4 9 -9 -2 18 -11 -8 19 28 -17 -10 23 -5 -13 -22 -23 -3 27 26 -15 -16 29 -12
right_child=1 3 5 14 -6 6 13 8 17 12 15 20 -14 25 24 16 -18 -19 -20 -21 21 22 -24 -25 -26 -27 -28 -29 -30 -31
leaf_value=-0.027457993197829211 -0.0089304933358937636 0.01712635806865977 -0.02735223738286359 0.032401219461262169 -0.027457710718508912 -0.0082027572875686214 0.026364696076776391 0.0034329068622449624 0.059390565828274622 0.099950081429571708 0.10317105758049874 0.069476989709943579 0.054844907418974624 0.047611041389712602 0.025373248281790439 0.049755817999042828 0.092517266942213197 -0.0046539351427807981 0.087342340149300327 -0.012306985102250798 -0.0075895238736617982 -0.010013585279101664 0.063296991658676624 0.067059662557177643 -0.026136666690150325 0.032892741564043496 0.091998510634330774 -0.017903430422864266 0.10271959018998456 0.051375787378341378
leaf_weight=147471962.51512912 239468.81970119476 340859.74412918091 477202.22100067139 480931.14519882202 1506009.3400449753 5033248.8114089966 1834386.5410881042 511788.64230155945 410219.43277072906 3690031.0182094574 1879436.3523731232 300476.33254241943 873244.81671237946 730029.80071568489 308764.32775878906 696185.68741083145 3046316.9988296032 574908.65972232819 2482822.9241789579 2870955.2352864742 576172.2240857482 273737.74686813354 534363.63154196739 794889.50386619568 79464211.763212353 478589.08239936829 871850.88829994202 4774844.9069652557 46908166.977309287 722219.27125692368
leaf_count=281501 519 321 1090 772 2667 8548 2585 510 539 3659 1748 411 892 1115 522 958 3695 1077 3019 5460 1041 323 879 942 146291 707 1090 9170 47609 931
internal_value=0 0.493202 1.67054 -0.397143 1.93549 0.729572 0.307965 1.30665 1.45262 1.64912 2.00544 1.22031 1.82637 0.914831 -0.49473 2.01526 1.69125 0.4403 1.52545 -0.117844 0.564901 0.385901 0.769273 1.04147 -0.509672 1.25653 1.43539 -0.305498 2.03976 1.77585
internal_weight=0 1.63686e+08 7.04833e+07 9.3203e+07 5.49978e+07 1.54855e+07 8.94811e+06 6.53739e+06 6.06019e+06 5.07506e+06 5.34918e+07 5.30332e+06 4.56328e+06 3.91486e+06 8.78997e+07 5.32523e+07 3.7425e+06 985128 3.61857e+06 3.35189e+06 1.68475e+06 1.38427e+06 808101 1.13575e+06 8.45478e+07 2.08047e+06 1.60188e+06 5.08361e+06 4.95098e+07 2.60166e+06
internal_count=530591 249090 79939 169151 58127 21812 14045 7767 6677 5061 55460 6936 4551 5497 162215 54941 4653 1616 4282 6232 2654 2243 1202 1263 155983 2912 2205 9692 50288 2679
shrinkage=0.05


Tree=23
num_leaves=31
num_cat=0
split_feature=8 25 1 25 1 21 8 18 1 0 8 8 20 20 19 8 8 1 8 8 26 26 18 8 25 23 8 26 20 0
split_gain=4.87943e+08 1.70267e+07 6.96068e+06 3.98313e+06 6.77007e+06 2.94621e+06 1.22762e+06 1.06418e+06 470006 425207 399832 380333 334760 288564 255648 252393 200775 170963 155882 151545 143923 138153 130918 130703 128997 111750 144684 111054 108227 101766
threshold=0.77744002389545741 0.82787432312084019 -0.11692854152659009 0.82787432312084019 -0.1661928776038831 -0.14488108673060288 0.93795758776152582 -1.2946853853217035 0.51631191321973824 -0.80157742328836257 -0.30785027443586854 0.44921756165419574 0.30149670282844726 0.77504234504053471 1.0000000180025095e-35 0.8948333979229427 0.57619410928845882 -0.055486504396483075 0.46598806977009843 1.062538296298136 0.83075517560977263 0.83075517560977263 -1.1782421519260502 0.87327139439556789 1.0000000180025095e-35 0.95789778067527032 -0.14014537606067526 0.83075517560977263 0.56936093305199376 -0.66237702445057722
decision_type=2 2 2 2 2 2 2 2 2 2 2 2 2 2 2 2 2 2 2 2 2 2 2 2 2 2 2 2 2 2
left_child=3 2 7 11 16 15 -7 14 10 -9 -6 -1 -11 -8 24 -4 -5 22 28 -15 -10 -13 -17 27 -2 -22 -27 -3 -12 -24
right_child=1 23 5 4 8 6 13 9 20 12 18 21 -14 19 -16 17 -18 -19 -20 -21 25 -23 29 -25 -26 26 -28 -29 -30 -31
leaf_value=-0.034842301341199401 0.050130539334362956 0.032298667479506507 0.021430565527356841 -0.034074003795978407 0.044978215112202846 -0.016286046158229161 0.035338773000714266 -0.027444229489457045 0.009654161008682445 0.013950099381530634 0.015087768780131537 -0.028241370371896959 -0.020423090899106721 0.0053168729219526248 -0.035892901434379267 0.053186609323536652 0.0032498635762324571 0.049142155251784912 0.013017563782396846 0.024952841087290789 0.048624185222721779 -0.012923814597395481 -0.0034336766008446979 0.053455514890272754 0.012210671716819135 0.048727210676685784 0.020143618078812396 0.049403897688391749 -0.01425455911920169 0.036449500140990111
leaf_weight=404369190.14382643 695989.49670028687 1070424.9007024765 990816.38982582092 15686387.648486853 737131.7244644165 3025193.8932819366 2556556.646944046 7339189.2833390236 510674.16605329514 1305499.4092874527 420757.12529373169 11982026.254502535 1548502.1826791763 2265624.0095057487 132469.64749145508 326950.94772338867 368780.67181777954 12540621.987917423 2444890.4057817459 1735117.9677047729 1450137.9458019733 1678220.0619300008 358302.54287338257 258172156.24009943 330912.50631713867 685489.78557014465 1250049.1256351471 8357262.1741609573 1241565.5444660187 288907.86973190308
leaf_count=312573 366 772 791 11293 344 2800 1968 6131 405 964 271 11117 1037 1765 51 175 266 8092 1712 1253 1034 1328 264 155983 180 302 889 5460 797 208
internal_value=0 0.978624 0.327285 -0.668204 -0.278791 0.631529 0.201241 -0.318264 0.429385 -0.42152 0.22142 -0.691302 -0.0939968 0.444353 0.589565 0.91578 -0.664334 0.951496 0.0997116 0.276659 0.687948 -0.527191 0.547952 1.06489 0.758222 0.762591 0.605335 0.949235 -0.136552 0.287395
internal_weight=0 3.0304e+08 3.54407e+07 4.42825e+08 2.47959e+07 2.40881e+07 9.58249e+06 1.13526e+07 8.7407e+06 1.01932e+07 4.84434e+06 4.18029e+08 2.854e+06 6.5573e+06 1.15937e+06 1.45056e+07 1.60552e+07 1.35148e+07 4.10721e+06 4.00074e+06 3.89635e+06 1.36602e+07 974161 2.676e+08 1.0269e+06 3.38568e+06 1.93554e+06 9.42769e+06 1.66232e+06 647210
internal_count=530591 188260 26045 342331 17313 17316 7786 8729 5754 8132 3124 325018 2001 4986 597 9530 11559 8739 2780 3018 2630 12445 647 162215 546 2225 1191 6232 1068 472
shrinkage=0.05


Tree=24
num_leaves=31
num_cat=0
split_feature=26 8 22 8 22 0 0 0 18 0 0 1 0 23 14 0 1 4 23 0 0 3 0 18 18 18 14 18 18 1
split_gain=2.83867e+08 5.87166e+07 1.51541e+07 9.92884e+06 7.20746e+07 5.00697e+06 4.33801e+06 2.18065e+06 1.62366e+06 1.64969e+06 901974 821054 536054 504160 484062 464414 348727 175766 167355 654519 159957 159932 181667 155045 151887 144375 141623 135237 134862 117072
threshold=-0.7292874694087409 -0.84450594009729529 1.0000000180025095e-35 -0.84450594009729529 1.0000000180025095e-35 -1.0799782209639333 0.86882736276506189 1.1008280274947044 0.68484958240439875 -0.84797755623429094 0.86882736276506189 0.034739189767547952 1.1008280274947044 -0.71988925264728032 -0.8178875473340893 0.54402643214356272 -0.077627779037963071 1.0000000180025095e-35 -0.41483706683664917 -0.94077782212614791 -0.7087771573965056 1.0000000180025095e-35 1.0544278945487757 -0.47958275155213198 -0.24669628476082592 1.3835089827783171 1.0000000180025095e-35 -0.47958275155213198 -0.47958275155213198 -0.035005825353114063
decision_type=2 2 2 2 2 2 2 2 2 2 2 2 2 2 2 2 2 2 2 2 2 2 2 2 2 2 2 2 2 2
left_child=1 2 7 4 6 -3 15 10 18 11 -1 14 23 20 -10 -2 -15 21 -7 -20 26 24 -23 -8 -12 -16 -11 -19 -17 -28
right_child=3 5 -4 -5 -6 8 12 -9 9 13 17 -13 -14 16 25 28 -18 27 19 -21 -22 22 -24 -25 -26 -27 29 -29 -30 -31
leaf_value=0.060704181053614026 0.05946949286370648 0.057763677785816148 -0.027838235065521383 -0.031343261927078529 -0.031230491302773351 -0.031220143830722635 0.0038801964545756035 -0.024054542547532629 -0.031961661499094372 -0.025668927855830234 0.012676669988783112 -0.018494959943049432 -0.027889021031504403 0.048408867455752021 0.056809690178933239 0.037846205195796449 -0.023495547948511299 -0.010185927780308654 -0.028833984430676342 0.055693152801440972 -0.030347713347364521 0.053725535588292878 0.03230486553275623 0.022892403522408074 0.045619786408445995 -0.035450872205125383 0.045062680028825776 0.034835400374552891 0.052845662070003165 -0.019734943644713399
leaf_weight=169400438.70691216 23472085.376228094 2062782.6839618683 5107335.9228372574 230117273.52257431 144411407.93966508 19614000.953213692 1964551.9740066528 777413.38773822784 178755.16529846191 331541.73841142654 602464.31712722778 656576.54749345779 913797.49066591263 419393.7115650177 1679544.4615793228 3617515.2072296143 282005.78787231445 221114.91046142578 1355311.8535747528 275586.19937896729 3599237.2428462505 5863252.3908081055 1190839.2488937378 2361166.8465166092 834592.82828617096 43501.520788192749 192990.42181777954 679052.86877059937 2558413.9375858307 109119.95091152191
leaf_count=150246 15636 1704 3948 219019 98244 17327 985 626 176 381 346 726 786 177 1618 1830 223 193 1324 138 6009 3132 700 1952 505 48 119 648 1724 101
internal_value=0 0.9286 1.14178 -0.489404 -0.312982 -0.349628 0.976953 1.19009 -0.457649 -0.0573993 1.19736 0.594248 0.138145 -0.395272 0.92711 1.12519 0.389977 0.8957 -0.59881 -0.291015 -0.525389 0.940244 1.00219 0.285158 0.636178 1.08961 -0.0620887 0.47553 0.881196 0.433166
internal_weight=0 2.15477e+08 1.84677e+08 4.09416e+08 1.79299e+08 3.08003e+07 3.48875e+07 1.79569e+08 2.87376e+07 7.49267e+06 1.78792e+08 2.55838e+06 5.23952e+06 4.93429e+06 1.9018e+06 2.9648e+07 701399 9.39132e+06 2.12449e+07 1.6309e+06 4.23289e+06 8.49115e+06 7.05409e+06 4.32572e+06 1.43706e+06 1.72305e+06 633652 900168 6.17593e+06 302110
internal_count=530591 190415 160344 340176 121157 30071 22913 156396 28367 9578 155770 2568 3723 7010 1842 19190 400 5524 18789 1462 6610 4683 3832 2937 851 1666 601 841 3554 220
shrinkage=0.05


Tree=25
num_leaves=31
num_cat=0
split_feature=19 25 8 25 8 25 25 8 0 1 25 0 1 1 21 25 0 1 26 0 20 0 18 1 8 26 8 1 26 26
split_gain=4.98276e+08 2500.61 2066.79 1350.29 816.409 810.377 386.102 379.55 264.735 258.378 248.102 197.867 161.112 147.447 142.048 123.8 111.759 92.1267 85.1523 69.903 62.459 61.1759 54.1426 53.741 49.4504 40.4655 32.4263 30.8195 28.3465 26.6435
threshold=1.0000000180025095e-35 0.82787432312084019 0.8109809487353461 -0.74520896544704929 -0.84450594009729529 1.0000000180025095e-35 1.0000000180025095e-35 0.77744002389545741 0.86882736276506189 0.10448420488820999 0.82787432312084019 1.1008280274947044 -0.11969620085677508 -0.078181310904000087 -0.16237672840499096 -0.74520896544704929 1.1008280274947044 -0.32727065062065014 0.83075517560977263 0.86882736276506189 0.081465413217751456 -1.0799782209639333 -0.94535568513474433 -0.17228172813029011 0.8948333979229427 0.83075517560977263 -0.6288853564720468 -0.47949191378082517 -0.7292874694087409 0.83075517560977263
decision_type=2 2 2 2 2 2 2 2 2 2 2 2 2 2 2 2 2 2 2 2 2 2 2 2 2 2 2 2 2 2
left_child=1 4 3 8 -1 17 12 -3 27 11 -11 19 15 21 24 -4 28 -5 23 26 22 -6 -17 -9 -15 -16 -7 -2 -10 -19
right_child=2 7 6 5 13 9 -8 18 16 10 -12 -13 -14 14 25 20 -18 29 -20 -21 -22 -23 -24 -25 -26 -27 -28 -29 -30 -31
leaf_value=-0.032479253280171302 0.058860256818511793 -0.032527651861726826 0.063104063954088588 0.057743094022108754 -0.032431314212105801 0.05884158016131822 0.064725281070428839 -0.032861468414441715 0.058475225816812776 0.058993650042658913 0.063404331434022271 0.057832056719167912 0.064012772087439371 -0.032618629658015562 -0.032703516735650293 0.06019211637527358 0.057815484666155027 0.058285075431086679 -0.032278914393087575 0.058324373076112671 0.05958823159366259 -0.032763340042561866 0.062676383293909829 -0.032393128687301154 -0.032414977203968479 -0.032512422276721999 0.058068822092246487 0.06042111183051381 0.058187046581062989 0.059683869743239984
leaf_weight=141585661.9050495 2358564.3137683868 18023568.618584991 33987.111602783203 224969276.1894846 1441743.6388483047 1357012.7088766098 60273.983528137207 649432.92478370667 2421122.784122467 96635.074554443359 47581.808456420898 1567125.3811988831 29852.256851196289 4432675.6797964573 23326664.599336863 63042.900268554688 1179749.2470760345 547396.63639640808 176748268.37821627 2251578.4521083832 289010.07104492188 36751807.131642699 33632.892425537109 10778105.043253422 9100433.9775800705 3143661.1926138997 150843.37928771973 32055.591827392578 1317775.1497192383 36300.17887878418
leaf_count=164534 1234 15680 21 103646 1590 676 36 572 1320 46 29 897 26 4703 25717 22 687 308 151739 1203 108 33858 20 9884 8195 3048 78 21 668 25
internal_value=0 -0.648671 1.15575 1.15561 -0.651017 1.15519 1.21935 -0.646169 1.16899 1.16721 1.20898 1.16608 1.20927 -0.653611 -0.652269 1.20422 1.1648 1.15489 -0.645749 1.17002 1.19912 -0.655016 1.22113 -0.648395 -0.649634 -0.653616 1.17529 1.17762 1.16747 1.16744
internal_weight=0 4.25982e+08 2.38843e+08 2.38333e+08 2.19783e+08 2.31024e+08 509799 2.06199e+08 7.30927e+06 5.47078e+06 144217 5.32656e+06 449525 7.8197e+07 4.00034e+07 419673 4.91865e+06 2.25553e+08 1.88176e+08 3.75943e+06 385686 3.81936e+07 96675.8 1.14275e+07 1.35331e+07 2.64703e+07 1.50786e+06 2.39062e+06 3.7389e+06 583697
internal_count=530591 419520 111071 110838 241645 106908 233 177875 3930 2929 75 2854 197 77111 41663 171 2675 103979 162195 1957 150 35448 42 10456 12898 28765 754 1255 1988 333
shrinkage=0.05


Tree=26
num_leaves=31
num_cat=0
split_feature=8 25 8 8 19 20 0 25 0 3 0 0 18 18 8 12 0 18 26 21 8 25 24 26 8 20 8 26 12 26
split_gain=7.97747e+07 1.50624e+08 1.41058e+07 1.36834e+07 7.91304e+06 2.85106e+06 934495 849174 974388 772326 730141 825247 677808 599125 487821 455905 404377 423886 360777 359680 334807 333914 316438 308118 269839 252943 266573 228774 216150 215554
threshold=-0.84450594009729529 0.82787432312084019 0.87327139439556789 0.8109809487353461 1.0000000180025095e-35 0.63393535954318903 -1.0799782209639333 1.0000000180025095e-35 -1.0335780880180045 1.0000000180025095e-35 -0.89437768918021943 -1.0799782209639333 -1.2946853853217035 0.68484958240439875 0.87327139439556789 -0.73305791486401473 -1.0799782209639333 -1.2946853853217035 0.83075517560977263 -0.47504077639244219 0.72952433864540223 -0.74520896544704929 -0.40736919086194928 0.83075517560977263 1.062538296298136 0.89462458253015298 -0.29347555972166034 0.83075517560977263 -0.59471282522555124 0.83075517560977263
decision_type=2 2 2 2 2 2 2 2 2 2 2 2 2 2 2 2 2 2 2 2 2 2 2 2 2 2 2 2 2 2
left_child=-1 2 4 9 6 10 -2 8 16 18 11 -4 -13 -14 23 -12 -7 -18 -3 -17 -8 -22 -9 -5 -24 29 -27 -16 -26 -11
right_child=1 3 5 14 -6 7 20 22 -10 25 15 12 13 -15 27 19 17 -19 -20 -21 21 -23 24 -25 28 26 -28 -29 -30 -31
leaf_value=-0.027368558212358625 -0.008654228103749096 0.072039831281862143 -0.027214345545347809 0.030761244091961584 -0.027366394797105977 -0.027463122752516101 0.091981121795128046 0.083555850947901522 -0.019022264268655054 0.075755903112202858 0.056000235218012909 -0.028228569143377014 0.079361759435180243 -0.002447831903951557 -0.014938105235304309 -0.0065862555118674712 -0.028116888680264015 0.088159685727250331 0.021731520814824368 0.020179541211386716 0.046263321094755588 0.083781420637476192 0.067827939379132382 -0.012121055848255987 0.085039229339250524 0.03326301883889568 0.090869978002109303 -0.02600258748282594 0.033918943971937711 0.039412196324748322
leaf_weight=143036078.77290514 236549.23559474945 453196.18661499023 383510.7617020607 492400.96369075775 1459801.0322360992 113560.95913887024 53025072.558982193 1711315.7717704773 714453.85454130173 771376.9597299099 418772.67824363708 221554.6026134491 1294011.8329730034 270592.34940457344 4973591.0361297131 3925982.5237510204 89288.229162216187 641558.80781364441 1667956.8809752464 1845007.5706348419 725249.44345617294 3253532.3893120289 2660070.437977314 2805879.0558338165 244377.7968788147 229782.47366142273 1593263.8689870834 76992683.013250738 1344042.4791383743 866010.56087899208
leaf_count=281501 519 431 940 770 2667 239 50288 1717 1192 923 409 288 1364 591 9692 6571 110 808 2223 2607 958 3695 3048 5442 186 247 1901 146291 1742 1231
internal_value=0 0.472416 1.52558 -0.392154 1.75176 0.68937 1.8104 1.13618 0.479066 1.12472 0.2875 0.786678 1.07245 1.30426 -0.491451 0.112525 1.2063 1.47908 0.649603 0.0394174 1.81863 1.53885 1.30806 -0.114383 1.16181 1.41595 1.67218 -0.506624 0.835676 1.13068
internal_weight=0 1.65424e+08 7.45783e+07 9.08461e+07 5.87002e+07 1.58781e+07 5.72404e+07 7.51867e+06 1.55886e+06 5.58159e+06 8.35943e+06 2.16967e+06 1.78616e+06 1.5646e+06 8.52646e+07 6.18976e+06 844408 730847 2.12115e+06 5.77099e+06 5.70039e+07 3.97878e+06 5.95981e+06 3.29828e+06 4.24849e+06 3.46043e+06 1.82305e+06 8.19663e+07 1.58842e+06 1.63739e+06
internal_count=530591 249090 79939 169151 58127 21812 55460 9042 2349 6956 12770 3183 2243 1955 162195 9587 1157 918 2654 9178 54941 4653 6693 6212 4976 4302 2148 155983 1928 2154
shrinkage=0.05


Tree=27
num_leaves=31
num_cat=0
split_feature=8 1 26 1 26 26 8 18 8 1 24 24 18 0 3 26 0 19 1 23 8 23 8 23 18 0 20 0 18 1
split_gain=4.53175e+08 1.22887e+07 4.21172e+06 3.76324e+06 4.50869e+06 3.07253e+06 2.55441e+06 822376 651342 588624 702473 537205 495269 468141 434647 250656 246653 222597 193358 189949 144085 138707 134041 138676 129615 117039 115088 107847 104647 95525.1
threshold=0.77744002389545741 -0.17228172813029011 0.83075517560977263 0.082342930246729978 0.83075517560977263 0.83075517560977263 0.93795758776152582 -1.2946853853217035 0.48755011899343159 -0.055486504396483075 0.014650334307584971 -0.14353482286950445 0.21907664882178637 -0.80157742328836257 1.0000000180025095e-35 0.83075517560977263 0.31202576741392035 1.0000000180025095e-35 0.93478200394371036 0.6313965997325488 0.8948333979229427 0.93883194661610025 -0.14014537606067526 0.95789778067527032 -1.0617989185303973 -0.75517729034243408 0.93767426101362117 -1.0799782209639333 -1.2946853853217035 -0.28298810133769009
decision_type=2 2 2 2 2 2 2 2 2 2 2 2 2 2 2 2 2 2 2 2 2 2 2 2 2 2 2 2 2 2
left_child=3 2 7 8 26 6 11 17 29 12 27 -3 24 -9 22 -10 -12 -2 21 -15 -7 -16 -6 -24 -8 -14 -5 -11 -23 -1
right_child=1 5 -4 4 14 20 9 13 15 10 16 -13 25 19 18 -17 -18 -19 -20 -21 -22 28 23 -25 -26 -27 -28 -29 -30 -31
