tree
version=v3
num_class=1
num_tree_per_iteration=1
label_index=0
max_feature_idx=15
objective=regression
feature_names=Column_0 Column_1 Column_2 Column_3 Column_4 Column_5 Column_6 Column_7 Column_8 Column_9 Column_10 Column_11 Column_12 Column_13 Column_14 Column_15
feature_infos=[-1.5188005942640472:0.65841428017386427] [-3.4142206538754993:0.29289261045998743] [-0.22456633301601364:13.416262756880444] [-1.6201145043403433:4.023628202052369] [-1.4116447074529979:39.089401232277062] [-3.0773517300106121:5.1595916844867986] [-0.93094023732767117:1.0741828099197535] [-2.2655771272932408:4.1667243914131404] [-0.53377750241544908:1.8734397674589149] [-0.84587109045781494:1.1822132370770173] [-0.15385107432694126:19.223150833651339] [-0.82838030933511941:3.5488511041049882] [-0.653872483562706:41.079497992588038] [-0.89014016660030859:3.4260390322772496] [-0.8764921771749975:3.0254384231512144] [-1.7093150095557856:6.2908989506447357]
tree_sizes=2880 2950 2941 2944 2937 2967 3008 2963 2930 2942 2944 2945 2958 2940 2969 2982 2918 2986 2939 2916 2940 2939 2915 2950 2930 2972 3008 2917 2937 2920 2984 2940 2946 2923 2929 2942 2932 2913 2967 2875 2973 2956 2969 2898 2919 2883 2925 2913 2948 2952 2888 2940 2967 2948 2974 2966 2924 2887 2942 2896 2890 2881 2871 2924 2899 2905 2918 2892 2938 2918 2959 2865 2911 2956 2889 2933 2970 2969 2913 2951 2952 2923 2967 2937 2946 2926 2923 2921 2955 2936 2871 2885 2865 2891 2967 2902 2883 2967 2904 2860 2913 2932 2919 2938 2892 2957 2911 2885 2926 2968 2884 2904 2942 2902 2833 2909 2955 2912 2960 2954 2958 2969 2932 2938 2971 2927 2986 2932 2898 2899 2971 2900 2921 2920 2916 2916 2953 2928 2903 2979 2930 2935 2932 2945 2940 2925 2941 2986 2902 2917 2899 2899 2859 2928 2884 2951 2916 2965 2927 2955 2904 2940 2907 2891 2924 2909 2927 2917 2898 2877 2903 2873 2847 2823 2909 2928 2969 2983 2881 2944 2864 2889 2926 2951 2941 2933 2847 2892 3014 2958 2891 2832 2936 3016 2984 2932 2928 2964 2923 2934 2947 2956 2888 2960 2887 2975 2957 2922 2940 2930 2942 2896 2910 2886 2908 2986 2932 2880 2873 2917 2912 2859 2876 2929 2940 2965 2952 2842 2948 2923 2866 2902 2953 2872 2976 2854 2914 2883 2924 2898 2950 2892 2963 2917 2836 2843 2901 2993 2975 2834

Tree=0
num_leaves=31
num_cat=0
split_feature=0 14 4 9 7 6 9 7 4 12 5 4 5 7 12 7 3 4 4 4 4 7 4 12 4 7 5 7 4 4
split_gain=24329.3 1141.76 301.336 168.738 136.04 85.8146 79.2838 69.5551 50.9957 46.8022 42.9425 28.7727 19.1489 11.1518 10.5597 10.341 12.1989 10.6575 9.77359 9.33826 8.78273 8.45466 7.65592 7.28159 8.58632 7.17257 7.36988 6.81709 7.83266 6.54721
threshold=1.0000000180025095e-35 0.35687669074420753 -1.138866218750344 1.0000000180025095e-35 -1.9528958034672359 1.0000000180025095e-35 1.0000000180025095e-35 1.4419299980722429 -1.138866218750344 -0.40790701287536762 -1.1946218066969181 -1.138866218750344 -1.0742768542123777 -0.88084555034950596 -0.20951944551156157 -1.7742207612809475 0.11939523393138295 0.053794256526718022 -1.0434533807281789 -1.071736471999035 -1.138866218750344 2.0672926457242524 -0.59365000148082991 -0.18704722549159064 -0.15066182494934974 -2.1315708456535241 -2.234937062618831 -1.1488581136289384 -0.66180202863951909 0.17953474663449973
decision_type=2 2 2 2 2 2 2 2 2 2 2 2 2 2 2 2 2 2 2 2 2 2 2 2 2 2 2 2 2 2
left_child=1 2 -1 9 25 11 7 10 -7 -3 19 -2 -11 -5 -10 -12 18 -18 -17 -6 -15 -13 -22 -20 -25 -4 -27 29 -29 -14
right_child=5 3 4 13 6 8 -8 -9 14 12 15 21 27 20 -16 16 17 -19 23 -21 22 -23 -24 24 -26 26 -28 28 -30 -31
leaf_value=0.18211004089932614 0.21543122661592451 0.17976298070251551 0.20621065763195273 0.18483090615692796 0.20052473432067533 0.20806210313783344 0.19401548461493298 0.19109188720183642 0.22112871167451986 0.20082646787233741 0.20101763933525052 0.22776192824907746 0.19487820853473073 0.17844435558254285 0.22524925579161859 0.19527245016754238 0.20488672042396483 0.19580800556837805 0.20868607925902102 0.21498151703108873 0.18298382115802217 0.2209378369147115 0.18109679672661896 0.19899007057507054 0.20970260819930883 0.21126113860934709 0.18972280496062122 0.19434920002922867 0.1894364043372832 0.21331141223496644
leaf_weight=2440 497 905 74 2526 125 462 1846 801 1682 604 1340 91427 365 2550 40773 170 1082 487 3668 1621 7396 474 22797 479 327 42 2352 1117 3435 58
leaf_count=2440 497 905 74 2526 125 462 1846 801 1682 604 1340 91427 365 2550 40773 170 1082 487 3668 1621 7396 474 22797 479 327 42 2352 1117 3435 58
internal_value=0 -0.537917 -0.31823 -0.626596 -0.263216 0.233396 -0.219058 -0.18423 0.196445 -0.478331 -0.159874 0.250559 -0.444113 -0.653853 0.200041 -0.192547 -0.175363 -0.251596 -0.149607 -0.0185347 -0.658792 0.251857 -0.654033 -0.140665 -0.226727 -0.476953 -0.486431 -0.464526 -0.475811 -0.343094
internal_weight=0 58607 16854 41753 14414 135315 11946 10100 42917 6484 9299 92398 5579 35269 42455 7553 6213 1569 4644 1746 32743 91901 30193 4474 806 2468 2394 4975 4552 423
internal_count=193922 58607 16854 41753 14414 135315 11946 10100 42917 6484 9299 92398 5579 35269 42455 7553 6213 1569 4644 1746 32743 91901 30193 4474 806 2468 2394 4975 4552 423
shrinkage=0.291223


Tree=1
num_leaves=31
num_cat=0
split_feature=14 8 4 7 1 7 7 12 7 4 12 4 7 7 12 7 1 4 1 4 7 7 12 7 1 1 4 4 7 12
split_gain=5611.98 9756.77 647.313 424.684 193.654 64.2027 58.8185 54.3632 52.7747 50.3184 36.1599 27.2576 27.173 22.7664 20.0609 18.5173 14.3634 12.2112 12.1793 11.9201 10.9914 9.14217 9.10597 8.68571 10.6529 7.32488 7.07123 6.87458 6.00435 5.84933
threshold=-0.091621079408230652 1.0000000180025095e-35 -1.071736471999035 -1.8635582823740917 1.0000000180025095e-35 2.0672926457242524 -1.1488581136289384 -0.41703635225848085 -1.5955457190946594 -1.1601637272374343 -0.40790701287536762 -0.96848615085362078 -1.9528958034672359 -1.1488581136289384 -0.33768132531295841 -1.9528958034672359 1.0000000180025095e-35 -0.66180202863951909 1.0000000180025095e-35 -0.72995405579820838 -1.0595205925357942 -1.6848832401878036 -0.22532022521310366 -2.0422333245603799 1.0000000180025095e-35 1.0000000180025095e-35 -1.071736471999035 -0.59365000148082991 -2.1315708456535241 0.96465405053192099
decision_type=2 2 2 2 2 2 2 2 2 2 2 2 2 2 2 2 2 2 2 2 2 2 2 2 2 2 2 2 2 2
left_child=2 4 9 12 7 8 14 -2 -5 20 -3 -10 23 15 -6 -9 -7 -15 -13 -18 -1 -11 -12 24 28 -22 -8 -28 -4 -17
right_child=1 10 3 5 6 16 26 13 11 21 22 18 -14 17 -16 29 19 -19 -20 -21 25 -23 -24 -25 -26 -27 27 -29 -30 -31
leaf_value=-0.023807456737706411 -0.026081238803316135 -0.0077006292365697001 -0.0027077938561616975 0.0028615386829043566 -0.026359252898245873 -0.021003851546758465 -0.027220727443934941 -0.018263040777204063 0.0033698622337596145 -0.01827927580627188 0.0042069408238929393 0.0059414200556141576 -0.0047492429088121565 -0.013957273923119594 -0.017131928933718767 -0.011236584751582851 -0.014666778577577857 -0.018957201694872652 0.0089716499438663583 0.00081628291208930934 -0.022260959929144626 -0.0042750532150578387 0.007809073275151208 -0.011838008248474561 0.0042274223165160102 -0.013629175236267364 -0.023734848647566767 -0.025388571836931724 -0.02131971707384632 -0.0052602961846449359
leaf_weight=815 1262 335 40 3417 627 107 3500 791 1997 117 1584 2978 845 1500 2792 1496 138 3631 89813 498 318 755 40998 811 41 651 7084 23868 646 467
leaf_count=815 1262 335 40 3417 627 107 3500 791 1997 117 1584 2978 845 1500 2792 1496 138 3631 89813 498 318 755 40998 811 41 651 7084 23868 646 467
internal_value=0 -0.182684 0.158444 0.171218 -0.497366 0.181264 -0.528906 -0.36678 0.18348 -0.328888 0.162067 0.187881 -0.245943 -0.335938 -0.403805 -0.262594 -0.111586 -0.375305 0.190369 -0.0545565 -0.425118 -0.132014 0.164642 -0.325094 -0.404466 -0.353132 -0.541321 -0.536504 -0.43406 -0.210542
internal_weight=0 89935 103987 101331 47018 98948 37871 9147 98205 2656 42917 94788 2383 7885 3419 2754 743 5131 92791 636 1784 872 42582 1538 727 969 34452 30952 686 1963
internal_count=193922 89935 103987 101331 47018 98948 37871 9147 98205 2656 42917 94788 2383 7885 3419 2754 743 5131 92791 636 1784 872 42582 1538 727 969 34452 30952 686 1963
shrinkage=0.0466168


Tree=2
num_leaves=31
num_cat=0
split_feature=6 8 4 7 1 4 7 12 7 7 12 7 5 7 12 7 7 5 1 4 3 1 12 1 4 7 1 7 4 3
split_gain=3819.16 6639.41 443.064 297.326 132.442 46.1135 41.0526 37.5204 35.7286 36.8759 24.6113 18.7458 15.7898 15.0967 14.0845 11.6917 10.3461 9.16388 8.56096 8.24053 7.73898 7.70071 6.59916 6.33468 6.07131 6.0562 6.91398 6.055 5.45514 5.29452
threshold=1.0000000180025095e-35 1.0000000180025095e-35 -1.138866218750344 -1.8635582823740917 1.0000000180025095e-35 -1.0025621644329654 -1.0595205925357942 -0.35523774720356072 2.0672926457242524 -1.5062081980015152 -0.40790701287536762 -1.9528958034672359 -1.0742768542123777 -1.1488581136289384 -0.33768132531295841 -1.9528958034672359 -1.2381956347220826 -0.92451424667606141 1.0000000180025095e-35 -1.1899802391193608 2.0521838320110795 1.0000000180025095e-35 -0.11857718011824164 1.0000000180025095e-35 -0.72995405579820838 -2.0422333245603799 1.0000000180025095e-35 -1.3275331558152268 -0.15066182494934974 0.89251067316326138
decision_type=2 2 2 2 2 2 2 2 2 2 2 2 2 2 2 2 2 2 2 2 2 2 2 2 2 2 2 2 2 2
left_child=2 4 16 11 7 17 14 -2 9 21 -3 25 -9 15 -6 -14 -1 20 -10 -18 -5 -7 -12 -11 -20 26 -4 -16 -17 -15
right_child=1 10 3 5 6 8 -8 12 18 23 22 -13 13 29 27 28 19 -19 24 -21 -22 -23 -24 -25 -26 -27 -28 -29 -30 -31
leaf_value=-0.027974541018521659 -0.030004112021178447 -0.009160982478542027 -0.024322858659997046 0.0054250733381319971 -0.031543598218792976 -0.0010820321606875814 -0.030081578134325632 -0.0096664721711748006 -0.023562179463712467 0.0074959118216701912 0.0063493701497158309 -0.0058852282423610446 -0.022509450246464616 -0.022573565182104013 -0.018806908792881771 -0.015048638317193917 -0.021279057835336998 -0.0054643010108564437 -0.017411377512665398 -0.0083607617075422535 -0.021232582111380099 0.0058059142813741563 0.0093823757952106301 0.01068024419625753 0.00097108351503093898 -0.014326138539842841 0.0037674686956096813 -0.024936633465448388 -0.0070945082733311548 -0.015093630067904717
leaf_weight=818 1510 335 691 917 686 910 33971 832 97 2915 3535 856 684 3985 2099 1040 946 886 97 292 52 3780 39047 89355 498 829 42 1115 623 479
leaf_count=818 1510 335 691 917 686 910 33971 832 97 2915 3535 856 684 3985 2099 1040 946 886 97 292 52 3780 39047 89355 498 829 42 1115 623 479
internal_value=0 -0.150695 0.130716 0.139987 -0.410257 0.148407 -0.436348 -0.302307 0.151374 0.152989 0.133706 -0.20649 -0.273848 -0.289734 -0.339176 -0.224805 -0.328889 -0.00778439 -0.0750445 -0.271226 0.0594239 0.0664889 0.13583 0.157386 -0.0301353 -0.271671 -0.337891 -0.311412 -0.17954 -0.323872
internal_weight=0 89941 103981 101925 47024 99507 37871 9153 97652 96960 42917 2418 7643 6811 3900 2347 2056 1855 692 1238 969 4690 42582 92270 595 1562 733 3214 1663 4464
internal_count=193922 89941 103981 101925 47024 99507 37871 9153 97652 96960 42917 2418 7643 6811 3900 2347 2056 1855 692 1238 969 4690 42582 92270 595 1562 733 3214 1663 4464
shrinkage=0.0672209


Tree=3
num_leaves=31
num_cat=0
split_feature=0 9 4 6 5 7 7 3 7 12 4 7 3 14 7 12 4 4 12 4 7 7 11 12 4 4 4 4 12 7
split_gain=8325.66 219.714 79.4236 43.2068 37.2461 27.9925 27.6119 20.476 18.5997 17.3069 10.656 10.6177 9.9808 9.80112 9.73462 9.61761 6.41296 5.85936 5.55102 5.29241 5.48827 4.68838 4.34153 5.16956 3.7108 3.68222 3.65697 3.62426 4.46955 3.97363
threshold=1.0000000180025095e-35 1.0000000180025095e-35 -1.138866218750344 1.0000000180025095e-35 -1.0742768542123777 -1.3275331558152268 1.3525924769790987 -0.11253939783818055 -1.9528958034672359 -0.46057627854717459 -0.10193312553088694 1.4419299980722429 -0.96296638099324672 0.35687669074420753 1.0845799136996661 -0.31942264654673203 -1.0025621644329654 -1.0025621644329654 0.73361153845159455 -1.138866218750344 -0.61283298707007339 -2.1315708456535241 1.4105484021371197 -0.36647385721354619 -0.38271947742468665 1.8606748765714674 -0.69587804221886373 -0.98586491777908658 -0.31942264654673203 -1.7742207612809475
decision_type=2 2 2 2 2 2 2 2 2 2 2 2 2 2 2 2 2 2 2 2 2 2 2 2 2 2 2 2 2 2
left_child=1 2 -1 -2 6 15 12 8 21 -5 11 22 26 14 27 -3 -14 -11 -18 -7 25 -6 23 -9 -22 -21 -4 28 -10 -29
right_child=3 5 4 9 7 19 -8 10 13 17 -12 -13 16 -15 -16 -17 18 -19 -20 20 24 -23 -24 -25 -26 -27 -28 29 -30 -31
leaf_value=-0.021598448652414469 0.0083967705724059174 -0.021536068649024912 -0.0040897998516617141 -0.0092530804267515615 -0.0018488107525116212 -0.023093109938600025 -0.021114218696995889 -0.01084092145552094 -0.017329209652081602 0.003010360211920359 -0.018987985530529078 -0.022649644724781794 -0.0077926420832002937 -0.013168400713763588 -0.020636609960207629 -0.01295738992121508 0.0018452427827280007 0.0064442298751646136 -0.014532174528982117 -0.018897294676623325 -0.019938313720355563 -0.016839081570041683 -0.0065765876584072853 -0.016255768506202008 -0.021311068952807478 -0.0028412648318181283 -0.01103133435004666 -0.010729533120627809 -0.0019963918788514293 -0.007057006765417353
leaf_weight=2997 92398 521 406 229 69 2814 333 1242 272 1648 1971 366 347 2355 214 2081 1151 41040 70 4571 9565 1854 355 1027 18273 46 599 1250 78 3780
leaf_count=2997 92398 521 406 229 69 2814 333 1242 272 1648 1971 366 347 2355 214 2081 1151 41040 70 4571 9565 1854 355 1027 18273 46 599 1250 78 3780
internal_value=0 -0.31468 -0.231934 0.136526 -0.206496 -0.359987 -0.102972 -0.226778 -0.200439 0.110307 -0.279189 -0.24156 -0.0679044 -0.17909 -0.156307 -0.259892 -0.0180421 0.111778 0.0160508 -0.367371 -0.363764 -0.28869 -0.219305 -0.235394 -0.36906 -0.331833 -0.1457 -0.147987 -0.246381 -0.141141
internal_weight=0 58607 20736 135315 17739 37871 2906 14833 9872 42917 4961 2990 2573 7949 5594 2602 1568 42688 1221 35269 32455 1923 2624 2269 27838 4617 1005 5380 350 5030
internal_count=193922 58607 20736 135315 17739 37871 2906 14833 9872 42917 4961 2990 2573 7949 5594 2602 1568 42688 1221 35269 32455 1923 2624 2269 27838 4617 1005 5380 350 5030
shrinkage=0.0564661


Tree=4
num_leaves=31
num_cat=0
split_feature=0 1 14 4 7 12 14 7 12 7 7 12 3 7 4 6 3 4 4 7 7 5 12 12 12 7 7 3 4 12
split_gain=5666.65 369.929 142.909 54.5032 59.5272 33.4707 29.6475 22.7077 18.858 10.821 13.2208 10.173 8.32459 8.25206 6.78652 6.16434 5.34616 5.18084 5.00304 4.70677 4.10424 3.98612 3.53305 3.94206 3.51327 3.35875 3.27231 3.20058 3.05347 3.05206
threshold=1.0000000180025095e-35 1.0000000180025095e-35 -0.046771302392986845 -1.0979750024551302 -2.0422333245603799 -0.47813270043777689 0.44657624477469521 -1.0595205925357942 -0.41703635225848085 2.0672926457242524 -1.5062081980015152 -0.22532022521310366 -0.42178557353093188 -1.0595205925357942 -0.74937738353843486 1.0000000180025095e-35 -1.1949010127628099 -1.2479094622042466 -0.018446892261492601 -1.5062081980015152 1.4419299980722429 -1.9648295025979745 -0.54835838800018599 -0.65369691934379992 -0.65369691934379992 -2.1315708456535241 0.36987974495451253 2.1294953759342672 0.46270641947885366 -0.20951944551156157
decision_type=2 2 2 2 2 2 2 2 2 2 2 2 2 2 2 2 2 2 2 2 2 2 2 2 2 2 2 2 2 2
left_child=1 2 3 -1 25 13 17 18 24 10 -6 22 16 -3 29 26 21 19 -7 -2 -12 -10 23 -8 -4 -5 -15 -24 -18 -14
right_child=6 5 8 4 9 7 11 -9 12 -11 20 -13 14 15 -16 -17 28 -19 -20 -21 -22 -23 27 -25 -26 -27 -28 -29 -30 -31
leaf_value=-0.012398108387990363 -0.02132459501075791 -0.016398301455565659 -0.0038960656577554128 -0.001819040425237098 -0.00016029291710914259 -0.012171085812904573 0.0058721643406258999 -0.015201711254495345 0.0017216582743659816 -0.012397232216960671 0.0060406401899832964 0.0045836221296011613 -0.010184778288155755 -0.019510294538061849 -0.012228425270596855 -0.017292011261546916 -0.0071802710230582786 0.0061154345215079908 -0.0080091514906029324 0.0012316233816516973 -0.0019138038879324781 -0.010921704773870519 0.001397670425681887 -0.017060976523358723 -0.016650154364105801 -0.013245551957017201 -0.022885790940447855 -0.011074279301371229 -0.0024062940486410511 -0.0045094685241514349
leaf_weight=842 26 2800 57 72 1479 2539 28 32452 66 107 2951 34148 482 1412 3019 1519 2105 99481 1020 225 173 1305 1295 58 1199 649 1484 54 402 473
leaf_count=842 26 2800 57 72 1479 2539 28 32452 66 107 2951 34148 482 1412 3019 1519 2105 99481 1020 225 173 1305 1295 58 1199 649 1484 54 402 473
internal_value=0 -0.259611 -0.126423 -0.0102752 0.0264268 -0.307003 0.112634 -0.294547 -0.206418 0.0673882 0.0746961 0.0878533 -0.18822 -0.36917 -0.220384 -0.396102 -0.155258 0.121476 -0.21872 -0.0220125 0.111572 -0.205467 0.00537096 -0.191149 -0.320189 -0.241157 -0.423164 0.0178993 -0.127801 -0.146909
internal_weight=0 58607 15381 6273 5431 43226 135315 36011 9108 4710 4603 35583 7852 7215 3974 4415 3878 99732 3559 251 3124 1371 1435 86 1256 721 2896 1349 2507 955
internal_count=193922 58607 15381 6273 5431 43226 135315 36011 9108 4710 4603 35583 7852 7215 3974 4415 3878 99732 3559 251 3124 1371 1435 86 1256 721 2896 1349 2507 955
shrinkage=0.0501933


Tree=5
num_leaves=31
num_cat=0
split_feature=0 1 11 4 7 12 12 7 12 12 7 7 7 7 6 4 4 4 5 7 5 12 7 4 4 3 5 4 7 4
split_gain=3855.21 249.371 106.288 40.7289 42.8253 20.9654 19.6261 15.5595 12.8143 11.4566 9.41053 8.32363 6.83132 5.75767 6.37543 5.41854 4.86959 4.84688 4.9883 4.82445 6.82201 4.08816 3.2746 3.24444 2.75817 2.75633 2.53557 3.533 2.48989 2.44762
threshold=1.0000000180025095e-35 1.0000000180025095e-35 1.0000000180025095e-35 -1.071736471999035 -1.9528958034672359 -0.65369691934379992 -0.3763054534722835 -0.88084555034950596 -0.33943696750201863 -0.49568912232837919 -0.97018307144265015 1.7099425613516754 -1.6848832401878036 -0.34482042379064093 1.0000000180025095e-35 -0.66180202863951909 0.48485582830542767 -0.018446892261492601 -1.1946218066969181 -1.9528958034672359 1.0000000180025095e-35 -0.29554591277551284 -2.0422333245603799 -1.2479094622042466 -0.38271947742468665 -0.73103174922368319 -1.1946218066969181 -0.95485574542188301 1.0845799136996661 -0.64817162320778132
decision_type=2 2 2 2 2 2 2 2 2 2 2 2 2 2 2 2 2 2 2 2 2 2 2 2 2 2 2 2 2 2
left_child=1 2 3 23 22 -2 13 17 -4 -7 19 12 -6 16 -15 -12 26 18 -8 -10 -21 -11 -5 -1 28 -22 27 -3 -9 -20
right_child=5 6 8 4 11 9 7 24 10 21 15 -13 -14 14 -16 -17 -18 -19 29 20 25 -23 -24 -25 -26 -27 -28 -29 -30 -31
leaf_value=-0.017221373746416288 0.0068204431870724884 -0.018924788239395762 -0.017217064615898083 -0.01377316915846424 -0.00033464551668556169 -0.014534825517810181 -0.0051652803361076889 -0.015424688147215704 -0.012233926923761837 0.00046521780711947881 -0.008558509351090083 -0.010429081791002374 0.0066273878708360285 -0.024142662447206167 -0.01893514422153203 -0.013900344605636869 -0.012406511621600731 -0.0091548575167232794 -0.012358699562566107 0.00032584702118889969 -0.0048448960792976592 0.0051782693115964137 -0.0047913710782656639 -0.0091090292792883922 -0.017324346807557778 -0.010250906866088686 -0.019978303166876179 -0.0095284304604369967 -0.01790258324199847 -0.016341762209379919
leaf_weight=483 92281 529 1547 655 782 135 264 8222 793 849 1164 157 3444 2221 2039 3273 576 1300 1132 558 691 42077 255 414 19612 1114 2902 275 2360 1818
leaf_count=483 92281 529 1547 655 782 135 264 8222 793 849 1164 157 3444 2221 2039 3273 576 1300 1132 558 691 42077 255 414 19612 1114 2902 275 2360 1818
internal_value=0 -0.21415 -0.10456 -0.00337935 0.0300133 0.0929261 -0.252994 -0.242427 -0.173085 0.0747061 -0.156184 0.0709992 0.0793988 -0.295934 -0.321964 -0.185875 -0.270039 -0.187667 -0.208507 -0.114441 -0.0917918 0.0756208 -0.167395 -0.200422 -0.250613 -0.121666 -0.283333 -0.233639 -0.237602 -0.220292
internal_weight=0 58580 15330 6190 5293 135342 43250 34708 9140 43061 7593 4383 4226 8542 4260 4437 4282 4514 3214 3156 2363 42926 910 897 30194 1805 3706 804 10582 2950
internal_count=193922 58580 15330 6190 5293 135342 43250 34708 9140 43061 7593 4383 4226 8542 4260 4437 4282 4514 3214 3156 2363 42926 910 897 30194 1805 3706 804 10582 2950
shrinkage=0.0672441


Tree=6
num_leaves=31
num_cat=0
split_feature=14 12 4 7 7 3 1 1 5 7 7 4 4 7 12 4 5 7 4 12 3 4 5 3 7 5 7 5 7 3
split_gain=826.831 117.431 104.183 57.8127 43.9691 32.2925 28.7356 22.3649 15.6111 10.1469 8.95157 8.58982 7.54155 6.71616 6.18431 5.95647 5.75268 5.51188 6.00897 5.5078 4.46927 4.27351 4.10651 3.7972 3.89351 3.72292 3.39282 3.37714 4.66756 3.31733
threshold=-0.046771302392986845 -0.29554591277551284 -1.071736471999035 -1.7742207612809475 -0.79150802925636177 0.81519912924007365 1.0000000180025095e-35 1.0000000180025095e-35 -1.2944635450544622 2.0672926457242524 -1.9528958034672359 -1.2179225702544234 -0.90646780613921363 -1.9528958034672359 -0.3763054534722835 -0.9003341236949316 -0.92451424667606141 -1.1488581136289384 0.4967824330581983 -0.65369691934379992 -0.88565483707005888 -0.28730663940252171 -2.234937062618831 -1.2722125566859979 -0.16614538160435258 -0.92451424667606141 -1.7742207612809475 0.34579358510519498 -1.9528958034672359 -0.73103174922368319
decision_type=2 2 2 2 2 2 2 2 2 2 2 2 2 2 2 2 2 2 2 2 2 2 2 2 2 2 2 2 2 2
left_child=2 14 11 10 6 7 27 21 20 15 22 -1 -7 -8 19 16 -5 26 -19 -2 -9 29 -4 24 -10 -13 -15 28 -3 -6
right_child=1 4 3 9 5 12 13 8 23 -11 -12 25 -14 17 -16 -17 -18 18 -20 -21 -22 -23 -24 -25 -26 -27 -28 -29 -30 -31
leaf_value=-0.010684496997062037 -0.00024477420672191575 -0.008275766069817286 0.013898829441042778 0.0038851897167959549 -0.0035636562664304048 -0.0056648779561440429 -0.0067345105634482039 -0.0029098813541962145 -0.0034250571647555512 -0.0026228323979090758 -0.00082425599095394485 -0.00097643913976182685 -0.0018738358626099578 -0.0016192642994462456 -0.0086098653549560797 0.0041816624211355362 -0.00030629771332458508 -0.0018547425115198338 0.0032335336696696685 -0.012509368478182325 0.00069131905778244856 -0.011468153110384283 -0.0071339703970963505 -0.0048135302413451911 -0.0072479897571077556 -0.0070893742438902585 0.0015139509978347469 -0.0067450630485738983 0.00039839409690049766 -0.0092870258854835467
leaf_weight=1405 123 314 31 2399 509 1898 471 3156 1096 744 1811 610 18107 1316 2329 92789 1938 5300 887 4720 1756 1780 1546 29692 4271 701 8069 2628 575 951
leaf_count=1405 123 314 31 2399 509 1898 471 3156 1096 744 1811 610 18107 1316 2329 92789 1938 5300 887 4720 1756 1780 1546 29692 4271 701 8069 2628 575 951
internal_value=0 -0.0700683 0.0608692 0.0660534 -0.0594327 -0.0722528 -0.0179993 -0.0876311 -0.0811539 0.0704991 -0.0623717 -0.13241 -0.0390354 -5.31913e-05 -0.19282 0.0713903 0.0351677 0.00350522 -0.0196663 -0.213184 -0.0283563 -0.167538 -0.117455 -0.0885512 -0.11303 -0.0741915 0.0187809 -0.0998612 -0.046583 -0.127438
internal_weight=0 89948 103974 101258 82776 63216 19560 43211 39971 97870 3388 2716 20005 16043 7172 97126 4337 15572 6187 4843 4912 3240 1577 35059 5367 1311 9385 3517 889 1460
internal_count=193922 89948 103974 101258 82776 63216 19560 43211 39971 97870 3388 2716 20005 16043 7172 97126 4337 15572 6187 4843 4912 3240 1577 35059 5367 1311 9385 3517 889 1460
shrinkage=0.0572177


Tree=7
num_leaves=31
num_cat=0
split_feature=0 1 14 7 7 7 12 7 7 7 12 7 7 3 12 5 12 7 7 13 12 12 3 3 12 5 12 5 7 3
split_gain=6219.2 404.714 148.897 54.2004 23.6274 23.2155 19.0689 11.9486 8.25713 8.12791 5.5293 4.68163 4.84484 4.53549 4.43061 3.20539 3.83046 3.13107 3.07949 2.86887 13.3652 2.86095 2.41394 2.35376 2.32886 2.31843 2.20875 2.1333 2.05836 2.0322
threshold=1.0000000180025095e-35 1.0000000180025095e-35 -0.046771302392986845 -1.9528958034672359 1.6206050402585312 -1.1488581136289384 -0.41703635225848085 -1.0595205925357942 -1.5062081980015152 -1.9528958034672359 0.11878564384270157 -2.1315708456535241 -2.0422333245603799 -0.73103174922368319 0.55839844798338356 -1.1946218066969181 -0.30256848153175381 -0.61283298707007339 1.4419299980722429 0.68988971870308335 -0.35523774720356072 -0.22532022521310366 1.0000000180025095e-35 1.3563799367023885 -0.33768132531295841 -0.53673606644809879 2.6820232398706394 0.34579358510519498 1.8886176035379638 0.66057604139369797
decision_type=2 2 2 2 2 2 2 2 2 2 2 2 2 2 2 2 2 2 2 2 2 2 2 2 2 2 2 2 2 2
left_child=1 2 3 11 8 14 -4 9 -5 -8 18 -1 -13 -11 15 16 -3 26 24 28 -21 -22 -12 -10 -9 -26 -7 -15 -2 -27
right_child=19 5 6 4 -6 17 7 10 23 13 22 12 -14 27 -16 -17 -18 -19 -20 20 21 -23 -24 -25 25 29 -28 -29 -30 -31
leaf_value=-1.1253825755817336e-06 0.0032112627015169039 -0.0066755515905290285 -0.0087282261357228465 -0.00049195488093306777 -0.006471886208358698 -0.0081763379752040656 -0.0061858075546382925 -0.0069733536298441246 0.0021071160267946121 -0.0018750537617942937 -0.0058527991420801121 -0.0074391652050465979 -0.0033956899412362746 -0.0011395241630468747 -0.0055640082921806187 -0.0076296039612511407 -0.0017287309824642019 -0.0088497164186057201 -0.0093702529432580783 -0.0022127211435728788 0.0013783905472279118 0.0030069463358147423 -0.0072482696155970732 -0.00062797789130175977 -0.0019827894123570508 -0.005310652600631488 -0.0014983869855560133 -0.0047569371890205589 0.0022152460425870781 -0.0021177893567517233
leaf_weight=92 100563 523 1235 1400 297 4811 774 193 3217 1142 1721 704 295 131 1253 3917 139 32572 89 353 775 32174 1758 237 337 627 35 901 1477 180
leaf_count=92 100563 523 1235 1400 297 4811 774 193 3217 1142 1721 704 295 131 1253 3917 139 32572 89 353 775 32174 1758 237 337 627 35 901 1477 180
internal_value=0 -0.271957 -0.132346 -0.0134284 0.0294566 -0.321443 -0.214023 -0.195857 0.0462095 -0.145542 -0.226098 -0.215904 -0.235783 -0.114212 -0.262758 -0.277176 -0.212818 -0.330589 -0.173655 0.118065 0.110006 0.11208 -0.247593 0.0724679 -0.161665 -0.144523 -0.306874 -0.16226 0.120696 -0.173614
internal_weight=0 58580 15330 6242 5151 43250 9088 7853 4854 2948 4905 1091 999 2174 5832 4579 662 37418 1426 135342 33302 32949 3479 3454 1337 1144 4846 1032 102040 807
internal_count=193922 58580 15330 6242 5151 43250 9088 7853 4854 2948 4905 1091 999 2174 5832 4579 662 37418 1426 135342 33302 32949 3479 3454 1337 1144 4846 1032 102040 807
shrinkage=0.0264868


Tree=8
num_leaves=31
num_cat=0
split_feature=0 1 13 4 7 12 7 13 4 7 7 4 7 7 7 5 4 4 3 7 5 3 5 4 12 4 7 4 5 7
split_gain=2848.64 207.005 64.3388 31.4655 27.9267 8.15642 6.99092 9.95711 6.93471 6.11896 6.05061 5.21703 4.52226 3.26542 3.10281 3.10219 2.88962 3.0144 2.81296 3.24499 2.86813 3.31324 2.76724 2.76382 2.4809 2.88135 2.46301 2.20869 2.1606 3.50812
threshold=1.0000000180025095e-35 1.0000000180025095e-35 0.111830004567696 -1.071736471999035 -1.9528958034672359 -0.47813270043777689 -0.61283298707007339 -0.40457000672658322 -1.2479094622042466 1.7099425613516754 -1.0595205925357942 -0.018446892261492601 -1.7742207612809475 -1.9528958034672359 1.7099425613516754 -1.1946218066969181 -1.3641086685098118 -1.3296918947946739 1.0471337610096372 1.1739174347928103 0.34579358510519498 -1.2722125566859979 1.0000000180025095e-35 -0.96848615085362078 -0.38438140754196054 -0.64817162320778132 -2.0422333245603799 -1.2479094622042466 -0.92451424667606141 0.63789230823394516
decision_type=2 2 2 2 2 2 2 2 2 2 2 2 2 2 2 2 2 2 2 2 2 2 2 2 2 2 2 2 2 2
left_child=1 2 3 27 26 -4 11 28 16 12 13 15 -6 -7 18 23 -2 -18 20 -20 21 -12 -15 -3 -17 -26 -5 -1 29 -8
right_child=8 6 5 4 9 10 7 -9 -10 -11 14 -13 -14 22 -16 24 17 -19 19 -21 -22 -23 -24 -25 25 -27 -28 -29 -30 -31
leaf_value=-0.012790850673407395 0.0043971910948145928 -0.012211552065460018 -0.013234460797881233 -0.0099326184610231197 -0.0014915797629086226 -0.0086543168062002181 -0.0081967982417453858 -0.013081648537900592 0.0047361298922916585 -0.0081635857707838249 -0.011048254169904749 -0.0095719215824723539 0.0043651933749297156 -0.00048708426056938138 -0.019287568184466773 -0.01458173805399017 -0.018053997832495429 -0.0031536391772326693 -0.00039717736607333768 -0.010684088645542428 -0.009810084857597037 -0.003182185086859776 -0.0054492192720945786 -0.0060377441303150403 -0.010137842204794002 -0.013258411138100865 -0.0031486127349496674 -0.0071830248913347123 -0.017905821997105293 -0.017551787317819055
leaf_weight=522 123 561 996 664 522 820 233 30067 134948 158 287 3039 3803 511 97 2140 61 210 287 170 3572 532 1670 459 1606 2873 259 460 1924 348
leaf_count=522 123 561 996 664 522 820 233 30067 134948 158 287 3039 3803 511 97 2140 61 210 287 170 3572 532 1670 459 1606 2873 259 460 1924 348
internal_value=0 -0.184082 -0.0842341 -0.00758616 0.0223263 -0.13899 -0.219473 -0.226752 0.0798803 0.0549392 -0.128297 -0.197268 0.0620006 -0.092875 -0.149794 -0.211209 -0.0525943 -0.11029 -0.146251 -0.0715846 -0.154022 -0.100648 -0.0726487 -0.159875 -0.21912 -0.205738 -0.136074 -0.172257 -0.287326 -0.233882
internal_weight=0 58580 15330 6388 5406 8942 43250 32572 135342 4483 7946 10678 4325 3001 4945 7639 394 271 4848 457 4391 819 2181 1020 6619 4479 923 982 2505 581
internal_count=193922 58580 15330 6388 5406 8942 43250 32572 135342 4483 7946 10678 4325 3001 4945 7639 394 271 4848 457 4391 819 2181 1020 6619 4479 923 982 2505 581
shrinkage=0.0590046


Tree=9
num_leaves=31
num_cat=0
split_feature=0 1 11 4 7 12 7 13 7 4 12 5 7 3 7 4 5 4 3 7 7 11 3 7 3 12 12 7 4 7
split_gain=1938.86 140.893 43.9528 20.4791 19.0452 5.7702 5.39768 6.58323 4.81146 4.71994 4.52617 4.51653 3.823 3.15882 2.63831 4.79241 5.7645 2.48218 2.44392 2.82199 2.15814 1.87935 1.86396 3.29079 1.8535 1.85131 2.26081 1.83596 1.89489 1.87199
threshold=1.0000000180025095e-35 1.0000000180025095e-35 1.0000000180025095e-35 -1.0979750024551302 -1.9528958034672359 -0.33768132531295841 -1.3275331558152268 -0.40457000672658322 1.7099425613516754 -1.2479094622042466 -0.38438140754196054 0.34579358510519498 -1.416870676908371 1.0000000180025095e-35 0.36987974495451253 -0.73676925851407737 -1.1946218066969181 -0.48528827829851401 -0.96296638099324672 1.5312675191653871 -1.2381956347220826 2.4671215019330082 0.66057604139369797 1.1739174347928103 -1.2722125566859979 1.7826077464150825 -0.084166593212661109 1.0000000180025095e-35 -0.29650716306894476 -1.9528958034672359
decision_type=2 2 2 2 2 2 2 2 2 2 2 2 2 2 2 2 2 2 2 2 2 2 2 2 2 2 2 2 2 2
left_child=1 2 3 -1 24 -4 10 14 12 20 -3 18 -6 25 15 -8 -17 22 27 -20 -2 -11 -15 -24 -5 26 -13 29 -29 -7
right_child=9 6 5 4 8 11 7 -9 -10 21 -12 13 -14 17 -16 16 -18 -19 19 -21 -22 -23 23 -25 -26 -27 -28 28 -30 -31
leaf_value=-0.0095767021130619499 -0.01386137266911394 -0.011511202329164324 -0.010874082858061648 -0.0018273681902020941 0.00057160774014182404 -0.0074856525590952091 -0.017143824970103728 -0.011685328731446247 -0.0079705058807149759 0.0042817418801604492 -0.0075228966871340565 -0.002332221517366906 0.0047058546355849724 -0.00895094743409219 -0.01665276656644548 0.0019424582195403527 -0.012122344025277393 -0.010898818116368603 0.00042795845173918099 -0.022158873901769512 -0.00073663819090184768 -0.0062271449900205087 0.0020645343371293273 -0.013288230453477533 -0.0088358007073764261 -0.001359614211929805 -0.0073686684420984239 -0.0046631038811178489 -0.014290616146369188 -0.0011680042182724843
leaf_weight=853 62 2532 1586 202 1379 336 713 35133 162 134877 2233 427 2882 435 1534 139 966 1481 593 24 332 71 207 81 712 293 2868 171 170 468
leaf_count=853 62 2532 1586 202 1379 336 713 35133 162 134877 2233 427 2882 435 1534 139 966 1481 593 24 332 71 207 81 712 293 2868 171 170 468
internal_value=0 -0.151867 -0.0694931 -0.00442769 0.0185675 -0.113558 -0.181065 -0.184996 0.0457231 0.0659013 -0.149316 -0.102045 0.0521541 -0.115532 -0.227339 -0.201568 -0.160326 -0.145329 -0.0577124 -0.00697822 -0.0433903 0.0662204 -0.0972979 -0.0348961 -0.112843 -0.0972286 -0.104002 -0.0850513 -0.146538 -0.0589731
internal_weight=0 58580 15330 6190 5337 9140 43250 38485 4423 135342 4765 7554 4261 5792 3352 1818 1105 2204 1762 617 394 134948 723 288 914 3588 3295 1145 341 804
internal_count=193922 58580 15330 6190 5337 9140 43250 38485 4423 135342 4765 7554 4261 5792 3352 1818 1105 2204 1762 617 394 134948 723 288 914 3588 3295 1145 341 804
shrinkage=0.0645755


Tree=10
num_leaves=31
num_cat=0
split_feature=0 1 14 4 7 4 7 7 13 13 4 7 7 7 4 4 7 7 7 7 7 7 4 4 7 5 4 7 4 7
split_gain=1339.11 87.2771 26.3052 12.0723 11.4677 4.91042 4.53205 3.86459 3.53275 3.50861 3.22366 3.75039 3.19291 3.0078 2.97258 2.96507 2.95391 2.89697 2.61061 2.53838 2.11926 2.10032 2.05697 1.91069 1.8673 2.9196 2.07543 1.83895 1.82961 1.81507
threshold=1.0000000180025095e-35 1.0000000180025095e-35 -0.046771302392986845 -1.029822975296441 -2.0422333245603799 -1.2479094622042466 -1.5955457190946594 -0.97018307144265015 1.1138001757357008 -0.40457000672658322 -1.1899802391193608 -1.416870676908371 -1.7742207612809475 1.1739174347928103 0.48485582830542767 0.053453496390924574 1.977955124631108 -1.5062081980015152 -1.5062081980015152 0.72722982932708935 0.99524239260652181 1.7099425613516754 -0.97598287384107663 -1.2179225702544234 1.0845799136996661 -1.1946218066969181 -0.55957398790148527 -2.1315708456535241 0.27528834479245817 1.0845799136996661
decision_type=2 2 2 2 2 2 2 2 2 2 2 2 2 2 2 2 2 2 2 2 2 2 2 2 2 2 2 2 2 2
left_child=1 2 3 13 27 -4 8 12 -3 19 11 -2 -7 23 18 21 17 -6 28 -8 -19 -9 -22 -1 25 -11 -27 -5 -14 -21
right_child=10 6 5 4 16 7 9 15 -10 24 -12 -13 14 -15 -16 -17 -18 20 -20 29 22 -23 -24 -25 -26 26 -28 -29 -30 -31
leaf_value=-0.0075982953764977884 -0.013813439004089498 -0.0079775759818394958 -0.009405718913043511 0.0020877230059642058 -0.00032526318865948713 -0.0058410647705416834 -0.0094670908035223243 -0.0049381298867251901 -0.0040741092000337762 -0.0067781748629175834 0.0031719835596327726 0.00057618881741057385 0.001477007616322873 -0.01378701594177183 0.0037530725840882145 -0.0083567389807687603 -0.0078476114008068261 0.0034588431749826443 -0.0043258190146389462 -0.016976225053197794 -0.018281444715995049 -0.013670090267658235 -7.504116851343132e-05 -0.0022486186771934489 -0.0095597594899661294 -0.0077831272476056503 -0.0089390610210999307 -0.0074493804534030593 -0.013755681128095795 -0.011497771891081488
leaf_weight=466 68 2215 983 76 1443 1269 2650 3214 1196 3155 134534 563 466 154 251 1412 109 2536 1306 258 22 95 377 430 6031 7030 20020 622 28 943
leaf_count=466 68 2215 983 76 1443 1269 2650 3214 1196 3155 134534 563 466 154 251 1412 109 2536 1306 258 22 95 377 430 6031 7030 20020 622 28 943
internal_value=0 -0.126354 -0.0612826 -0.0113322 0.00846925 -0.0957952 -0.149181 -0.0876391 -0.114189 -0.152159 0.0544712 -0.0168377 -0.0614967 -0.109114 -0.0371033 -0.106023 0.027018 0.0310665 -0.0513196 -0.180857 0.0491035 -0.0896527 -0.0186413 -0.0869246 -0.149109 -0.145901 -0.149259 -0.110769 0.0106021 -0.218993
internal_weight=0 58757 15259 6235 5185 9024 43498 8041 3411 40087 135165 631 3320 1050 2051 4721 4487 4378 1800 3851 2935 3309 399 896 36236 30205 27050 698 494 1201
internal_count=193922 58757 15259 6235 5185 9024 43498 8041 3411 40087 135165 631 3320 1050 2051 4721 4487 4378 1800 3851 2935 3309 399 896 36236 30205 27050 698 494 1201
shrinkage=0.0578769


Tree=11
num_leaves=31
num_cat=0
split_feature=0 1 14 4 7 4 7 6 7 12 4 7 7 7 7 4 7 7 7 4 4 4 5 7 7 12 7 7 7 12
split_gain=2479.7 161.43 51.9138 21.9752 21.2545 8.14615 7.01612 9.08775 6.2146 5.80406 5.51371 5.44436 4.84241 4.42917 3.57557 3.29775 3.01913 3.01002 2.8209 2.71421 2.63945 2.36195 4.93769 2.22177 2.10047 1.9606 1.93125 1.81548 1.81311 2.60437
threshold=1.0000000180025095e-35 1.0000000180025095e-35 -0.046771302392986845 -1.0979750024551302 -2.0422333245603799 -1.2479094622042466 -1.0595205925357942 1.0000000180025095e-35 1.977955124631108 0.55839844798338356 -1.1899802391193608 -0.97018307144265015 -1.5062081980015152 -1.416870676908371 -1.8635582823740917 -0.0078833280518957691 -2.1315708456535241 0.99524239260652181 0.72722982932708935 0.48485582830542767 -0.97598287384107663 -0.73676925851407737 -0.92451424667606141 -1.5062081980015152 1.7099425613516754 -0.65369691934379992 1.1739174347928103 1.0845799136996661 -0.34482042379064093 -0.20951944551156157
decision_type=2 2 2 2 2 2 2 2 2 2 2 2 2 2 2 2 2 2 2 2 2 2 2 2 2 2 2 2 2 2
left_child=1 2 3 26 16 25 9 18 12 -3 13 14 -6 -2 -7 24 -5 -14 21 23 -19 -8 -23 -16 28 -4 -1 -20 -13 -30
right_child=10 6 5 4 8 11 7 -9 -10 -11 -12 15 17 -15 19 -17 -18 20 27 -21 -22 22 -24 -25 -26 -27 -28 -29 29 -31
leaf_value=-0.0048449534338002136 -0.008924638134932595 -0.0064612774532559637 -0.0015155054878558838 0.0011520383876398644 -0.00021056568502328236 -0.0047361677875464693 -0.0098816556332233917 -0.0069852883685012981 -0.006605989158061553 -0.0039708898933322146 0.0025597691419202754 -0.0051071966438572024 0.0026027650463354614 0.00034433282494180322 -0.0011490897035650366 -0.0062343102064534679 -0.0059618377410955142 -0.0091562374815758723 -0.012799669531423481 0.00071329161426811306 0.00032976313433485022 -0.00095824422393157231 -0.007998685925737643 -0.0036061551420708054 -0.0093428865485069429 -0.0078659694280747445 -0.0092886769074556896 -0.0095513003167569492 -0.0058012990564210642 -0.002714282805210742
leaf_weight=720 68 5057 61 79 1480 1066 582 34072 117 1408 134534 1314 2656 563 648 1510 631 38 258 300 377 132 1048 1306 94 922 137 941 419 1384
leaf_count=720 68 5057 61 79 1480 1066 582 34072 117 1408 134534 1314 2656 563 648 1510 631 38 258 300 377 132 1048 1306 94 922 137 941 419 1384
internal_value=0 -0.171886 -0.0833883 -0.0132169 0.010482 -0.131872 -0.202931 -0.208238 0.0349997 -0.172535 0.0741793 -0.121367 0.04085 -0.0190798 -0.0903382 -0.143188 -0.150713 0.0634948 -0.261377 -0.0677695 -0.0157069 -0.235915 -0.210202 -0.0813666 -0.125064 -0.217804 -0.161937 -0.298794 -0.120622 -0.100033
internal_weight=0 58757 15259 6235 5378 9024 43498 37033 4668 6465 135165 8041 4551 631 3320 4721 710 3071 2961 2254 415 1762 1180 1954 3211 983 857 1199 3117 1803
internal_count=193922 58757 15259 6235 5378 9024 43498 37033 4668 6465 135165 8041 4551 631 3320 4721 710 3071 2961 2254 415 1762 1180 1954 3211 983 857 1199 3117 1803
shrinkage=0.0343056


Tree=12
num_leaves=31
num_cat=0
split_feature=0 1 14 4 7 4 7 12 13 7 4 7 7 7 7 4 7 12 7 5 4 4 5 7 7 4 12 7 3 4
split_gain=1143.84 74.5155 23.0619 10.2395 9.99925 4.01466 3.71334 3.1476 3.03716 2.96832 2.66746 2.70234 2.43479 2.51137 2.41578 2.17975 2.12345 1.94384 1.732 1.97842 3.74369 1.62119 1.60709 1.58767 1.45832 1.45343 1.95171 1.66562 1.48204 1.41927
threshold=1.0000000180025095e-35 1.0000000180025095e-35 -0.046771302392986845 -1.029822975296441 -2.0422333245603799 -1.2479094622042466 -0.88084555034950596 1.5584122388720913 -0.40457000672658322 -0.97018307144265015 -1.1899802391193608 -1.416870676908371 1.977955124631108 -1.5062081980015152 -2.0422333245603799 -0.10193312553088694 1.1739174347928103 -0.33768132531295841 0.72722982932708935 -0.53673606644809879 -0.8887482790779544 -1.2179225702544234 -1.86498776424043 0.99524239260652181 -2.1315708456535241 -0.36602223077080781 -0.24076987647683371 1.0845799136996661 2.3614300077038304 -0.97598287384107663
decision_type=2 2 2 2 2 2 2 2 2 2 2 2 2 2 2 2 2 2 2 2 2 2 2 2 2 2 2 2 2 2
left_child=1 2 3 16 24 -4 7 17 18 14 11 -2 13 -6 -7 -11 21 -3 19 20 -8 -1 -19 -15 -5 26 -10 -28 -27 -25
right_child=10 6 5 4 12 9 8 -9 25 15 -12 -13 -14 23 -16 -17 -18 22 -20 -21 -22 -23 -24 29 -26 28 27 -29 -30 -31
leaf_value=-0.0048964382666437456 -0.0081305421003602489 -0.0056039411192757935 -0.0059844811729087722 0.0011141045023794374 -0.00019212909886136482 -0.0049201079546700218 -0.0080966372079240411 -0.0011948844347144337 -0.0059783931139646626 -0.0032674517654775067 0.0020310441258882183 0.00033016590354391503 -0.0048885665034855679 0.0022203305366471282 -0.0018965434340903334 -0.005059926083235371 -0.0083543876416717171 0.0030572111091815776 -0.0081223800552328689 -0.0068916796494867833 4.0116344673046167e-05 -0.0014831402329990014 -0.0044001746200626963 -0.010397945435913018 -0.0047686700030828378 -0.005827368607160946 -0.0046584035024021591 -0.0059830492272428303 0.0039398385429245111 7.7386255440402792e-05
leaf_weight=466 68 3539 983 76 1443 500 162 383 4278 3012 134534 563 109 2536 2820 1709 154 47 1201 1191 207 430 3925 22 622 19433 7169 1938 25 377
leaf_count=466 68 3539 983 76 1443 500 162 383 4278 3012 134534 563 109 2536 2820 1709 154 47 1201 1191 207 430 3925 22 622 19433 7169 1938 25 377
internal_value=0 -0.116764 -0.0566372 -0.00986735 0.00836913 -0.0889522 -0.137856 -0.118234 -0.142206 -0.0815774 0.0503585 -0.0145077 0.0256896 0.0293652 -0.0586662 -0.0976896 -0.0999208 -0.122743 -0.174061 -0.152085 -0.0881058 -0.0812771 -0.107558 0.0461589 -0.102973 -0.139528 -0.131508 -0.123232 -0.145046 -0.0124771
internal_weight=0 58757 15259 6235 5185 9024 43498 7894 35604 8041 135165 631 4487 4378 3320 4721 1050 7511 2761 1560 369 896 3972 2935 698 32843 13385 9107 19458 399
internal_count=193922 58757 15259 6235 5185 9024 43498 7894 35604 8041 135165 631 4487 4378 3320 4721 1050 7511 2761 1560 369 896 3972 2935 698 32843 13385 9107 19458 399
shrinkage=0.0400895


Tree=13
num_leaves=31
num_cat=0
split_feature=0 1 14 4 7 12 4 7 13 13 4 14 3 7 7 4 7 7 3 5 12 4 4 4 4 5 12 5 5 7
split_gain=778.525 50.7171 15.6965 6.96925 6.80574 3.06558 3.14962 2.92342 2.69525 2.45801 2.22406 2.70526 2.18808 1.66163 1.80853 1.55054 1.50568 1.44527 1.4016 1.35819 1.34566 1.8418 1.34556 2.5011 1.84857 1.40426 2.27616 1.33254 1.28058 1.27304
threshold=1.0000000180025095e-35 1.0000000180025095e-35 -0.046771302392986845 -1.029822975296441 -2.0422333245603799 -0.33768132531295841 -0.74937738353843486 -1.5955457190946594 1.1138001757357008 -0.40457000672658322 -0.9003341236949316 0.49142602178993905 1.0000000180025095e-35 2.1566301668173966 -1.6848832401878036 -0.73029481593400181 1.7992800824448196 1.1739174347928103 2.3614300077038304 -2.234937062618831 -0.20951944551156157 -0.97598287384107663 0.25961337854595962 0.19009831084409656 0.29232635158213049 -1.1946218066969181 0.41864932973418906 -0.92451424667606141 -0.92451424667606141 0.72722982932708935
decision_type=2 2 2 2 2 2 2 2 2 2 2 2 2 2 2 2 2 2 2 2 2 2 2 2 2 2 2 2 2 2
left_child=1 2 3 17 -5 -4 16 8 22 29 11 -2 15 14 -6 -8 19 28 -15 -7 -21 -22 23 25 -24 26 -3 -23 -1 -9
right_child=10 7 5 4 13 6 12 9 -10 -11 -12 -13 -14 18 -16 -17 -18 -19 -20 20 21 27 24 -25 -26 -27 -28 -29 -30 -31
leaf_value=-0.0013693677142103959 0.0022632183098913639 -0.0050189897971198343 -0.0066730776878580096 -0.0049926459870020109 -0.00076952310233950583 0.0072468200874418048 -0.015025451356841805 -0.007516783758954414 -0.0027840687354176762 -0.0066744539182189656 0.0025018200367705433 -8.9035695774972776e-06 -0.0060760907026457525 -0.014347490666975582 0.002056761005776394 -0.0035381064229967761 -0.016036588420254391 -0.010103946441004255 0.00065786848792604043 -0.0039361357863726219 0.012640324382141329 0.0042748315989875902 0.0087307867497618853 -0.019503077811498536 -0.0047868641197672309 -0.0078252004208314175 0.011817686565607043 -0.0017952076203329001 -0.0058604604785553443 -0.0098233521921978224
leaf_weight=383 5370 367 1570 698 1017 63 41 2650 1196 36236 127065 2730 1894 43 3384 3995 24 154 43 526 37 151 37 55 628 1098 30 723 513 1201
leaf_count=383 5370 367 1570 698 1017 63 41 2650 1196 36236 127065 2730 1894 43 3384 3995 24 154 43 526 37 151 37 55 628 1098 30 723 513 1201
internal_value=0 -0.09633 -0.0467257 -0.00814056 0.00690453 -0.0733855 -0.0649267 -0.113731 -0.0856268 -0.116122 0.0415458 0.0254796 -0.0753474 0.0211939 0.023884 -0.0621886 -0.0243787 -0.0824347 -0.116468 -0.0204028 -0.0267033 -0.00345062 -0.106282 -0.122426 -0.0686537 -0.114722 -0.0637522 -0.012702 -0.0670536 -0.140142
internal_weight=0 58757 15259 6235 5185 9024 7454 43498 3411 40087 135165 8100 5930 4487 4401 4036 1524 1050 86 1500 1437 911 2215 1550 665 1495 397 874 896 3851
internal_count=193922 58757 15259 6235 5185 9024 7454 43498 3411 40087 135165 8100 5930 4487 4401 4036 1524 1050 86 1500 1437 911 2215 1550 665 1495 397 874 896 3851
shrinkage=0.0587697


Tree=14
num_leaves=31
num_cat=0
split_feature=0 1 13 7 7 7 7 12 13 7 7 12 12 11 7 12 7 12 12 12 3 12 12 3 7 7 12 12 2 7
split_gain=529.883 34.5193 10.4976 4.09225 2.94206 2.15773 2.14447 2.0319 1.65881 1.63919 1.6094 1.60558 1.7183 1.34074 1.30387 2.98753 1.2872 1.42156 1.27644 2.74002 1.11027 1.50866 1.67457 1.27341 1.33373 1.16787 1.10096 1.08964 1.53712 1.06182
threshold=1.0000000180025095e-35 1.0000000180025095e-35 -0.098840646806089547 -2.0422333245603799 1.4419299980722429 -0.97018307144265015 -1.2381956347220826 -0.33768132531295841 -0.40457000672658322 -2.1315708456535241 -1.1488581136289384 -0.33768132531295841 0.4699140816547478 2.5174345066851931 -1.7742207612809475 0.68059114434197554 -1.5062081980015152 -0.39035059098476532 -0.091891418844526132 -0.12735539106354277 0.66057604139369797 0.36457555031113392 0.41864932973418906 -0.80834329314687092 1.1739174347928103 1.7099425613516754 0.039079488459367089 -0.20951944551156157 1.0000000180025095e-35 1.5312675191653871
decision_type=2 2 2 2 2 2 2 2 2 2 2 2 2 2 2 2 2 2 2 2 2 2 2 2 2 2 2 2 2 2
left_child=1 2 3 9 10 14 7 -3 -8 -1 -5 -7 20 29 -4 16 17 -16 19 -9 21 23 -23 27 -25 -22 -18 -13 -29 -2
right_child=13 6 5 4 -6 11 8 18 -10 -11 -12 12 -14 -15 15 -17 26 -19 -20 -21 25 22 -24 24 -26 -27 -28 28 -30 -31
leaf_value=0.0033254465423184446 0.0010811326689908623 -0.0028710611518955936 -0.0020385638444597298 -0.00029786468188837498 -0.0025094591091621432 -0.0034277215063449277 -0.0036498626076224379 -0.0013085091418365876 -0.002915203559879254 -0.0026803728181468639 0.00078853882070189715 -0.0046717249000643082 -0.0026091598985214979 -0.0038044408958526192 -0.0031000335743232897 0.0010870970923751791 -0.00095798274482421751 0.00083550719608744 -0.0019566835035404202 0.0053700533551087563 0.00041662770948169652 0.0029774623125945836 -0.0020360432260962515 -0.0026133842118203827 -0.0099836296589715465 -0.0048615894877214886 -0.0028619791672886423 0.0014393600163820346 -0.0029133272332535496 0.0007085389003902091
leaf_weight=46 127383 2866 1380 2559 395 942 3195 295 35003 735 2638 57 2267 54 116 574 508 355 2066 73 432 124 130 919 24 44 672 224 118 7728
leaf_count=46 127383 2866 1380 2559 395 942 3195 295 35003 735 2638 57 2267 54 116 574 508 355 2066 73 432 124 130 919 24 44 672 224 118 7728
internal_value=0 -0.0794722 -0.0385487 -0.00757717 0.00189286 -0.0607614 -0.0938281 -0.0749783 -0.0964435 -0.075383 0.00821646 -0.0736361 -0.0655118 0.0342752 -0.041901 -0.0269235 -0.0485294 -0.00433368 -0.0537316 0.000528586 -0.0446963 -0.0573381 0.0133324 -0.0707139 -0.0907512 -0.0023093 -0.0661703 -0.0233576 -0.0020232 0.0343382
internal_weight=0 58757 15259 6373 5592 8886 43498 5300 38198 781 5197 5281 4339 135165 3605 2225 1651 471 2434 368 2072 1596 254 1342 943 476 1180 399 342 135111
internal_count=193922 58757 15259 6373 5592 8886 43498 5300 38198 781 5197 5281 4339 135165 3605 2225 1651 471 2434 368 2072 1596 254 1342 943 476 1180 399 342 135111
shrinkage=0.0308642


Tree=15
num_leaves=31
num_cat=0
split_feature=0 1 14 15 4 12 14 15 4 3 4 14 12 12 12 15 15 15 12 4 4 13 12 14 12 4 5 4 3 4
split_gain=356.875 27.3492 6.42751 5.20245 5.39029 1.97654 2.40919 1.76647 3.05089 1.64624 1.63902 1.92489 1.53477 1.72326 1.57355 1.51527 2.51121 1.47624 1.8349 1.62353 1.37253 2.35588 1.68689 1.32992 1.26398 1.25224 1.24887 1.39871 1.74936 2.2316
threshold=1.0000000180025095e-35 1.0000000180025095e-35 0.40172646775945137 -1.5714706521440494 -1.2479094622042466 -0.49568912232837919 0.58112557582042668 -1.5274443174574113 0.48485582830542767 -1.2722125566859979 -0.38919392000476216 1.6575202241862785 -0.33768132531295841 0.039079488459367089 -0.20951944551156157 -1.0997599233586415 0.15813535340244655 -1.65323384513352 1.0029270502534342 0.58895804979032562 -0.57661199469115754 0.3738837416424049 -0.29554591277551284 1.9714686632929852 -0.65369691934379992 -0.92350581292888589 -0.53673606644809879 0.087870270106062659 0.50595295354732228 -0.70337476520631959
decision_type=2 2 2 2 2 2 2 2 2 2 2 2 2 2 2 2 2 2 2 2 2 2 2 2 2 2 2 2 2 2
left_child=1 2 3 17 -5 7 -7 8 -3 -9 11 -8 24 14 -14 -6 -17 18 -1 -19 21 -2 -23 -24 -4 -18 -27 28 29 -28
right_child=20 5 12 4 15 6 10 9 -10 -11 -12 -13 13 -15 -16 16 25 19 -20 -21 -22 22 23 -25 -26 26 27 -29 -30 -31
leaf_value=0.0052484655659760186 0.00099053596278454769 -0.0029602746053255784 0.0027920521639489665 -0.003081298858232202 -0.00012401812561683271 -0.0019395181817865401 -0.0022503626021057881 -0.0058185411799921783 0.0020193184042989329 -0.0034127180074976691 -0.0030049705374138344 -0.0034430078055582357 -0.0022248466678805538 -0.0020065862238778783 0.00066715709115111013 0.0019368526905349354 -0.0027188519174904894 -0.0027441805957413214 -0.0071144740030517368 4.2600626696142997e-05 0.0010791508199758549 -0.0015232213730300304 0.00046656445653397603 -0.0061037407642575269 -0.0034294059851684398 0.0021366014379344041 -0.015763494999762734 0.0024978434446466862 -0.00017558656970943163 -0.0030482572346528856
leaf_weight=69 23945 745 44 655 3787 4775 9558 392 202 5843 19809 2139 380 4056 674 1546 220 1572 20 326 102986 616 7574 40 1018 315 21 141 336 118
leaf_count=69 23945 745 44 655 3787 4775 9558 392 202 5843 19809 2139 380 4056 674 1546 220 1572 20 326 102986 616 7574 40 1018 315 21 141 336 118
internal_value=0 -0.0651006 -0.0287367 -0.0118799 0.000716466 -0.0778999 -0.0748995 -0.0930567 -0.0528153 -0.0991688 -0.0780719 -0.0686857 -0.0536615 -0.0464726 -0.0104484 0.00944993 0.0275646 -0.0571366 0.0687363 -0.063039 0.0282466 0.0225454 0.00794968 0.0120219 -0.088252 -0.00779996 0.00823404 -0.0179568 -0.0439186 -0.138271
internal_weight=0 58761 15298 9126 7139 43463 36281 7182 947 6235 31506 11697 6172 5110 1054 6484 2697 1987 89 1898 135161 32175 8230 7614 1062 1151 931 616 475 139
internal_count=193922 58761 15298 9126 7139 43463 36281 7182 947 6235 31506 11697 6172 5110 1054 6484 2697 1987 89 1898 135161 32175 8230 7614 1062 1151 931 616 475 139
shrinkage=0.0359385


Tree=16
num_leaves=31
num_cat=0
split_feature=0 1 13 4 3 4 7 3 14 7 4 7 3 4 4 5 5 7 4 4 4 3 4 4 4 5 4 12 4 12
split_gain=242.898 18.6146 4.5044 5.08628 5.80768 1.8547 1.92262 1.60351 1.37448 2.18748 1.42435 2.22401 1.7516 1.67325 1.6499 1.51129 1.53204 1.6142 1.51397 1.50067 2.15099 1.46033 1.35722 1.83737 1.45524 1.2467 1.38527 1.21725 1.16759 1.14035
threshold=1.0000000180025095e-35 1.0000000180025095e-35 0.93395937578246901 -1.1601637272374343 -0.96296638099324672 2.848027370032979 1.977955124631108 -0.73103174922368319 0.042928251637500796 -1.5955457190946594 -0.36602223077080781 -1.8635582823740917 -0.88565483707005888 0.63308648737557682 -0.28696587926672829 -1.1946218066969181 0.34579358510519498 -1.2381956347220826 -0.95485574542188301 -0.86625811011558695 -0.73676925851407737 -0.18985094176136838 2.5072672342395319 1.6212908811765714 0.7254324841756008 -2.234937062618831 -0.34864346384534201 0.85615536324799868 0.91625816021993078 -0.36647385721354619
decision_type=2 2 2 2 2 2 2 2 2 2 2 2 2 2 2 2 2 2 2 2 2 2 2 2 2 2 2 2 2 2
left_child=1 2 3 -1 25 6 -6 -4 10 29 15 13 14 27 -13 18 -17 -18 -3 21 -21 -19 23 24 -16 26 -5 -12 -15 -10
right_child=-2 8 7 4 5 -7 -8 -9 9 -11 11 12 -14 28 22 16 17 19 -20 20 -22 -23 -24 -25 -26 -27 -28 -29 -30 -31
leaf_value=-0.0037885827884306302 0.0012416283363021175 -0.004983403156301666 -0.00096980328117090447 0.0046872872421310531 0.0017746220085300697 -0.011520712874236637 -0.0050480706622470662 -0.0027914640366047726 -0.0043891144898650794 -0.0033861402582383306 -0.0013710664396193153 0.0043831208426259394 -0.0031400369703447305 0.0095015869547642653 -0.005623413913899802 -0.0093514014291156671 -0.0032972816382349801 -0.0092092797820629325 -0.00058517854882272338 -0.014636805977266588 -0.0066771820607040479 -0.0028475713349976786 -0.018255719204353923 0.0048526690292638244 -0.01173325844714964 -0.0017915516772329617 -0.0068740473425902386 -0.0086891360640000033 0.00069877206191603161 -0.00050005917902525997
leaf_weight=1120 135161 533 1903 161 3787 31 121 4914 264 36253 462 37 1339 60 375 288 768 137 381 122 459 406 30 37 157 3225 36 75 149 1131
leaf_count=1120 135161 533 1903 161 3787 31 121 4914 264 36253 462 37 1339 60 375 288 768 137 381 122 459 406 30 37 157 3225 36 75 149 1131
internal_value=0 -0.053708 -0.0237078 -0.00832363 0.00122888 0.0274095 0.0293421 -0.0428472 -0.0642674 -0.0620573 -0.0785763 -0.0618873 -0.079458 -0.0153696 -0.122669 -0.0932533 -0.107564 -0.097221 -0.0591207 -0.121365 -0.15669 -0.0835691 -0.135328 -0.124398 -0.139384 -0.0289072 0.0483204 -0.0449155 0.060545 -0.0231988
internal_weight=0 58761 15298 8481 7361 3939 3908 6817 43463 37648 5815 2721 1975 746 636 3094 2180 1892 914 1124 581 543 599 569 532 3422 197 537 209 1395
internal_count=193922 58761 15298 8481 7361 3939 3908 6817 43463 37648 5815 2721 1975 746 636 3094 2180 1892 914 1124 581 543 599 569 532 3422 197 537 209 1395
shrinkage=0.053281


Tree=17
num_leaves=31
num_cat=0
split_feature=13 8 4 1 7 12 7 5 3 5 4 5 1 3 3 12 7 7 4 3 7 7 4 5 7 12 5 14 5 3
split_gain=48.1913 90.7708 7.60007 3.19672 3.1421 1.90663 1.43224 1.41091 1.71865 1.4102 2.25325 3.07704 3.61456 1.37125 1.42688 1.94304 1.33445 1.2586 1.23257 1.15642 1.08909 1.05566 1.50445 1.81491 1.60308 1.46878 1.14946 1.05348 1.03785 0.999056
threshold=-0.098840646806089547 1.0000000180025095e-35 -1.029822975296441 1.0000000180025095e-35 -2.0422333245603799 -0.1227907213719862 1.8886176035379638 -0.92451424667606141 -0.34447402960774404 -0.92451424667606141 -0.73676925851407737 0.34579358510519498 1.0000000180025095e-35 1.8202492002415156 1.0471337610096372 -0.33768132531295841 -1.416870676908371 -1.6848832401878036 0.25961337854595962 -0.11253939783818055 0.72722982932708935 1.2632549558859545 -0.58683479876496092 -1.1946218066969181 -0.076807860511208401 -0.22532022521310366 -0.34418414247283463 0.98477356895762103 -1.1946218066969181 2.1294953759342672
decision_type=2 2 2 2 2 2 2 2 2 2 2 2 2 2 2 2 2 2 2 2 2 2 2 2 2 2 2 2 2 2
left_child=2 3 7 13 -4 29 9 27 -9 -6 11 12 -11 14 19 -16 -14 -13 -8 20 -2 22 25 24 -24 -5 28 -1 -27 -3
right_child=1 5 4 21 6 -7 18 8 -10 10 -12 17 16 -15 15 -17 -18 -19 -20 -21 -22 -23 23 -25 -26 26 -28 -29 -30 -31
leaf_value=-0.00014556687001289844 -0.0014581854289889211 -0.00023071449175576201 -0.0035827201137822616 -0.0037850832289233237 0.0016285219836560528 0.001304211832258153 -0.0026993480014552628 -0.0055902045626840396 -0.0012796134509275618 -0.018925614619487642 0.0011465103702188591 0.0050453812068200817 -0.010052524053872068 -0.0068646926986096974 -0.0042883832595998978 0.0046531025813012 -0.00057383450699778355 -8.2028069360082491e-05 0.0012282718114697885 -0.0034846107014969842 -0.0061604321640392583 -0.0047169462554414099 0.0030751278807996897 -0.0039728976763036212 -0.0027062861582250889 -0.0024375270798089 -0.0014325510054887759 -0.0049088916326233203 -0.006594390847537753 -0.0081109486224871484
leaf_weight=1762 5326 3421 699 4120 27387 38406 881 935 907 85 66666 251 98 300 186 346 301 4706 725 2564 257 4162 323 22383 915 911 4106 266 445 82
leaf_count=1762 5326 3421 699 4120 27387 38406 881 935 907 85 66666 251 98 300 186 346 301 4706 725 2564 257 4162 323 22383 915 911 4106 266 445 82
internal_value=0 -0.0172761 0.0143801 -0.0477737 0.0160337 0.0164489 0.0164956 -0.0291161 -0.0491508 0.0169738 0.0146536 -0.00491357 -0.0810187 -0.0308313 -0.0285337 0.0216429 -0.041132 0.00251731 -0.0131293 -0.0318103 -0.0237364 -0.051845 -0.0499631 -0.0542504 -0.0169789 -0.0393944 -0.0286416 -0.0109188 -0.0538852 -0.00588475
internal_weight=0 88253 105669 46344 101799 41909 101100 3870 1842 99494 72107 5441 484 8979 8679 532 399 4957 1606 8147 5583 37365 33203 23621 1238 9582 5462 2028 1356 3503
internal_count=193922 88253 105669 46344 101799 41909 101100 3870 1842 99494 72107 5441 484 8979 8679 532 399 4957 1606 8147 5583 37365 33203 23621 1238 9582 5462 2028 1356 3503
shrinkage=0.0705517


Tree=18
num_leaves=31
num_cat=0
split_feature=0 1 14 4 12 5 5 4 7 5 4 7 4 7 4 4 7 7 4 11 3 3 3 4 7 7 4 12 7 5
split_gain=119.514 9.56416 2.57806 2.54297 2.9217 1.91037 2.30071 2.01845 1.54635 1.81933 1.3254 1.33302 2.2348 1.43128 1.50166 1.36192 1.27171 1.51121 1.19222 1.18161 1.16614 1.59759 1.34136 1.0944 1.0807 1.0642 3.88328 1.35536 1.35882 1.04097
threshold=1.0000000180025095e-35 1.0000000180025095e-35 1.0000000180025095e-35 -1.2479094622042466 0.048559956280292339 -0.92451424667606141 -0.34418414247283463 -0.93441013727427624 -1.1488581136289384 -0.53673606644809879 -1.029822975296441 -2.0422333245603799 0.51382043984787062 0.81656735042023354 -0.67884003542919147 -0.8887482790779544 0.63789230823394516 2.1566301668173966 -0.71564213009488364 1.3602353973849348 1.8202492002415156 1.1244453049328251 1.0000000180025095e-35 -1.138866218750344 -1.9528958034672359 -1.5062081980015152 -1.138866218750344 -0.056778575063321519 -1.8635582823740917 -0.92451424667606141
decision_type=2 2 2 2 2 2 2 2 2 2 2 2 2 2 2 2 2 2 2 2 2 2 2 2 2 2 2 2 2 2
left_child=1 3 16 -1 5 -5 7 -7 -9 -10 -8 12 15 19 -15 -12 -3 23 -6 -13 21 22 24 -18 -20 26 29 28 -28 -2
right_child=25 2 -4 4 18 6 10 8 9 -11 11 13 -14 14 -16 -17 17 -19 20 -21 -22 -23 -24 -25 -26 -27 27 -29 -30 -31
leaf_value=-0.0029742212793866483 -0.0020278269844915568 -0.0030481112089566415 -0.0022569446235626103 0.001477767532160876 -0.010593487926971951 -0.0091880513410644848 -0.0018296257563004583 -0.0031219331125921738 0.0037270397464251228 -0.0073691673157822721 0.0079057809578781148 0.0010640992065255449 0.0053345554231583655 -0.0055644562966577962 0.00054999500323142235 -0.0055863058780601599 -0.0015862191479994003 -0.00082952150409151988 -0.0029531297534569631 0.0081726712918474519 -0.0087434054132740809 0.0034720491313836015 -0.0028804732812221425 -0.0064884589318005932 -0.00065049143655239916 0.00083718585305135595 0.0048259799048011396 0.00068692048494851802 0.0018932086751676264 -0.014124869744800211
leaf_weight=1466 32 4193 38000 1960 41 119 863 727 219 52 23 3016 82 192 282 284 151 209 699 68 62 186 1562 910 3395 128314 511 2529 3720 55
leaf_count=1466 32 4193 38000 1960 41 119 863 727 219 52 23 3016 82 192 282 284 151 209 699 68 62 186 1562 910 3395 128314 511 2529 3720 55
internal_value=0 -0.0376729 -0.0452419 -0.0161688 -0.0119714 0.0006467 -0.00830311 -0.0491877 -0.0345089 0.029963 0.00119129 0.00895326 -0.0466261 0.0150298 -0.0361299 -0.0857987 -0.0655543 -0.0932773 -0.0287114 0.0228929 -0.0275313 -0.0260835 -0.0290823 -0.108587 -0.0195701 0.0163469 0.028494 0.0311957 0.042143 -0.181431
internal_weight=0 58761 43463 15298 13832 7887 5927 1117 998 271 4810 3947 389 3558 474 307 5463 1270 5945 3084 5904 5842 5656 1061 4094 135161 6847 6760 4231 87
internal_count=193922 58761 43463 15298 13832 7887 5927 1117 998 271 4810 3947 389 3558 474 307 5463 1270 5945 3084 5904 5842 5656 1061 4094 135161 6847 6760 4231 87
shrinkage=0.0533283


Tree=19
num_leaves=31
num_cat=0
split_feature=0 1 14 7 4 14 7 4 7 4 3 3 4 7 7 4 5 4 4 4 5 12 5 4 7 4 4 4 12 3
split_gain=81.3444 6.50961 1.7963 1.88208 1.83393 1.75469 1.21882 1.58523 1.03306 1.29707 1.05614 0.998925 2.35448 2.00395 1.37995 1.09025 0.971451 0.970184 1.78021 0.951019 0.911779 1.60695 1.32947 2.38323 1.06925 1.84008 1.26144 0.998798 0.969857 0.945319
threshold=1.0000000180025095e-35 1.0000000180025095e-35 0.40172646775945137 -2.0422333245603799 -1.2479094622042466 1.0000000180025095e-35 -2.1315708456535241 0.70123851453426611 -0.88084555034950596 -0.018446892261492601 -0.96296638099324672 -1.2722125566859979 0.053453496390924574 -1.7742207612809475 -1.9528958034672359 0.68863038950990862 -0.53673606644809879 -0.48528827829851401 -0.49176272087858947 0.053794256526718022 -0.92451424667606141 0.7690755106706112 -0.34418414247283463 -0.73029481593400181 1.2632549558859545 -0.66452810972586673 -0.38987544027634907 0.17953474663449973 0.52258334732655476 1.6656261123951399
decision_type=2 2 2 2 2 2 2 2 2 2 2 2 2 2 2 2 2 2 2 2 2 2 2 2 2 2 2 2 2 2
left_child=1 2 3 6 -5 11 7 16 9 17 19 12 -3 14 -14 -15 -1 18 -7 -11 21 28 23 -22 -24 29 -27 -28 -6 -26
right_child=-2 5 -4 4 20 8 -8 -9 -10 10 -12 -13 13 15 -16 -17 -18 -19 -20 -21 22 -23 24 -25 25 26 27 -29 -30 -31
leaf_value=0.013978957955641327 0.00062447092438112028 -0.0075491295119745972 -0.0012277980791208004 -0.0021870845399277312 0.0014375165803434025 -0.0010640697921974844 -0.002170585768363033 -0.0073483669119176875 -0.0017121287089377386 0.005199238603321177 0.001354661967418351 -0.0023184779411278681 -0.00086964803210855084 -0.00099385822065366398 0.010970366251576066 -0.010556737103228686 0.0025372138621274406 -0.0024575174547386042 0.0085495959205361162 -0.0019062011556992713 -0.0071122135553128183 -0.0061534862751746675 0.00054087767071505169 -0.00060574324763881197 -0.014382647144421981 0.0080325778098296989 -0.0053983585814312762 0.0036983155284822378 0.011702290824657945 -0.004538024858526845
leaf_weight=26 135161 252 6172 701 1494 2474 1261 22 32869 44 769 5021 46 61 39 44 41 1310 42 492 139 60 4195 917 29 38 65 43 20 75
leaf_count=26 135161 252 6172 701 1494 2474 1261 22 32869 44 769 5021 46 61 39 44 41 1310 42 492 139 60 4195 917 29 38 65 43 20 75
internal_value=0 -0.0310802 -0.0133393 -0.00442789 0.00155578 -0.0373245 -0.0388938 0.0742071 -0.0349154 -0.0217188 0.00550497 -0.0540823 -0.0996582 -0.015604 0.0985397 -0.108006 0.150683 -0.0310044 -0.019514 -0.02857 0.00638981 0.0276125 0.000317372 -0.0315776 0.00789466 -0.0556384 0.0167699 -0.0383664 0.0339733 -0.157288
internal_weight=0 58761 15298 9126 7776 43463 1350 89 38000 5131 1305 5463 442 190 85 105 67 3826 2516 536 7075 1574 5501 1056 4445 250 146 108 1514 104
internal_count=193922 58761 15298 9126 7776 43463 1350 89 38000 5131 1305 5463 442 190 85 105 67 3826 2516 536 7075 1574 5501 1056 4445 250 146 108 1514 104
shrinkage=0.0463045


Tree=20
num_leaves=31
num_cat=0
split_feature=0 1 12 4 7 14 7 11 4 7 7 4 4 13 4 5 3 4 7 4 7 7 7 7 7 4 12 4 4 12
split_gain=322.364 20.4675 8.07265 5.17688 4.58591 3.70619 2.38363 2.29697 2.2796 2.14643 1.72393 2.69902 1.67263 1.63344 1.65031 1.58834 1.78218 1.66383 1.44968 1.41705 1.4162 1.41244 1.34619 1.26367 1.23619 1.22464 1.2016 2.07783 2.6636 1.71195
threshold=1.0000000180025095e-35 1.0000000180025095e-35 -0.65369691934379992 -1.071736471999035 -2.0422333245603799 1.0000000180025095e-35 2.2459676879105408 0.35397530234123159 -1.2479094622042466 -1.5955457190946594 -2.1315708456535241 1.0000000180025095e-35 -1.2479094622042466 0.43168971305594367 -1.0025621644329654 -0.92451424667606141 -0.73103174922368319 1.482942266044432 0.36987974495451253 -0.97598287384107663 -1.5955457190946594 1.5312675191653871 -1.8635582823740917 -1.5062081980015152 -1.5955457190946594 0.42863040589950901 -0.65369691934379992 -1.3641086685098118 -1.3296918947946739 -0.59049380053763156
decision_type=2 2 2 2 2 2 2 2 2 2 2 2 2 2 2 2 2 2 2 2 2 2 2 2 2 2 2 2 2 2
left_child=1 2 3 7 -5 18 15 -1 26 -7 11 -4 -12 22 -15 17 19 -6 -3 20 -17 -20 -10 24 -14 -21 27 -2 -29 -28
right_child=8 5 10 4 6 9 -8 -9 13 -11 12 -13 23 14 -16 16 -18 -19 21 25 -22 -23 -24 -25 -26 -27 29 28 -30 -31
leaf_value=-0.0020873817669383506 0.0027148315982322576 -0.0022137658776585074 0.0088424958508412504 -0.001727350778010251 0.0015841677585534378 -0.00090315548299400579 -0.0039693517298194829 0.0035532218767893673 0.0020480572313440327 -0.0018096168284718116 -0.002286012937166263 -0.0032865922893874225 -0.00083353421223073985 -0.00048968361204192114 0.00056394923480944977 -0.001171159258232727 0.00089112533967652323 -0.0053140086112860698 -0.0037279644394837101 0.00034314828572826937 -0.0094213106518973144 -0.002152169616255974 0.0007280761021248996 -0.001344116870693362 0.0011706053083330998 -0.0011535884994266718 -0.0082198194463992263 -0.0097958356502970498 -0.00051597713016705979 -0.0016314288525522576
leaf_weight=905 98 3948 27 671 1063 1764 75 49 500 36153 962 21 1718 984 35074 37 1763 23 963 1131 21 591 98150 6200 224 511 32 24 117 123
leaf_count=905 98 3948 27 671 1063 1764 75 49 500 36153 962 21 1718 984 35074 37 1763 23 963 1131 21 591 98150 6200 224 511 32 24 117 123
internal_value=0 -0.0620643 -0.0307433 -0.00303654 0.00918062 -0.0731741 0.0203913 -0.0708456 0.0266296 -0.0696547 -0.0496616 0.139354 -0.0506581 0.0268517 0.021092 0.0233066 0.0128425 0.0566742 -0.0974279 -0.0102596 -0.163877 -0.1233 0.028957 -0.045999 -0.0237391 -0.00483341 -0.0493238 -0.00485052 -0.0825843 -0.117899
internal_weight=0 58820 15401 6249 5295 43419 4624 954 135102 37917 9152 48 9104 134708 36058 4549 3463 1086 5502 1700 58 1554 98650 8142 1942 1642 394 239 141 155
internal_count=193922 58820 15401 6249 5295 43419 4624 954 135102 37917 9152 48 9104 134708 36058 4549 3463 1086 5502 1700 58 1554 98650 8142 1942 1642 394 239 141 155
shrinkage=0.0253744


Tree=21
num_leaves=31
num_cat=0
split_feature=0 1 14 12 7 7 7 12 7 12 12 12 5 7 11 12 12 12 7 12 12 3 7 13 12 7 7 3 12 7
split_gain=99.7221 6.10651 3.11701 1.65808 1.30456 1.33257 1.27448 2.94433 1.25416 1.1822 1.1662 1.56567 1.11633 3.13192 1.04347 1.00897 0.995169 0.97979 2.40512 0.899152 1.77714 1.20338 0.911313 0.869536 2.30523 1.20145 0.936665 1.66652 0.909138 0.84924
threshold=1.0000000180025095e-35 1.0000000180025095e-35 0.2671771367137199 -0.32293393092485245 -2.0422333245603799 -2.1315708456535241 -1.5955457190946594 0.048559956280292339 2.2459676879105408 -0.65369691934379992 0.78592967568558947 -0.56486142457735233 -1.1946218066969181 0.63789230823394516 2.5174345066851931 0.41864932973418906 -0.058183088814569704 2.0204972630327442 -0.61283298707007339 -0.28852334401927193 -0.1989855923772002 -0.88565483707005888 -1.9528958034672359 0.43168971305594367 -0.39035059098476532 -1.8635582823740917 -0.79150802925636177 -0.34447402960774404 -0.54835838800018599 -1.8635582823740917
decision_type=2 2 2 2 2 2 2 2 2 2 2 2 2 2 2 2 2 2 2 2 2 2 2 2 2 2 2 2 2 2
left_child=1 2 4 -3 5 10 7 19 -6 -4 11 -1 13 -8 23 29 -15 -11 -19 -5 -21 22 -22 25 26 -2 27 -25 -28 -9
right_child=14 3 9 6 8 -7 12 15 -10 17 -12 -13 -14 16 -16 -17 -18 18 -20 20 21 -23 -24 24 -26 -27 28 -29 -30 -31
leaf_value=0.0015456345153014946 0.0032382186171362663 -0.0026128556545221646 0.0057717800203670941 0.013537977959460015 0.00013940790962266707 -0.0020618727953347457 0.00051648784028762013 -0.007103274143405388 -0.0048616803798536331 -0.0018435203966149331 -0.0061205484378552702 0.016981195406323108 -0.0020333622494353911 -0.0037186659198697931 -0.0066162870135435883 -0.00065136806940016177 -0.0014752888447710688 0.0069739948983451759 -0.0018588729604007378 -0.005404084979815673 -0.00075296514517604997 -0.0017895303280654582 0.0099639508713374649 -0.0044274954477149867 0.00056258277742205506 0.00080193411861810972 -0.0075006535446669785 -0.020162786972634524 0.00046769983856290929 -0.0015061252002215363
leaf_weight=44 506 9422 53 25 6913 1262 1632 126 127 6592 21 26 28902 851 48 932 1165 110 253 44 24 40 111 70 35907 98380 51 22 118 145
leaf_count=44 506 9422 53 25 6913 1262 1632 126 127 6592 21 26 28902 851 48 932 1165 110 253 44 24 40 111 70 35907 98380 51 22 118 145
internal_value=0 -0.0345869 -0.0174789 -0.0406552 -0.00447922 -0.032918 -0.037402 -0.00836264 0.00098636 -0.0330477 0.0839524 0.145957 -0.038693 -0.0222091 0.0147436 -0.0286778 -0.048572 -0.0341815 0.0163978 0.091798 0.0712878 0.116457 0.161596 0.014796 0.0106004 0.0163306 -0.0830403 -0.164234 -0.0388403 -0.0823846
internal_weight=0 58820 15401 43419 8393 1353 33997 1447 7040 7008 91 70 32550 3648 135102 1203 2016 6955 363 244 219 175 135 135054 36168 98886 261 92 169 271
internal_count=193922 58820 15401 43419 8393 1353 33997 1447 7040 7008 91 70 32550 3648 135102 1203 2016 6955 363 244 219 175 135 135054 36168 98886 261 92 169 271
shrinkage=0.0498697


Tree=22
num_leaves=31
num_cat=0
split_feature=0 1 4 12 5 4 7 4 4 14 7 12 12 7 7 4 4 4 7 13 13 14 14 7 4 7 12 7 4 4
split_gain=67.8734 4.15625 2.30153 3.60256 1.64377 1.52088 1.40123 1.92644 1.56421 1.22227 1.40499 1.25055 1.0271 1.01857 1.00467 0.992457 1.01023 2.14197 1.85983 1.61834 1.21182 0.977208 1.55992 0.890286 0.872715 1.59746 0.841075 0.831086 0.828154 0.762023
threshold=1.0000000180025095e-35 1.0000000180025095e-35 -1.0434533807281789 -0.021665731282116903 -0.92451424667606141 1.482942266044432 -1.5062081980015152 -0.86625811011558695 -1.0025621644329654 0.042928251637500796 -1.5955457190946594 1.5584122388720913 1.2423966448412498 2.335305209003685 -2.0422333245603799 -1.2479094622042466 -1.3641086685098118 -1.3296918947946739 1.7992800824448196 1.1138001757357008 1.1138001757357008 1.2090224540338403 0.35687669074420753 -1.5062081980015152 -0.45768670729924482 0.19120470276822416 -0.28483649542224548 0.45921726604765672 -0.45325682553393004 0.42863040589950901
decision_type=2 2 2 2 2 2 2 2 2 2 2 2 2 2 2 2 2 2 2 2 2 2 2 2 2 2 2 2 2 2
left_child=1 2 26 4 5 6 7 -4 -8 11 -11 12 -3 14 -6 16 19 20 23 -2 -18 22 -10 -19 25 -5 -1 -27 -26 -16
right_child=15 9 3 24 13 -7 8 -9 21 10 -12 -13 -14 -15 29 -17 17 18 -20 -21 -22 -23 -24 -25 28 27 -28 -29 -30 -31
leaf_value=-0.0020467631102436168 0.0063838961780831056 -0.0023350095300781614 0.010805381588020605 -0.002977380990932762 -0.0017662439365190791 -0.0092805141127105112 -0.004297138829412829 0.0025474400008817155 0.0015511631069886841 -2.009704063785189e-05 -0.0016104935759107457 0.0055302288368415525 -0.011337574131613407 -0.0082820134839556702 0.00062641356029837251 0.00060721115583309943 -0.018368064631427851 -0.0092231937112665675 -0.015631631469822233 -0.005738886462779637 -0.0038739919832308112 -0.0050319388007704332 0.0082737614014071967 0.001291680191875953 0.004942376837839527 0.0053970491730372609 0.0062553301095407106 -0.00053235463347145928 -0.00098931354910870698 -0.001144950503828217
leaf_weight=2878 74 5782 96 1326 645 29 111 242 788 1404 36153 49 31 36 3474 134708 32 22 20 42 25 47 94 179 58 78 30 219 4538 712
leaf_count=2878 74 5782 96 1326 645 29 111 242 788 1404 36153 49 31 36 3474 134708 32 22 20 42 25 47 94 179 58 78 30 219 4538 712
internal_value=0 -0.0285342 -0.0144201 -0.00852219 0.00838458 0.0384891 0.0432586 0.0991942 0.0250796 -0.0335406 -0.0314444 -0.0469703 -0.0483113 -0.000318338 0.000930477 0.0121635 -0.0379522 -0.0706613 -0.0260828 0.0404371 -0.243501 0.0384851 0.045972 0.00285443 -0.0255785 -0.045513 -0.039758 0.0207772 -0.0185389 0.00659122
internal_weight=0 58820 15401 12493 6274 1407 1378 338 1040 43419 37557 5862 5813 4867 4831 135102 394 278 221 116 57 929 882 201 6219 1623 2908 297 4596 4186
internal_count=193922 58820 15401 12493 6274 1407 1378 338 1040 43419 37557 5862 5813 4867 4831 135102 394 278 221 116 57 929 882 201 6219 1623 2908 297 4596 4186
shrinkage=0.0493264


Tree=23
num_leaves=31
num_cat=0
split_feature=0 1 14 12 5 7 12 7 5 12 12 3 12 3 12 7 7 12 7 3 2 12 7 7 3 5 3 5 3 12
split_gain=46.1963 2.82885 1.65779 0.892356 0.879648 2.0243 1.37159 1.69595 1.12861 1.04153 0.852098 1.27756 1.25133 1.20884 1.14328 1.13292 1.12065 0.847779 0.816959 0.79951 1.07578 1.01157 0.797929 0.77956 0.864066 0.86706 0.699628 0.683075 0.678048 1.3066
threshold=1.0000000180025095e-35 1.0000000180025095e-35 0.2671771367137199 -0.2674556377505492 -1.1946218066969181 0.81656735042023354 0.048559956280292339 -1.6848832401878036 -0.53673606644809879 -0.25867742680524802 1.9095406766841374 -1.1949010127628099 1.5935250826532958 -1.1175894688396222 1.5232993950908866 -2.1315708456535241 -1.8635582823740917 -0.65369691934379992 -2.0422333245603799 -0.49909711745411972 1.0000000180025095e-35 -0.058183088814569704 1.8886176035379638 1.4419299980722429 1.8202492002415156 -0.53673606644809879 -0.96296638099324672 -0.53673606644809879 -0.26716248568455619 0.55839844798338356
decision_type=2 2 2 2 2 2 2 2 2 2 2 2 2 2 2 2 2 2 2 2 2 2 2 2 2 2 2 2 2 2
left_child=1 2 10 -3 5 -5 7 8 -6 -9 12 -12 14 -13 15 27 -14 -4 -17 20 -11 -22 -2 -20 25 -25 -10 -1 29 -8
right_child=22 3 17 4 6 -7 28 9 26 19 11 13 16 -15 -16 18 -18 -19 23 -21 21 -23 -24 24 -26 -27 -28 -29 -30 -31
leaf_value=0.012335359537302519 0.0005189077042905717 -0.0017998906048125054 0.0051742792094129995 0.0005892574759801194 -0.0057278077640690386 -0.0018828148412601529 -0.0020341377323068784 0.0059865995708616049 0.00427082379011665 -0.0031550067565290722 -0.0089251299155933168 0.0069592319176316076 0.0018971976282828283 -0.0038324912336179097 -0.01108905361714221 -0.0013554605762349005 0.013325866662143939 -0.0012192676800955478 0.00020398083728218717 -0.0003206124984243097 -0.0015311404963412249 0.0060905117964004177 -0.00060042005865335263 -0.00010966018359139617 -4.3893498928310282e-05 -0.0076072312851711956 0.012569860978916502 0.0026113693696145387 -0.0016923099257536154 -0.00080702334327825535
leaf_weight=27 133467 10417 53 1908 21 1501 3122 59 80 622 69 39 68 81 24 1197 32 6955 6411 2526 126 68 1635 62 220 106 38 57 15474 7457
leaf_count=27 133467 10417 53 1908 21 1501 3122 59 80 622 69 39 68 81 24 1197 32 6955 6411 2526 126 68 1635 62 220 106 38 57 15474 7457
internal_value=0 -0.0235407 -0.0118966 -0.027671 -0.025124 -0.0099127 -0.0268762 -0.0084072 0.0998608 -0.0128322 -0.00241613 -0.0688008 -0.000886791 -0.00645707 -0.00225869 -0.00161136 0.110292 -0.0232507 -0.00282502 -0.0151573 -0.0423706 0.0226441 0.0100349 0.00141617 -0.0421099 -0.0961124 0.137874 0.113917 -0.0293858 -0.0232158
internal_weight=0 58820 15401 43419 33002 3409 29593 3540 139 3401 8393 189 8204 120 8104 8080 100 7008 7996 3342 816 194 135102 6799 388 168 118 84 26053 10579
internal_count=193922 58820 15401 43419 33002 3409 29593 3540 139 3401 8393 189 8204 120 8104 8080 100 7008 7996 3342 816 194 135102 6799 388 168 118 84 26053 10579
shrinkage=0.0503605


Tree=24
num_leaves=31
num_cat=0
split_feature=0 1 4 13 3 4 13 3 3 3 13 4 4 3 5 4 4 7 14 5 4 5 5 4 14 4 14 4 4 7
split_gain=31.4424 1.92538 1.63542 1.84945 1.73601 1.82144 1.39788 1.21838 1.17556 1.9116 1.02188 0.983047 1.81532 0.970744 1.08078 0.946314 1.79589 0.939611 0.906211 0.872293 1.05727 1.20832 1.11206 0.968385 0.821703 0.767347 0.720208 0.990193 1.69869 1.40491
threshold=1.0000000180025095e-35 1.0000000180025095e-35 -1.0434533807281789 0.93395937578246901 -1.0402779249164344 2.1697443197361235 0.78237927296474541 0.7378875853168857 -0.73103174922368319 -0.80834329314687092 0.68988971870308335 0.27528834479245817 0.19009831084409656 -1.1949010127628099 -0.34418414247283463 -0.061382669371466837 0.053453496390924574 -1.0595205925357942 0.2671771367137199 -1.2944635450544622 1.3641873587204161 -0.92451424667606141 -0.53673606644809879 1.2464547318037804 1.7920695552320098 1.0000000180025095e-35 0.58112557582042668 1.0000000180025095e-35 -0.42667753494204125 -0.43415794488378506
decision_type=2 2 2 2 2 2 2 2 2 2 2 2 2 2 2 2 2 2 2 2 2 2 2 2 2 2 2 2 2 2
left_child=1 2 -1 4 6 10 11 8 9 -5 24 12 13 14 18 -10 -17 -18 -4 -13 21 -21 -22 -23 26 -20 -6 28 -28 -30
right_child=-2 -3 3 7 5 -7 -8 -9 15 -11 -12 19 -14 -15 -16 16 17 -19 25 20 22 23 -24 -25 -26 -27 27 -29 29 -31
leaf_value=-0.0016951374336409402 0.00045018020122393731 -0.001241362370272795 0.00055693808750833075 -0.00063221757580835122 0.00099629734247345557 -0.0073646216108993415 0.0095691983593887506 0.0014564841393377398 -0.0024892480102765594 0.0058480361965660985 0.0084750078625222009 -0.0077450073758839159 0.0073156109526445624 0.0014323728303192089 -0.0039046903911796951 0.0046766971712742756 0.0025268639214512216 -0.0020275538005442711 -0.003824903098895706 0.0088663891187940186 -0.0063492377204822752 -0.0028272538063674269 0.0043002780140739671 -0.012857117432421022 -0.0081412738622479944 0.0063243577406926418 0.0030384911024708286 -0.0029667149850095471 0.0039121612392899012 0.023082172408753886
leaf_weight=2908 135102 43419 786 1393 3480 74 39 541 2220 149 57 80 92 554 344 164 155 986 268 25 37 556 134 30 28 24 180 51 20 26
leaf_count=2908 135102 43419 786 1393 3480 74 39 541 2220 149 57 80 92 554 344 164 155 986 268 25 37 556 134 30 28 24 180 51 20 26
internal_value=0 -0.0194211 -0.00981468 -0.00484299 0.00613795 0.0199643 -0.0120985 -0.0183244 -0.0231407 -0.000111171 0.0229574 -0.0146019 -0.00277608 -0.00916904 -0.0230036 -0.0332148 -0.0118446 -0.0259087 -0.00742994 -0.0429729 -0.0327983 -0.0522505 0.0367062 -0.0614357 0.0209561 -0.054999 0.0222281 0.0713028 0.0997049 0.271203
internal_weight=0 58820 15401 12493 6885 3916 2969 5608 5067 1542 3842 2930 2068 1976 1422 3525 1305 1141 1078 862 782 611 171 586 3785 292 3757 277 226 46
internal_count=193922 58820 15401 12493 6885 3916 2969 5608 5067 1542 3842 2930 2068 1976 1422 3525 1305 1141 1078 862 782 611 171 586 3785 292 3757 277 226 46
shrinkage=0.0543776


Tree=25
num_leaves=31
num_cat=0
split_feature=0 1 4 4 12 7 12 4 4 3 4 4 12 4 5 12 4 3 12 13 12 4 4 7 3 3 3 12 7 7
split_gain=22.3068 1.4739 0.919385 1.00685 0.986 1.41162 0.937482 1.38378 1.29249 1.28232 1.06303 0.852152 0.914107 1.31668 1.01904 0.889436 0.846966 0.795071 0.755747 1.0187 1.32383 1.06487 2.28511 1.02772 0.732053 0.979651 0.971446 0.724683 0.93169 0.994746
threshold=1.0000000180025095e-35 1.0000000180025095e-35 -1.2479094622042466 -1.3641086685098118 -0.65369691934379992 -0.61283298707007339 0.048559956280292339 0.7727981430508899 0.73531452811361075 1.588314568471952 0.80108123432174594 -1.3641086685098118 -0.22532022521310366 -0.61000648799891533 -0.34418414247283463 -0.65369691934379992 -0.71564213009488364 2.3614300077038304 2.085104895590161 0.43168971305594367 -0.22532022521310366 -1.3641086685098118 -1.3296918947946739 1.2632549558859545 0.89251067316326138 0.11939523393138295 -1.1949010127628099 -0.24076987647683371 1.1739174347928103 1.0000000180025095e-35
decision_type=2 2 2 2 2 2 2 2 2 2 2 2 2 2 2 2 2 2 2 2 2 2 2 2 2 2 2 2 2 2
left_child=1 2 3 4 5 -1 -4 8 16 10 -9 15 -13 14 -14 -3 -8 -15 19 21 27 -2 -23 -24 25 26 -12 28 29 -21
right_child=18 11 6 -5 -6 -7 7 9 -10 -11 24 12 13 17 -16 -17 -18 -19 -20 20 -22 22 23 -25 -26 -27 -28 -29 -30 -31
leaf_value=0.010300115028016739 0.0068140545462955443 0.0064342400902292641 9.8875297692717365e-05 -0.002674333413062504 -0.0023727534791016386 -0.00041318236479285435 -0.0094201816589767045 0.013068521310574939 -0.011447626734196746 -0.013537467811473847 -0.0016232368484932849 -0.0016354603137019301 -0.0013570703810636836 -0.00120209290245104 0.00028407735212499153 -0.00055835991018351951 -0.001112169940183032 0.0085620208828897648 0.0012152450946668759 -0.00067547766133070619 0.0001678853100545289 -0.015276605898472255 0.00054795759080048271 -2.3272685298630367e-05 0.0094214833557747634 -0.0024639290215706408 0.0035871264810442569 -0.0058960172184171298 0.0030260265605998138 -0.0049582458237591286
leaf_weight=73 92 104 7881 1167 159 103 43 27 43 20 175 10813 1914 26124 4194 161 4866 29 3893 580 31464 32 86180 12531 36 227 429 137 146 279
leaf_count=73 92 104 7881 1167 159 103 43 27 43 20 175 10813 1914 26124 4194 161 4866 29 3893 580 31464 32 86180 12531 36 227 429 137 146 279
internal_value=0 -0.0164692 -0.00801352 -0.0315043 0.0168195 0.0683849 -0.00544691 -0.0150188 -0.0216173 0.0207315 0.0263339 -0.0194444 -0.0197922 -0.0171252 -0.00390573 0.0370889 -0.0201053 -0.0202125 0.00688821 0.00648152 0.00163463 0.00808053 0.00798034 0.00806695 0.0202486 0.0142006 0.0352495 -0.0318111 -0.0225104 -0.035063
internal_weight=0 58588 15249 1502 335 176 13747 5866 4952 914 894 43339 43074 32261 6108 265 4909 26153 135334 131441 32606 98835 98743 98711 867 831 604 1142 1005 859
internal_count=193922 58588 15249 1502 335 176 13747 5866 4952 914 894 43339 43074 32261 6108 265 4909 26153 135334 131441 32606 98835 98743 98711 867 831 604 1142 1005 859
shrinkage=0.058937


Tree=26
num_leaves=31
num_cat=0
split_feature=14 8 12 4 4 12 12 14 5 5 4 7 12 12 5 7 7 4 4 7 12 7 4 10 13 4 14 4 8 4
split_gain=5.39158 6.63589 1.91562 1.04531 1.97604 1.18308 0.792492 0.783719 0.727055 0.690849 0.848735 0.903559 0.899902 0.989925 0.915026 2.97228 1.38081 1.29351 1.09416 0.800395 0.681083 0.708734 0.982387 0.619657 0.834013 0.620776 0.601983 1.06363 2.44415 0.644303
threshold=0.40172646775945137 1.0000000180025095e-35 -0.10207414354107547 -1.2479094622042466 -1.3641086685098118 -0.65369691934379992 -0.62279761681633994 0.042928251637500796 -2.4355119834263976 -1.1946218066969181 -0.38919392000476216 -2.0422333245603799 -0.042733437550839672 -0.025528144098049415 0.34579358510519498 -1.3275331558152268 -1.5062081980015152 -0.55275878518561627 -1.0979750024551302 1.3525924769790987 2.8224746149954574 -0.076807860511208401 2.0884730273493868 1.0000000180025095e-35 1.1138001757357008 -0.23585185889771135 0.31202691372896374 -0.18473783852869438 1.0000000180025095e-35 -0.018446892261492601
decision_type=2 2 2 2 2 2 2 2 2 2 2 2 2 2 2 2 2 2 2 2 2 2 2 2 2 2 2 2 2 2
left_child=3 6 8 4 5 7 -2 -1 -3 -5 12 23 14 -14 15 17 18 -11 -16 -18 -8 22 -22 24 -12 -26 -13 -28 29 -29
right_child=1 2 -4 9 -6 -7 20 -9 -10 10 11 26 13 -15 16 -17 19 -19 -20 -21 21 -23 -24 -25 25 -27 27 28 -30 -31
leaf_value=0.0034184535884595126 0.0031576964265010062 -0.011699806448532812 0.00031629898116000081 0.00051149337044633118 -0.0021024721370925463 -0.0052122799080432398 -0.00095065072137780649 0.015346675419823942 -0.0010888648387669558 -0.0059630036698433142 -0.00093191838064326192 0.00030115836781992859 -0.008339578605047842 -0.00090784658120158742 -0.00099577200227611725 0.00016378032409034081 8.9850956213134107e-05 -0.00042827507847923395 0.0019780053957356761 -0.0013084405855865898 0.012586668812878779 -0.00029608546804828022 0.0017464475675853673 0.0046013572646484953 0.0024531363575514761 -0.0067970721703796699 -0.0013172434524419316 0.0021067795290636016 0.00067912887979513939 0.0083472046543930749
leaf_weight=274 163 22 33502 28783 1440 53 39573 20 3240 477 584 57075 62 2790 521 1934 16527 204 2132 1512 32 1092 244 51 29 160 342 74 780 230
leaf_count=274 163 22 33502 28783 1440 53 39573 20 3240 477 584 57075 62 2790 521 1934 16527 204 2132 1512 32 1092 244 51 29 160 342 74 780 230
internal_value=0 -0.00657623 0.00318491 0.00418004 -0.0198188 0.0479222 -0.0153067 0.0727139 -0.0199483 0.00455535 0.00312858 0.00522093 -0.0016166 -0.0183836 0.000435124 -0.0171903 0.00266258 -0.0740054 0.0239637 -0.000470187 -0.0155838 0.0063532 0.0516279 -0.0276625 -0.0347063 -0.0924457 0.0056841 0.0259784 0.0413187 0.117379
internal_weight=0 77868 36764 116054 1787 347 41104 294 3262 114267 85484 59325 26159 2852 23307 2615 20692 681 2653 18039 40941 1368 276 824 773 189 58501 1426 1084 304
internal_count=193922 77868 36764 116054 1787 347 41104 294 3262 114267 85484 59325 26159 2852 23307 2615 20692 681 2653 18039 40941 1368 276 824 773 189 58501 1426 1084 304
shrinkage=0.0581717


Tree=27
num_leaves=31
num_cat=0
split_feature=0 1 13 4 3 4 7 12 12 12 11 7 13 7 7 3 4 5 3 7 4 3 3 7 4 4 5 4 5 12
split_gain=88.5638 5.88246 1.72882 2.35693 2.45618 1.68183 1.5613 1.22385 1.17174 1.24157 1.42823 1.31855 1.14357 1.72216 1.11991 1.00023 1.08349 0.94271 0.940997 0.864341 0.78545 0.774043 0.89234 1.00119 0.725873 1.30921 1.05008 0.980223 0.915765 1.80909
threshold=1.0000000180025095e-35 1.0000000180025095e-35 1.1138001757357008 -1.0025621644329654 -1.0402779249164344 2.2791283233258195 0.81656735042023354 2.8224746149954574 1.3126223324036588 1.1054565540945516 0.75647934035871278 1.5312675191653871 -0.49449040670319899 0.36987974495451253 1.5312675191653871 1.0471337610096372 -1.1601637272374343 -1.1946218066969181 0.7378875853168857 0.72722982932708935 -1.138866218750344 -0.73103174922368319 0.58326449747051001 0.81656735042023354 0.27528834479245817 0.19009831084409656 -1.4549234817005157 0.29232635158213049 -0.53673606644809879 0.11878564384270157
decision_type=2 2 2 2 2 2 2 2 2 2 2 2 2 2 2 2 2 2 2 2 2 2 2 2 2 2 2 2 2 2
left_child=1 2 3 6 24 8 19 21 9 10 -6 -12 13 18 20 16 -8 -10 -3 -1 -15 -4 23 -23 25 28 -26 -28 29 -5
right_child=-2 12 7 4 5 -7 15 -9 17 -11 11 -13 -14 14 -16 -17 -18 -19 -20 -21 -22 22 -24 -25 26 -27 27 -29 -30 -31
leaf_value=-0.00050856124673129819 0.00029588296672029482 -0.00091501797092667495 -0.00025053633473478838 0.00068481887014346392 0.00036551337806101542 -0.002825973232875977 -0.002201192750887546 0.001404411118994009 0.00011021615770599436 -0.0040384970996072403 0.0030305437795788179 -0.0026591645290536953 -0.00078015835953370541 -0.00035815924086983692 -0.0009696795991586116 -0.0014063125895748189 -0.007303631436345783 0.0050121099843586482 0.0016684638253599434 0.0038437552184582007 -0.0023599425354074188 -0.00088200702724185577 -0.00021167778984225214 -0.004310955450517932 -0.0033467035852309274 0.002295887963085799 -0.0052367157797770904 -0.00057556482225032196 -0.00087774535540705576 -0.0011304871779646002
leaf_weight=1386 135334 3839 1795 748 3363 71 54 137 29 28 153 21 37891 99 577 384 29 46 65 21 868 3809 1032 39 74 92 21 787 757 373
leaf_count=1386 135334 3839 1795 748 3363 71 54 137 29 28 153 21 37891 99 577 384 29 46 65 21 868 3809 1032 39 74 92 21 787 757 373
internal_value=0 -0.0326445 -0.015752 -0.00618456 0.00274671 0.019706 -0.0374631 -0.0276018 0.0226792 0.0200769 0.0217373 0.11008 -0.0385882 -0.0521352 -0.0804067 -0.0875642 -0.187109 0.146378 -0.040954 -0.0208339 -0.101211 -0.0295221 -0.0360531 -0.043056 -0.0193206 -0.00864589 -0.0431632 -0.0327212 -0.0143517 0.00379464
internal_weight=0 58588 15249 8437 6563 3711 1874 6812 3640 3565 3537 174 43339 5448 1544 467 83 75 3904 1407 967 6675 4880 3848 2852 1970 882 808 1878 1121
internal_count=193922 58588 15249 8437 6563 3711 1874 6812 3640 3565 3537 174 43339 5448 1544 467 83 75 3904 1407 967 6675 4880 3848 2852 1970 882 808 1878 1121
shrinkage=0.0212923


Tree=28
num_leaves=31
num_cat=0
split_feature=0 7 5 3 3 5 4 7 7 12 7 7 4 4 3 3 4 4 3 4 7 5 12 7 7 4 12 3 4 7
split_gain=19.8506 0.8377 2.03532 1.08088 0.979421 1.10222 1.0394 1.02252 1.11411 0.993188 1.43682 1.30225 0.854769 1.66398 1.03804 1.34295 0.802155 1.24067 0.957503 0.887709 1.12125 1.83802 1.07491 0.929795 0.789915 2.01088 0.773201 0.770334 0.73487 0.68945
threshold=1.0000000180025095e-35 0.99524239260652181 -1.1946218066969181 1.1244453049328251 -0.26716248568455619 -0.34418414247283463 -0.54253598111181289 -1.3275331558152268 -1.7742207612809475 0.71570398812318026 -0.076807860511208401 -2.0422333245603799 -1.0025621644329654 -0.071946233581063668 -0.42178557353093188 -1.1949010127628099 -0.12203797354270028 -0.15066182494934974 -0.26716248568455619 -0.45768670729924482 -1.1488581136289384 -2.234937062618831 -0.019910089093056676 -1.7742207612809475 -1.3275331558152268 -1.0434533807281789 1.1054565540945516 0.35132986570094649 -0.93441013727427624 0.36987974495451253
decision_type=2 2 2 2 2 2 2 2 2 2 2 2 2 2 2 2 2 2 2 2 2 2 2 2 2 2 2 2 2 2
left_child=1 2 12 4 5 6 7 8 -4 -7 11 -11 24 16 15 -15 17 19 -18 20 21 -14 23 28 25 -1 -12 -26 -23 -29
right_child=-2 -3 3 -5 -6 9 -8 -9 -10 10 26 -13 13 14 -16 -17 18 -19 -20 -21 -22 22 -24 -25 27 -27 -28 29 -30 -31
leaf_value=4.2953415640312201e-05 0.00038746019398255285 -0.0014335331410544993 -0.0033190164776618221 0.00034804322884053336 -0.0013323880575412618 -0.00078257262288776897 -0.0010630232525521768 -0.001479061231185929 -0.0096527911248118492 -0.0036974636836867502 0.00091778831282522395 0.0018186885422446285 0.010754713246204996 -0.00055410500558584629 0.0020244300904483743 -0.0057920417651681289 0.002726205457443271 -0.0095196574807902452 0.017990572327506112 0.0034458363303189873 9.7444160310508423e-05 0.0079030838683598979 -0.0043100785327524222 0.0047708658172113559 -0.0021778378650404917 0.012108755096462588 -0.0015197247987623023 0.0038651768914049157 -0.0039553610407327446 -0.0010233166478301452
leaf_weight=575 135334 9330 339 2093 19809 10699 5084 612 137 163 655 1939 93 459 233 275 42 37 22 593 1687 23 87 285 1216 53 1514 157 91 286
leaf_count=575 135334 9330 339 2093 19809 10699 5084 612 137 163 655 1939 93 459 233 275 42 37 22 593 1687 23 87 285 1216 53 1514 157 91 286
internal_value=0 -0.015497 -0.0138514 -0.0162937 -0.0174266 -0.0126928 -0.0239378 -0.05199 -0.0867511 -0.00805658 0.00483516 0.0234667 0.00306662 0.012017 -0.0239974 -0.0424571 0.0237825 0.0213353 0.134519 0.0236899 0.0146758 0.0526457 0.027999 0.0499594 -0.012302 0.0179045 -0.0132209 -0.0237365 -0.0263674 0.0119646
internal_weight=0 58588 49258 43044 40951 21142 6172 1088 476 14970 4271 2102 6214 3927 967 734 2960 2896 64 2859 2266 579 486 399 2287 628 2169 1659 114 443
internal_count=193922 58588 49258 43044 40951 21142 6172 1088 476 14970 4271 2102 6214 3927 967 734 2960 2896 64 2859 2266 579 486 399 2287 628 2169 1659 114 443
shrinkage=0.0592727


Tree=29
num_leaves=31
num_cat=0
split_feature=0 1 4 15 3 4 12 5 13 5 5 4 3 4 4 4 4 3 4 3 12 3 4 4 15 12 3 3 5 14
split_gain=13.5108 1.25059 0.685919 1.29997 1.25013 1.09122 0.994721 1.09575 1.46753 0.943773 1.50896 1.0195 0.950823 1.35846 0.898328 0.749634 0.916489 0.880839 0.745403 0.741143 0.759258 0.704611 0.682175 0.746588 0.704683 0.645727 0.640766 0.791263 0.667127 0.636442
threshold=1.0000000180025095e-35 1.0000000180025095e-35 -0.98586491777908658 0.76821456263157439 1.0471337610096372 -1.1601637272374343 -0.021665731282116903 -0.92451424667606141 -0.40457000672658322 -0.34418414247283463 -0.53673606644809879 -0.42667753494204125 -0.96296638099324672 0.11581260124112526 1.2464547318037804 0.7727981430508899 0.73531452811361075 1.4336914806255765 0.80108123432174594 1.1244453049328251 -0.45355370979093362 0.89251067316326138 0.56493446021688765 -0.83218209653624231 -0.53790003307202217 -0.044489079739899899 0.042083690008195104 -0.80834329314687092 -1.4549234817005157 1.0000000180025095e-35
decision_type=2 2 2 2 2 2 2 2 2 2 2 2 2 2 2 2 2 2 2 2 2 2 2 2 2 2 2 2 2 2
left_child=1 2 3 19 5 -5 7 8 14 10 12 -12 22 -14 -4 16 -8 18 -17 -1 -21 26 23 24 -9 -10 27 28 -20 -3
right_child=-2 29 6 4 -6 -7 15 9 25 -11 11 -13 13 -15 -16 17 -18 -19 21 20 -22 -23 -24 -25 -26 -27 -28 -29 -30 -31
leaf_value=-0.00046831177817387105 0.00024970473753979275 -0.001186658759970417 0.0011945905831508489 -0.0036368531514866199 -0.0017747795663634138 -0.013405778328871614 -0.0006336996857073011 -0.0056015982254255317 0.0044222415789894765 0.00040114138856606814 -0.010382715880402208 -0.0027100055410990507 -0.0050418476354824066 0.0031818382013762718 -0.0061524779894886602 0.0085593514588199558 -0.0074213176355496279 -0.0080055824371443249 -0.0075057858377036522 0.00094029700143653024 0.012137679043937918 0.0074887035415647785 -0.0045915851429372389 0.0027772737362508032 0.0029645932106945761 0.012885822247930718 -0.0014077829009555235 0.0037980753887357716 0.00063066995560901102 -0.00065156436910790633
leaf_weight=2591 135334 5451 999 66 580 39 5202 50 159 3511 42 320 141 62 37 27 43 24 23 37 20 32 39 340 35 22 262 190 356 37888
leaf_count=2591 135334 5451 999 66 580 39 5202 50 159 3511 42 320 141 62 37 27 43 24 23 37 20 32 39 340 35 22 262 190 356 37888
internal_value=0 -0.0127851 -0.00499625 -0.0176775 -0.0565071 -0.156911 -0.00144919 0.00800104 0.0346476 0.000858123 -0.0257745 -0.0777548 0.00243676 -0.0546451 0.0201329 -0.0102826 -0.014888 0.0161457 0.0212435 -0.00763288 0.105162 0.0161246 0.0274101 0.0390253 -0.0448002 0.117726 0.0105175 0.0293602 0.00295669 -0.0155256
internal_weight=0 58588 15249 3333 685 105 11916 5757 1217 4540 1029 362 667 203 1036 6159 5245 914 890 2648 57 863 464 425 85 181 831 569 379 43339
internal_count=193922 58588 15249 3333 685 105 11916 5757 1217 4540 1029 362 667 203 1036 6159 5245 914 890 2648 57 863 464 425 85 181 831 569 379 43339
shrinkage=0.0463021


Tree=30
num_leaves=31
num_cat=0
split_feature=0 1 4 12 4 11 11 4 4 12 4 4 4 7 7 11 5 4 5 7 4 5 7 5 7 4 7 4 4 7
split_gain=38.8457 3.80849 1.28869 1.10553 1.59522 1.26182 1.1547 1.00671 1.04991 0.909524 1.22028 1.18758 1.0788 0.988562 0.953865 0.867379 0.852175 1.62349 0.849308 1.40206 1.0083 1.05227 0.84516 0.839747 0.816859 1.71955 1.10946 0.960992 1.43891 0.958433
threshold=1.0000000180025095e-35 1.0000000180025095e-35 -1.1601637272374343 0.17215716639013262 -0.57661199469115754 0.30366229758904645 0.50491431659778707 -0.55275878518561627 -0.54253598111181289 -0.49568912232837919 0.65693969688111808 0.56493446021688765 -0.58683479876496092 1.2632549558859545 -1.8635582823740917 2.4168084971808228 -1.1946218066969181 -0.52549797432214063 -1.1946218066969181 0.19120470276822416 1.9962974106172588 -2.234937062618831 -2.1315708456535241 -0.92451424667606141 -1.1488581136289384 -0.68224763678712597 0.28054222386136834 -0.61375484949264325 -0.29650716306894476 1.5312675191653871
decision_type=2 2 2 2 2 2 2 2 2 2 2 2 2 2 2 2 2 2 2 2 2 2 2 2 2 2 2 2 2 2
left_child=1 2 -1 22 -5 -6 -7 -8 -9 10 11 16 13 -11 -12 -2 17 -3 19 20 21 -14 -4 -18 -24 29 -27 -28 -29 -26
right_child=15 9 3 4 5 6 7 8 -10 12 14 -13 18 -15 -16 -17 23 -19 -20 -21 -22 -23 24 -25 25 26 27 28 -30 -31
leaf_value=-0.0011004903236638093 0.00033668065464805089 -0.0011190843182206588 0.0048219670856663186 -0.0041112370273995455 -0.0012158437383988675 0.00154977257748071 0.0030987152813010763 -0.0075299153809038778 -0.00036071356916591224 -0.00038676951516901413 0.0025370236073519329 -0.0054016997782485466 0.0068361905175668234 -0.0012924459851518992 -0.00056005083355337658 -0.0022541377621060916 -0.008259566156762807 0.002102241156327493 -0.0010109643371707536 -0.0008577821130764478 0.0089994104350257804 0.00056536686907477838 -0.00029020244803136232 -0.0015861983680343817 -2.634495657529707e-06 0.0019665499509710889 0.0031734309169510273 -0.0025106348357028627 0.00091285420352261787 -0.0027529574255980901
leaf_weight=1969 135132 1471 46 147 1687 470 102 25 2947 8728 149 90 35 1757 635 157 23 218 24011 1186 20 450 3721 4510 2258 1046 114 230 423 165
leaf_count=1969 135132 1471 46 147 1687 470 102 25 2947 8728 149 90 35 1757 635 157 23 218 24011 1186 20 450 3721 4510 2258 1046 114 230 423 165
internal_value=0 -0.0212381 -0.00770457 -0.00418978 -0.0152779 -0.0123907 -0.00167512 -0.00873316 -0.0120857 -0.0260376 -0.0363895 -0.0410111 -0.0240077 -0.0154591 0.000819589 0.00957839 -0.0393614 -0.020189 -0.027495 -0.00583384 0.0382936 0.0292197 0.00326139 -0.0465051 0.00248003 0.0119763 0.0352683 0.00637974 -0.00840991 -0.00545193
internal_weight=0 58633 15350 13381 5378 5231 3544 3074 2972 43283 7096 6312 36187 10485 784 135289 6222 1689 25702 1691 505 485 8003 4533 7957 4236 1813 767 653 2423
internal_count=193922 58633 15350 13381 5378 5231 3544 3074 2972 43283 7096 6312 36187 10485 784 135289 6222 1689 25702 1691 505 485 8003 4533 7957 4236 1813 767 653 2423
shrinkage=0.0348361


Tree=31
num_leaves=31
num_cat=0
split_feature=0 1 14 7 4 4 7 4 13 14 4 4 5 4 3 7 3 4 7 7 7 3 7 4 7 3 4 4 4 4
split_gain=16.3208 1.73949 0.879778 0.745875 1.36332 0.82173 0.704547 1.83414 0.763261 0.702306 1.23265 1.14383 0.894444 1.12459 0.890563 1.27792 0.904012 0.764396 0.88507 1.35178 1.24521 0.726485 0.804092 0.753704 0.742364 0.702796 1.11603 1.11258 0.689701 1.93237
threshold=1.0000000180025095e-35 1.0000000180025095e-35 2.0163184403082295 -2.1315708456535241 -0.58683479876496092 -1.1601637272374343 -1.416870676908371 -1.1899802391193608 1.1138001757357008 0.042928251637500796 0.65693969688111808 0.56493446021688765 -1.1946218066969181 -0.52549797432214063 -1.1949010127628099 -1.0595205925357942 2.3614300077038304 0.70123851453426611 -0.34482042379064093 -0.97018307144265015 1.7992800824448196 -1.2722125566859979 -1.1488581136289384 -0.69587804221886373 -0.79150802925636177 -0.65372020530049524 -0.80628432621594037 -0.12203797354270028 -1.3641086685098118 -1.3296918947946739
decision_type=2 2 2 2 2 2 2 2 2 2 2 2 2 2 2 2 2 2 2 2 2 2 2 2 2 2 2 2 2 2
left_child=1 3 6 4 -1 -5 7 8 -2 10 11 12 13 21 -14 25 -17 -12 19 -19 -20 -3 23 -23 -24 -16 -27 -28 -8 -30
right_child=2 9 -4 5 -6 -7 28 -9 -10 -11 17 -13 14 -15 15 16 -18 18 20 -21 -22 22 24 -25 -26 26 27 -29 29 -31
leaf_value=0.011463581989087944 -0.0026394371137160961 -0.0047983703346560248 -0.0025052154184950501 -0.0010149301770934907 0.00036699745649236716 -9.607744482538865e-05 0.0035247531756684484 0.00067472030038192785 -0.011371176653218891 -0.00064339323215182979 0.0050708189946043394 -0.0059411138041924405 -0.0034953248711747141 0.00233683280074717 -0.0009594052191900914 -0.0023445707443110523 0.0036045990696371732 0.00041880445827955032 -0.002870256244130228 0.0081945145515418261 0.0050726547981452541 0.0020313281835539947 -0.0052298226346591944 -0.0051094311366318666 -0.00084462344364039327 -0.0012001487185347749 0.0063759863740243646 -0.0016128087683698097 -0.0084361437145278485 0.00024103391958571604
leaf_weight=27 47 78 201 1957 69 13297 112 9095 28 37514 56 95 392 233 1353 1674 46 442 256 43 40 243 81 29 411 153 100 44 45 125761
leaf_count=27 47 78 201 1957 69 13297 112 9095 28 37514 56 95 392 233 1353 1674 46 442 256 43 40 243 81 29 411 153 100 44 45 125761
internal_value=0 -0.0137039 0.00627089 -0.00455761 0.0833113 -0.00511061 0.00636926 0.0148319 -0.140909 -0.0169476 -0.0272195 -0.0332412 -0.0311069 -0.0056683 -0.0383761 -0.0331286 -0.0522014 0.00826332 0.000171154 0.0264701 -0.04292 -0.0226826 -0.0132971 0.0303348 -0.0374188 -0.0132466 0.0308031 0.0939895 0.00575296 0.00568313
internal_weight=0 58633 135289 15350 96 15254 135088 9170 75 43283 5769 4932 4837 1075 3762 3370 1720 837 781 485 296 842 764 272 492 1650 297 144 125918 125806
internal_count=193922 58633 135289 15350 96 15254 135088 9170 75 43283 5769 4932 4837 1075 3762 3370 1720 837 781 485 296 842 764 272 492 1650 297 144 125918 125806
shrinkage=0.041866


Tree=32
num_leaves=31
num_cat=0
split_feature=0 1 7 4 13 7 4 3 7 7 3 14 7 2 4 12 4 5 5 4 4 14 3 5 7 5 12 12 4 5
split_gain=11.1083 1.18394 0.734006 0.744167 0.688353 0.863875 0.779621 0.645966 0.745808 0.627974 0.642461 1.34781 1.03926 0.691615 1.01478 1.57878 1.10906 0.734974 0.689534 0.663463 1.00425 1.03416 0.928746 0.918828 0.866792 1.34489 1.46953 0.829347 0.677919 1.23856
threshold=1.0000000180025095e-35 1.0000000180025095e-35 1.5312675191653871 -0.14043902087554636 0.43168971305594367 -1.7742207612809475 -0.42667753494204125 -1.1949010127628099 0.81656735042023354 1.4419299980722429 -0.88565483707005888 1.0744731229881088 -1.0595205925357942 1.0000000180025095e-35 -0.23585185889771135 1.0000000180025095e-35 -0.63113361641810894 -0.53673606644809879 0.34579358510519498 -0.73029481593400181 -0.59739836297455773 0.80537446089664577 -1.2722125566859979 -0.34418414247283463 -0.16614538160435258 -0.53673606644809879 -0.3306587565567175 -0.065907914446434721 -0.45768670729924482 -0.53673606644809879
decision_type=2 2 2 2 2 2 2 2 2 2 2 2 2 2 2 2 2 2 2 2 2 2 2 2 2 2 2 2 2 2
left_child=1 9 4 -4 5 -2 7 8 -6 10 11 12 -1 14 15 -13 -17 -16 -19 24 -21 28 -23 -24 27 26 -26 -14 29 -22
right_child=2 -3 3 -5 6 -7 -8 -9 -10 -11 -12 13 19 -15 17 16 -18 18 -20 20 21 22 23 -25 25 -27 -28 -29 -30 -31
leaf_value=-0.00078912162392826717 0.0022454002881587818 -0.00089617320561560137 -0.00096678660340823448 0.00029169093028258327 -0.0015977609919210238 0.00043841797669108481 0.00033415460224788814 -0.00018983507917989348 -0.0094408094569491327 -0.0020347781773978777 0.00018791164710204621 -0.0045371906476170988 0.00079316359544178826 -0.0075683272073854297 -0.0098841282629568809 0.017499461193447037 0.0024354331882545954 0.0064939235162754828 -0.0051380253972460226 0.009204914747447706 0.0065126325429455626 -0.0046073172071727474 0.010582552874511302 -0.002277194265025147 0.0025616035008495224 -0.014417426155323701 -0.014761931923548337 0.015002618066199935 0.0053301860085916506 -0.013330323457783028
leaf_weight=4035 1100 43283 3495 4312 642 91548 23651 10487 54 762 8999 136 108 136 95 25 102 28 83 85 28 148 42 50 103 39 25 20 277 24
leaf_count=4035 1100 43283 3495 4312 642 91548 23651 10487 54 762 8999 136 108 136 95 25 102 28 83 85 28 148 42 50 103 39 25 20 277 24
internal_value=0 -0.0113057 0.00517348 -0.00423892 0.0057499 0.00717474 0.00196026 -0.00491969 -0.0344214 -0.00376003 -0.0022982 -0.010719 -0.00530856 -0.0552907 -0.0370837 0.00408387 0.084261 -0.0896424 -0.0343834 0.0244671 0.0422252 0.0270796 -0.0228352 0.0560653 -0.0149018 -0.062358 -0.0128229 0.0470137 0.0634917 -0.0412764
internal_weight=0 58633 135289 7807 127482 92648 34834 11183 696 15350 14588 5589 4984 605 469 263 127 206 111 949 654 569 240 92 295 167 128 128 329 52
internal_count=193922 58633 135289 7807 127482 92648 34834 11183 696 15350 14588 5589 4984 605 469 263 127 206 111 949 654 569 240 92 295 167 128 128 329 52
shrinkage=0.064096


Tree=33
num_leaves=31
num_cat=0
split_feature=0 1 7 4 3 3 3 5 4 4 14 11 5 10 4 7 4 4 4 4 12 7 11 14 12 12 7 12 12 7
split_gain=7.56062 0.805819 0.636124 0.612458 1.45931 0.664682 0.620471 0.550287 0.95554 1.90621 1.04791 1.07842 0.612352 0.60947 0.586459 0.528838 0.934413 0.527592 0.563169 0.511421 0.565783 0.708259 0.686537 2.20019 1.21817 1.29217 1.15354 1.79804 1.04664 0.969489
